,cluster0,cluster1,cluster2,cluster3,cluster4,cluster5,cluster6,cluster7,cluster8,cluster9,cluster_length0,cluster_length1,cluster_length2,cluster_length3,cluster_length4,cluster_length5,cluster_length6,cluster_length7,cluster_length8,cluster_length9
0,3.0,3.0,3.0,3.0,3.0,3.0,3.0,3.0,3.0,3.0,18517,9798,1865,20902,9196,22909,4854,16220,15392,20635
1,3.0,3.0,3.0009,3.0,3.0,3.0,3.0,3.0,3.0,3.0,-1,-1,-1,-1,-1,-1,-1,-1,-1,-1
2,3.0,3.0,3.0009,3.0,3.0,3.0,3.0,3.0,3.0,3.0,-1,-1,-1,-1,-1,-1,-1,-1,-1,-1
3,3.0,3.0,3.0009,3.0,3.0,3.0,3.0,3.0,3.0,3.0,-1,-1,-1,-1,-1,-1,-1,-1,-1,-1
4,3.0,3.0,3.0017,3.0,3.0,3.0,3.0,3.0,3.0,3.0,-1,-1,-1,-1,-1,-1,-1,-1,-1,-1
5,3.0,3.0,3.0017,3.0,3.0,3.0,3.0004,3.0,3.0,3.0,-1,-1,-1,-1,-1,-1,-1,-1,-1,-1
6,3.0,3.0,3.0017,3.0,3.0,3.0,3.0004,3.0,3.0,3.0,-1,-1,-1,-1,-1,-1,-1,-1,-1,-1
7,3.0,3.0,3.0022,3.0,3.0,3.0,3.0004,3.0,3.0,3.0,-1,-1,-1,-1,-1,-1,-1,-1,-1,-1
8,3.0,3.0,3.0022,3.0,3.0,3.0,3.0004,3.0,3.0,3.0,-1,-1,-1,-1,-1,-1,-1,-1,-1,-1
9,3.0,3.0,3.0022,3.0,3.0,3.0,3.0004,3.0,3.0,3.0,-1,-1,-1,-1,-1,-1,-1,-1,-1,-1
10,3.0,3.0,3.0022,3.0,3.0,3.0,3.0009,3.0,3.0004,3.0,-1,-1,-1,-1,-1,-1,-1,-1,-1,-1
11,3.0,3.0,3.0022,3.0,3.0,3.0,3.0009,3.0,3.0004,3.0,-1,-1,-1,-1,-1,-1,-1,-1,-1,-1
12,3.0,3.0,3.0031,3.0,3.0,3.0,3.0009,3.0,3.0004,3.0,-1,-1,-1,-1,-1,-1,-1,-1,-1,-1
13,3.0,3.0004,3.0031,3.0,3.0,3.0,3.0009,3.0,3.0004,3.0,-1,-1,-1,-1,-1,-1,-1,-1,-1,-1
14,3.0,3.0004,3.0031,3.0,3.0004,3.0,3.0009,3.0004,3.0004,3.0,-1,-1,-1,-1,-1,-1,-1,-1,-1,-1
15,3.0,3.0004,3.0035,3.0,3.0004,3.0,3.0009,3.0004,3.0004,3.0,-1,-1,-1,-1,-1,-1,-1,-1,-1,-1
16,3.0,3.0004,3.0035,3.0,3.0004,3.0,3.0009,3.0004,3.0004,3.0,-1,-1,-1,-1,-1,-1,-1,-1,-1,-1
17,3.0,3.0004,3.0039,3.0,3.0004,3.0,3.0009,3.0004,3.0004,3.0,-1,-1,-1,-1,-1,-1,-1,-1,-1,-1
18,3.0,3.0004,3.0039,3.0,3.0004,3.0,3.0009,3.0004,3.0004,3.0,-1,-1,-1,-1,-1,-1,-1,-1,-1,-1
19,3.0,3.0004,3.0039,3.0,3.0004,3.0,3.0009,3.0004,3.0004,3.0,-1,-1,-1,-1,-1,-1,-1,-1,-1,-1
20,3.0,3.0004,3.0039,3.0,3.0004,3.0004,3.0017,3.0004,3.0004,3.0,-1,-1,-1,-1,-1,-1,-1,-1,-1,-1
21,3.0,3.0004,3.0039,3.0,3.0004,3.0004,3.0017,3.0004,3.0004,3.0,-1,-1,-1,-1,-1,-1,-1,-1,-1,-1
22,3.0,3.0004,3.0044,3.0,3.0004,3.0004,3.0017,3.0004,3.0004,3.0,-1,-1,-1,-1,-1,-1,-1,-1,-1,-1
23,3.0,3.0009,3.0044,3.0,3.0009,3.0004,3.0017,3.0004,3.0004,3.0,-1,-1,-1,-1,-1,-1,-1,-1,-1,-1
24,3.0,3.0009,3.0044,3.0,3.0009,3.0004,3.0022,3.0009,3.0004,3.0,-1,-1,-1,-1,-1,-1,-1,-1,-1,-1
25,3.0,3.0009,3.0044,3.0,3.0009,3.0004,3.0022,3.0009,3.0004,3.0,-1,-1,-1,-1,-1,-1,-1,-1,-1,-1
26,3.0,3.0009,3.0044,3.0,3.0009,3.0004,3.0022,3.0009,3.0004,3.0,-1,-1,-1,-1,-1,-1,-1,-1,-1,-1
27,3.0,3.0009,3.0052,3.0,3.0009,3.0004,3.0022,3.0009,3.0004,3.0,-1,-1,-1,-1,-1,-1,-1,-1,-1,-1
28,3.0,3.0017,3.0057,3.0,3.0009,3.0004,3.0022,3.0009,3.0009,3.0,-1,-1,-1,-1,-1,-1,-1,-1,-1,-1
29,3.0,3.0017,3.0057,3.0004,3.0009,3.0004,3.0022,3.0009,3.0009,3.0,-1,-1,-1,-1,-1,-1,-1,-1,-1,-1
30,3.0,3.0017,3.0057,3.0004,3.0009,3.0004,3.0022,3.0009,3.0009,3.0,-1,-1,-1,-1,-1,-1,-1,-1,-1,-1
31,3.0004,3.0017,3.0057,3.0004,3.0009,3.0004,3.0022,3.0009,3.0009,3.0,-1,-1,-1,-1,-1,-1,-1,-1,-1,-1
32,3.0004,3.0017,3.0061,3.0004,3.0009,3.0004,3.0022,3.0009,3.0009,3.0,-1,-1,-1,-1,-1,-1,-1,-1,-1,-1
33,3.0004,3.0017,3.007,3.0004,3.0009,3.0004,3.0022,3.0017,3.0009,3.0004,-1,-1,-1,-1,-1,-1,-1,-1,-1,-1
34,3.0004,3.0017,3.007,3.0004,3.0009,3.0004,3.0022,3.0017,3.0009,3.0004,-1,-1,-1,-1,-1,-1,-1,-1,-1,-1
35,3.0004,3.0017,3.0074,3.0004,3.0009,3.0004,3.0031,3.0017,3.0009,3.0004,-1,-1,-1,-1,-1,-1,-1,-1,-1,-1
36,3.0004,3.0017,3.0074,3.0004,3.0009,3.0004,3.0031,3.0017,3.0009,3.0004,-1,-1,-1,-1,-1,-1,-1,-1,-1,-1
37,3.0004,3.0017,3.0074,3.0004,3.0009,3.0004,3.0031,3.0017,3.0009,3.0004,-1,-1,-1,-1,-1,-1,-1,-1,-1,-1
38,3.0004,3.0017,3.0088,3.0004,3.0017,3.0004,3.0035,3.0017,3.0009,3.0004,-1,-1,-1,-1,-1,-1,-1,-1,-1,-1
39,3.0004,3.0017,3.0088,3.0004,3.0017,3.0004,3.0035,3.0017,3.0009,3.0004,-1,-1,-1,-1,-1,-1,-1,-1,-1,-1
40,3.0004,3.0017,3.0088,3.0004,3.0017,3.0004,3.0035,3.0017,3.0009,3.0004,-1,-1,-1,-1,-1,-1,-1,-1,-1,-1
41,3.0004,3.0017,3.0092,3.0004,3.0017,3.0004,3.0035,3.0017,3.0009,3.0004,-1,-1,-1,-1,-1,-1,-1,-1,-1,-1
42,3.0004,3.0022,3.0092,3.0004,3.0017,3.0004,3.0035,3.0017,3.0017,3.0004,-1,-1,-1,-1,-1,-1,-1,-1,-1,-1
43,3.0004,3.0022,3.0092,3.0004,3.0017,3.0004,3.0035,3.0017,3.0017,3.0004,-1,-1,-1,-1,-1,-1,-1,-1,-1,-1
44,3.0004,3.0022,3.0097,3.0004,3.0017,3.0004,3.0035,3.0017,3.0017,3.0004,-1,-1,-1,-1,-1,-1,-1,-1,-1,-1
45,3.0004,3.0022,3.0097,3.0004,3.0017,3.0004,3.0039,3.0017,3.0017,3.0004,-1,-1,-1,-1,-1,-1,-1,-1,-1,-1
46,3.0004,3.0022,3.0097,3.0004,3.0017,3.0004,3.0039,3.0017,3.0017,3.0004,-1,-1,-1,-1,-1,-1,-1,-1,-1,-1
47,3.0004,3.0022,3.0106,3.0004,3.0017,3.0004,3.0039,3.0017,3.0017,3.0004,-1,-1,-1,-1,-1,-1,-1,-1,-1,-1
48,3.0004,3.0022,3.0106,3.0004,3.0017,3.0004,3.0039,3.0017,3.0017,3.0004,-1,-1,-1,-1,-1,-1,-1,-1,-1,-1
49,3.0004,3.0022,3.0106,3.0004,3.0017,3.0004,3.0039,3.0022,3.0017,3.0004,-1,-1,-1,-1,-1,-1,-1,-1,-1,-1
50,3.0004,3.0022,3.0106,3.0004,3.0017,3.0004,3.0044,3.0022,3.0017,3.0004,-1,-1,-1,-1,-1,-1,-1,-1,-1,-1
51,3.0004,3.0022,3.011,3.0004,3.0017,3.0004,3.0044,3.0022,3.0017,3.0004,-1,-1,-1,-1,-1,-1,-1,-1,-1,-1
52,3.0004,3.0031,3.011,3.0009,3.0017,3.0009,3.0044,3.0022,3.0017,3.0004,-1,-1,-1,-1,-1,-1,-1,-1,-1,-1
53,3.0009,3.0031,3.011,3.0009,3.0022,3.0009,3.0044,3.0022,3.0017,3.0004,-1,-1,-1,-1,-1,-1,-1,-1,-1,-1
54,3.0009,3.0031,3.011,3.0009,3.0022,3.0009,3.0044,3.0022,3.0017,3.0004,-1,-1,-1,-1,-1,-1,-1,-1,-1,-1
55,3.0009,3.0031,3.0114,3.0009,3.0022,3.0009,3.0044,3.0022,3.0017,3.0004,-1,-1,-1,-1,-1,-1,-1,-1,-1,-1
56,3.0009,3.0031,3.0114,3.0009,3.0022,3.0009,3.0044,3.0022,3.0017,3.0004,-1,-1,-1,-1,-1,-1,-1,-1,-1,-1
57,3.0009,3.0031,3.0114,3.0009,3.0022,3.0009,3.0044,3.0022,3.0022,3.0004,-1,-1,-1,-1,-1,-1,-1,-1,-1,-1
58,3.0009,3.0031,3.0123,3.0009,3.0022,3.0009,3.0044,3.0022,3.0022,3.0004,-1,-1,-1,-1,-1,-1,-1,-1,-1,-1
59,3.0009,3.0031,3.0128,3.0009,3.0031,3.0009,3.0052,3.0022,3.0022,3.0009,-1,-1,-1,-1,-1,-1,-1,-1,-1,-1
60,3.0009,3.0031,3.0128,3.0009,3.0031,3.0009,3.0052,3.0022,3.0022,3.0009,-1,-1,-1,-1,-1,-1,-1,-1,-1,-1
61,3.0009,3.0031,3.0141,3.0009,3.0031,3.0009,3.0052,3.0022,3.0022,3.0009,-1,-1,-1,-1,-1,-1,-1,-1,-1,-1
62,3.0009,3.0031,3.0146,3.0009,3.0031,3.0009,3.0052,3.0022,3.0022,3.0009,-1,-1,-1,-1,-1,-1,-1,-1,-1,-1
63,3.0009,3.0031,3.0146,3.0009,3.0031,3.0009,3.0057,3.0022,3.0022,3.0009,-1,-1,-1,-1,-1,-1,-1,-1,-1,-1
64,3.0009,3.0031,3.0146,3.0009,3.0031,3.0009,3.0057,3.0022,3.0022,3.0009,-1,-1,-1,-1,-1,-1,-1,-1,-1,-1
65,3.0009,3.0035,3.0146,3.0009,3.0031,3.0009,3.0057,3.0022,3.0022,3.0009,-1,-1,-1,-1,-1,-1,-1,-1,-1,-1
66,3.0009,3.0035,3.0146,3.0009,3.0031,3.0009,3.0057,3.0022,3.0022,3.0009,-1,-1,-1,-1,-1,-1,-1,-1,-1,-1
67,3.0009,3.0035,3.015,3.0009,3.0031,3.0009,3.0061,3.0022,3.0022,3.0009,-1,-1,-1,-1,-1,-1,-1,-1,-1,-1
68,3.0009,3.0035,3.0159,3.0009,3.0031,3.0009,3.0061,3.0022,3.0022,3.0009,-1,-1,-1,-1,-1,-1,-1,-1,-1,-1
69,3.0009,3.0035,3.0159,3.0009,3.0031,3.0009,3.0061,3.0022,3.0022,3.0009,-1,-1,-1,-1,-1,-1,-1,-1,-1,-1
70,3.0017,3.0035,3.0164,3.0009,3.0031,3.0009,3.0061,3.0022,3.0022,3.0009,-1,-1,-1,-1,-1,-1,-1,-1,-1,-1
71,3.0017,3.0035,3.0164,3.0009,3.0031,3.0009,3.0061,3.0022,3.0022,3.0009,-1,-1,-1,-1,-1,-1,-1,-1,-1,-1
72,3.0017,3.0035,3.0168,3.0009,3.0031,3.0009,3.0061,3.0022,3.0022,3.0009,-1,-1,-1,-1,-1,-1,-1,-1,-1,-1
73,3.0017,3.0035,3.0173,3.0009,3.0035,3.0009,3.0061,3.0022,3.0022,3.0009,-1,-1,-1,-1,-1,-1,-1,-1,-1,-1
74,3.0017,3.0035,3.0173,3.0009,3.0035,3.0009,3.007,3.0022,3.0022,3.0009,-1,-1,-1,-1,-1,-1,-1,-1,-1,-1
75,3.0017,3.0035,3.0173,3.0009,3.0035,3.0009,3.007,3.0031,3.0022,3.0009,-1,-1,-1,-1,-1,-1,-1,-1,-1,-1
76,3.0017,3.0035,3.0173,3.0009,3.0035,3.0009,3.007,3.0031,3.0022,3.0009,-1,-1,-1,-1,-1,-1,-1,-1,-1,-1
77,3.0017,3.0035,3.0182,3.0017,3.0035,3.0009,3.007,3.0031,3.0022,3.0009,-1,-1,-1,-1,-1,-1,-1,-1,-1,-1
78,3.0017,3.0035,3.0182,3.0017,3.0035,3.0009,3.007,3.0031,3.0022,3.0009,-1,-1,-1,-1,-1,-1,-1,-1,-1,-1
79,3.0017,3.0035,3.0182,3.0017,3.0035,3.0009,3.007,3.0031,3.0031,3.0009,-1,-1,-1,-1,-1,-1,-1,-1,-1,-1
80,3.0017,3.0035,3.0186,3.0017,3.0035,3.0009,3.007,3.0031,3.0031,3.0009,-1,-1,-1,-1,-1,-1,-1,-1,-1,-1
81,3.0017,3.0035,3.0186,3.0017,3.0035,3.0009,3.007,3.0031,3.0031,3.0009,-1,-1,-1,-1,-1,-1,-1,-1,-1,-1
82,3.0017,3.0039,3.0191,3.0017,3.0035,3.0009,3.007,3.0031,3.0031,3.0017,-1,-1,-1,-1,-1,-1,-1,-1,-1,-1
83,3.0017,3.0039,3.02,3.0017,3.0039,3.0017,3.007,3.0031,3.0031,3.0017,-1,-1,-1,-1,-1,-1,-1,-1,-1,-1
84,3.0017,3.0039,3.02,3.0017,3.0039,3.0017,3.007,3.0031,3.0031,3.0017,-1,-1,-1,-1,-1,-1,-1,-1,-1,-1
85,3.0017,3.0039,3.02,3.0017,3.0039,3.0017,3.0074,3.0031,3.0031,3.0017,-1,-1,-1,-1,-1,-1,-1,-1,-1,-1
86,3.0017,3.0039,3.0205,3.0017,3.0039,3.0017,3.0074,3.0031,3.0031,3.0017,-1,-1,-1,-1,-1,-1,-1,-1,-1,-1
87,3.0017,3.0039,3.0205,3.0017,3.0039,3.0017,3.0074,3.0031,3.0031,3.0017,-1,-1,-1,-1,-1,-1,-1,-1,-1,-1
88,3.0017,3.0039,3.0209,3.0017,3.0039,3.0017,3.0074,3.0031,3.0031,3.0017,-1,-1,-1,-1,-1,-1,-1,-1,-1,-1
89,3.0017,3.0039,3.0209,3.0017,3.0039,3.0017,3.0074,3.0031,3.0031,3.0017,-1,-1,-1,-1,-1,-1,-1,-1,-1,-1
90,3.0022,3.0039,3.0214,3.0017,3.0039,3.0017,3.0074,3.0031,3.0031,3.0017,-1,-1,-1,-1,-1,-1,-1,-1,-1,-1
91,3.0022,3.0039,3.0223,3.0017,3.0039,3.0017,3.0074,3.0035,3.0031,3.0017,-1,-1,-1,-1,-1,-1,-1,-1,-1,-1
92,3.0022,3.0039,3.0223,3.0017,3.0039,3.0017,3.0074,3.0035,3.0031,3.0017,-1,-1,-1,-1,-1,-1,-1,-1,-1,-1
93,3.0022,3.0039,3.0223,3.0022,3.0039,3.0017,3.0074,3.0035,3.0035,3.0017,-1,-1,-1,-1,-1,-1,-1,-1,-1,-1
94,3.0022,3.0039,3.0223,3.0022,3.0039,3.0017,3.0074,3.0035,3.0035,3.0017,-1,-1,-1,-1,-1,-1,-1,-1,-1,-1
95,3.0022,3.0044,3.0232,3.0022,3.0039,3.0017,3.0074,3.0035,3.0035,3.0017,-1,-1,-1,-1,-1,-1,-1,-1,-1,-1
96,3.0022,3.0044,3.0232,3.0022,3.0039,3.0017,3.0079,3.0035,3.0035,3.0017,-1,-1,-1,-1,-1,-1,-1,-1,-1,-1
97,3.0022,3.0044,3.0232,3.0022,3.0044,3.0017,3.0079,3.0035,3.0035,3.0017,-1,-1,-1,-1,-1,-1,-1,-1,-1,-1
98,3.0022,3.0044,3.0241,3.0022,3.0044,3.0017,3.0079,3.0035,3.0035,3.0017,-1,-1,-1,-1,-1,-1,-1,-1,-1,-1
99,3.0022,3.0044,3.0241,3.0022,3.0044,3.0017,3.0079,3.0035,3.0035,3.0017,-1,-1,-1,-1,-1,-1,-1,-1,-1,-1
100,3.0022,3.0044,3.025,3.0022,3.0044,3.0017,3.0079,3.0035,3.0035,3.0017,-1,-1,-1,-1,-1,-1,-1,-1,-1,-1
101,3.0022,3.0052,3.025,3.0022,3.0044,3.0017,3.0079,3.0035,3.0035,3.0017,-1,-1,-1,-1,-1,-1,-1,-1,-1,-1
102,3.0022,3.0052,3.0255,3.0022,3.0044,3.0017,3.0088,3.0035,3.0035,3.0017,-1,-1,-1,-1,-1,-1,-1,-1,-1,-1
103,3.0022,3.0052,3.0255,3.0022,3.0044,3.0017,3.0088,3.0035,3.0035,3.0017,-1,-1,-1,-1,-1,-1,-1,-1,-1,-1
104,3.0022,3.0052,3.0264,3.0022,3.0044,3.0017,3.0088,3.0035,3.0035,3.0017,-1,-1,-1,-1,-1,-1,-1,-1,-1,-1
105,3.0022,3.0052,3.0264,3.0022,3.0044,3.0022,3.0088,3.0035,3.0035,3.0017,-1,-1,-1,-1,-1,-1,-1,-1,-1,-1
106,3.0022,3.0052,3.0264,3.0022,3.0052,3.0022,3.0092,3.0035,3.0035,3.0022,-1,-1,-1,-1,-1,-1,-1,-1,-1,-1
107,3.0022,3.0052,3.0264,3.0022,3.0052,3.0022,3.0092,3.0035,3.0035,3.0022,-1,-1,-1,-1,-1,-1,-1,-1,-1,-1
108,3.0022,3.0052,3.0269,3.0022,3.0052,3.0022,3.0092,3.0035,3.0035,3.0022,-1,-1,-1,-1,-1,-1,-1,-1,-1,-1
109,3.0022,3.0052,3.0269,3.0022,3.0052,3.0022,3.0092,3.0035,3.0039,3.0022,-1,-1,-1,-1,-1,-1,-1,-1,-1,-1
110,3.0022,3.0052,3.0269,3.0022,3.0052,3.0022,3.0097,3.0039,3.0039,3.0022,-1,-1,-1,-1,-1,-1,-1,-1,-1,-1
111,3.0022,3.0057,3.0269,3.0022,3.0052,3.0022,3.0097,3.0039,3.0039,3.0022,-1,-1,-1,-1,-1,-1,-1,-1,-1,-1
112,3.0022,3.0057,3.0273,3.0022,3.0052,3.0022,3.0097,3.0039,3.0039,3.0022,-1,-1,-1,-1,-1,-1,-1,-1,-1,-1
113,3.0022,3.0057,3.0283,3.0022,3.0052,3.0022,3.0097,3.0039,3.0039,3.0022,-1,-1,-1,-1,-1,-1,-1,-1,-1,-1
114,3.0022,3.0057,3.0283,3.0022,3.0052,3.0022,3.0097,3.0039,3.0039,3.0022,-1,-1,-1,-1,-1,-1,-1,-1,-1,-1
115,3.0022,3.0057,3.0287,3.0022,3.0057,3.0022,3.0106,3.0039,3.0039,3.0022,-1,-1,-1,-1,-1,-1,-1,-1,-1,-1
116,3.0022,3.0057,3.0292,3.0022,3.0057,3.0022,3.0106,3.0039,3.0039,3.0022,-1,-1,-1,-1,-1,-1,-1,-1,-1,-1
117,3.0022,3.0057,3.0292,3.0022,3.0057,3.0022,3.0106,3.0039,3.0039,3.0022,-1,-1,-1,-1,-1,-1,-1,-1,-1,-1
118,3.0022,3.0057,3.0292,3.0022,3.0057,3.0022,3.0106,3.0039,3.0039,3.0022,-1,-1,-1,-1,-1,-1,-1,-1,-1,-1
119,3.0022,3.0057,3.0292,3.0022,3.0057,3.0022,3.0106,3.0039,3.0039,3.0022,-1,-1,-1,-1,-1,-1,-1,-1,-1,-1
120,3.0031,3.0057,3.0297,3.0022,3.0057,3.0022,3.0106,3.0039,3.0044,3.0022,-1,-1,-1,-1,-1,-1,-1,-1,-1,-1
121,3.0031,3.0057,3.0297,3.0022,3.0057,3.0022,3.0106,3.0039,3.0044,3.0022,-1,-1,-1,-1,-1,-1,-1,-1,-1,-1
122,3.0031,3.0057,3.0297,3.0022,3.0057,3.0022,3.0106,3.0039,3.0044,3.0022,-1,-1,-1,-1,-1,-1,-1,-1,-1,-1
123,3.0031,3.0061,3.0297,3.0022,3.0057,3.0022,3.0106,3.0039,3.0044,3.0022,-1,-1,-1,-1,-1,-1,-1,-1,-1,-1
124,3.0031,3.0061,3.0306,3.0022,3.0061,3.0022,3.0106,3.0039,3.0044,3.0022,-1,-1,-1,-1,-1,-1,-1,-1,-1,-1
125,3.0031,3.0061,3.0306,3.0022,3.0061,3.0022,3.0106,3.0039,3.0044,3.0022,-1,-1,-1,-1,-1,-1,-1,-1,-1,-1
126,3.0031,3.0061,3.0306,3.0031,3.0061,3.0022,3.0106,3.0039,3.0044,3.0022,-1,-1,-1,-1,-1,-1,-1,-1,-1,-1
127,3.0031,3.0061,3.0311,3.0031,3.0061,3.0022,3.0106,3.0039,3.0044,3.0022,-1,-1,-1,-1,-1,-1,-1,-1,-1,-1
128,3.0031,3.0061,3.0311,3.0031,3.0061,3.0022,3.0106,3.0039,3.0044,3.0022,-1,-1,-1,-1,-1,-1,-1,-1,-1,-1
129,3.0031,3.0061,3.0311,3.0031,3.0061,3.0022,3.0106,3.0039,3.0044,3.0022,-1,-1,-1,-1,-1,-1,-1,-1,-1,-1
130,3.0031,3.0061,3.0315,3.0031,3.0061,3.0022,3.0106,3.0039,3.0044,3.0022,-1,-1,-1,-1,-1,-1,-1,-1,-1,-1
131,3.0031,3.007,3.0315,3.0031,3.0061,3.0022,3.0106,3.0039,3.0052,3.0022,-1,-1,-1,-1,-1,-1,-1,-1,-1,-1
132,3.0031,3.007,3.0325,3.0031,3.0061,3.0022,3.0106,3.0039,3.0052,3.0022,-1,-1,-1,-1,-1,-1,-1,-1,-1,-1
133,3.0031,3.007,3.0325,3.0031,3.0061,3.0022,3.0106,3.0039,3.0052,3.0022,-1,-1,-1,-1,-1,-1,-1,-1,-1,-1
134,3.0031,3.007,3.0329,3.0031,3.007,3.0022,3.0106,3.0039,3.0052,3.0022,-1,-1,-1,-1,-1,-1,-1,-1,-1,-1
135,3.0031,3.007,3.0334,3.0031,3.007,3.0022,3.0106,3.0044,3.0052,3.0022,-1,-1,-1,-1,-1,-1,-1,-1,-1,-1
136,3.0031,3.007,3.0334,3.0031,3.007,3.0022,3.0106,3.0044,3.0052,3.0022,-1,-1,-1,-1,-1,-1,-1,-1,-1,-1
137,3.0031,3.007,3.0334,3.0031,3.007,3.0022,3.0106,3.0044,3.0052,3.0022,-1,-1,-1,-1,-1,-1,-1,-1,-1,-1
138,3.0035,3.007,3.0339,3.0031,3.007,3.0031,3.0106,3.0044,3.0052,3.0022,-1,-1,-1,-1,-1,-1,-1,-1,-1,-1
139,3.0035,3.007,3.0339,3.0031,3.007,3.0031,3.0106,3.0044,3.0052,3.0022,-1,-1,-1,-1,-1,-1,-1,-1,-1,-1
140,3.0035,3.0074,3.0339,3.0031,3.007,3.0031,3.0106,3.0044,3.0052,3.0031,-1,-1,-1,-1,-1,-1,-1,-1,-1,-1
141,3.0035,3.0074,3.0348,3.0031,3.007,3.0031,3.0106,3.0044,3.0052,3.0031,-1,-1,-1,-1,-1,-1,-1,-1,-1,-1
142,3.0035,3.0074,3.0348,3.0031,3.007,3.0031,3.0106,3.0044,3.0052,3.0031,-1,-1,-1,-1,-1,-1,-1,-1,-1,-1
143,3.0035,3.0074,3.0348,3.0031,3.007,3.0031,3.0106,3.0044,3.0052,3.0031,-1,-1,-1,-1,-1,-1,-1,-1,-1,-1
144,3.0035,3.0074,3.0353,3.0031,3.007,3.0031,3.0106,3.0044,3.0052,3.0031,-1,-1,-1,-1,-1,-1,-1,-1,-1,-1
145,3.0035,3.0074,3.0357,3.0035,3.007,3.0031,3.0106,3.0044,3.0052,3.0031,-1,-1,-1,-1,-1,-1,-1,-1,-1,-1
146,3.0035,3.0074,3.0357,3.0035,3.0074,3.0031,3.0106,3.0044,3.0052,3.0031,-1,-1,-1,-1,-1,-1,-1,-1,-1,-1
147,3.0035,3.0074,3.0376,3.0035,3.0074,3.0031,3.0106,3.0044,3.0052,3.0031,-1,-1,-1,-1,-1,-1,-1,-1,-1,-1
148,3.0035,3.0074,3.0381,3.0035,3.0074,3.0031,3.0106,3.0044,3.0052,3.0031,-1,-1,-1,-1,-1,-1,-1,-1,-1,-1
149,3.0035,3.0074,3.0386,3.0035,3.0074,3.0031,3.011,3.0044,3.0052,3.0031,-1,-1,-1,-1,-1,-1,-1,-1,-1,-1
150,3.0035,3.0074,3.0386,3.0035,3.0074,3.0031,3.011,3.0052,3.0052,3.0031,-1,-1,-1,-1,-1,-1,-1,-1,-1,-1
151,3.0039,3.0074,3.0386,3.0035,3.0079,3.0031,3.011,3.0052,3.0052,3.0031,-1,-1,-1,-1,-1,-1,-1,-1,-1,-1
152,3.0039,3.0074,3.0386,3.0035,3.0079,3.0035,3.011,3.0052,3.0052,3.0031,-1,-1,-1,-1,-1,-1,-1,-1,-1,-1
153,3.0039,3.0079,3.0395,3.0035,3.0079,3.0035,3.011,3.0052,3.0052,3.0031,-1,-1,-1,-1,-1,-1,-1,-1,-1,-1
154,3.0039,3.0079,3.04,3.0035,3.0079,3.0035,3.011,3.0052,3.0052,3.0031,-1,-1,-1,-1,-1,-1,-1,-1,-1,-1
155,3.0039,3.0079,3.04,3.0035,3.0079,3.0035,3.011,3.0052,3.0052,3.0031,-1,-1,-1,-1,-1,-1,-1,-1,-1,-1
156,3.0039,3.0079,3.04,3.0035,3.0079,3.0035,3.011,3.0052,3.0057,3.0031,-1,-1,-1,-1,-1,-1,-1,-1,-1,-1
157,3.0039,3.0079,3.041,3.0035,3.0079,3.0035,3.011,3.0052,3.0057,3.0031,-1,-1,-1,-1,-1,-1,-1,-1,-1,-1
158,3.0039,3.0079,3.0419,3.0035,3.0079,3.0035,3.0114,3.0052,3.0057,3.0031,-1,-1,-1,-1,-1,-1,-1,-1,-1,-1
159,3.0039,3.0079,3.0419,3.0035,3.0079,3.0035,3.0114,3.0052,3.0057,3.0031,-1,-1,-1,-1,-1,-1,-1,-1,-1,-1
160,3.0039,3.0079,3.0424,3.0035,3.0088,3.0035,3.0114,3.0052,3.0057,3.0035,-1,-1,-1,-1,-1,-1,-1,-1,-1,-1
161,3.0039,3.0079,3.0424,3.0035,3.0088,3.0035,3.0114,3.0052,3.0057,3.0035,-1,-1,-1,-1,-1,-1,-1,-1,-1,-1
162,3.0039,3.0079,3.0424,3.0035,3.0088,3.0035,3.0114,3.0052,3.0057,3.0035,-1,-1,-1,-1,-1,-1,-1,-1,-1,-1
163,3.0039,3.0079,3.0424,3.0035,3.0092,3.0035,3.0114,3.0052,3.0057,3.0035,-1,-1,-1,-1,-1,-1,-1,-1,-1,-1
164,3.0039,3.0079,3.0424,3.0035,3.0092,3.0035,3.0114,3.0057,3.0057,3.0035,-1,-1,-1,-1,-1,-1,-1,-1,-1,-1
165,3.0039,3.0079,3.0429,3.0035,3.0092,3.0035,3.0123,3.0057,3.0057,3.0035,-1,-1,-1,-1,-1,-1,-1,-1,-1,-1
166,3.0039,3.0088,3.0429,3.0035,3.0097,3.0035,3.0123,3.0057,3.0057,3.0035,-1,-1,-1,-1,-1,-1,-1,-1,-1,-1
167,3.0039,3.0088,3.0434,3.0035,3.0097,3.0035,3.0123,3.0057,3.0057,3.0035,-1,-1,-1,-1,-1,-1,-1,-1,-1,-1
168,3.0039,3.0088,3.0434,3.0035,3.0097,3.0035,3.0123,3.0057,3.0057,3.0035,-1,-1,-1,-1,-1,-1,-1,-1,-1,-1
169,3.0039,3.0088,3.0443,3.0035,3.0097,3.0035,3.0123,3.0057,3.0057,3.0035,-1,-1,-1,-1,-1,-1,-1,-1,-1,-1
170,3.0044,3.0088,3.0453,3.0035,3.0097,3.0035,3.0128,3.0057,3.0057,3.0035,-1,-1,-1,-1,-1,-1,-1,-1,-1,-1
171,3.0044,3.0088,3.0453,3.0035,3.0097,3.0035,3.0128,3.0057,3.0057,3.0035,-1,-1,-1,-1,-1,-1,-1,-1,-1,-1
172,3.0044,3.0088,3.0453,3.0039,3.0097,3.0035,3.0128,3.0057,3.0057,3.0035,-1,-1,-1,-1,-1,-1,-1,-1,-1,-1
173,3.0044,3.0088,3.0458,3.0039,3.0097,3.0035,3.0128,3.0057,3.0057,3.0035,-1,-1,-1,-1,-1,-1,-1,-1,-1,-1
174,3.0044,3.0088,3.0458,3.0039,3.0106,3.0035,3.0128,3.0057,3.0057,3.0035,-1,-1,-1,-1,-1,-1,-1,-1,-1,-1
175,3.0044,3.0088,3.0467,3.0039,3.0106,3.0035,3.0128,3.0057,3.0057,3.0035,-1,-1,-1,-1,-1,-1,-1,-1,-1,-1
176,3.0044,3.0092,3.0467,3.0039,3.0106,3.0035,3.0128,3.0057,3.0057,3.0039,-1,-1,-1,-1,-1,-1,-1,-1,-1,-1
177,3.0044,3.0092,3.0472,3.0039,3.0106,3.0035,3.0128,3.0057,3.0057,3.0039,-1,-1,-1,-1,-1,-1,-1,-1,-1,-1
178,3.0044,3.0092,3.0472,3.0039,3.0106,3.0035,3.0132,3.0057,3.0057,3.0039,-1,-1,-1,-1,-1,-1,-1,-1,-1,-1
179,3.0044,3.0092,3.0477,3.0039,3.0106,3.0035,3.0132,3.0057,3.0057,3.0039,-1,-1,-1,-1,-1,-1,-1,-1,-1,-1
180,3.0044,3.0092,3.0477,3.0039,3.0106,3.0035,3.0132,3.0057,3.0057,3.0039,-1,-1,-1,-1,-1,-1,-1,-1,-1,-1
181,3.0044,3.0092,3.0477,3.0039,3.0106,3.0035,3.0132,3.0061,3.0061,3.0039,-1,-1,-1,-1,-1,-1,-1,-1,-1,-1
182,3.0044,3.0092,3.0482,3.0039,3.0106,3.0035,3.0132,3.0061,3.0061,3.0039,-1,-1,-1,-1,-1,-1,-1,-1,-1,-1
183,3.0044,3.0097,3.0491,3.0039,3.0106,3.0039,3.0132,3.0061,3.0061,3.0039,-1,-1,-1,-1,-1,-1,-1,-1,-1,-1
184,3.0044,3.0097,3.0491,3.0039,3.011,3.0039,3.0141,3.0061,3.0061,3.0039,-1,-1,-1,-1,-1,-1,-1,-1,-1,-1
185,3.0044,3.0097,3.0496,3.0039,3.011,3.0039,3.0141,3.0061,3.0061,3.0039,-1,-1,-1,-1,-1,-1,-1,-1,-1,-1
186,3.0044,3.0097,3.0501,3.0039,3.011,3.0039,3.0141,3.0061,3.0061,3.0039,-1,-1,-1,-1,-1,-1,-1,-1,-1,-1
187,3.0044,3.0097,3.0511,3.0039,3.011,3.0039,3.0141,3.0061,3.0061,3.0039,-1,-1,-1,-1,-1,-1,-1,-1,-1,-1
188,3.0052,3.0106,3.0511,3.0039,3.0114,3.0039,3.0141,3.0061,3.0061,3.0039,-1,-1,-1,-1,-1,-1,-1,-1,-1,-1
189,3.0052,3.0106,3.0511,3.0039,3.0114,3.0039,3.0141,3.0061,3.0061,3.0039,-1,-1,-1,-1,-1,-1,-1,-1,-1,-1
190,3.0052,3.0106,3.0521,3.0039,3.0114,3.0039,3.0146,3.0061,3.0061,3.0039,-1,-1,-1,-1,-1,-1,-1,-1,-1,-1
191,3.0052,3.0106,3.0526,3.0039,3.0114,3.0039,3.0146,3.0061,3.0061,3.0039,-1,-1,-1,-1,-1,-1,-1,-1,-1,-1
192,3.0052,3.0106,3.0526,3.0039,3.0114,3.0039,3.0146,3.0061,3.0061,3.0039,-1,-1,-1,-1,-1,-1,-1,-1,-1,-1
193,3.0052,3.0106,3.0526,3.0039,3.0114,3.0039,3.015,3.0061,3.007,3.0039,-1,-1,-1,-1,-1,-1,-1,-1,-1,-1
194,3.0052,3.0106,3.0531,3.0044,3.0114,3.0039,3.015,3.0061,3.007,3.0039,-1,-1,-1,-1,-1,-1,-1,-1,-1,-1
195,3.0052,3.0106,3.0531,3.0044,3.0114,3.0039,3.015,3.0061,3.007,3.0039,-1,-1,-1,-1,-1,-1,-1,-1,-1,-1
196,3.0052,3.0106,3.0531,3.0044,3.0114,3.0039,3.015,3.0061,3.007,3.0039,-1,-1,-1,-1,-1,-1,-1,-1,-1,-1
197,3.0052,3.0106,3.0531,3.0044,3.0123,3.0039,3.0159,3.0061,3.007,3.0039,-1,-1,-1,-1,-1,-1,-1,-1,-1,-1
198,3.0052,3.0106,3.0535,3.0044,3.0123,3.0039,3.0159,3.0061,3.007,3.0044,-1,-1,-1,-1,-1,-1,-1,-1,-1,-1
199,3.0052,3.0106,3.0535,3.0044,3.0123,3.0039,3.0159,3.0061,3.007,3.0044,-1,-1,-1,-1,-1,-1,-1,-1,-1,-1
200,3.0052,3.0106,3.0545,3.0044,3.0123,3.0039,3.0159,3.0061,3.007,3.0044,-1,-1,-1,-1,-1,-1,-1,-1,-1,-1
201,3.0052,3.0106,3.0545,3.0044,3.0123,3.0039,3.0164,3.0061,3.007,3.0044,-1,-1,-1,-1,-1,-1,-1,-1,-1,-1
202,3.0052,3.0106,3.0545,3.0044,3.0123,3.0039,3.0164,3.0061,3.007,3.0044,-1,-1,-1,-1,-1,-1,-1,-1,-1,-1
203,3.0052,3.0106,3.0545,3.0044,3.0123,3.0039,3.0164,3.0061,3.007,3.0044,-1,-1,-1,-1,-1,-1,-1,-1,-1,-1
204,3.0052,3.0106,3.0545,3.0044,3.0123,3.0039,3.0164,3.0061,3.007,3.0044,-1,-1,-1,-1,-1,-1,-1,-1,-1,-1
205,3.0052,3.0106,3.0545,3.0044,3.0123,3.0039,3.0164,3.0061,3.007,3.0044,-1,-1,-1,-1,-1,-1,-1,-1,-1,-1
206,3.0052,3.0106,3.055,3.0044,3.0123,3.0039,3.0168,3.0061,3.007,3.0044,-1,-1,-1,-1,-1,-1,-1,-1,-1,-1
207,3.0052,3.0106,3.0555,3.0044,3.0123,3.0039,3.0168,3.0061,3.007,3.0044,-1,-1,-1,-1,-1,-1,-1,-1,-1,-1
208,3.0052,3.0106,3.056,3.0044,3.0123,3.0039,3.0168,3.0061,3.007,3.0044,-1,-1,-1,-1,-1,-1,-1,-1,-1,-1
209,3.0052,3.0106,3.056,3.0044,3.0123,3.0039,3.0168,3.0061,3.007,3.0044,-1,-1,-1,-1,-1,-1,-1,-1,-1,-1
210,3.0052,3.0106,3.056,3.0044,3.0123,3.0039,3.0168,3.007,3.0074,3.0044,-1,-1,-1,-1,-1,-1,-1,-1,-1,-1
211,3.0052,3.0106,3.0565,3.0044,3.0123,3.0044,3.0173,3.007,3.0074,3.0044,-1,-1,-1,-1,-1,-1,-1,-1,-1,-1
212,3.0057,3.0106,3.0575,3.0044,3.0123,3.0044,3.0173,3.007,3.0074,3.0044,-1,-1,-1,-1,-1,-1,-1,-1,-1,-1
213,3.0057,3.0106,3.0575,3.0044,3.0128,3.0044,3.0173,3.007,3.0074,3.0044,-1,-1,-1,-1,-1,-1,-1,-1,-1,-1
214,3.0057,3.0106,3.0575,3.0044,3.0128,3.0044,3.0173,3.007,3.0074,3.0052,-1,-1,-1,-1,-1,-1,-1,-1,-1,-1
215,3.0057,3.0106,3.058,3.0044,3.0128,3.0044,3.0173,3.007,3.0074,3.0052,-1,-1,-1,-1,-1,-1,-1,-1,-1,-1
216,3.0057,3.0106,3.059,3.0044,3.0128,3.0044,3.0182,3.007,3.0074,3.0052,-1,-1,-1,-1,-1,-1,-1,-1,-1,-1
217,3.0057,3.0106,3.059,3.0044,3.0128,3.0044,3.0182,3.007,3.0074,3.0052,-1,-1,-1,-1,-1,-1,-1,-1,-1,-1
218,3.0057,3.0106,3.0595,3.0044,3.0128,3.0044,3.0182,3.007,3.0074,3.0052,-1,-1,-1,-1,-1,-1,-1,-1,-1,-1
219,3.0057,3.0106,3.0595,3.0044,3.0128,3.0044,3.0186,3.007,3.0074,3.0052,-1,-1,-1,-1,-1,-1,-1,-1,-1,-1
220,3.0057,3.0106,3.0605,3.0044,3.0128,3.0044,3.0186,3.007,3.0074,3.0052,-1,-1,-1,-1,-1,-1,-1,-1,-1,-1
221,3.0057,3.0106,3.0605,3.0044,3.0132,3.0044,3.0186,3.007,3.0074,3.0052,-1,-1,-1,-1,-1,-1,-1,-1,-1,-1
222,3.0057,3.0106,3.0615,3.0044,3.0132,3.0044,3.0186,3.007,3.0074,3.0052,-1,-1,-1,-1,-1,-1,-1,-1,-1,-1
223,3.0057,3.0106,3.0615,3.0044,3.0132,3.0044,3.0186,3.007,3.0074,3.0052,-1,-1,-1,-1,-1,-1,-1,-1,-1,-1
224,3.0057,3.0106,3.062,3.0044,3.0132,3.0044,3.0186,3.007,3.0074,3.0052,-1,-1,-1,-1,-1,-1,-1,-1,-1,-1
225,3.0057,3.0106,3.062,3.0044,3.0141,3.0044,3.0191,3.007,3.0074,3.0052,-1,-1,-1,-1,-1,-1,-1,-1,-1,-1
226,3.0057,3.0106,3.0635,3.0052,3.0141,3.0044,3.0191,3.007,3.0074,3.0052,-1,-1,-1,-1,-1,-1,-1,-1,-1,-1
227,3.0057,3.0106,3.0635,3.0052,3.0141,3.0044,3.0191,3.007,3.0074,3.0052,-1,-1,-1,-1,-1,-1,-1,-1,-1,-1
228,3.0057,3.0106,3.0635,3.0052,3.0141,3.0044,3.0191,3.007,3.0074,3.0052,-1,-1,-1,-1,-1,-1,-1,-1,-1,-1
229,3.0061,3.0106,3.0635,3.0052,3.0141,3.0044,3.02,3.0074,3.0074,3.0052,-1,-1,-1,-1,-1,-1,-1,-1,-1,-1
230,3.0061,3.0106,3.064,3.0052,3.0141,3.0044,3.02,3.0074,3.0074,3.0052,-1,-1,-1,-1,-1,-1,-1,-1,-1,-1
231,3.0061,3.0106,3.064,3.0052,3.0141,3.0044,3.02,3.0074,3.0074,3.0052,-1,-1,-1,-1,-1,-1,-1,-1,-1,-1
232,3.0061,3.0106,3.065,3.0052,3.0141,3.0044,3.02,3.0074,3.0079,3.0052,-1,-1,-1,-1,-1,-1,-1,-1,-1,-1
233,3.0061,3.0106,3.065,3.0052,3.0141,3.0044,3.0205,3.0074,3.0079,3.0052,-1,-1,-1,-1,-1,-1,-1,-1,-1,-1
234,3.0061,3.0106,3.0655,3.0052,3.0146,3.0044,3.0205,3.0074,3.0079,3.0052,-1,-1,-1,-1,-1,-1,-1,-1,-1,-1
235,3.0061,3.011,3.0655,3.0052,3.0146,3.0044,3.0205,3.0074,3.0079,3.0052,-1,-1,-1,-1,-1,-1,-1,-1,-1,-1
236,3.0061,3.011,3.0665,3.0052,3.0146,3.0044,3.0205,3.0074,3.0079,3.0052,-1,-1,-1,-1,-1,-1,-1,-1,-1,-1
237,3.0061,3.011,3.0665,3.0052,3.0146,3.0044,3.0205,3.0074,3.0079,3.0052,-1,-1,-1,-1,-1,-1,-1,-1,-1,-1
238,3.0061,3.011,3.0665,3.0052,3.0146,3.0044,3.0205,3.0074,3.0079,3.0052,-1,-1,-1,-1,-1,-1,-1,-1,-1,-1
239,3.0061,3.011,3.067,3.0052,3.0146,3.0044,3.0209,3.0074,3.0079,3.0052,-1,-1,-1,-1,-1,-1,-1,-1,-1,-1
240,3.0061,3.011,3.067,3.0052,3.0146,3.0052,3.0214,3.0074,3.0079,3.0052,-1,-1,-1,-1,-1,-1,-1,-1,-1,-1
241,3.0061,3.011,3.068,3.0052,3.0146,3.0052,3.0214,3.0074,3.0079,3.0052,-1,-1,-1,-1,-1,-1,-1,-1,-1,-1
242,3.0061,3.011,3.0685,3.0052,3.0146,3.0052,3.0214,3.0074,3.0079,3.0052,-1,-1,-1,-1,-1,-1,-1,-1,-1,-1
243,3.0061,3.011,3.0691,3.0052,3.0146,3.0052,3.0214,3.0074,3.0079,3.0052,-1,-1,-1,-1,-1,-1,-1,-1,-1,-1
244,3.0061,3.011,3.0701,3.0052,3.0146,3.0052,3.0214,3.0074,3.0079,3.0052,-1,-1,-1,-1,-1,-1,-1,-1,-1,-1
245,3.0061,3.0114,3.0701,3.0057,3.015,3.0052,3.0214,3.0074,3.0079,3.0052,-1,-1,-1,-1,-1,-1,-1,-1,-1,-1
246,3.0061,3.0114,3.0701,3.0057,3.015,3.0052,3.0214,3.0079,3.0079,3.0052,-1,-1,-1,-1,-1,-1,-1,-1,-1,-1
247,3.0061,3.0114,3.0706,3.0057,3.015,3.0052,3.0214,3.0079,3.0079,3.0052,-1,-1,-1,-1,-1,-1,-1,-1,-1,-1
248,3.0061,3.0114,3.0706,3.0057,3.015,3.0052,3.0223,3.0079,3.0079,3.0052,-1,-1,-1,-1,-1,-1,-1,-1,-1,-1
249,3.0061,3.0114,3.0706,3.0057,3.015,3.0052,3.0223,3.0079,3.0079,3.0052,-1,-1,-1,-1,-1,-1,-1,-1,-1,-1
250,3.007,3.0114,3.0711,3.0057,3.015,3.0052,3.0223,3.0079,3.0088,3.0052,-1,-1,-1,-1,-1,-1,-1,-1,-1,-1
251,3.007,3.0114,3.0716,3.0057,3.015,3.0052,3.0223,3.0079,3.0088,3.0052,-1,-1,-1,-1,-1,-1,-1,-1,-1,-1
252,3.007,3.0114,3.0716,3.0057,3.015,3.0052,3.0223,3.0079,3.0088,3.0052,-1,-1,-1,-1,-1,-1,-1,-1,-1,-1
253,3.007,3.0114,3.0721,3.0057,3.015,3.0052,3.0223,3.0079,3.0088,3.0057,-1,-1,-1,-1,-1,-1,-1,-1,-1,-1
254,3.007,3.0114,3.0721,3.0057,3.015,3.0052,3.0227,3.0079,3.0088,3.0057,-1,-1,-1,-1,-1,-1,-1,-1,-1,-1
255,3.007,3.0114,3.0731,3.0057,3.015,3.0052,3.0227,3.0079,3.0088,3.0057,-1,-1,-1,-1,-1,-1,-1,-1,-1,-1
256,3.007,3.0114,3.0737,3.0057,3.015,3.0052,3.0227,3.0079,3.0088,3.0057,-1,-1,-1,-1,-1,-1,-1,-1,-1,-1
257,3.007,3.0114,3.0737,3.0057,3.0159,3.0052,3.0227,3.0079,3.0088,3.0057,-1,-1,-1,-1,-1,-1,-1,-1,-1,-1
258,3.007,3.0123,3.0737,3.0057,3.0159,3.0052,3.0227,3.0079,3.0088,3.0057,-1,-1,-1,-1,-1,-1,-1,-1,-1,-1
259,3.007,3.0123,3.0747,3.0057,3.0159,3.0052,3.0227,3.0079,3.0088,3.0057,-1,-1,-1,-1,-1,-1,-1,-1,-1,-1
260,3.007,3.0123,3.0757,3.0057,3.0159,3.0052,3.0227,3.0079,3.0088,3.0057,-1,-1,-1,-1,-1,-1,-1,-1,-1,-1
261,3.007,3.0123,3.0768,3.0057,3.0159,3.0052,3.0227,3.0079,3.0088,3.0057,-1,-1,-1,-1,-1,-1,-1,-1,-1,-1
262,3.007,3.0123,3.0773,3.0057,3.0159,3.0052,3.0232,3.0088,3.0088,3.0057,-1,-1,-1,-1,-1,-1,-1,-1,-1,-1
263,3.007,3.0123,3.0778,3.0057,3.0159,3.0052,3.0232,3.0088,3.0088,3.0057,-1,-1,-1,-1,-1,-1,-1,-1,-1,-1
264,3.007,3.0123,3.0778,3.0061,3.0164,3.0052,3.0232,3.0088,3.0088,3.0057,-1,-1,-1,-1,-1,-1,-1,-1,-1,-1
265,3.007,3.0123,3.0778,3.0061,3.0164,3.0052,3.0232,3.0088,3.0092,3.0057,-1,-1,-1,-1,-1,-1,-1,-1,-1,-1
266,3.007,3.0123,3.0783,3.0061,3.0164,3.0052,3.0232,3.0088,3.0092,3.0057,-1,-1,-1,-1,-1,-1,-1,-1,-1,-1
267,3.007,3.0123,3.0783,3.0061,3.0164,3.0052,3.0232,3.0088,3.0092,3.0057,-1,-1,-1,-1,-1,-1,-1,-1,-1,-1
268,3.007,3.0123,3.0783,3.0061,3.0164,3.0052,3.0232,3.0088,3.0092,3.0057,-1,-1,-1,-1,-1,-1,-1,-1,-1,-1
269,3.007,3.0123,3.0783,3.0061,3.0164,3.0057,3.0232,3.0088,3.0092,3.0057,-1,-1,-1,-1,-1,-1,-1,-1,-1,-1
270,3.007,3.0123,3.0783,3.0061,3.0164,3.0057,3.0232,3.0088,3.0092,3.0057,-1,-1,-1,-1,-1,-1,-1,-1,-1,-1
271,3.007,3.0123,3.0794,3.0061,3.0164,3.0057,3.0232,3.0088,3.0092,3.0057,-1,-1,-1,-1,-1,-1,-1,-1,-1,-1
272,3.007,3.0123,3.0794,3.0061,3.0164,3.0057,3.0232,3.0088,3.0092,3.0057,-1,-1,-1,-1,-1,-1,-1,-1,-1,-1
273,3.0074,3.0128,3.0809,3.0061,3.0164,3.0057,3.0241,3.0088,3.0092,3.0057,-1,-1,-1,-1,-1,-1,-1,-1,-1,-1
274,3.0074,3.0128,3.0814,3.0061,3.0164,3.0057,3.0241,3.0088,3.0092,3.0057,-1,-1,-1,-1,-1,-1,-1,-1,-1,-1
275,3.0074,3.0128,3.0814,3.0061,3.0164,3.0057,3.0246,3.0088,3.0092,3.0057,-1,-1,-1,-1,-1,-1,-1,-1,-1,-1
276,3.0074,3.0128,3.082,3.0061,3.0168,3.0057,3.0246,3.0088,3.0092,3.0057,-1,-1,-1,-1,-1,-1,-1,-1,-1,-1
277,3.0074,3.0128,3.082,3.0061,3.0168,3.0057,3.0246,3.0088,3.0092,3.0057,-1,-1,-1,-1,-1,-1,-1,-1,-1,-1
278,3.0074,3.0128,3.0825,3.0061,3.0168,3.0057,3.0246,3.0088,3.0092,3.0061,-1,-1,-1,-1,-1,-1,-1,-1,-1,-1
279,3.0074,3.0128,3.083,3.0061,3.0168,3.0057,3.025,3.0088,3.0092,3.0061,-1,-1,-1,-1,-1,-1,-1,-1,-1,-1
280,3.0074,3.0128,3.0835,3.0061,3.0168,3.0057,3.025,3.0088,3.0092,3.0061,-1,-1,-1,-1,-1,-1,-1,-1,-1,-1
281,3.0074,3.0128,3.0846,3.0061,3.0168,3.0057,3.025,3.0088,3.0092,3.0061,-1,-1,-1,-1,-1,-1,-1,-1,-1,-1
282,3.0074,3.0128,3.0846,3.0061,3.0168,3.0057,3.025,3.0088,3.0092,3.0061,-1,-1,-1,-1,-1,-1,-1,-1,-1,-1
283,3.0074,3.0132,3.0846,3.0061,3.0173,3.0057,3.025,3.0088,3.0092,3.0061,-1,-1,-1,-1,-1,-1,-1,-1,-1,-1
284,3.0074,3.0132,3.0857,3.0061,3.0173,3.0057,3.025,3.0088,3.0092,3.0061,-1,-1,-1,-1,-1,-1,-1,-1,-1,-1
285,3.0074,3.0132,3.0857,3.0061,3.0173,3.0057,3.025,3.0088,3.0092,3.0061,-1,-1,-1,-1,-1,-1,-1,-1,-1,-1
286,3.0074,3.0132,3.0862,3.0061,3.0173,3.0057,3.0255,3.0092,3.0092,3.0061,-1,-1,-1,-1,-1,-1,-1,-1,-1,-1
287,3.0074,3.0132,3.0862,3.0061,3.0173,3.0057,3.0255,3.0092,3.0092,3.0061,-1,-1,-1,-1,-1,-1,-1,-1,-1,-1
288,3.0074,3.0132,3.0862,3.0061,3.0173,3.0057,3.0255,3.0092,3.0092,3.0061,-1,-1,-1,-1,-1,-1,-1,-1,-1,-1
289,3.0074,3.0132,3.0862,3.0061,3.0173,3.0057,3.0255,3.0092,3.0092,3.0061,-1,-1,-1,-1,-1,-1,-1,-1,-1,-1
290,3.0074,3.0132,3.0867,3.0061,3.0173,3.0057,3.0255,3.0092,3.0097,3.0061,-1,-1,-1,-1,-1,-1,-1,-1,-1,-1
291,3.0074,3.0132,3.0867,3.0061,3.0173,3.0057,3.0255,3.0092,3.0097,3.0061,-1,-1,-1,-1,-1,-1,-1,-1,-1,-1
292,3.0074,3.0141,3.0872,3.007,3.0173,3.0057,3.0255,3.0092,3.0097,3.0061,-1,-1,-1,-1,-1,-1,-1,-1,-1,-1
293,3.0079,3.0141,3.0888,3.007,3.0173,3.0057,3.0255,3.0092,3.0097,3.0061,-1,-1,-1,-1,-1,-1,-1,-1,-1,-1
294,3.0079,3.0141,3.0894,3.007,3.0173,3.0057,3.0264,3.0092,3.0097,3.0061,-1,-1,-1,-1,-1,-1,-1,-1,-1,-1
295,3.0079,3.0141,3.0894,3.007,3.0173,3.0057,3.0264,3.0092,3.0097,3.0061,-1,-1,-1,-1,-1,-1,-1,-1,-1,-1
296,3.0079,3.0141,3.0899,3.007,3.0182,3.0057,3.0264,3.0092,3.0097,3.0061,-1,-1,-1,-1,-1,-1,-1,-1,-1,-1
297,3.0079,3.0141,3.0904,3.007,3.0182,3.0061,3.0264,3.0092,3.0097,3.0061,-1,-1,-1,-1,-1,-1,-1,-1,-1,-1
298,3.0079,3.0141,3.0904,3.007,3.0182,3.0061,3.0264,3.0092,3.0097,3.0061,-1,-1,-1,-1,-1,-1,-1,-1,-1,-1
299,3.0079,3.0146,3.091,3.007,3.0182,3.0061,3.0264,3.0092,3.0097,3.0061,-1,-1,-1,-1,-1,-1,-1,-1,-1,-1
300,3.0079,3.0146,3.091,3.007,3.0182,3.0061,3.0264,3.0092,3.0097,3.007,-1,-1,-1,-1,-1,-1,-1,-1,-1,-1
301,3.0079,3.0146,3.091,3.007,3.0182,3.0061,3.0264,3.0092,3.0097,3.007,-1,-1,-1,-1,-1,-1,-1,-1,-1,-1
302,3.0079,3.0146,3.0926,3.007,3.0182,3.0061,3.0269,3.0092,3.0097,3.007,-1,-1,-1,-1,-1,-1,-1,-1,-1,-1
303,3.0079,3.0146,3.0926,3.007,3.0186,3.0061,3.0269,3.0097,3.0106,3.007,-1,-1,-1,-1,-1,-1,-1,-1,-1,-1
304,3.0079,3.0146,3.0926,3.007,3.0186,3.0061,3.0269,3.0097,3.0106,3.007,-1,-1,-1,-1,-1,-1,-1,-1,-1,-1
305,3.0088,3.0146,3.0942,3.007,3.0186,3.0061,3.0273,3.0097,3.0106,3.007,-1,-1,-1,-1,-1,-1,-1,-1,-1,-1
306,3.0088,3.0146,3.0947,3.007,3.0186,3.0061,3.0273,3.0097,3.0106,3.007,-1,-1,-1,-1,-1,-1,-1,-1,-1,-1
307,3.0088,3.0146,3.0947,3.007,3.0186,3.0061,3.0273,3.0097,3.0106,3.007,-1,-1,-1,-1,-1,-1,-1,-1,-1,-1
308,3.0088,3.0146,3.0947,3.007,3.0186,3.0061,3.0283,3.0097,3.0106,3.007,-1,-1,-1,-1,-1,-1,-1,-1,-1,-1
309,3.0088,3.0146,3.0947,3.007,3.0186,3.0061,3.0283,3.0097,3.0106,3.007,-1,-1,-1,-1,-1,-1,-1,-1,-1,-1
310,3.0088,3.0146,3.0953,3.007,3.0186,3.0061,3.0283,3.0097,3.0106,3.007,-1,-1,-1,-1,-1,-1,-1,-1,-1,-1
311,3.0088,3.015,3.0953,3.007,3.0186,3.0061,3.0283,3.0097,3.0106,3.007,-1,-1,-1,-1,-1,-1,-1,-1,-1,-1
312,3.0088,3.015,3.0958,3.007,3.0186,3.0061,3.0283,3.0097,3.0106,3.007,-1,-1,-1,-1,-1,-1,-1,-1,-1,-1
313,3.0088,3.015,3.0958,3.007,3.0186,3.0061,3.0283,3.0097,3.0106,3.007,-1,-1,-1,-1,-1,-1,-1,-1,-1,-1
314,3.0088,3.015,3.0969,3.007,3.0191,3.0061,3.0287,3.0097,3.0106,3.007,-1,-1,-1,-1,-1,-1,-1,-1,-1,-1
315,3.0088,3.015,3.0969,3.007,3.0191,3.0061,3.0287,3.0097,3.0106,3.007,-1,-1,-1,-1,-1,-1,-1,-1,-1,-1
316,3.0088,3.015,3.0975,3.007,3.0191,3.0061,3.0287,3.0106,3.0106,3.007,-1,-1,-1,-1,-1,-1,-1,-1,-1,-1
317,3.0088,3.015,3.098,3.007,3.0191,3.007,3.0287,3.0106,3.0106,3.007,-1,-1,-1,-1,-1,-1,-1,-1,-1,-1
318,3.0088,3.015,3.0985,3.0074,3.0191,3.007,3.0287,3.0106,3.0106,3.0074,-1,-1,-1,-1,-1,-1,-1,-1,-1,-1
319,3.0088,3.015,3.0985,3.0074,3.0191,3.007,3.0287,3.0106,3.0106,3.0074,-1,-1,-1,-1,-1,-1,-1,-1,-1,-1
320,3.0088,3.015,3.0985,3.0074,3.0191,3.007,3.0287,3.0106,3.0106,3.0074,-1,-1,-1,-1,-1,-1,-1,-1,-1,-1
321,3.0088,3.015,3.0991,3.0074,3.0191,3.007,3.0287,3.0106,3.0106,3.0074,-1,-1,-1,-1,-1,-1,-1,-1,-1,-1
322,3.0088,3.015,3.0991,3.0074,3.0191,3.007,3.0287,3.0106,3.0106,3.0074,-1,-1,-1,-1,-1,-1,-1,-1,-1,-1
323,3.0088,3.015,3.0996,3.0074,3.0191,3.007,3.0287,3.0106,3.0106,3.0074,-1,-1,-1,-1,-1,-1,-1,-1,-1,-1
324,3.0088,3.015,3.0996,3.0074,3.02,3.007,3.0292,3.0106,3.0106,3.0074,-1,-1,-1,-1,-1,-1,-1,-1,-1,-1
325,3.0092,3.015,3.0996,3.0074,3.02,3.007,3.0292,3.0106,3.0106,3.0074,-1,-1,-1,-1,-1,-1,-1,-1,-1,-1
326,3.0092,3.015,3.0996,3.0074,3.02,3.007,3.0292,3.0106,3.011,3.0074,-1,-1,-1,-1,-1,-1,-1,-1,-1,-1
327,3.0092,3.015,3.1002,3.0074,3.02,3.007,3.0292,3.0106,3.011,3.0074,-1,-1,-1,-1,-1,-1,-1,-1,-1,-1
328,3.0092,3.015,3.1002,3.0074,3.02,3.007,3.0297,3.0106,3.011,3.0074,-1,-1,-1,-1,-1,-1,-1,-1,-1,-1
329,3.0092,3.0159,3.1007,3.0074,3.02,3.007,3.0297,3.0106,3.011,3.0074,-1,-1,-1,-1,-1,-1,-1,-1,-1,-1
330,3.0092,3.0159,3.1007,3.0074,3.02,3.007,3.0297,3.0106,3.011,3.0074,-1,-1,-1,-1,-1,-1,-1,-1,-1,-1
331,3.0092,3.0159,3.1018,3.0074,3.02,3.007,3.0297,3.0106,3.011,3.0074,-1,-1,-1,-1,-1,-1,-1,-1,-1,-1
332,3.0092,3.0159,3.1018,3.0074,3.02,3.007,3.0306,3.0106,3.011,3.0074,-1,-1,-1,-1,-1,-1,-1,-1,-1,-1
333,3.0092,3.0159,3.1029,3.0074,3.02,3.007,3.0306,3.0106,3.011,3.0074,-1,-1,-1,-1,-1,-1,-1,-1,-1,-1
334,3.0092,3.0159,3.1035,3.0074,3.02,3.007,3.0306,3.0106,3.011,3.0074,-1,-1,-1,-1,-1,-1,-1,-1,-1,-1
335,3.0092,3.0159,3.1046,3.0074,3.0205,3.007,3.0306,3.0106,3.011,3.0074,-1,-1,-1,-1,-1,-1,-1,-1,-1,-1
336,3.0092,3.0159,3.1046,3.0074,3.0205,3.007,3.0306,3.0106,3.011,3.0074,-1,-1,-1,-1,-1,-1,-1,-1,-1,-1
337,3.0092,3.0159,3.1046,3.0074,3.0205,3.007,3.0311,3.0106,3.011,3.0074,-1,-1,-1,-1,-1,-1,-1,-1,-1,-1
338,3.0092,3.0159,3.1051,3.0074,3.0205,3.007,3.0311,3.0106,3.011,3.0074,-1,-1,-1,-1,-1,-1,-1,-1,-1,-1
339,3.0092,3.0164,3.1051,3.0074,3.0205,3.007,3.0311,3.0106,3.011,3.0074,-1,-1,-1,-1,-1,-1,-1,-1,-1,-1
340,3.0092,3.0164,3.1051,3.0074,3.0205,3.007,3.0311,3.0106,3.011,3.0074,-1,-1,-1,-1,-1,-1,-1,-1,-1,-1
341,3.0092,3.0164,3.1051,3.0074,3.0205,3.007,3.0311,3.0106,3.0114,3.0074,-1,-1,-1,-1,-1,-1,-1,-1,-1,-1
342,3.0092,3.0164,3.1057,3.0074,3.0205,3.007,3.0311,3.0106,3.0114,3.0074,-1,-1,-1,-1,-1,-1,-1,-1,-1,-1
343,3.0092,3.0164,3.1057,3.0074,3.0205,3.007,3.0311,3.0106,3.0114,3.0074,-1,-1,-1,-1,-1,-1,-1,-1,-1,-1
344,3.0092,3.0164,3.1062,3.0074,3.0205,3.007,3.0311,3.0106,3.0114,3.0079,-1,-1,-1,-1,-1,-1,-1,-1,-1,-1
345,3.0097,3.0164,3.1062,3.0074,3.0205,3.007,3.0311,3.0106,3.0114,3.0079,-1,-1,-1,-1,-1,-1,-1,-1,-1,-1
346,3.0097,3.0164,3.1062,3.0074,3.0205,3.007,3.0315,3.0106,3.0114,3.0079,-1,-1,-1,-1,-1,-1,-1,-1,-1,-1
347,3.0097,3.0164,3.1062,3.0074,3.0209,3.007,3.0315,3.0106,3.0114,3.0079,-1,-1,-1,-1,-1,-1,-1,-1,-1,-1
348,3.0097,3.0164,3.1073,3.0074,3.0209,3.007,3.0325,3.0106,3.0114,3.0079,-1,-1,-1,-1,-1,-1,-1,-1,-1,-1
349,3.0097,3.0164,3.1073,3.0079,3.0209,3.007,3.0325,3.0106,3.0114,3.0079,-1,-1,-1,-1,-1,-1,-1,-1,-1,-1
350,3.0097,3.0164,3.1073,3.0079,3.0209,3.007,3.0325,3.0106,3.0114,3.0079,-1,-1,-1,-1,-1,-1,-1,-1,-1,-1
351,3.0097,3.0164,3.1079,3.0079,3.0209,3.0074,3.0325,3.0106,3.0114,3.0079,-1,-1,-1,-1,-1,-1,-1,-1,-1,-1
352,3.0097,3.0164,3.1079,3.0079,3.0209,3.0074,3.0329,3.0106,3.0114,3.0079,-1,-1,-1,-1,-1,-1,-1,-1,-1,-1
353,3.0097,3.0168,3.1085,3.0079,3.0209,3.0074,3.0329,3.0106,3.0114,3.0079,-1,-1,-1,-1,-1,-1,-1,-1,-1,-1
354,3.0097,3.0168,3.1085,3.0079,3.0209,3.0074,3.0329,3.0106,3.0114,3.0079,-1,-1,-1,-1,-1,-1,-1,-1,-1,-1
355,3.0097,3.0168,3.1085,3.0079,3.0209,3.0074,3.0329,3.0106,3.0114,3.0079,-1,-1,-1,-1,-1,-1,-1,-1,-1,-1
356,3.0097,3.0168,3.1085,3.0079,3.0209,3.0074,3.0329,3.0106,3.0114,3.0079,-1,-1,-1,-1,-1,-1,-1,-1,-1,-1
357,3.0097,3.0168,3.1085,3.0079,3.0214,3.0074,3.0334,3.0106,3.0114,3.0079,-1,-1,-1,-1,-1,-1,-1,-1,-1,-1
358,3.0097,3.0168,3.1085,3.0079,3.0214,3.0074,3.0334,3.0106,3.0114,3.0079,-1,-1,-1,-1,-1,-1,-1,-1,-1,-1
359,3.0097,3.0168,3.1085,3.0079,3.0214,3.0074,3.0334,3.0106,3.0123,3.0079,-1,-1,-1,-1,-1,-1,-1,-1,-1,-1
360,3.0097,3.0168,3.1085,3.0079,3.0214,3.0074,3.0334,3.0106,3.0123,3.0079,-1,-1,-1,-1,-1,-1,-1,-1,-1,-1
361,3.0097,3.0168,3.1085,3.0079,3.0223,3.0074,3.0339,3.0106,3.0123,3.0079,-1,-1,-1,-1,-1,-1,-1,-1,-1,-1
362,3.0097,3.0168,3.1085,3.0079,3.0223,3.0074,3.0339,3.0106,3.0123,3.0079,-1,-1,-1,-1,-1,-1,-1,-1,-1,-1
363,3.0106,3.0168,3.109,3.0079,3.0223,3.0074,3.0339,3.0106,3.0123,3.0079,-1,-1,-1,-1,-1,-1,-1,-1,-1,-1
364,3.0106,3.0168,3.109,3.0079,3.0223,3.0074,3.0339,3.0106,3.0123,3.0079,-1,-1,-1,-1,-1,-1,-1,-1,-1,-1
365,3.0106,3.0168,3.109,3.0079,3.0223,3.0074,3.0339,3.0106,3.0123,3.0079,-1,-1,-1,-1,-1,-1,-1,-1,-1,-1
366,3.0106,3.0168,3.1096,3.0079,3.0227,3.0074,3.0339,3.0106,3.0123,3.0079,-1,-1,-1,-1,-1,-1,-1,-1,-1,-1
367,3.0106,3.0173,3.1096,3.0079,3.0227,3.0074,3.0348,3.0106,3.0123,3.0088,-1,-1,-1,-1,-1,-1,-1,-1,-1,-1
368,3.0106,3.0173,3.1101,3.0079,3.0227,3.0074,3.0348,3.0106,3.0123,3.0088,-1,-1,-1,-1,-1,-1,-1,-1,-1,-1
369,3.0106,3.0173,3.1101,3.0079,3.0232,3.0074,3.0348,3.0106,3.0123,3.0088,-1,-1,-1,-1,-1,-1,-1,-1,-1,-1
370,3.0106,3.0173,3.1107,3.0079,3.0232,3.0074,3.0353,3.0106,3.0128,3.0088,-1,-1,-1,-1,-1,-1,-1,-1,-1,-1
371,3.0106,3.0173,3.1107,3.0079,3.0232,3.0074,3.0353,3.0106,3.0128,3.0088,-1,-1,-1,-1,-1,-1,-1,-1,-1,-1
372,3.0106,3.0173,3.1113,3.0079,3.0232,3.0074,3.0353,3.0106,3.0128,3.0088,-1,-1,-1,-1,-1,-1,-1,-1,-1,-1
373,3.0106,3.0173,3.1113,3.0079,3.0232,3.0074,3.0353,3.0106,3.0128,3.0088,-1,-1,-1,-1,-1,-1,-1,-1,-1,-1
374,3.0106,3.0173,3.1118,3.0079,3.0232,3.0074,3.0353,3.0106,3.0128,3.0088,-1,-1,-1,-1,-1,-1,-1,-1,-1,-1
375,3.0106,3.0173,3.1124,3.0079,3.0232,3.0074,3.0353,3.0106,3.0128,3.0088,-1,-1,-1,-1,-1,-1,-1,-1,-1,-1
376,3.0106,3.0182,3.1141,3.0079,3.0232,3.0074,3.0353,3.0106,3.0128,3.0088,-1,-1,-1,-1,-1,-1,-1,-1,-1,-1
377,3.0106,3.0182,3.1146,3.0079,3.0232,3.0074,3.0357,3.0106,3.0128,3.0088,-1,-1,-1,-1,-1,-1,-1,-1,-1,-1
378,3.0106,3.0182,3.1146,3.0079,3.0232,3.0074,3.0357,3.0106,3.0128,3.0088,-1,-1,-1,-1,-1,-1,-1,-1,-1,-1
379,3.0106,3.0182,3.1146,3.0079,3.0232,3.0074,3.0357,3.0106,3.0128,3.0088,-1,-1,-1,-1,-1,-1,-1,-1,-1,-1
380,3.0106,3.0182,3.1146,3.0088,3.0232,3.0074,3.0357,3.0106,3.0132,3.0088,-1,-1,-1,-1,-1,-1,-1,-1,-1,-1
381,3.0106,3.0182,3.1146,3.0088,3.0241,3.0074,3.0357,3.0106,3.0132,3.0088,-1,-1,-1,-1,-1,-1,-1,-1,-1,-1
382,3.0106,3.0182,3.1152,3.0088,3.0241,3.0074,3.0362,3.0106,3.0132,3.0088,-1,-1,-1,-1,-1,-1,-1,-1,-1,-1
383,3.0106,3.0182,3.1152,3.0088,3.0246,3.0074,3.0362,3.0106,3.0132,3.0088,-1,-1,-1,-1,-1,-1,-1,-1,-1,-1
384,3.0106,3.0182,3.1163,3.0088,3.0246,3.0074,3.0362,3.0106,3.0132,3.0088,-1,-1,-1,-1,-1,-1,-1,-1,-1,-1
385,3.011,3.0186,3.1175,3.0088,3.0246,3.0074,3.0362,3.0106,3.0132,3.0088,-1,-1,-1,-1,-1,-1,-1,-1,-1,-1
386,3.011,3.0186,3.1175,3.0088,3.0246,3.0074,3.0372,3.0106,3.0132,3.0088,-1,-1,-1,-1,-1,-1,-1,-1,-1,-1
387,3.011,3.0186,3.1175,3.0088,3.0246,3.0074,3.0372,3.0106,3.0132,3.0088,-1,-1,-1,-1,-1,-1,-1,-1,-1,-1
388,3.011,3.0186,3.1175,3.0088,3.0246,3.0074,3.0372,3.0106,3.0132,3.0092,-1,-1,-1,-1,-1,-1,-1,-1,-1,-1
389,3.011,3.0186,3.118,3.0088,3.0246,3.0074,3.0372,3.0106,3.0132,3.0092,-1,-1,-1,-1,-1,-1,-1,-1,-1,-1
390,3.011,3.0186,3.118,3.0088,3.0246,3.0079,3.0372,3.0106,3.0132,3.0092,-1,-1,-1,-1,-1,-1,-1,-1,-1,-1
391,3.011,3.0186,3.1186,3.0088,3.0246,3.0079,3.0372,3.0106,3.0132,3.0092,-1,-1,-1,-1,-1,-1,-1,-1,-1,-1
392,3.011,3.0186,3.1186,3.0088,3.025,3.0079,3.0376,3.0106,3.0132,3.0092,-1,-1,-1,-1,-1,-1,-1,-1,-1,-1
393,3.011,3.0186,3.1198,3.0088,3.025,3.0079,3.0376,3.0106,3.0132,3.0092,-1,-1,-1,-1,-1,-1,-1,-1,-1,-1
394,3.011,3.0186,3.1209,3.0088,3.025,3.0079,3.0376,3.0106,3.0132,3.0092,-1,-1,-1,-1,-1,-1,-1,-1,-1,-1
395,3.011,3.0186,3.1209,3.0088,3.025,3.0079,3.0376,3.0106,3.0132,3.0092,-1,-1,-1,-1,-1,-1,-1,-1,-1,-1
396,3.011,3.0186,3.1209,3.0088,3.025,3.0079,3.0376,3.0106,3.0132,3.0092,-1,-1,-1,-1,-1,-1,-1,-1,-1,-1
397,3.011,3.0186,3.1215,3.0088,3.0255,3.0079,3.0376,3.0106,3.0132,3.0092,-1,-1,-1,-1,-1,-1,-1,-1,-1,-1
398,3.011,3.0186,3.1221,3.0088,3.0255,3.0079,3.0376,3.0106,3.0132,3.0092,-1,-1,-1,-1,-1,-1,-1,-1,-1,-1
399,3.011,3.0191,3.1226,3.0088,3.0255,3.0079,3.0376,3.0106,3.0132,3.0092,-1,-1,-1,-1,-1,-1,-1,-1,-1,-1
400,3.011,3.0191,3.1226,3.0088,3.0255,3.0079,3.0381,3.0106,3.0132,3.0092,-1,-1,-1,-1,-1,-1,-1,-1,-1,-1
401,3.011,3.0191,3.1232,3.0088,3.0255,3.0079,3.0381,3.0106,3.0132,3.0097,-1,-1,-1,-1,-1,-1,-1,-1,-1,-1
402,3.011,3.0191,3.1232,3.0088,3.0255,3.0079,3.0381,3.0106,3.0141,3.0097,-1,-1,-1,-1,-1,-1,-1,-1,-1,-1
403,3.011,3.0191,3.1232,3.0088,3.0255,3.0079,3.0381,3.0106,3.0141,3.0097,-1,-1,-1,-1,-1,-1,-1,-1,-1,-1
404,3.011,3.0191,3.1232,3.0088,3.0255,3.0079,3.0381,3.0106,3.0141,3.0097,-1,-1,-1,-1,-1,-1,-1,-1,-1,-1
405,3.011,3.0191,3.1232,3.0088,3.0264,3.0079,3.0381,3.0106,3.0141,3.0097,-1,-1,-1,-1,-1,-1,-1,-1,-1,-1
406,3.011,3.0191,3.1244,3.0088,3.0264,3.0079,3.0386,3.0106,3.0141,3.0097,-1,-1,-1,-1,-1,-1,-1,-1,-1,-1
407,3.011,3.0191,3.1249,3.0088,3.0264,3.0079,3.0386,3.0106,3.0141,3.0097,-1,-1,-1,-1,-1,-1,-1,-1,-1,-1
408,3.011,3.02,3.1249,3.0088,3.0264,3.0079,3.0386,3.0106,3.0141,3.0097,-1,-1,-1,-1,-1,-1,-1,-1,-1,-1
409,3.0114,3.02,3.1255,3.0092,3.0264,3.0079,3.0386,3.0106,3.0141,3.0097,-1,-1,-1,-1,-1,-1,-1,-1,-1,-1
410,3.0114,3.02,3.1255,3.0092,3.0264,3.0079,3.0386,3.0106,3.0141,3.0097,-1,-1,-1,-1,-1,-1,-1,-1,-1,-1
411,3.0114,3.02,3.1255,3.0092,3.0264,3.0079,3.0386,3.0106,3.0141,3.0097,-1,-1,-1,-1,-1,-1,-1,-1,-1,-1
412,3.0114,3.02,3.1255,3.0092,3.0264,3.0079,3.0395,3.0106,3.0141,3.0097,-1,-1,-1,-1,-1,-1,-1,-1,-1,-1
413,3.0114,3.02,3.1261,3.0092,3.0269,3.0079,3.0395,3.0106,3.0141,3.0097,-1,-1,-1,-1,-1,-1,-1,-1,-1,-1
414,3.0114,3.02,3.1273,3.0092,3.0269,3.0079,3.0395,3.0106,3.0141,3.0097,-1,-1,-1,-1,-1,-1,-1,-1,-1,-1
415,3.0114,3.02,3.1284,3.0092,3.0269,3.0079,3.04,3.0106,3.0141,3.0097,-1,-1,-1,-1,-1,-1,-1,-1,-1,-1
416,3.0114,3.02,3.1284,3.0092,3.0269,3.0079,3.04,3.0106,3.0141,3.0097,-1,-1,-1,-1,-1,-1,-1,-1,-1,-1
417,3.0114,3.02,3.129,3.0092,3.0269,3.0079,3.04,3.0106,3.0146,3.0097,-1,-1,-1,-1,-1,-1,-1,-1,-1,-1
418,3.0114,3.0205,3.1296,3.0092,3.0269,3.0088,3.04,3.0106,3.0146,3.0097,-1,-1,-1,-1,-1,-1,-1,-1,-1,-1
419,3.0114,3.0205,3.1296,3.0092,3.0269,3.0088,3.0405,3.0106,3.0146,3.0097,-1,-1,-1,-1,-1,-1,-1,-1,-1,-1
420,3.0114,3.0205,3.1296,3.0092,3.0273,3.0088,3.0405,3.0106,3.0146,3.0097,-1,-1,-1,-1,-1,-1,-1,-1,-1,-1
421,3.0114,3.0205,3.1296,3.0092,3.0273,3.0088,3.0405,3.011,3.0146,3.0097,-1,-1,-1,-1,-1,-1,-1,-1,-1,-1
422,3.0114,3.0209,3.1302,3.0092,3.0273,3.0088,3.0405,3.011,3.0146,3.0106,-1,-1,-1,-1,-1,-1,-1,-1,-1,-1
423,3.0114,3.0209,3.1308,3.0092,3.0273,3.0088,3.041,3.011,3.0146,3.0106,-1,-1,-1,-1,-1,-1,-1,-1,-1,-1
424,3.0114,3.0209,3.1308,3.0092,3.0273,3.0088,3.041,3.011,3.0146,3.0106,-1,-1,-1,-1,-1,-1,-1,-1,-1,-1
425,3.0114,3.0209,3.1314,3.0092,3.0273,3.0088,3.0419,3.011,3.0146,3.0106,-1,-1,-1,-1,-1,-1,-1,-1,-1,-1
426,3.0123,3.0209,3.1314,3.0092,3.0273,3.0088,3.0419,3.011,3.0146,3.0106,-1,-1,-1,-1,-1,-1,-1,-1,-1,-1
427,3.0123,3.0209,3.1319,3.0092,3.0273,3.0088,3.0419,3.011,3.0146,3.0106,-1,-1,-1,-1,-1,-1,-1,-1,-1,-1
428,3.0123,3.0209,3.1325,3.0097,3.0273,3.0088,3.0419,3.011,3.0146,3.0106,-1,-1,-1,-1,-1,-1,-1,-1,-1,-1
429,3.0123,3.0209,3.1325,3.0097,3.0273,3.0088,3.0424,3.011,3.0146,3.0106,-1,-1,-1,-1,-1,-1,-1,-1,-1,-1
430,3.0123,3.0209,3.1325,3.0097,3.0283,3.0088,3.0424,3.011,3.0146,3.0106,-1,-1,-1,-1,-1,-1,-1,-1,-1,-1
431,3.0123,3.0209,3.1337,3.0097,3.0283,3.0088,3.0424,3.011,3.0146,3.0106,-1,-1,-1,-1,-1,-1,-1,-1,-1,-1
432,3.0123,3.0209,3.1343,3.0097,3.0283,3.0088,3.0424,3.011,3.0146,3.0106,-1,-1,-1,-1,-1,-1,-1,-1,-1,-1
433,3.0123,3.0209,3.1349,3.0097,3.0283,3.0088,3.0429,3.011,3.0146,3.0106,-1,-1,-1,-1,-1,-1,-1,-1,-1,-1
434,3.0123,3.0209,3.1355,3.0097,3.0283,3.0088,3.0429,3.011,3.0146,3.0106,-1,-1,-1,-1,-1,-1,-1,-1,-1,-1
435,3.0123,3.0209,3.1361,3.0097,3.0283,3.0088,3.0429,3.011,3.015,3.0106,-1,-1,-1,-1,-1,-1,-1,-1,-1,-1
436,3.0123,3.0214,3.1361,3.0097,3.0287,3.0088,3.0429,3.011,3.015,3.0106,-1,-1,-1,-1,-1,-1,-1,-1,-1,-1
437,3.0123,3.0214,3.1361,3.0097,3.0287,3.0088,3.0429,3.011,3.015,3.0106,-1,-1,-1,-1,-1,-1,-1,-1,-1,-1
438,3.0123,3.0214,3.1367,3.0097,3.0287,3.0088,3.0434,3.011,3.015,3.0106,-1,-1,-1,-1,-1,-1,-1,-1,-1,-1
439,3.0123,3.0214,3.1373,3.0097,3.0287,3.0088,3.0434,3.011,3.015,3.0106,-1,-1,-1,-1,-1,-1,-1,-1,-1,-1
440,3.0123,3.0214,3.1373,3.0097,3.0287,3.0088,3.0434,3.0114,3.015,3.0106,-1,-1,-1,-1,-1,-1,-1,-1,-1,-1
441,3.0123,3.0214,3.1373,3.0097,3.0287,3.0088,3.0434,3.0114,3.015,3.0106,-1,-1,-1,-1,-1,-1,-1,-1,-1,-1
442,3.0123,3.0214,3.1379,3.0097,3.0287,3.0088,3.0434,3.0114,3.015,3.0106,-1,-1,-1,-1,-1,-1,-1,-1,-1,-1
443,3.0123,3.0214,3.1391,3.0097,3.0287,3.0088,3.0443,3.0114,3.015,3.0106,-1,-1,-1,-1,-1,-1,-1,-1,-1,-1
444,3.0123,3.0214,3.1391,3.0097,3.0287,3.0088,3.0443,3.0114,3.015,3.0106,-1,-1,-1,-1,-1,-1,-1,-1,-1,-1
445,3.0123,3.0214,3.1397,3.0097,3.0287,3.0088,3.0443,3.0114,3.015,3.0106,-1,-1,-1,-1,-1,-1,-1,-1,-1,-1
446,3.0128,3.0214,3.1403,3.0097,3.0287,3.0088,3.0443,3.0114,3.015,3.011,-1,-1,-1,-1,-1,-1,-1,-1,-1,-1
447,3.0128,3.0214,3.1403,3.0097,3.0287,3.0088,3.0448,3.0114,3.015,3.011,-1,-1,-1,-1,-1,-1,-1,-1,-1,-1
448,3.0128,3.0214,3.1415,3.0097,3.0287,3.0088,3.0448,3.0114,3.0159,3.011,-1,-1,-1,-1,-1,-1,-1,-1,-1,-1
449,3.0128,3.0214,3.1415,3.0097,3.0287,3.0092,3.0448,3.0114,3.0159,3.011,-1,-1,-1,-1,-1,-1,-1,-1,-1,-1
450,3.0128,3.0223,3.1421,3.0097,3.0287,3.0092,3.0448,3.0114,3.0159,3.011,-1,-1,-1,-1,-1,-1,-1,-1,-1,-1
451,3.0128,3.0223,3.1421,3.0097,3.0287,3.0092,3.0448,3.0114,3.0159,3.011,-1,-1,-1,-1,-1,-1,-1,-1,-1,-1
452,3.0128,3.0223,3.1421,3.0106,3.0287,3.0092,3.0448,3.0114,3.0159,3.011,-1,-1,-1,-1,-1,-1,-1,-1,-1,-1
453,3.0128,3.0223,3.1421,3.0106,3.0287,3.0092,3.0453,3.0114,3.0159,3.011,-1,-1,-1,-1,-1,-1,-1,-1,-1,-1
454,3.0128,3.0223,3.1427,3.0106,3.0287,3.0092,3.0453,3.0123,3.0159,3.011,-1,-1,-1,-1,-1,-1,-1,-1,-1,-1
455,3.0128,3.0223,3.1433,3.0106,3.0287,3.0092,3.0453,3.0123,3.0159,3.011,-1,-1,-1,-1,-1,-1,-1,-1,-1,-1
456,3.0132,3.0223,3.1433,3.0106,3.0287,3.0092,3.0453,3.0123,3.0159,3.011,-1,-1,-1,-1,-1,-1,-1,-1,-1,-1
457,3.0132,3.0223,3.1433,3.0106,3.0287,3.0092,3.0453,3.0123,3.0159,3.011,-1,-1,-1,-1,-1,-1,-1,-1,-1,-1
458,3.0132,3.0223,3.1445,3.0106,3.0287,3.0092,3.0453,3.0123,3.0159,3.011,-1,-1,-1,-1,-1,-1,-1,-1,-1,-1
459,3.0132,3.0223,3.1445,3.0106,3.0287,3.0092,3.0458,3.0123,3.0159,3.011,-1,-1,-1,-1,-1,-1,-1,-1,-1,-1
460,3.0132,3.0223,3.1451,3.0106,3.0287,3.0092,3.0458,3.0123,3.0159,3.011,-1,-1,-1,-1,-1,-1,-1,-1,-1,-1
461,3.0132,3.0223,3.1451,3.0106,3.0287,3.0092,3.0458,3.0123,3.0159,3.011,-1,-1,-1,-1,-1,-1,-1,-1,-1,-1
462,3.0132,3.0223,3.1457,3.0106,3.0287,3.0092,3.0458,3.0123,3.0159,3.011,-1,-1,-1,-1,-1,-1,-1,-1,-1,-1
463,3.0132,3.0223,3.1457,3.0106,3.0287,3.0092,3.0458,3.0123,3.0159,3.011,-1,-1,-1,-1,-1,-1,-1,-1,-1,-1
464,3.0132,3.0223,3.1457,3.0106,3.0287,3.0092,3.0458,3.0123,3.0159,3.011,-1,-1,-1,-1,-1,-1,-1,-1,-1,-1
465,3.0132,3.0223,3.1463,3.0106,3.0292,3.0092,3.0458,3.0123,3.0159,3.011,-1,-1,-1,-1,-1,-1,-1,-1,-1,-1
466,3.0132,3.0223,3.1463,3.0106,3.0292,3.0092,3.0467,3.0123,3.0159,3.011,-1,-1,-1,-1,-1,-1,-1,-1,-1,-1
467,3.0132,3.0227,3.1463,3.0106,3.0292,3.0092,3.0467,3.0123,3.0164,3.011,-1,-1,-1,-1,-1,-1,-1,-1,-1,-1
468,3.0132,3.0227,3.1469,3.0106,3.0292,3.0092,3.0467,3.0123,3.0164,3.011,-1,-1,-1,-1,-1,-1,-1,-1,-1,-1
469,3.0132,3.0227,3.1469,3.0106,3.0292,3.0092,3.0467,3.0123,3.0164,3.0114,-1,-1,-1,-1,-1,-1,-1,-1,-1,-1
470,3.0132,3.0227,3.1469,3.0106,3.0292,3.0092,3.0467,3.0123,3.0164,3.0114,-1,-1,-1,-1,-1,-1,-1,-1,-1,-1
471,3.0141,3.0227,3.1475,3.0106,3.0292,3.0092,3.0467,3.0123,3.0164,3.0114,-1,-1,-1,-1,-1,-1,-1,-1,-1,-1
472,3.0141,3.0227,3.1475,3.0106,3.0292,3.0097,3.0472,3.0123,3.0164,3.0114,-1,-1,-1,-1,-1,-1,-1,-1,-1,-1
473,3.0141,3.0227,3.1481,3.0106,3.0292,3.0097,3.0472,3.0123,3.0164,3.0114,-1,-1,-1,-1,-1,-1,-1,-1,-1,-1
474,3.0141,3.0227,3.1481,3.0106,3.0292,3.0097,3.0472,3.0128,3.0164,3.0114,-1,-1,-1,-1,-1,-1,-1,-1,-1,-1
475,3.0141,3.0227,3.1494,3.0106,3.0292,3.0097,3.0472,3.0128,3.0164,3.0114,-1,-1,-1,-1,-1,-1,-1,-1,-1,-1
476,3.0141,3.0227,3.15,3.0106,3.0292,3.0097,3.0472,3.0128,3.0164,3.0114,-1,-1,-1,-1,-1,-1,-1,-1,-1,-1
477,3.0141,3.0227,3.1506,3.0106,3.0292,3.0097,3.0472,3.0128,3.0164,3.0114,-1,-1,-1,-1,-1,-1,-1,-1,-1,-1
478,3.0141,3.0227,3.1506,3.0106,3.0292,3.0097,3.0472,3.0128,3.0164,3.0114,-1,-1,-1,-1,-1,-1,-1,-1,-1,-1
479,3.0141,3.0227,3.1506,3.0106,3.0297,3.0097,3.0477,3.0128,3.0164,3.0114,-1,-1,-1,-1,-1,-1,-1,-1,-1,-1
480,3.0141,3.0227,3.1512,3.0106,3.0297,3.0097,3.0477,3.0128,3.0164,3.0114,-1,-1,-1,-1,-1,-1,-1,-1,-1,-1
481,3.0141,3.0232,3.1512,3.0106,3.0297,3.0097,3.0477,3.0128,3.0164,3.0114,-1,-1,-1,-1,-1,-1,-1,-1,-1,-1
482,3.0141,3.0232,3.1518,3.0106,3.0297,3.0097,3.0477,3.0128,3.0164,3.0114,-1,-1,-1,-1,-1,-1,-1,-1,-1,-1
483,3.0141,3.0232,3.1518,3.0106,3.0297,3.0097,3.0482,3.0128,3.0164,3.0114,-1,-1,-1,-1,-1,-1,-1,-1,-1,-1
484,3.0141,3.0232,3.1518,3.0106,3.0297,3.0097,3.0482,3.0128,3.0164,3.0114,-1,-1,-1,-1,-1,-1,-1,-1,-1,-1
485,3.0146,3.0232,3.1518,3.0106,3.0297,3.0097,3.0482,3.0128,3.0164,3.0114,-1,-1,-1,-1,-1,-1,-1,-1,-1,-1
486,3.0146,3.0232,3.1518,3.0106,3.0297,3.0097,3.0482,3.0128,3.0168,3.0114,-1,-1,-1,-1,-1,-1,-1,-1,-1,-1
487,3.0146,3.0232,3.1518,3.0106,3.0297,3.0097,3.0482,3.0132,3.0168,3.0114,-1,-1,-1,-1,-1,-1,-1,-1,-1,-1
488,3.0146,3.0232,3.1524,3.0106,3.0297,3.0097,3.0482,3.0132,3.0168,3.0114,-1,-1,-1,-1,-1,-1,-1,-1,-1,-1
489,3.0146,3.0232,3.1524,3.0106,3.0297,3.0097,3.0482,3.0132,3.0168,3.0114,-1,-1,-1,-1,-1,-1,-1,-1,-1,-1
490,3.0146,3.0232,3.1524,3.0106,3.0297,3.0097,3.0491,3.0132,3.0168,3.0114,-1,-1,-1,-1,-1,-1,-1,-1,-1,-1
491,3.0146,3.0232,3.1524,3.0106,3.0297,3.0097,3.0491,3.0132,3.0168,3.0114,-1,-1,-1,-1,-1,-1,-1,-1,-1,-1
492,3.0146,3.0232,3.153,3.0106,3.0306,3.0097,3.0491,3.0132,3.0168,3.0114,-1,-1,-1,-1,-1,-1,-1,-1,-1,-1
493,3.0146,3.0232,3.153,3.0106,3.0306,3.0097,3.0491,3.0132,3.0168,3.0114,-1,-1,-1,-1,-1,-1,-1,-1,-1,-1
494,3.0146,3.0232,3.1537,3.0106,3.0306,3.0106,3.0491,3.0132,3.0168,3.0114,-1,-1,-1,-1,-1,-1,-1,-1,-1,-1
495,3.0146,3.0241,3.1537,3.0106,3.0306,3.0106,3.0491,3.0132,3.0168,3.0123,-1,-1,-1,-1,-1,-1,-1,-1,-1,-1
496,3.0146,3.0241,3.1543,3.0106,3.0306,3.0106,3.0491,3.0132,3.0168,3.0123,-1,-1,-1,-1,-1,-1,-1,-1,-1,-1
497,3.0146,3.0241,3.1549,3.0106,3.0306,3.0106,3.0496,3.0132,3.0168,3.0123,-1,-1,-1,-1,-1,-1,-1,-1,-1,-1
498,3.015,3.0241,3.1549,3.0106,3.0306,3.0106,3.0496,3.0132,3.0168,3.0123,-1,-1,-1,-1,-1,-1,-1,-1,-1,-1
499,3.015,3.0241,3.1549,3.0106,3.0306,3.0106,3.0496,3.0132,3.0168,3.0123,-1,-1,-1,-1,-1,-1,-1,-1,-1,-1
500,3.015,3.0241,3.1555,3.0106,3.0311,3.0106,3.0496,3.0132,3.0168,3.0123,-1,-1,-1,-1,-1,-1,-1,-1,-1,-1
501,3.015,3.0241,3.1555,3.0106,3.0311,3.0106,3.0501,3.0132,3.0173,3.0123,-1,-1,-1,-1,-1,-1,-1,-1,-1,-1
502,3.015,3.0241,3.1555,3.0106,3.0311,3.0106,3.0501,3.0141,3.0173,3.0123,-1,-1,-1,-1,-1,-1,-1,-1,-1,-1
503,3.015,3.0241,3.1555,3.0106,3.0311,3.0106,3.0501,3.0141,3.0173,3.0123,-1,-1,-1,-1,-1,-1,-1,-1,-1,-1
504,3.015,3.0241,3.1561,3.0106,3.0311,3.0106,3.0501,3.0141,3.0173,3.0123,-1,-1,-1,-1,-1,-1,-1,-1,-1,-1
505,3.015,3.0241,3.1561,3.0106,3.0311,3.0106,3.0501,3.0141,3.0173,3.0123,-1,-1,-1,-1,-1,-1,-1,-1,-1,-1
506,3.015,3.0241,3.1574,3.0106,3.0311,3.0106,3.0506,3.0141,3.0173,3.0123,-1,-1,-1,-1,-1,-1,-1,-1,-1,-1
507,3.015,3.0241,3.158,3.0106,3.0315,3.0106,3.0506,3.0141,3.0173,3.0123,-1,-1,-1,-1,-1,-1,-1,-1,-1,-1
508,3.015,3.0241,3.158,3.0106,3.0315,3.0106,3.0506,3.0141,3.0173,3.0123,-1,-1,-1,-1,-1,-1,-1,-1,-1,-1
509,3.015,3.0246,3.158,3.0106,3.0315,3.0106,3.0506,3.0141,3.0173,3.0123,-1,-1,-1,-1,-1,-1,-1,-1,-1,-1
510,3.015,3.0246,3.158,3.0106,3.0315,3.0106,3.0506,3.0141,3.0173,3.0123,-1,-1,-1,-1,-1,-1,-1,-1,-1,-1
511,3.015,3.0246,3.1586,3.0106,3.0315,3.0106,3.0511,3.0141,3.0173,3.0123,-1,-1,-1,-1,-1,-1,-1,-1,-1,-1
512,3.015,3.0246,3.1599,3.0106,3.0315,3.0106,3.0511,3.0141,3.0173,3.0123,-1,-1,-1,-1,-1,-1,-1,-1,-1,-1
513,3.015,3.0246,3.1599,3.0106,3.0315,3.0106,3.0511,3.0141,3.0173,3.0123,-1,-1,-1,-1,-1,-1,-1,-1,-1,-1
514,3.015,3.025,3.1605,3.0106,3.0325,3.0106,3.0521,3.0141,3.0173,3.0123,-1,-1,-1,-1,-1,-1,-1,-1,-1,-1
515,3.015,3.025,3.1605,3.011,3.0325,3.0106,3.0521,3.0141,3.0173,3.0123,-1,-1,-1,-1,-1,-1,-1,-1,-1,-1
516,3.015,3.025,3.1605,3.011,3.0325,3.0106,3.0521,3.0141,3.0173,3.0123,-1,-1,-1,-1,-1,-1,-1,-1,-1,-1
517,3.015,3.025,3.1605,3.011,3.0325,3.0106,3.0521,3.0141,3.0173,3.0123,-1,-1,-1,-1,-1,-1,-1,-1,-1,-1
518,3.0159,3.025,3.1605,3.011,3.0325,3.0106,3.0521,3.0141,3.0173,3.0123,-1,-1,-1,-1,-1,-1,-1,-1,-1,-1
519,3.0159,3.025,3.1612,3.011,3.0325,3.0106,3.0526,3.0146,3.0173,3.0123,-1,-1,-1,-1,-1,-1,-1,-1,-1,-1
520,3.0159,3.025,3.1612,3.011,3.0325,3.0106,3.0526,3.0146,3.0182,3.0123,-1,-1,-1,-1,-1,-1,-1,-1,-1,-1
521,3.0159,3.025,3.1618,3.011,3.0325,3.0106,3.0526,3.0146,3.0182,3.0123,-1,-1,-1,-1,-1,-1,-1,-1,-1,-1
522,3.0159,3.025,3.1624,3.011,3.0325,3.0106,3.0526,3.0146,3.0182,3.0123,-1,-1,-1,-1,-1,-1,-1,-1,-1,-1
523,3.0159,3.025,3.1624,3.011,3.0325,3.0106,3.0531,3.0146,3.0182,3.0123,-1,-1,-1,-1,-1,-1,-1,-1,-1,-1
524,3.0159,3.025,3.1637,3.011,3.0325,3.0106,3.0531,3.0146,3.0182,3.0128,-1,-1,-1,-1,-1,-1,-1,-1,-1,-1
525,3.0159,3.0255,3.1637,3.011,3.0325,3.0106,3.0535,3.0146,3.0182,3.0128,-1,-1,-1,-1,-1,-1,-1,-1,-1,-1
526,3.0159,3.0255,3.1637,3.011,3.0325,3.0106,3.0535,3.0146,3.0182,3.0128,-1,-1,-1,-1,-1,-1,-1,-1,-1,-1
527,3.0159,3.0255,3.1643,3.011,3.0325,3.0106,3.0535,3.0146,3.0182,3.0128,-1,-1,-1,-1,-1,-1,-1,-1,-1,-1
528,3.0159,3.0255,3.1643,3.011,3.0325,3.0106,3.0535,3.0146,3.0182,3.0128,-1,-1,-1,-1,-1,-1,-1,-1,-1,-1
529,3.0159,3.0255,3.1643,3.011,3.0325,3.0106,3.0535,3.0146,3.0182,3.0128,-1,-1,-1,-1,-1,-1,-1,-1,-1,-1
530,3.0159,3.0264,3.1656,3.011,3.0325,3.0106,3.0535,3.0146,3.0182,3.0128,-1,-1,-1,-1,-1,-1,-1,-1,-1,-1
531,3.0159,3.0264,3.1662,3.011,3.0325,3.0106,3.0535,3.0146,3.0182,3.0128,-1,-1,-1,-1,-1,-1,-1,-1,-1,-1
532,3.0159,3.0264,3.1662,3.011,3.0329,3.0106,3.0545,3.0146,3.0182,3.0128,-1,-1,-1,-1,-1,-1,-1,-1,-1,-1
533,3.0159,3.0264,3.1669,3.011,3.0329,3.0106,3.0545,3.0146,3.0182,3.0128,-1,-1,-1,-1,-1,-1,-1,-1,-1,-1
534,3.0159,3.0264,3.1675,3.011,3.0329,3.0106,3.0545,3.0146,3.0182,3.0128,-1,-1,-1,-1,-1,-1,-1,-1,-1,-1
535,3.0159,3.0264,3.1675,3.011,3.0329,3.0106,3.0545,3.0146,3.0182,3.0128,-1,-1,-1,-1,-1,-1,-1,-1,-1,-1
536,3.0159,3.0264,3.1675,3.011,3.0329,3.0106,3.0545,3.0146,3.0182,3.0128,-1,-1,-1,-1,-1,-1,-1,-1,-1,-1
537,3.0159,3.0264,3.1688,3.011,3.0329,3.0106,3.0545,3.0146,3.0182,3.0128,-1,-1,-1,-1,-1,-1,-1,-1,-1,-1
538,3.0159,3.0264,3.1688,3.0114,3.0329,3.0106,3.055,3.0146,3.0186,3.0128,-1,-1,-1,-1,-1,-1,-1,-1,-1,-1
539,3.0164,3.0264,3.1694,3.0114,3.0334,3.0106,3.055,3.0146,3.0186,3.0132,-1,-1,-1,-1,-1,-1,-1,-1,-1,-1
540,3.0164,3.0264,3.1701,3.0114,3.0334,3.0106,3.055,3.015,3.0186,3.0132,-1,-1,-1,-1,-1,-1,-1,-1,-1,-1
541,3.0164,3.0264,3.1707,3.0114,3.0334,3.0106,3.055,3.015,3.0186,3.0132,-1,-1,-1,-1,-1,-1,-1,-1,-1,-1
542,3.0164,3.0264,3.1713,3.0114,3.0334,3.0106,3.055,3.015,3.0186,3.0132,-1,-1,-1,-1,-1,-1,-1,-1,-1,-1
543,3.0164,3.0264,3.1713,3.0114,3.0334,3.0106,3.055,3.015,3.0186,3.0132,-1,-1,-1,-1,-1,-1,-1,-1,-1,-1
544,3.0164,3.0269,3.1713,3.0114,3.0334,3.0106,3.0555,3.015,3.0186,3.0132,-1,-1,-1,-1,-1,-1,-1,-1,-1,-1
545,3.0164,3.0269,3.172,3.0114,3.0334,3.0106,3.0555,3.015,3.0186,3.0132,-1,-1,-1,-1,-1,-1,-1,-1,-1,-1
546,3.0164,3.0269,3.172,3.0114,3.0334,3.0106,3.0555,3.015,3.0186,3.0132,-1,-1,-1,-1,-1,-1,-1,-1,-1,-1
547,3.0164,3.0269,3.1726,3.0114,3.0334,3.0106,3.056,3.015,3.0186,3.0132,-1,-1,-1,-1,-1,-1,-1,-1,-1,-1
548,3.0164,3.0269,3.1726,3.0114,3.0334,3.0106,3.056,3.015,3.0186,3.0132,-1,-1,-1,-1,-1,-1,-1,-1,-1,-1
549,3.0164,3.0269,3.1739,3.0114,3.0334,3.0106,3.056,3.015,3.0186,3.0132,-1,-1,-1,-1,-1,-1,-1,-1,-1,-1
550,3.0164,3.0269,3.1746,3.0114,3.0334,3.0106,3.056,3.015,3.0186,3.0132,-1,-1,-1,-1,-1,-1,-1,-1,-1,-1
551,3.0164,3.0269,3.1746,3.0114,3.0334,3.0106,3.056,3.015,3.0186,3.0132,-1,-1,-1,-1,-1,-1,-1,-1,-1,-1
552,3.0164,3.0269,3.1752,3.0114,3.0334,3.0106,3.056,3.015,3.0186,3.0132,-1,-1,-1,-1,-1,-1,-1,-1,-1,-1
553,3.0164,3.0269,3.1759,3.0114,3.0334,3.0106,3.056,3.015,3.0186,3.0132,-1,-1,-1,-1,-1,-1,-1,-1,-1,-1
554,3.0164,3.0269,3.1765,3.0114,3.0334,3.0106,3.056,3.015,3.0186,3.0132,-1,-1,-1,-1,-1,-1,-1,-1,-1,-1
555,3.0164,3.0269,3.1765,3.0114,3.0334,3.0106,3.056,3.015,3.0186,3.0132,-1,-1,-1,-1,-1,-1,-1,-1,-1,-1
556,3.0164,3.0269,3.1765,3.0114,3.0339,3.0106,3.056,3.0159,3.0186,3.0132,-1,-1,-1,-1,-1,-1,-1,-1,-1,-1
557,3.0164,3.0269,3.1765,3.0114,3.0339,3.0106,3.056,3.0159,3.0186,3.0132,-1,-1,-1,-1,-1,-1,-1,-1,-1,-1
558,3.0164,3.0269,3.1772,3.0114,3.0339,3.0106,3.056,3.0159,3.0186,3.0132,-1,-1,-1,-1,-1,-1,-1,-1,-1,-1
559,3.0164,3.0269,3.1772,3.0114,3.0339,3.0106,3.0565,3.0159,3.0191,3.0132,-1,-1,-1,-1,-1,-1,-1,-1,-1,-1
560,3.0164,3.0273,3.1772,3.0114,3.0339,3.0106,3.0565,3.0159,3.0191,3.0141,-1,-1,-1,-1,-1,-1,-1,-1,-1,-1
561,3.0164,3.0273,3.1778,3.0114,3.0339,3.0106,3.0565,3.0159,3.0191,3.0141,-1,-1,-1,-1,-1,-1,-1,-1,-1,-1
562,3.0164,3.0273,3.1778,3.0114,3.0339,3.0106,3.0565,3.0159,3.0191,3.0141,-1,-1,-1,-1,-1,-1,-1,-1,-1,-1
563,3.0164,3.0273,3.1785,3.0114,3.0339,3.0106,3.0565,3.0159,3.0191,3.0141,-1,-1,-1,-1,-1,-1,-1,-1,-1,-1
564,3.0164,3.0273,3.1785,3.0114,3.0339,3.0106,3.0565,3.0159,3.0191,3.0141,-1,-1,-1,-1,-1,-1,-1,-1,-1,-1
565,3.0164,3.0273,3.1785,3.0123,3.0339,3.0106,3.0575,3.0159,3.0191,3.0141,-1,-1,-1,-1,-1,-1,-1,-1,-1,-1
566,3.0164,3.0273,3.1791,3.0123,3.0348,3.0106,3.0575,3.0159,3.0191,3.0141,-1,-1,-1,-1,-1,-1,-1,-1,-1,-1
567,3.0164,3.0273,3.1791,3.0123,3.0348,3.0106,3.0575,3.0159,3.0191,3.0141,-1,-1,-1,-1,-1,-1,-1,-1,-1,-1
568,3.0164,3.0283,3.1791,3.0123,3.0348,3.0106,3.0575,3.0159,3.0191,3.0141,-1,-1,-1,-1,-1,-1,-1,-1,-1,-1
569,3.0164,3.0283,3.1791,3.0123,3.0348,3.0106,3.0575,3.0159,3.0191,3.0141,-1,-1,-1,-1,-1,-1,-1,-1,-1,-1
570,3.0164,3.0283,3.1798,3.0123,3.0348,3.0106,3.0575,3.0164,3.0191,3.0141,-1,-1,-1,-1,-1,-1,-1,-1,-1,-1
571,3.0168,3.0283,3.1798,3.0123,3.0348,3.0106,3.058,3.0164,3.0191,3.0141,-1,-1,-1,-1,-1,-1,-1,-1,-1,-1
572,3.0168,3.0283,3.1798,3.0123,3.0348,3.0106,3.058,3.0164,3.0191,3.0141,-1,-1,-1,-1,-1,-1,-1,-1,-1,-1
573,3.0168,3.0283,3.1798,3.0123,3.0348,3.0106,3.058,3.0164,3.0191,3.0141,-1,-1,-1,-1,-1,-1,-1,-1,-1,-1
574,3.0168,3.0283,3.1798,3.0123,3.0348,3.0106,3.058,3.0164,3.0191,3.0141,-1,-1,-1,-1,-1,-1,-1,-1,-1,-1
575,3.0168,3.0283,3.1811,3.0123,3.0348,3.0106,3.058,3.0164,3.0191,3.0141,-1,-1,-1,-1,-1,-1,-1,-1,-1,-1
576,3.0168,3.0287,3.1818,3.0123,3.0348,3.0106,3.058,3.0164,3.0191,3.0141,-1,-1,-1,-1,-1,-1,-1,-1,-1,-1
577,3.0168,3.0287,3.1818,3.0123,3.0353,3.0106,3.058,3.0164,3.0191,3.0141,-1,-1,-1,-1,-1,-1,-1,-1,-1,-1
578,3.0168,3.0287,3.1824,3.0123,3.0353,3.011,3.058,3.0164,3.0191,3.0146,-1,-1,-1,-1,-1,-1,-1,-1,-1,-1
579,3.0168,3.0287,3.1831,3.0123,3.0353,3.011,3.0585,3.0164,3.0191,3.0146,-1,-1,-1,-1,-1,-1,-1,-1,-1,-1
580,3.0168,3.0287,3.1844,3.0123,3.0353,3.011,3.0585,3.0164,3.0191,3.0146,-1,-1,-1,-1,-1,-1,-1,-1,-1,-1
581,3.0168,3.0287,3.1851,3.0123,3.0353,3.011,3.0585,3.0164,3.0191,3.0146,-1,-1,-1,-1,-1,-1,-1,-1,-1,-1
582,3.0168,3.0287,3.1851,3.0123,3.0353,3.011,3.0585,3.0164,3.0191,3.0146,-1,-1,-1,-1,-1,-1,-1,-1,-1,-1
583,3.0168,3.0287,3.1864,3.0123,3.0353,3.011,3.059,3.0164,3.0191,3.0146,-1,-1,-1,-1,-1,-1,-1,-1,-1,-1
584,3.0168,3.0287,3.1864,3.0123,3.0353,3.011,3.059,3.0164,3.0191,3.0146,-1,-1,-1,-1,-1,-1,-1,-1,-1,-1
585,3.0168,3.0287,3.1871,3.0123,3.0353,3.011,3.059,3.0164,3.02,3.0146,-1,-1,-1,-1,-1,-1,-1,-1,-1,-1
586,3.0168,3.0287,3.1878,3.0123,3.0353,3.011,3.059,3.0168,3.02,3.0146,-1,-1,-1,-1,-1,-1,-1,-1,-1,-1
587,3.0168,3.0292,3.1884,3.0123,3.0353,3.011,3.059,3.0168,3.02,3.0146,-1,-1,-1,-1,-1,-1,-1,-1,-1,-1
588,3.0168,3.0292,3.1884,3.0123,3.0357,3.011,3.059,3.0168,3.02,3.0146,-1,-1,-1,-1,-1,-1,-1,-1,-1,-1
589,3.0168,3.0292,3.1891,3.0123,3.0357,3.011,3.0595,3.0168,3.02,3.0146,-1,-1,-1,-1,-1,-1,-1,-1,-1,-1
590,3.0168,3.0292,3.1891,3.0123,3.0357,3.011,3.0595,3.0168,3.02,3.0146,-1,-1,-1,-1,-1,-1,-1,-1,-1,-1
591,3.0168,3.0292,3.1898,3.0123,3.0357,3.011,3.0595,3.0168,3.02,3.0146,-1,-1,-1,-1,-1,-1,-1,-1,-1,-1
592,3.0168,3.0292,3.1904,3.0123,3.0357,3.011,3.0595,3.0168,3.02,3.0146,-1,-1,-1,-1,-1,-1,-1,-1,-1,-1
593,3.0168,3.0292,3.1904,3.0128,3.0357,3.011,3.0605,3.0168,3.02,3.0146,-1,-1,-1,-1,-1,-1,-1,-1,-1,-1
594,3.0168,3.0292,3.1911,3.0128,3.0357,3.011,3.0605,3.0168,3.02,3.0146,-1,-1,-1,-1,-1,-1,-1,-1,-1,-1
595,3.0173,3.0292,3.1918,3.0128,3.0357,3.011,3.0605,3.0168,3.02,3.015,-1,-1,-1,-1,-1,-1,-1,-1,-1,-1
596,3.0173,3.0292,3.1925,3.0128,3.0362,3.011,3.0605,3.0168,3.02,3.015,-1,-1,-1,-1,-1,-1,-1,-1,-1,-1
597,3.0173,3.0297,3.1925,3.0128,3.0362,3.011,3.0605,3.0168,3.02,3.015,-1,-1,-1,-1,-1,-1,-1,-1,-1,-1
598,3.0173,3.0297,3.1931,3.0128,3.0362,3.011,3.0605,3.0168,3.02,3.015,-1,-1,-1,-1,-1,-1,-1,-1,-1,-1
599,3.0173,3.0297,3.1938,3.0128,3.0362,3.0114,3.061,3.0168,3.02,3.015,-1,-1,-1,-1,-1,-1,-1,-1,-1,-1
600,3.0173,3.0297,3.1938,3.0128,3.0362,3.0114,3.061,3.0168,3.0205,3.015,-1,-1,-1,-1,-1,-1,-1,-1,-1,-1
601,3.0173,3.0297,3.1945,3.0128,3.0362,3.0114,3.061,3.0168,3.0205,3.015,-1,-1,-1,-1,-1,-1,-1,-1,-1,-1
602,3.0173,3.0297,3.1945,3.0128,3.0362,3.0114,3.061,3.0168,3.0205,3.015,-1,-1,-1,-1,-1,-1,-1,-1,-1,-1
603,3.0173,3.0297,3.1952,3.0128,3.0362,3.0114,3.061,3.0168,3.0205,3.015,-1,-1,-1,-1,-1,-1,-1,-1,-1,-1
604,3.0173,3.0297,3.1959,3.0128,3.0362,3.0114,3.061,3.0168,3.0205,3.015,-1,-1,-1,-1,-1,-1,-1,-1,-1,-1
605,3.0173,3.0306,3.1959,3.0128,3.0362,3.0114,3.0615,3.0168,3.0205,3.015,-1,-1,-1,-1,-1,-1,-1,-1,-1,-1
606,3.0173,3.0306,3.1965,3.0128,3.0362,3.0114,3.0615,3.0168,3.0205,3.015,-1,-1,-1,-1,-1,-1,-1,-1,-1,-1
607,3.0173,3.0306,3.1965,3.0128,3.0372,3.0114,3.0615,3.0173,3.0205,3.015,-1,-1,-1,-1,-1,-1,-1,-1,-1,-1
608,3.0173,3.0306,3.1972,3.0128,3.0372,3.0114,3.0615,3.0173,3.0205,3.015,-1,-1,-1,-1,-1,-1,-1,-1,-1,-1
609,3.0173,3.0306,3.1972,3.0128,3.0372,3.0114,3.0615,3.0173,3.0205,3.015,-1,-1,-1,-1,-1,-1,-1,-1,-1,-1
610,3.0173,3.0306,3.1979,3.0128,3.0372,3.0114,3.0615,3.0173,3.0205,3.015,-1,-1,-1,-1,-1,-1,-1,-1,-1,-1
611,3.0182,3.0306,3.1979,3.0128,3.0372,3.0114,3.062,3.0173,3.0205,3.015,-1,-1,-1,-1,-1,-1,-1,-1,-1,-1
612,3.0182,3.0306,3.1993,3.0128,3.0372,3.0114,3.062,3.0173,3.0205,3.015,-1,-1,-1,-1,-1,-1,-1,-1,-1,-1
613,3.0182,3.0306,3.1993,3.0128,3.0372,3.0114,3.062,3.0173,3.0209,3.015,-1,-1,-1,-1,-1,-1,-1,-1,-1,-1
614,3.0182,3.0306,3.2,3.0128,3.0376,3.0114,3.062,3.0173,3.0209,3.015,-1,-1,-1,-1,-1,-1,-1,-1,-1,-1
615,3.0182,3.0306,3.2007,3.0128,3.0376,3.0114,3.062,3.0173,3.0209,3.0159,-1,-1,-1,-1,-1,-1,-1,-1,-1,-1
616,3.0182,3.0306,3.2007,3.0128,3.0376,3.0114,3.0625,3.0173,3.0209,3.0159,-1,-1,-1,-1,-1,-1,-1,-1,-1,-1
617,3.0182,3.0311,3.2007,3.0128,3.0376,3.0114,3.0625,3.0173,3.0209,3.0159,-1,-1,-1,-1,-1,-1,-1,-1,-1,-1
618,3.0182,3.0311,3.2013,3.0128,3.0376,3.0114,3.0635,3.0173,3.0209,3.0159,-1,-1,-1,-1,-1,-1,-1,-1,-1,-1
619,3.0182,3.0311,3.2013,3.0132,3.0376,3.0114,3.0635,3.0173,3.0209,3.0159,-1,-1,-1,-1,-1,-1,-1,-1,-1,-1
620,3.0182,3.0311,3.202,3.0132,3.0376,3.0114,3.0635,3.0173,3.0209,3.0159,-1,-1,-1,-1,-1,-1,-1,-1,-1,-1
621,3.0182,3.0311,3.202,3.0132,3.0376,3.0114,3.0635,3.0173,3.0209,3.0159,-1,-1,-1,-1,-1,-1,-1,-1,-1,-1
622,3.0182,3.0311,3.202,3.0132,3.0376,3.0114,3.0635,3.0173,3.0209,3.0159,-1,-1,-1,-1,-1,-1,-1,-1,-1,-1
623,3.0182,3.0311,3.202,3.0132,3.0376,3.0114,3.0635,3.0173,3.0209,3.0159,-1,-1,-1,-1,-1,-1,-1,-1,-1,-1
624,3.0182,3.0311,3.202,3.0132,3.0376,3.0114,3.064,3.0173,3.0209,3.0159,-1,-1,-1,-1,-1,-1,-1,-1,-1,-1
625,3.0182,3.0311,3.202,3.0132,3.0381,3.0114,3.064,3.0173,3.0209,3.0159,-1,-1,-1,-1,-1,-1,-1,-1,-1,-1
626,3.0182,3.0311,3.2027,3.0132,3.0381,3.0114,3.064,3.0173,3.0209,3.0159,-1,-1,-1,-1,-1,-1,-1,-1,-1,-1
627,3.0182,3.0311,3.2048,3.0132,3.0381,3.0123,3.064,3.0182,3.0209,3.0159,-1,-1,-1,-1,-1,-1,-1,-1,-1,-1
628,3.0182,3.0311,3.2048,3.0132,3.0381,3.0123,3.064,3.0182,3.0209,3.0159,-1,-1,-1,-1,-1,-1,-1,-1,-1,-1
629,3.0182,3.0315,3.2055,3.0132,3.0381,3.0123,3.064,3.0182,3.0209,3.0159,-1,-1,-1,-1,-1,-1,-1,-1,-1,-1
630,3.0182,3.0315,3.2062,3.0132,3.0381,3.0123,3.0645,3.0182,3.0209,3.0159,-1,-1,-1,-1,-1,-1,-1,-1,-1,-1
631,3.0182,3.0315,3.2069,3.0132,3.0381,3.0123,3.0645,3.0182,3.0209,3.0159,-1,-1,-1,-1,-1,-1,-1,-1,-1,-1
632,3.0182,3.0315,3.2069,3.0132,3.0381,3.0123,3.0645,3.0182,3.0209,3.0159,-1,-1,-1,-1,-1,-1,-1,-1,-1,-1
633,3.0182,3.0315,3.2076,3.0132,3.0381,3.0123,3.0645,3.0182,3.0209,3.0159,-1,-1,-1,-1,-1,-1,-1,-1,-1,-1
634,3.0182,3.0315,3.2083,3.0132,3.0381,3.0123,3.0645,3.0182,3.0209,3.0159,-1,-1,-1,-1,-1,-1,-1,-1,-1,-1
635,3.0182,3.0315,3.2104,3.0132,3.0381,3.0123,3.065,3.0182,3.0214,3.0159,-1,-1,-1,-1,-1,-1,-1,-1,-1,-1
636,3.0182,3.0315,3.2104,3.0132,3.0381,3.0123,3.065,3.0182,3.0214,3.0159,-1,-1,-1,-1,-1,-1,-1,-1,-1,-1
637,3.0182,3.0315,3.2111,3.0132,3.0381,3.0123,3.065,3.0182,3.0214,3.0159,-1,-1,-1,-1,-1,-1,-1,-1,-1,-1
638,3.0182,3.0315,3.2111,3.0141,3.0381,3.0123,3.065,3.0182,3.0214,3.0159,-1,-1,-1,-1,-1,-1,-1,-1,-1,-1
639,3.0182,3.0315,3.2111,3.0141,3.0386,3.0123,3.065,3.0182,3.0214,3.0159,-1,-1,-1,-1,-1,-1,-1,-1,-1,-1
640,3.0182,3.0315,3.2111,3.0141,3.0386,3.0123,3.065,3.0182,3.0214,3.0159,-1,-1,-1,-1,-1,-1,-1,-1,-1,-1
641,3.0182,3.0315,3.2125,3.0141,3.0386,3.0123,3.0655,3.0182,3.0214,3.0159,-1,-1,-1,-1,-1,-1,-1,-1,-1,-1
642,3.0186,3.0325,3.2125,3.0141,3.0386,3.0123,3.0665,3.0182,3.0214,3.0159,-1,-1,-1,-1,-1,-1,-1,-1,-1,-1
643,3.0186,3.0325,3.2125,3.0141,3.0386,3.0123,3.0665,3.0182,3.0214,3.0159,-1,-1,-1,-1,-1,-1,-1,-1,-1,-1
644,3.0186,3.0325,3.2132,3.0141,3.0386,3.0123,3.0665,3.0182,3.0214,3.0159,-1,-1,-1,-1,-1,-1,-1,-1,-1,-1
645,3.0186,3.0325,3.2147,3.0141,3.0386,3.0123,3.0665,3.0182,3.0214,3.0159,-1,-1,-1,-1,-1,-1,-1,-1,-1,-1
646,3.0186,3.0325,3.2147,3.0141,3.0386,3.0123,3.0665,3.0182,3.0214,3.0159,-1,-1,-1,-1,-1,-1,-1,-1,-1,-1
647,3.0186,3.0325,3.2154,3.0141,3.0386,3.0123,3.0665,3.0182,3.0214,3.0159,-1,-1,-1,-1,-1,-1,-1,-1,-1,-1
648,3.0186,3.0325,3.2154,3.0141,3.0386,3.0123,3.067,3.0182,3.0223,3.0159,-1,-1,-1,-1,-1,-1,-1,-1,-1,-1
649,3.0186,3.0325,3.2154,3.0141,3.0395,3.0123,3.067,3.0186,3.0223,3.0164,-1,-1,-1,-1,-1,-1,-1,-1,-1,-1
650,3.0186,3.0325,3.2161,3.0141,3.0395,3.0123,3.067,3.0186,3.0223,3.0164,-1,-1,-1,-1,-1,-1,-1,-1,-1,-1
651,3.0186,3.0325,3.2161,3.0141,3.0395,3.0123,3.067,3.0186,3.0223,3.0164,-1,-1,-1,-1,-1,-1,-1,-1,-1,-1
652,3.0186,3.0325,3.2161,3.0141,3.0395,3.0123,3.067,3.0186,3.0223,3.0164,-1,-1,-1,-1,-1,-1,-1,-1,-1,-1
653,3.0186,3.0325,3.2168,3.0141,3.0395,3.0128,3.0675,3.0186,3.0223,3.0164,-1,-1,-1,-1,-1,-1,-1,-1,-1,-1
654,3.0186,3.0325,3.2175,3.0141,3.0395,3.0128,3.068,3.0186,3.0223,3.0164,-1,-1,-1,-1,-1,-1,-1,-1,-1,-1
655,3.0186,3.0325,3.2175,3.0141,3.0395,3.0128,3.068,3.0186,3.0223,3.0164,-1,-1,-1,-1,-1,-1,-1,-1,-1,-1
656,3.0186,3.0325,3.2175,3.0141,3.0395,3.0128,3.068,3.0186,3.0223,3.0164,-1,-1,-1,-1,-1,-1,-1,-1,-1,-1
657,3.0186,3.0325,3.2182,3.0146,3.0395,3.0128,3.068,3.0186,3.0223,3.0164,-1,-1,-1,-1,-1,-1,-1,-1,-1,-1
658,3.0186,3.0325,3.219,3.0146,3.0395,3.0128,3.0685,3.0186,3.0223,3.0164,-1,-1,-1,-1,-1,-1,-1,-1,-1,-1
659,3.0186,3.0325,3.2197,3.0146,3.0395,3.0128,3.0685,3.0186,3.0223,3.0164,-1,-1,-1,-1,-1,-1,-1,-1,-1,-1
660,3.0186,3.0325,3.2211,3.0146,3.0395,3.0128,3.0685,3.0186,3.0223,3.0164,-1,-1,-1,-1,-1,-1,-1,-1,-1,-1
661,3.0191,3.0325,3.2211,3.0146,3.0395,3.0128,3.0685,3.0186,3.0223,3.0164,-1,-1,-1,-1,-1,-1,-1,-1,-1,-1
662,3.0191,3.0329,3.2211,3.0146,3.0395,3.0128,3.0691,3.0186,3.0223,3.0164,-1,-1,-1,-1,-1,-1,-1,-1,-1,-1
663,3.0191,3.0329,3.2218,3.0146,3.0395,3.0128,3.0691,3.0186,3.0223,3.0164,-1,-1,-1,-1,-1,-1,-1,-1,-1,-1
664,3.0191,3.0329,3.2226,3.0146,3.04,3.0128,3.0691,3.0186,3.0227,3.0164,-1,-1,-1,-1,-1,-1,-1,-1,-1,-1
665,3.0191,3.0329,3.2226,3.0146,3.04,3.0128,3.0691,3.0186,3.0227,3.0164,-1,-1,-1,-1,-1,-1,-1,-1,-1,-1
666,3.0191,3.0329,3.2233,3.0146,3.04,3.0128,3.0691,3.0186,3.0227,3.0164,-1,-1,-1,-1,-1,-1,-1,-1,-1,-1
667,3.0191,3.0329,3.224,3.0146,3.04,3.0128,3.0691,3.0186,3.0227,3.0164,-1,-1,-1,-1,-1,-1,-1,-1,-1,-1
668,3.0191,3.0329,3.2248,3.0146,3.0405,3.0128,3.0691,3.0186,3.0227,3.0164,-1,-1,-1,-1,-1,-1,-1,-1,-1,-1
669,3.0191,3.0329,3.2248,3.0146,3.0405,3.0128,3.0691,3.0186,3.0227,3.0164,-1,-1,-1,-1,-1,-1,-1,-1,-1,-1
670,3.0191,3.0329,3.2248,3.0146,3.0405,3.0128,3.0691,3.0191,3.0227,3.0164,-1,-1,-1,-1,-1,-1,-1,-1,-1,-1
671,3.0191,3.0334,3.2255,3.0146,3.0405,3.0128,3.0691,3.0191,3.0227,3.0164,-1,-1,-1,-1,-1,-1,-1,-1,-1,-1
672,3.0191,3.0334,3.2255,3.0146,3.0405,3.0128,3.0691,3.0191,3.0227,3.0164,-1,-1,-1,-1,-1,-1,-1,-1,-1,-1
673,3.0191,3.0334,3.2262,3.0146,3.0405,3.0128,3.0701,3.0191,3.0227,3.0164,-1,-1,-1,-1,-1,-1,-1,-1,-1,-1
674,3.0191,3.0334,3.2262,3.0146,3.041,3.0128,3.0701,3.0191,3.0227,3.0164,-1,-1,-1,-1,-1,-1,-1,-1,-1,-1
675,3.0191,3.0334,3.2269,3.0146,3.041,3.0128,3.0701,3.0191,3.0227,3.0164,-1,-1,-1,-1,-1,-1,-1,-1,-1,-1
676,3.0191,3.0334,3.2269,3.0146,3.041,3.0128,3.0701,3.0191,3.0227,3.0164,-1,-1,-1,-1,-1,-1,-1,-1,-1,-1
677,3.0191,3.0334,3.2269,3.0146,3.041,3.0128,3.0701,3.0191,3.0232,3.0164,-1,-1,-1,-1,-1,-1,-1,-1,-1,-1
678,3.0191,3.0334,3.2277,3.0146,3.041,3.0128,3.0701,3.0191,3.0232,3.0164,-1,-1,-1,-1,-1,-1,-1,-1,-1,-1
679,3.0191,3.0334,3.2284,3.0146,3.041,3.0132,3.0701,3.0191,3.0232,3.0164,-1,-1,-1,-1,-1,-1,-1,-1,-1,-1
680,3.0191,3.0334,3.2291,3.0146,3.041,3.0132,3.0706,3.0191,3.0232,3.0164,-1,-1,-1,-1,-1,-1,-1,-1,-1,-1
681,3.0191,3.0334,3.2291,3.0146,3.041,3.0132,3.0706,3.0191,3.0232,3.0168,-1,-1,-1,-1,-1,-1,-1,-1,-1,-1
682,3.02,3.0334,3.2291,3.0146,3.041,3.0132,3.0706,3.0191,3.0232,3.0168,-1,-1,-1,-1,-1,-1,-1,-1,-1,-1
683,3.02,3.0339,3.2291,3.0146,3.041,3.0132,3.0706,3.0191,3.0232,3.0168,-1,-1,-1,-1,-1,-1,-1,-1,-1,-1
684,3.02,3.0339,3.2299,3.0146,3.041,3.0132,3.0711,3.0191,3.0232,3.0168,-1,-1,-1,-1,-1,-1,-1,-1,-1,-1
685,3.02,3.0339,3.2299,3.015,3.0419,3.0132,3.0711,3.0191,3.0232,3.0168,-1,-1,-1,-1,-1,-1,-1,-1,-1,-1
686,3.02,3.0339,3.2299,3.015,3.0419,3.0132,3.0711,3.0191,3.0232,3.0168,-1,-1,-1,-1,-1,-1,-1,-1,-1,-1
687,3.02,3.0339,3.2299,3.015,3.0419,3.0132,3.0711,3.0191,3.0232,3.0168,-1,-1,-1,-1,-1,-1,-1,-1,-1,-1
688,3.02,3.0339,3.2306,3.015,3.0419,3.0132,3.0711,3.0191,3.0232,3.0168,-1,-1,-1,-1,-1,-1,-1,-1,-1,-1
689,3.02,3.0339,3.2314,3.015,3.0419,3.0132,3.0711,3.0191,3.0232,3.0168,-1,-1,-1,-1,-1,-1,-1,-1,-1,-1
690,3.02,3.0339,3.2314,3.015,3.0419,3.0132,3.0716,3.02,3.0232,3.0168,-1,-1,-1,-1,-1,-1,-1,-1,-1,-1
691,3.02,3.0339,3.2321,3.015,3.0419,3.0132,3.0716,3.02,3.0232,3.0168,-1,-1,-1,-1,-1,-1,-1,-1,-1,-1
692,3.02,3.0339,3.2328,3.015,3.0419,3.0132,3.0716,3.02,3.0232,3.0168,-1,-1,-1,-1,-1,-1,-1,-1,-1,-1
693,3.02,3.0348,3.2343,3.015,3.0419,3.0132,3.0716,3.02,3.0232,3.0168,-1,-1,-1,-1,-1,-1,-1,-1,-1,-1
694,3.02,3.0348,3.2343,3.015,3.0419,3.0132,3.0716,3.02,3.0232,3.0168,-1,-1,-1,-1,-1,-1,-1,-1,-1,-1
695,3.02,3.0348,3.2351,3.015,3.0419,3.0132,3.0721,3.02,3.0232,3.0168,-1,-1,-1,-1,-1,-1,-1,-1,-1,-1
696,3.02,3.0348,3.2366,3.015,3.0419,3.0132,3.0721,3.02,3.0241,3.0168,-1,-1,-1,-1,-1,-1,-1,-1,-1,-1
697,3.02,3.0348,3.2366,3.015,3.0419,3.0132,3.0721,3.02,3.0241,3.0168,-1,-1,-1,-1,-1,-1,-1,-1,-1,-1
698,3.02,3.0348,3.2366,3.015,3.0424,3.0132,3.0721,3.02,3.0241,3.0168,-1,-1,-1,-1,-1,-1,-1,-1,-1,-1
699,3.02,3.0348,3.2366,3.015,3.0424,3.0132,3.0721,3.02,3.0241,3.0168,-1,-1,-1,-1,-1,-1,-1,-1,-1,-1
700,3.02,3.0348,3.2373,3.015,3.0424,3.0132,3.0731,3.02,3.0241,3.0168,-1,-1,-1,-1,-1,-1,-1,-1,-1,-1
701,3.02,3.0348,3.2373,3.015,3.0424,3.0132,3.0731,3.02,3.0241,3.0168,-1,-1,-1,-1,-1,-1,-1,-1,-1,-1
702,3.02,3.0348,3.2373,3.015,3.0424,3.0132,3.0731,3.0205,3.0241,3.0168,-1,-1,-1,-1,-1,-1,-1,-1,-1,-1
703,3.02,3.0353,3.2381,3.015,3.0424,3.0132,3.0731,3.0205,3.0241,3.0168,-1,-1,-1,-1,-1,-1,-1,-1,-1,-1
704,3.02,3.0353,3.2381,3.015,3.0424,3.0132,3.0737,3.0205,3.0241,3.0168,-1,-1,-1,-1,-1,-1,-1,-1,-1,-1
705,3.02,3.0353,3.2388,3.015,3.0424,3.0132,3.0737,3.0205,3.0241,3.0168,-1,-1,-1,-1,-1,-1,-1,-1,-1,-1
706,3.02,3.0353,3.2388,3.015,3.0429,3.0132,3.0737,3.0205,3.0241,3.0168,-1,-1,-1,-1,-1,-1,-1,-1,-1,-1
707,3.0205,3.0353,3.2388,3.015,3.0429,3.0132,3.0737,3.0205,3.0246,3.0168,-1,-1,-1,-1,-1,-1,-1,-1,-1,-1
708,3.0205,3.0353,3.2388,3.015,3.0429,3.0132,3.0737,3.0205,3.0246,3.0168,-1,-1,-1,-1,-1,-1,-1,-1,-1,-1
709,3.0205,3.0353,3.2396,3.015,3.0429,3.0132,3.0737,3.0205,3.0246,3.0173,-1,-1,-1,-1,-1,-1,-1,-1,-1,-1
710,3.0205,3.0353,3.2396,3.015,3.0429,3.0132,3.0737,3.0205,3.0246,3.0173,-1,-1,-1,-1,-1,-1,-1,-1,-1,-1
711,3.0205,3.0353,3.2411,3.015,3.0429,3.0132,3.0737,3.0205,3.0246,3.0173,-1,-1,-1,-1,-1,-1,-1,-1,-1,-1
712,3.0205,3.0353,3.2411,3.015,3.0429,3.0132,3.0742,3.0205,3.0246,3.0173,-1,-1,-1,-1,-1,-1,-1,-1,-1,-1
713,3.0205,3.0353,3.2411,3.015,3.0429,3.0132,3.0742,3.0205,3.0246,3.0173,-1,-1,-1,-1,-1,-1,-1,-1,-1,-1
714,3.0205,3.0353,3.2411,3.015,3.0429,3.0132,3.0742,3.0205,3.0246,3.0173,-1,-1,-1,-1,-1,-1,-1,-1,-1,-1
715,3.0205,3.0357,3.2411,3.0159,3.0434,3.0141,3.0742,3.0205,3.025,3.0173,-1,-1,-1,-1,-1,-1,-1,-1,-1,-1
716,3.0205,3.0357,3.2418,3.0159,3.0434,3.0141,3.0742,3.0205,3.025,3.0173,-1,-1,-1,-1,-1,-1,-1,-1,-1,-1
717,3.0205,3.0357,3.2418,3.0159,3.0434,3.0141,3.0742,3.0205,3.025,3.0173,-1,-1,-1,-1,-1,-1,-1,-1,-1,-1
718,3.0205,3.0357,3.2418,3.0159,3.0434,3.0141,3.0742,3.0205,3.025,3.0173,-1,-1,-1,-1,-1,-1,-1,-1,-1,-1
719,3.0205,3.0357,3.2426,3.0159,3.0434,3.0141,3.0742,3.0205,3.025,3.0173,-1,-1,-1,-1,-1,-1,-1,-1,-1,-1
720,3.0205,3.0357,3.2426,3.0159,3.0434,3.0141,3.0742,3.0205,3.025,3.0173,-1,-1,-1,-1,-1,-1,-1,-1,-1,-1
721,3.0205,3.0357,3.2426,3.0159,3.0434,3.0141,3.0742,3.0205,3.025,3.0173,-1,-1,-1,-1,-1,-1,-1,-1,-1,-1
722,3.0205,3.0357,3.2434,3.0159,3.0434,3.0141,3.0742,3.0209,3.025,3.0173,-1,-1,-1,-1,-1,-1,-1,-1,-1,-1
723,3.0205,3.0357,3.2434,3.0159,3.0443,3.0141,3.0747,3.0209,3.025,3.0173,-1,-1,-1,-1,-1,-1,-1,-1,-1,-1
724,3.0205,3.0357,3.2441,3.0159,3.0443,3.0141,3.0747,3.0209,3.025,3.0173,-1,-1,-1,-1,-1,-1,-1,-1,-1,-1
725,3.0205,3.0357,3.2441,3.0159,3.0443,3.0141,3.0747,3.0209,3.025,3.0173,-1,-1,-1,-1,-1,-1,-1,-1,-1,-1
726,3.0205,3.0357,3.2441,3.0159,3.0443,3.0141,3.0752,3.0209,3.025,3.0173,-1,-1,-1,-1,-1,-1,-1,-1,-1,-1
727,3.0205,3.0357,3.2441,3.0159,3.0443,3.0141,3.0752,3.0209,3.025,3.0173,-1,-1,-1,-1,-1,-1,-1,-1,-1,-1
728,3.0205,3.0357,3.2449,3.0159,3.0443,3.0141,3.0752,3.0209,3.025,3.0173,-1,-1,-1,-1,-1,-1,-1,-1,-1,-1
729,3.0209,3.0362,3.2449,3.0159,3.0448,3.0141,3.0752,3.0209,3.025,3.0173,-1,-1,-1,-1,-1,-1,-1,-1,-1,-1
730,3.0209,3.0362,3.2449,3.0159,3.0448,3.0141,3.0752,3.0209,3.025,3.0173,-1,-1,-1,-1,-1,-1,-1,-1,-1,-1
731,3.0209,3.0362,3.2449,3.0159,3.0448,3.0141,3.0752,3.0209,3.025,3.0173,-1,-1,-1,-1,-1,-1,-1,-1,-1,-1
732,3.0209,3.0362,3.2457,3.0159,3.0448,3.0141,3.0752,3.0209,3.0255,3.0173,-1,-1,-1,-1,-1,-1,-1,-1,-1,-1
733,3.0209,3.0362,3.2457,3.0159,3.0448,3.0141,3.0757,3.0209,3.0255,3.0173,-1,-1,-1,-1,-1,-1,-1,-1,-1,-1
734,3.0209,3.0362,3.2457,3.0159,3.0448,3.0141,3.0757,3.0209,3.0255,3.0173,-1,-1,-1,-1,-1,-1,-1,-1,-1,-1
735,3.0209,3.0362,3.2464,3.0159,3.0448,3.0141,3.0757,3.0209,3.0255,3.0173,-1,-1,-1,-1,-1,-1,-1,-1,-1,-1
736,3.0209,3.0362,3.2464,3.0159,3.0448,3.0141,3.0757,3.0209,3.0255,3.0182,-1,-1,-1,-1,-1,-1,-1,-1,-1,-1
737,3.0209,3.0362,3.248,3.0159,3.0453,3.0141,3.0757,3.0209,3.0255,3.0182,-1,-1,-1,-1,-1,-1,-1,-1,-1,-1
738,3.0209,3.0362,3.2487,3.0159,3.0453,3.0141,3.0757,3.0214,3.0255,3.0182,-1,-1,-1,-1,-1,-1,-1,-1,-1,-1
739,3.0209,3.0362,3.2487,3.0159,3.0453,3.0141,3.0757,3.0214,3.0255,3.0182,-1,-1,-1,-1,-1,-1,-1,-1,-1,-1
740,3.0209,3.0362,3.2495,3.0159,3.0453,3.0141,3.0757,3.0214,3.0255,3.0182,-1,-1,-1,-1,-1,-1,-1,-1,-1,-1
741,3.0209,3.0372,3.2495,3.0164,3.0453,3.0141,3.0757,3.0214,3.0255,3.0182,-1,-1,-1,-1,-1,-1,-1,-1,-1,-1
742,3.0209,3.0372,3.2503,3.0164,3.0453,3.0146,3.0768,3.0214,3.0255,3.0182,-1,-1,-1,-1,-1,-1,-1,-1,-1,-1
743,3.0209,3.0372,3.251,3.0164,3.0453,3.0146,3.0768,3.0214,3.0255,3.0182,-1,-1,-1,-1,-1,-1,-1,-1,-1,-1
744,3.0209,3.0372,3.251,3.0164,3.0453,3.0146,3.0768,3.0214,3.0255,3.0182,-1,-1,-1,-1,-1,-1,-1,-1,-1,-1
745,3.0209,3.0372,3.251,3.0164,3.0453,3.0146,3.0768,3.0214,3.0255,3.0182,-1,-1,-1,-1,-1,-1,-1,-1,-1,-1
746,3.0209,3.0372,3.251,3.0164,3.0453,3.0146,3.0768,3.0214,3.0255,3.0182,-1,-1,-1,-1,-1,-1,-1,-1,-1,-1
747,3.0209,3.0372,3.2526,3.0164,3.0453,3.0146,3.0768,3.0214,3.0264,3.0182,-1,-1,-1,-1,-1,-1,-1,-1,-1,-1
748,3.0209,3.0372,3.2534,3.0164,3.0453,3.0146,3.0768,3.0214,3.0264,3.0182,-1,-1,-1,-1,-1,-1,-1,-1,-1,-1
749,3.0209,3.0372,3.2541,3.0164,3.0458,3.0146,3.0768,3.0214,3.0264,3.0182,-1,-1,-1,-1,-1,-1,-1,-1,-1,-1
750,3.0209,3.0372,3.2541,3.0164,3.0458,3.0146,3.0768,3.0214,3.0264,3.0182,-1,-1,-1,-1,-1,-1,-1,-1,-1,-1
751,3.0214,3.0372,3.2549,3.0164,3.0458,3.0146,3.0768,3.0214,3.0264,3.0182,-1,-1,-1,-1,-1,-1,-1,-1,-1,-1
752,3.0214,3.0372,3.2549,3.0164,3.0458,3.0146,3.0773,3.0214,3.0264,3.0182,-1,-1,-1,-1,-1,-1,-1,-1,-1,-1
753,3.0214,3.0372,3.2549,3.0164,3.0458,3.0146,3.0773,3.0214,3.0264,3.0182,-1,-1,-1,-1,-1,-1,-1,-1,-1,-1
754,3.0214,3.0372,3.2549,3.0164,3.0458,3.0146,3.0773,3.0214,3.0264,3.0182,-1,-1,-1,-1,-1,-1,-1,-1,-1,-1
755,3.0214,3.0376,3.2549,3.0164,3.0467,3.0146,3.0773,3.0214,3.0264,3.0182,-1,-1,-1,-1,-1,-1,-1,-1,-1,-1
756,3.0214,3.0376,3.2557,3.0164,3.0467,3.0146,3.0778,3.0214,3.0264,3.0182,-1,-1,-1,-1,-1,-1,-1,-1,-1,-1
757,3.0214,3.0376,3.2557,3.0164,3.0467,3.0146,3.0778,3.0214,3.0264,3.0182,-1,-1,-1,-1,-1,-1,-1,-1,-1,-1
758,3.0214,3.0376,3.2565,3.0164,3.0467,3.0146,3.0778,3.0214,3.0264,3.0182,-1,-1,-1,-1,-1,-1,-1,-1,-1,-1
759,3.0214,3.0376,3.2565,3.0164,3.0467,3.0146,3.0778,3.0214,3.0264,3.0182,-1,-1,-1,-1,-1,-1,-1,-1,-1,-1
760,3.0214,3.0376,3.2565,3.0164,3.0467,3.0146,3.0778,3.0223,3.0264,3.0182,-1,-1,-1,-1,-1,-1,-1,-1,-1,-1
761,3.0214,3.0376,3.2573,3.0164,3.0467,3.0146,3.0783,3.0223,3.0269,3.0186,-1,-1,-1,-1,-1,-1,-1,-1,-1,-1
762,3.0214,3.0376,3.2581,3.0164,3.0467,3.0146,3.0783,3.0223,3.0269,3.0186,-1,-1,-1,-1,-1,-1,-1,-1,-1,-1
763,3.0214,3.0376,3.2581,3.0164,3.0467,3.0146,3.0783,3.0223,3.0269,3.0186,-1,-1,-1,-1,-1,-1,-1,-1,-1,-1
764,3.0214,3.0376,3.2596,3.0168,3.0467,3.0146,3.0783,3.0223,3.0269,3.0186,-1,-1,-1,-1,-1,-1,-1,-1,-1,-1
765,3.0214,3.0376,3.2596,3.0168,3.0467,3.015,3.0788,3.0223,3.0269,3.0186,-1,-1,-1,-1,-1,-1,-1,-1,-1,-1
766,3.0214,3.0376,3.2596,3.0168,3.0467,3.015,3.0788,3.0223,3.0269,3.0186,-1,-1,-1,-1,-1,-1,-1,-1,-1,-1
767,3.0214,3.0381,3.2596,3.0168,3.0467,3.015,3.0788,3.0223,3.0269,3.0186,-1,-1,-1,-1,-1,-1,-1,-1,-1,-1
768,3.0214,3.0381,3.2604,3.0168,3.0467,3.015,3.0788,3.0223,3.0269,3.0186,-1,-1,-1,-1,-1,-1,-1,-1,-1,-1
769,3.0214,3.0381,3.2612,3.0168,3.0467,3.015,3.0794,3.0223,3.0269,3.0186,-1,-1,-1,-1,-1,-1,-1,-1,-1,-1
770,3.0214,3.0381,3.2612,3.0168,3.0467,3.015,3.0804,3.0223,3.0269,3.0186,-1,-1,-1,-1,-1,-1,-1,-1,-1,-1
771,3.0214,3.0381,3.2612,3.0168,3.0472,3.015,3.0804,3.0223,3.0269,3.0186,-1,-1,-1,-1,-1,-1,-1,-1,-1,-1
772,3.0223,3.0381,3.2612,3.0168,3.0472,3.015,3.0804,3.0223,3.0269,3.0186,-1,-1,-1,-1,-1,-1,-1,-1,-1,-1
773,3.0223,3.0381,3.2612,3.0168,3.0472,3.015,3.0804,3.0223,3.0269,3.0186,-1,-1,-1,-1,-1,-1,-1,-1,-1,-1
774,3.0223,3.0381,3.2612,3.0168,3.0472,3.015,3.0809,3.0223,3.0269,3.0186,-1,-1,-1,-1,-1,-1,-1,-1,-1,-1
775,3.0223,3.0381,3.2612,3.0168,3.0472,3.015,3.0809,3.0223,3.0269,3.0186,-1,-1,-1,-1,-1,-1,-1,-1,-1,-1
776,3.0223,3.0381,3.2612,3.0168,3.0472,3.015,3.0809,3.0223,3.0269,3.0186,-1,-1,-1,-1,-1,-1,-1,-1,-1,-1
777,3.0223,3.0381,3.2612,3.0168,3.0472,3.015,3.0809,3.0223,3.0269,3.0186,-1,-1,-1,-1,-1,-1,-1,-1,-1,-1
778,3.0223,3.0381,3.262,3.0168,3.0472,3.015,3.0809,3.0223,3.0269,3.0186,-1,-1,-1,-1,-1,-1,-1,-1,-1,-1
779,3.0223,3.0381,3.262,3.0168,3.0472,3.015,3.0809,3.0227,3.0269,3.0186,-1,-1,-1,-1,-1,-1,-1,-1,-1,-1
780,3.0223,3.0386,3.2628,3.0168,3.0477,3.015,3.0814,3.0227,3.0269,3.0186,-1,-1,-1,-1,-1,-1,-1,-1,-1,-1
781,3.0223,3.0386,3.2628,3.0168,3.0477,3.015,3.0814,3.0227,3.0269,3.0186,-1,-1,-1,-1,-1,-1,-1,-1,-1,-1
782,3.0223,3.0386,3.2644,3.0168,3.0477,3.015,3.0814,3.0227,3.0269,3.0186,-1,-1,-1,-1,-1,-1,-1,-1,-1,-1
783,3.0223,3.0386,3.2644,3.0173,3.0477,3.015,3.0814,3.0227,3.0269,3.0186,-1,-1,-1,-1,-1,-1,-1,-1,-1,-1
784,3.0223,3.0386,3.266,3.0173,3.0477,3.015,3.0814,3.0227,3.0269,3.0186,-1,-1,-1,-1,-1,-1,-1,-1,-1,-1
785,3.0223,3.0386,3.266,3.0173,3.0477,3.015,3.0814,3.0227,3.0269,3.0186,-1,-1,-1,-1,-1,-1,-1,-1,-1,-1
786,3.0223,3.0386,3.266,3.0173,3.0477,3.015,3.082,3.0227,3.0269,3.0186,-1,-1,-1,-1,-1,-1,-1,-1,-1,-1
787,3.0223,3.0386,3.2668,3.0173,3.0477,3.015,3.082,3.0227,3.0273,3.0191,-1,-1,-1,-1,-1,-1,-1,-1,-1,-1
788,3.0223,3.0386,3.2716,3.0173,3.0477,3.015,3.082,3.0227,3.0273,3.0191,-1,-1,-1,-1,-1,-1,-1,-1,-1,-1
789,3.0223,3.0395,3.2716,3.0173,3.0477,3.015,3.082,3.0227,3.0273,3.0191,-1,-1,-1,-1,-1,-1,-1,-1,-1,-1
790,3.0223,3.0395,3.2716,3.0173,3.0477,3.015,3.0825,3.0227,3.0273,3.0191,-1,-1,-1,-1,-1,-1,-1,-1,-1,-1
791,3.0223,3.0395,3.2716,3.0173,3.0482,3.0159,3.0825,3.0227,3.0273,3.0191,-1,-1,-1,-1,-1,-1,-1,-1,-1,-1
792,3.0223,3.0395,3.2733,3.0173,3.0482,3.0159,3.0825,3.0232,3.0273,3.0191,-1,-1,-1,-1,-1,-1,-1,-1,-1,-1
793,3.0223,3.0395,3.2733,3.0173,3.0482,3.0159,3.0825,3.0232,3.0273,3.0191,-1,-1,-1,-1,-1,-1,-1,-1,-1,-1
794,3.0227,3.0395,3.2741,3.0173,3.0482,3.0159,3.0825,3.0232,3.0273,3.0191,-1,-1,-1,-1,-1,-1,-1,-1,-1,-1
795,3.0227,3.0395,3.2749,3.0173,3.0482,3.0159,3.0825,3.0232,3.0273,3.0191,-1,-1,-1,-1,-1,-1,-1,-1,-1,-1
796,3.0227,3.0395,3.2749,3.0173,3.0482,3.0159,3.0825,3.0232,3.0273,3.0191,-1,-1,-1,-1,-1,-1,-1,-1,-1,-1
797,3.0227,3.0395,3.2757,3.0173,3.0482,3.0159,3.0825,3.0232,3.0273,3.0191,-1,-1,-1,-1,-1,-1,-1,-1,-1,-1
798,3.0227,3.0395,3.2757,3.0173,3.0482,3.0159,3.083,3.0232,3.0283,3.0191,-1,-1,-1,-1,-1,-1,-1,-1,-1,-1
799,3.0227,3.0395,3.2765,3.0173,3.0482,3.0159,3.083,3.0232,3.0283,3.0191,-1,-1,-1,-1,-1,-1,-1,-1,-1,-1
800,3.0227,3.0395,3.2765,3.0173,3.0482,3.0159,3.083,3.0232,3.0283,3.0191,-1,-1,-1,-1,-1,-1,-1,-1,-1,-1
801,3.0227,3.04,3.2765,3.0173,3.0482,3.0159,3.083,3.0232,3.0283,3.0191,-1,-1,-1,-1,-1,-1,-1,-1,-1,-1
802,3.0227,3.04,3.2774,3.0173,3.0491,3.0159,3.0835,3.0232,3.0283,3.0191,-1,-1,-1,-1,-1,-1,-1,-1,-1,-1
803,3.0227,3.04,3.2782,3.0182,3.0491,3.0159,3.0835,3.0232,3.0283,3.0191,-1,-1,-1,-1,-1,-1,-1,-1,-1,-1
804,3.0227,3.04,3.279,3.0182,3.0491,3.0159,3.0835,3.0232,3.0283,3.0191,-1,-1,-1,-1,-1,-1,-1,-1,-1,-1
805,3.0227,3.04,3.279,3.0182,3.0491,3.0159,3.0835,3.0232,3.0283,3.0191,-1,-1,-1,-1,-1,-1,-1,-1,-1,-1
806,3.0227,3.04,3.279,3.0182,3.0491,3.0159,3.0835,3.0232,3.0283,3.0191,-1,-1,-1,-1,-1,-1,-1,-1,-1,-1
807,3.0227,3.04,3.2798,3.0182,3.0491,3.0159,3.0835,3.0232,3.0283,3.0191,-1,-1,-1,-1,-1,-1,-1,-1,-1,-1
808,3.0227,3.04,3.2807,3.0182,3.0491,3.0159,3.0835,3.0241,3.0283,3.0191,-1,-1,-1,-1,-1,-1,-1,-1,-1,-1
809,3.0227,3.04,3.2807,3.0182,3.0491,3.0159,3.0846,3.0241,3.0283,3.0191,-1,-1,-1,-1,-1,-1,-1,-1,-1,-1
810,3.0227,3.04,3.2807,3.0182,3.0496,3.0159,3.0846,3.0241,3.0283,3.0191,-1,-1,-1,-1,-1,-1,-1,-1,-1,-1
811,3.0227,3.04,3.2807,3.0182,3.0496,3.0159,3.0846,3.0241,3.0283,3.0191,-1,-1,-1,-1,-1,-1,-1,-1,-1,-1
812,3.0232,3.04,3.2823,3.0182,3.0496,3.0159,3.0846,3.0241,3.0283,3.0191,-1,-1,-1,-1,-1,-1,-1,-1,-1,-1
813,3.0232,3.04,3.2823,3.0182,3.0496,3.0159,3.0846,3.0241,3.0283,3.0191,-1,-1,-1,-1,-1,-1,-1,-1,-1,-1
814,3.0232,3.04,3.2823,3.0182,3.0496,3.0159,3.0846,3.0241,3.0283,3.0191,-1,-1,-1,-1,-1,-1,-1,-1,-1,-1
815,3.0232,3.04,3.2832,3.0182,3.0496,3.0159,3.0846,3.0241,3.0283,3.0191,-1,-1,-1,-1,-1,-1,-1,-1,-1,-1
816,3.0232,3.0405,3.2832,3.0182,3.0496,3.0159,3.0846,3.0241,3.0287,3.0191,-1,-1,-1,-1,-1,-1,-1,-1,-1,-1
817,3.0232,3.0405,3.284,3.0182,3.0496,3.0164,3.0846,3.0241,3.0287,3.0191,-1,-1,-1,-1,-1,-1,-1,-1,-1,-1
818,3.0232,3.0405,3.284,3.0182,3.0496,3.0164,3.0851,3.0241,3.0287,3.0191,-1,-1,-1,-1,-1,-1,-1,-1,-1,-1
819,3.0232,3.0405,3.2848,3.0182,3.0501,3.0164,3.0851,3.0241,3.0287,3.02,-1,-1,-1,-1,-1,-1,-1,-1,-1,-1
820,3.0232,3.0405,3.2857,3.0182,3.0501,3.0164,3.0851,3.0241,3.0287,3.02,-1,-1,-1,-1,-1,-1,-1,-1,-1,-1
821,3.0232,3.0405,3.2857,3.0182,3.0501,3.0164,3.0851,3.0241,3.0287,3.02,-1,-1,-1,-1,-1,-1,-1,-1,-1,-1
822,3.0232,3.0405,3.2857,3.0182,3.0501,3.0164,3.0857,3.0241,3.0287,3.02,-1,-1,-1,-1,-1,-1,-1,-1,-1,-1
823,3.0232,3.0405,3.2865,3.0186,3.0506,3.0164,3.0857,3.0241,3.0287,3.02,-1,-1,-1,-1,-1,-1,-1,-1,-1,-1
824,3.0232,3.041,3.2865,3.0186,3.0506,3.0164,3.0857,3.0241,3.0287,3.02,-1,-1,-1,-1,-1,-1,-1,-1,-1,-1
825,3.0232,3.041,3.2865,3.0186,3.0506,3.0164,3.0857,3.0241,3.0287,3.02,-1,-1,-1,-1,-1,-1,-1,-1,-1,-1
826,3.0232,3.041,3.2865,3.0186,3.0506,3.0164,3.0857,3.0241,3.0287,3.02,-1,-1,-1,-1,-1,-1,-1,-1,-1,-1
827,3.0232,3.041,3.289,3.0186,3.0506,3.0164,3.0857,3.0246,3.0287,3.02,-1,-1,-1,-1,-1,-1,-1,-1,-1,-1
828,3.0241,3.041,3.2907,3.0186,3.0511,3.0164,3.0857,3.0246,3.0287,3.02,-1,-1,-1,-1,-1,-1,-1,-1,-1,-1
829,3.0241,3.041,3.2907,3.0186,3.0511,3.0164,3.0857,3.0246,3.0287,3.02,-1,-1,-1,-1,-1,-1,-1,-1,-1,-1
830,3.0241,3.041,3.2907,3.0186,3.0511,3.0164,3.0857,3.0246,3.0287,3.02,-1,-1,-1,-1,-1,-1,-1,-1,-1,-1
831,3.0241,3.041,3.2916,3.0186,3.0511,3.0164,3.0857,3.0246,3.0287,3.02,-1,-1,-1,-1,-1,-1,-1,-1,-1,-1
832,3.0241,3.041,3.2916,3.0186,3.0511,3.0164,3.0857,3.0246,3.0287,3.02,-1,-1,-1,-1,-1,-1,-1,-1,-1,-1
833,3.0241,3.041,3.2916,3.0186,3.0521,3.0164,3.0857,3.0246,3.0287,3.02,-1,-1,-1,-1,-1,-1,-1,-1,-1,-1
834,3.0241,3.041,3.2924,3.0186,3.0521,3.0164,3.0857,3.0246,3.0287,3.02,-1,-1,-1,-1,-1,-1,-1,-1,-1,-1
835,3.0241,3.041,3.2924,3.0186,3.0521,3.0164,3.0857,3.0246,3.0287,3.02,-1,-1,-1,-1,-1,-1,-1,-1,-1,-1
836,3.0241,3.041,3.2933,3.0186,3.0521,3.0164,3.0862,3.0246,3.0287,3.02,-1,-1,-1,-1,-1,-1,-1,-1,-1,-1
837,3.0241,3.0419,3.2941,3.0186,3.0521,3.0164,3.0862,3.0246,3.0287,3.02,-1,-1,-1,-1,-1,-1,-1,-1,-1,-1
838,3.0241,3.0419,3.295,3.0186,3.0521,3.0164,3.0862,3.0246,3.0287,3.02,-1,-1,-1,-1,-1,-1,-1,-1,-1,-1
839,3.0241,3.0419,3.295,3.0186,3.0521,3.0164,3.0862,3.0246,3.0287,3.02,-1,-1,-1,-1,-1,-1,-1,-1,-1,-1
840,3.0241,3.0419,3.2967,3.0186,3.0526,3.0164,3.0867,3.0246,3.0292,3.02,-1,-1,-1,-1,-1,-1,-1,-1,-1,-1
841,3.0241,3.0419,3.2967,3.0186,3.0526,3.0164,3.0867,3.0246,3.0292,3.02,-1,-1,-1,-1,-1,-1,-1,-1,-1,-1
842,3.0241,3.0419,3.2967,3.0186,3.0526,3.0164,3.0867,3.0246,3.0292,3.02,-1,-1,-1,-1,-1,-1,-1,-1,-1,-1
843,3.0241,3.0424,3.2984,3.0186,3.0526,3.0168,3.0867,3.0246,3.0292,3.02,-1,-1,-1,-1,-1,-1,-1,-1,-1,-1
844,3.0246,3.0424,3.2984,3.0186,3.0526,3.0168,3.0867,3.0246,3.0292,3.02,-1,-1,-1,-1,-1,-1,-1,-1,-1,-1
845,3.0246,3.0424,3.2984,3.0186,3.0526,3.0168,3.0867,3.0246,3.0292,3.02,-1,-1,-1,-1,-1,-1,-1,-1,-1,-1
846,3.0246,3.0424,3.2984,3.0186,3.0526,3.0168,3.0867,3.0246,3.0292,3.02,-1,-1,-1,-1,-1,-1,-1,-1,-1,-1
847,3.0246,3.0424,3.2993,3.0186,3.0526,3.0168,3.0872,3.025,3.0292,3.02,-1,-1,-1,-1,-1,-1,-1,-1,-1,-1
848,3.0246,3.0424,3.3002,3.0186,3.0526,3.0168,3.0872,3.025,3.0292,3.02,-1,-1,-1,-1,-1,-1,-1,-1,-1,-1
849,3.0246,3.0424,3.3002,3.0186,3.0526,3.0168,3.0872,3.025,3.0297,3.02,-1,-1,-1,-1,-1,-1,-1,-1,-1,-1
850,3.0246,3.0424,3.301,3.0186,3.0526,3.0168,3.0883,3.025,3.0297,3.02,-1,-1,-1,-1,-1,-1,-1,-1,-1,-1
851,3.0246,3.0424,3.301,3.0191,3.0526,3.0168,3.0883,3.025,3.0297,3.02,-1,-1,-1,-1,-1,-1,-1,-1,-1,-1
852,3.0246,3.0424,3.301,3.0191,3.0526,3.0168,3.0883,3.025,3.0297,3.02,-1,-1,-1,-1,-1,-1,-1,-1,-1,-1
853,3.0246,3.0429,3.3019,3.0191,3.0526,3.0168,3.0888,3.025,3.0297,3.02,-1,-1,-1,-1,-1,-1,-1,-1,-1,-1
854,3.0246,3.0429,3.3019,3.0191,3.0526,3.0168,3.0888,3.025,3.0297,3.0205,-1,-1,-1,-1,-1,-1,-1,-1,-1,-1
855,3.0246,3.0429,3.3028,3.0191,3.0526,3.0168,3.0894,3.025,3.0297,3.0205,-1,-1,-1,-1,-1,-1,-1,-1,-1,-1
856,3.0246,3.0429,3.3028,3.0191,3.0526,3.0168,3.0894,3.025,3.0297,3.0205,-1,-1,-1,-1,-1,-1,-1,-1,-1,-1
857,3.0246,3.0429,3.3028,3.0191,3.0531,3.0168,3.0894,3.025,3.0297,3.0205,-1,-1,-1,-1,-1,-1,-1,-1,-1,-1
858,3.0246,3.0429,3.3036,3.0191,3.0531,3.0168,3.0899,3.025,3.0297,3.0205,-1,-1,-1,-1,-1,-1,-1,-1,-1,-1
859,3.0246,3.0429,3.3045,3.0191,3.0531,3.0168,3.0899,3.025,3.0297,3.0205,-1,-1,-1,-1,-1,-1,-1,-1,-1,-1
860,3.0246,3.0429,3.3045,3.0191,3.0535,3.0168,3.0899,3.025,3.0297,3.0205,-1,-1,-1,-1,-1,-1,-1,-1,-1,-1
861,3.0246,3.0434,3.3054,3.0191,3.0535,3.0168,3.0899,3.025,3.0297,3.0205,-1,-1,-1,-1,-1,-1,-1,-1,-1,-1
862,3.0246,3.0434,3.3054,3.0191,3.0535,3.0173,3.0904,3.0255,3.0297,3.0205,-1,-1,-1,-1,-1,-1,-1,-1,-1,-1
863,3.0246,3.0434,3.3072,3.0191,3.0535,3.0173,3.0904,3.0255,3.0297,3.0205,-1,-1,-1,-1,-1,-1,-1,-1,-1,-1
864,3.0246,3.0434,3.3072,3.0191,3.0535,3.0173,3.0904,3.0255,3.0297,3.0205,-1,-1,-1,-1,-1,-1,-1,-1,-1,-1
865,3.0246,3.0434,3.3072,3.0191,3.0535,3.0173,3.0904,3.0255,3.0306,3.0205,-1,-1,-1,-1,-1,-1,-1,-1,-1,-1
866,3.0246,3.0434,3.3072,3.0191,3.0535,3.0173,3.0904,3.0255,3.0306,3.0205,-1,-1,-1,-1,-1,-1,-1,-1,-1,-1
867,3.025,3.0434,3.3072,3.0191,3.0535,3.0173,3.091,3.0255,3.0306,3.0205,-1,-1,-1,-1,-1,-1,-1,-1,-1,-1
868,3.025,3.0434,3.3072,3.0191,3.0535,3.0173,3.091,3.0255,3.0306,3.0205,-1,-1,-1,-1,-1,-1,-1,-1,-1,-1
869,3.025,3.0434,3.308,3.0191,3.0545,3.0173,3.091,3.0255,3.0306,3.0205,-1,-1,-1,-1,-1,-1,-1,-1,-1,-1
870,3.025,3.0434,3.308,3.0191,3.0545,3.0173,3.091,3.0255,3.0306,3.0205,-1,-1,-1,-1,-1,-1,-1,-1,-1,-1
871,3.025,3.0434,3.3089,3.0191,3.0545,3.0173,3.091,3.0255,3.0306,3.0205,-1,-1,-1,-1,-1,-1,-1,-1,-1,-1
872,3.025,3.0443,3.3098,3.0191,3.0545,3.0173,3.091,3.0255,3.0306,3.0205,-1,-1,-1,-1,-1,-1,-1,-1,-1,-1
873,3.025,3.0443,3.3098,3.0191,3.0545,3.0173,3.0915,3.0255,3.0306,3.0205,-1,-1,-1,-1,-1,-1,-1,-1,-1,-1
874,3.025,3.0443,3.3098,3.02,3.0545,3.0173,3.0915,3.0255,3.0306,3.0205,-1,-1,-1,-1,-1,-1,-1,-1,-1,-1
875,3.025,3.0443,3.3098,3.02,3.0545,3.0173,3.0915,3.0255,3.0306,3.0205,-1,-1,-1,-1,-1,-1,-1,-1,-1,-1
876,3.025,3.0443,3.3107,3.02,3.0545,3.0173,3.0915,3.0255,3.0306,3.0205,-1,-1,-1,-1,-1,-1,-1,-1,-1,-1
877,3.025,3.0443,3.3107,3.02,3.055,3.0173,3.0915,3.0255,3.0306,3.0209,-1,-1,-1,-1,-1,-1,-1,-1,-1,-1
878,3.025,3.0443,3.3107,3.02,3.055,3.0173,3.0915,3.0255,3.0306,3.0209,-1,-1,-1,-1,-1,-1,-1,-1,-1,-1
879,3.025,3.0443,3.3107,3.02,3.055,3.0173,3.0915,3.0255,3.0306,3.0209,-1,-1,-1,-1,-1,-1,-1,-1,-1,-1
880,3.025,3.0443,3.3116,3.02,3.055,3.0173,3.0915,3.0255,3.0306,3.0209,-1,-1,-1,-1,-1,-1,-1,-1,-1,-1
881,3.025,3.0443,3.3125,3.02,3.055,3.0173,3.0926,3.0255,3.0311,3.0209,-1,-1,-1,-1,-1,-1,-1,-1,-1,-1
882,3.025,3.0443,3.3125,3.02,3.055,3.0173,3.0926,3.0255,3.0311,3.0209,-1,-1,-1,-1,-1,-1,-1,-1,-1,-1
883,3.025,3.0443,3.3134,3.02,3.055,3.0173,3.0926,3.0255,3.0311,3.0209,-1,-1,-1,-1,-1,-1,-1,-1,-1,-1
884,3.025,3.0448,3.3143,3.02,3.055,3.0173,3.0926,3.0255,3.0311,3.0209,-1,-1,-1,-1,-1,-1,-1,-1,-1,-1
885,3.025,3.0448,3.3143,3.02,3.055,3.0173,3.0926,3.0255,3.0311,3.0209,-1,-1,-1,-1,-1,-1,-1,-1,-1,-1
886,3.025,3.0448,3.3152,3.02,3.055,3.0173,3.0926,3.0255,3.0311,3.0209,-1,-1,-1,-1,-1,-1,-1,-1,-1,-1
887,3.0255,3.0448,3.3152,3.02,3.055,3.0173,3.0931,3.0255,3.0311,3.0209,-1,-1,-1,-1,-1,-1,-1,-1,-1,-1
888,3.0255,3.0448,3.3152,3.02,3.055,3.0173,3.0931,3.0255,3.0311,3.0209,-1,-1,-1,-1,-1,-1,-1,-1,-1,-1
889,3.0255,3.0453,3.3161,3.02,3.055,3.0173,3.0931,3.0264,3.0311,3.0209,-1,-1,-1,-1,-1,-1,-1,-1,-1,-1
890,3.0255,3.0453,3.3161,3.02,3.055,3.0173,3.0931,3.0264,3.0311,3.0209,-1,-1,-1,-1,-1,-1,-1,-1,-1,-1
891,3.0255,3.0453,3.3161,3.02,3.055,3.0173,3.0937,3.0264,3.0311,3.0209,-1,-1,-1,-1,-1,-1,-1,-1,-1,-1
892,3.0255,3.0453,3.3161,3.02,3.055,3.0173,3.0937,3.0264,3.0315,3.0209,-1,-1,-1,-1,-1,-1,-1,-1,-1,-1
893,3.0255,3.0453,3.3161,3.02,3.0555,3.0173,3.0942,3.0264,3.0315,3.0209,-1,-1,-1,-1,-1,-1,-1,-1,-1,-1
894,3.0255,3.0453,3.317,3.02,3.0555,3.0173,3.0942,3.0264,3.0315,3.0209,-1,-1,-1,-1,-1,-1,-1,-1,-1,-1
895,3.0255,3.0453,3.317,3.02,3.0555,3.0173,3.0942,3.0264,3.0315,3.0209,-1,-1,-1,-1,-1,-1,-1,-1,-1,-1
896,3.0255,3.0453,3.3179,3.02,3.0555,3.0173,3.0942,3.0264,3.0315,3.0209,-1,-1,-1,-1,-1,-1,-1,-1,-1,-1
897,3.0255,3.0453,3.3197,3.02,3.0555,3.0173,3.0947,3.0264,3.0315,3.0209,-1,-1,-1,-1,-1,-1,-1,-1,-1,-1
898,3.0255,3.0453,3.3197,3.02,3.0555,3.0173,3.0947,3.0264,3.0315,3.0209,-1,-1,-1,-1,-1,-1,-1,-1,-1,-1
899,3.0255,3.0453,3.3197,3.02,3.0555,3.0173,3.0947,3.0264,3.0315,3.0209,-1,-1,-1,-1,-1,-1,-1,-1,-1,-1
900,3.0255,3.0453,3.3206,3.0205,3.056,3.0173,3.0947,3.0264,3.0315,3.0209,-1,-1,-1,-1,-1,-1,-1,-1,-1,-1
901,3.0255,3.0453,3.3206,3.0205,3.056,3.0173,3.0947,3.0264,3.0315,3.0214,-1,-1,-1,-1,-1,-1,-1,-1,-1,-1
902,3.0255,3.0458,3.3215,3.0205,3.056,3.0173,3.0953,3.0264,3.0315,3.0214,-1,-1,-1,-1,-1,-1,-1,-1,-1,-1
903,3.0255,3.0458,3.3224,3.0205,3.056,3.0173,3.0953,3.0264,3.0315,3.0214,-1,-1,-1,-1,-1,-1,-1,-1,-1,-1
904,3.0255,3.0458,3.3224,3.0205,3.056,3.0173,3.0953,3.0264,3.0315,3.0214,-1,-1,-1,-1,-1,-1,-1,-1,-1,-1
905,3.0255,3.0458,3.3224,3.0205,3.056,3.0173,3.0953,3.0264,3.0315,3.0214,-1,-1,-1,-1,-1,-1,-1,-1,-1,-1
906,3.0255,3.0458,3.3233,3.0205,3.056,3.0173,3.0953,3.0264,3.0315,3.0214,-1,-1,-1,-1,-1,-1,-1,-1,-1,-1
907,3.0264,3.0458,3.3242,3.0205,3.056,3.0173,3.0958,3.0264,3.0315,3.0214,-1,-1,-1,-1,-1,-1,-1,-1,-1,-1
908,3.0264,3.0458,3.3251,3.0205,3.056,3.0182,3.0958,3.0264,3.0325,3.0214,-1,-1,-1,-1,-1,-1,-1,-1,-1,-1
909,3.0264,3.0458,3.3251,3.0205,3.056,3.0182,3.0958,3.0264,3.0325,3.0214,-1,-1,-1,-1,-1,-1,-1,-1,-1,-1
910,3.0264,3.0458,3.3261,3.0205,3.056,3.0182,3.0969,3.0269,3.0325,3.0214,-1,-1,-1,-1,-1,-1,-1,-1,-1,-1
911,3.0264,3.0467,3.327,3.0205,3.056,3.0182,3.0969,3.0269,3.0325,3.0214,-1,-1,-1,-1,-1,-1,-1,-1,-1,-1
912,3.0264,3.0467,3.3279,3.0205,3.056,3.0182,3.0969,3.0269,3.0325,3.0214,-1,-1,-1,-1,-1,-1,-1,-1,-1,-1
913,3.0264,3.0467,3.3279,3.0205,3.0565,3.0182,3.0969,3.0269,3.0325,3.0214,-1,-1,-1,-1,-1,-1,-1,-1,-1,-1
914,3.0264,3.0467,3.3279,3.0205,3.0565,3.0182,3.0969,3.0269,3.0325,3.0214,-1,-1,-1,-1,-1,-1,-1,-1,-1,-1
915,3.0264,3.0467,3.3279,3.0205,3.0565,3.0182,3.0975,3.0269,3.0325,3.0214,-1,-1,-1,-1,-1,-1,-1,-1,-1,-1
916,3.0264,3.0467,3.3279,3.0205,3.0565,3.0182,3.0975,3.0269,3.0325,3.0214,-1,-1,-1,-1,-1,-1,-1,-1,-1,-1
917,3.0264,3.0467,3.3288,3.0205,3.0565,3.0182,3.0975,3.0269,3.0325,3.0214,-1,-1,-1,-1,-1,-1,-1,-1,-1,-1
918,3.0264,3.0472,3.3298,3.0205,3.0565,3.0182,3.0975,3.0269,3.0325,3.0214,-1,-1,-1,-1,-1,-1,-1,-1,-1,-1
919,3.0264,3.0472,3.3307,3.0205,3.0565,3.0182,3.0975,3.0269,3.0325,3.0214,-1,-1,-1,-1,-1,-1,-1,-1,-1,-1
920,3.0264,3.0472,3.3307,3.0205,3.0565,3.0182,3.0975,3.0269,3.0325,3.0214,-1,-1,-1,-1,-1,-1,-1,-1,-1,-1
921,3.0264,3.0472,3.3307,3.0205,3.0565,3.0182,3.098,3.0269,3.0325,3.0214,-1,-1,-1,-1,-1,-1,-1,-1,-1,-1
922,3.0264,3.0472,3.3325,3.0205,3.0565,3.0182,3.098,3.0269,3.0325,3.0214,-1,-1,-1,-1,-1,-1,-1,-1,-1,-1
923,3.0264,3.0472,3.3335,3.0205,3.0565,3.0182,3.098,3.0269,3.0325,3.0214,-1,-1,-1,-1,-1,-1,-1,-1,-1,-1
924,3.0269,3.0472,3.3335,3.0205,3.0565,3.0182,3.098,3.0269,3.0325,3.0214,-1,-1,-1,-1,-1,-1,-1,-1,-1,-1
925,3.0269,3.0472,3.3344,3.0205,3.0565,3.0182,3.098,3.0269,3.0325,3.0214,-1,-1,-1,-1,-1,-1,-1,-1,-1,-1
926,3.0269,3.0472,3.3354,3.0205,3.0565,3.0182,3.098,3.0269,3.0325,3.0223,-1,-1,-1,-1,-1,-1,-1,-1,-1,-1
927,3.0269,3.0472,3.3354,3.0205,3.0575,3.0182,3.098,3.0269,3.0325,3.0223,-1,-1,-1,-1,-1,-1,-1,-1,-1,-1
928,3.0269,3.0472,3.3354,3.0209,3.0575,3.0182,3.0985,3.0269,3.0325,3.0223,-1,-1,-1,-1,-1,-1,-1,-1,-1,-1
929,3.0269,3.0472,3.3354,3.0209,3.0575,3.0186,3.0985,3.0269,3.0325,3.0223,-1,-1,-1,-1,-1,-1,-1,-1,-1,-1
930,3.0269,3.0477,3.3363,3.0209,3.0575,3.0186,3.0985,3.0269,3.0325,3.0223,-1,-1,-1,-1,-1,-1,-1,-1,-1,-1
931,3.0269,3.0477,3.3363,3.0209,3.0575,3.0186,3.0985,3.0269,3.0325,3.0223,-1,-1,-1,-1,-1,-1,-1,-1,-1,-1
932,3.0269,3.0477,3.3363,3.0209,3.0575,3.0186,3.0985,3.0269,3.0325,3.0223,-1,-1,-1,-1,-1,-1,-1,-1,-1,-1
933,3.0269,3.0477,3.3363,3.0209,3.0575,3.0186,3.0991,3.0269,3.0325,3.0223,-1,-1,-1,-1,-1,-1,-1,-1,-1,-1
934,3.0269,3.0477,3.3372,3.0209,3.0575,3.0186,3.0991,3.0273,3.0325,3.0223,-1,-1,-1,-1,-1,-1,-1,-1,-1,-1
935,3.0269,3.0477,3.3372,3.0209,3.058,3.0186,3.0991,3.0273,3.0325,3.0223,-1,-1,-1,-1,-1,-1,-1,-1,-1,-1
936,3.0269,3.0477,3.3391,3.0209,3.058,3.0186,3.0991,3.0273,3.0325,3.0223,-1,-1,-1,-1,-1,-1,-1,-1,-1,-1
937,3.0269,3.0477,3.3401,3.0209,3.058,3.0186,3.0991,3.0273,3.0325,3.0223,-1,-1,-1,-1,-1,-1,-1,-1,-1,-1
938,3.0269,3.0477,3.3401,3.0209,3.058,3.0186,3.0991,3.0273,3.0325,3.0223,-1,-1,-1,-1,-1,-1,-1,-1,-1,-1
939,3.0269,3.0477,3.3401,3.0209,3.058,3.0186,3.0996,3.0273,3.0329,3.0223,-1,-1,-1,-1,-1,-1,-1,-1,-1,-1
940,3.0269,3.0477,3.341,3.0209,3.058,3.0186,3.0996,3.0273,3.0329,3.0223,-1,-1,-1,-1,-1,-1,-1,-1,-1,-1
941,3.0269,3.0477,3.341,3.0209,3.058,3.0186,3.1002,3.0273,3.0329,3.0223,-1,-1,-1,-1,-1,-1,-1,-1,-1,-1
942,3.0273,3.0482,3.342,3.0209,3.058,3.0186,3.1002,3.0273,3.0329,3.0223,-1,-1,-1,-1,-1,-1,-1,-1,-1,-1
943,3.0273,3.0482,3.342,3.0209,3.0585,3.0186,3.1002,3.0273,3.0329,3.0223,-1,-1,-1,-1,-1,-1,-1,-1,-1,-1
944,3.0273,3.0482,3.3439,3.0209,3.0585,3.0186,3.1007,3.0273,3.0329,3.0223,-1,-1,-1,-1,-1,-1,-1,-1,-1,-1
945,3.0273,3.0482,3.3439,3.0209,3.0585,3.0186,3.1007,3.0273,3.0329,3.0223,-1,-1,-1,-1,-1,-1,-1,-1,-1,-1
946,3.0273,3.0482,3.3449,3.0209,3.0585,3.0186,3.1007,3.0273,3.0329,3.0223,-1,-1,-1,-1,-1,-1,-1,-1,-1,-1
947,3.0273,3.0482,3.3458,3.0209,3.0585,3.0186,3.1007,3.0273,3.0329,3.0223,-1,-1,-1,-1,-1,-1,-1,-1,-1,-1
948,3.0273,3.0482,3.3458,3.0209,3.0585,3.0186,3.1007,3.0273,3.0329,3.0223,-1,-1,-1,-1,-1,-1,-1,-1,-1,-1
949,3.0273,3.0482,3.3468,3.0209,3.0585,3.0186,3.1007,3.0273,3.0329,3.0223,-1,-1,-1,-1,-1,-1,-1,-1,-1,-1
950,3.0273,3.0482,3.3468,3.0209,3.0585,3.0186,3.1018,3.0273,3.0329,3.0223,-1,-1,-1,-1,-1,-1,-1,-1,-1,-1
951,3.0273,3.0482,3.3468,3.0209,3.0585,3.0186,3.1018,3.0273,3.0329,3.0223,-1,-1,-1,-1,-1,-1,-1,-1,-1,-1
952,3.0273,3.0482,3.3478,3.0214,3.0585,3.0186,3.1024,3.0273,3.0329,3.0223,-1,-1,-1,-1,-1,-1,-1,-1,-1,-1
953,3.0273,3.0482,3.3478,3.0214,3.0585,3.0186,3.1024,3.0273,3.0329,3.0223,-1,-1,-1,-1,-1,-1,-1,-1,-1,-1
954,3.0273,3.0482,3.3478,3.0214,3.0585,3.0186,3.1024,3.0273,3.0329,3.0223,-1,-1,-1,-1,-1,-1,-1,-1,-1,-1
955,3.0273,3.0482,3.3487,3.0214,3.059,3.0186,3.1024,3.0273,3.0329,3.0223,-1,-1,-1,-1,-1,-1,-1,-1,-1,-1
956,3.0273,3.0482,3.3507,3.0214,3.059,3.0191,3.1024,3.0273,3.0329,3.0227,-1,-1,-1,-1,-1,-1,-1,-1,-1,-1
957,3.0273,3.0482,3.3507,3.0214,3.059,3.0191,3.1029,3.0273,3.0329,3.0227,-1,-1,-1,-1,-1,-1,-1,-1,-1,-1
958,3.0273,3.0482,3.3507,3.0214,3.059,3.0191,3.1029,3.0273,3.0329,3.0227,-1,-1,-1,-1,-1,-1,-1,-1,-1,-1
959,3.0273,3.0491,3.3507,3.0214,3.059,3.0191,3.1029,3.0273,3.0329,3.0227,-1,-1,-1,-1,-1,-1,-1,-1,-1,-1
960,3.0273,3.0491,3.3507,3.0214,3.059,3.0191,3.1029,3.0273,3.0329,3.0227,-1,-1,-1,-1,-1,-1,-1,-1,-1,-1
961,3.0273,3.0491,3.3516,3.0214,3.059,3.0191,3.1029,3.0273,3.0329,3.0227,-1,-1,-1,-1,-1,-1,-1,-1,-1,-1
962,3.0273,3.0491,3.3526,3.0214,3.059,3.0191,3.1029,3.0273,3.0334,3.0227,-1,-1,-1,-1,-1,-1,-1,-1,-1,-1
963,3.0273,3.0491,3.3536,3.0214,3.059,3.0191,3.1029,3.0283,3.0334,3.0227,-1,-1,-1,-1,-1,-1,-1,-1,-1,-1
964,3.0273,3.0496,3.3536,3.0214,3.0595,3.0191,3.1035,3.0283,3.0334,3.0227,-1,-1,-1,-1,-1,-1,-1,-1,-1,-1
965,3.0273,3.0496,3.3536,3.0214,3.0595,3.0191,3.1035,3.0283,3.0334,3.0227,-1,-1,-1,-1,-1,-1,-1,-1,-1,-1
966,3.0273,3.0496,3.3556,3.0214,3.0595,3.0191,3.1035,3.0283,3.0334,3.0227,-1,-1,-1,-1,-1,-1,-1,-1,-1,-1
967,3.0283,3.0496,3.3556,3.0214,3.0595,3.0191,3.1035,3.0283,3.0334,3.0227,-1,-1,-1,-1,-1,-1,-1,-1,-1,-1
968,3.0283,3.0496,3.3556,3.0214,3.0595,3.0191,3.104,3.0283,3.0334,3.0227,-1,-1,-1,-1,-1,-1,-1,-1,-1,-1
969,3.0283,3.0496,3.3585,3.0214,3.0595,3.0191,3.104,3.0283,3.0334,3.0227,-1,-1,-1,-1,-1,-1,-1,-1,-1,-1
970,3.0283,3.0496,3.3585,3.0214,3.0595,3.0191,3.104,3.0283,3.0334,3.0227,-1,-1,-1,-1,-1,-1,-1,-1,-1,-1
971,3.0283,3.0496,3.3595,3.0214,3.0605,3.0191,3.104,3.0283,3.0334,3.0227,-1,-1,-1,-1,-1,-1,-1,-1,-1,-1
972,3.0283,3.0496,3.3595,3.0214,3.0605,3.0191,3.104,3.0283,3.0334,3.0227,-1,-1,-1,-1,-1,-1,-1,-1,-1,-1
973,3.0283,3.0496,3.3595,3.0214,3.0605,3.0191,3.104,3.0283,3.0334,3.0227,-1,-1,-1,-1,-1,-1,-1,-1,-1,-1
974,3.0283,3.0496,3.3595,3.0214,3.0605,3.0191,3.1046,3.0283,3.0334,3.0227,-1,-1,-1,-1,-1,-1,-1,-1,-1,-1
