,cluster0,cluster_length0
0,10,188540
1,10,-1
2,10,-1
3,10,-1
4,10,-1
5,10,-1
6,10,-1
7,10,-1
8,10,-1
9,10,-1
10,10,-1
11,10,-1
12,10,-1
13,10,-1
14,10,-1
15,10,-1
16,10,-1
17,10,-1
18,10,-1
19,10,-1
20,10,-1
21,10,-1
22,10,-1
23,10,-1
24,10,-1
25,10,-1
26,10,-1
27,10,-1
28,10,-1
29,10,-1
30,10,-1
31,10,-1
32,10,-1
33,10,-1
34,10,-1
35,10,-1
36,10,-1
37,10,-1
38,10,-1
39,10,-1
40,10,-1
41,10,-1
42,10,-1
43,10,-1
44,10,-1
45,10,-1
46,10,-1
47,10,-1
48,10,-1
49,10,-1
50,10,-1
51,10,-1
52,10,-1
53,10,-1
54,10,-1
55,10,-1
56,10,-1
57,10,-1
58,10,-1
59,10,-1
60,10,-1
61,10,-1
62,10,-1
63,10,-1
64,10,-1
65,10,-1
66,10,-1
67,10,-1
68,10,-1
69,10,-1
70,10,-1
71,10,-1
72,10,-1
73,10,-1
74,10,-1
75,10,-1
76,10,-1
77,10,-1
78,10,-1
79,10,-1
80,10,-1
81,10,-1
82,10,-1
83,10,-1
84,10,-1
85,10,-1
86,10,-1
87,10,-1
88,10,-1
89,10,-1
90,10,-1
91,10,-1
92,10,-1
93,10,-1
94,10,-1
95,10,-1
96,10,-1
97,10,-1
98,10,-1
99,10,-1
100,10,-1
101,10,-1
102,10,-1
103,10,-1
104,10,-1
105,10,-1
106,10,-1
107,10,-1
108,10,-1
109,10,-1
110,10,-1
111,10,-1
112,10,-1
113,10,-1
114,10,-1
115,10,-1
116,10,-1
117,10,-1
118,10,-1
119,10,-1
120,10,-1
121,10,-1
122,10,-1
123,10,-1
124,10,-1
125,10,-1
126,10,-1
127,10,-1
128,10,-1
129,10,-1
130,10,-1
131,10,-1
132,10,-1
133,10,-1
134,10,-1
135,10,-1
136,10,-1
137,10,-1
138,10,-1
139,10,-1
140,10,-1
141,10,-1
142,10,-1
143,10,-1
144,10,-1
145,10,-1
146,10,-1
147,10,-1
148,10,-1
149,10,-1
150,10,-1
151,10,-1
152,10,-1
153,10,-1
154,10,-1
155,10,-1
156,10,-1
157,10,-1
158,10,-1
159,10,-1
160,10,-1
161,10,-1
162,10,-1
163,10,-1
164,10,-1
165,10,-1
166,10,-1
167,10,-1
168,10,-1
169,10,-1
170,10,-1
171,10,-1
172,10,-1
173,10,-1
174,10,-1
175,10,-1
176,10,-1
177,10,-1
178,10,-1
179,10,-1
180,10,-1
181,10,-1
182,10,-1
183,10,-1
184,10,-1
185,10,-1
186,10,-1
187,10,-1
188,10,-1
189,10,-1
190,10,-1
191,10,-1
192,10,-1
193,10,-1
194,10,-1
195,10,-1
196,10,-1
197,10,-1
198,10,-1
199,10,-1
200,10,-1
201,10,-1
202,10,-1
203,10,-1
204,10,-1
205,10,-1
206,10,-1
207,10,-1
208,10,-1
209,10,-1
210,10,-1
211,10,-1
212,10,-1
213,10,-1
214,10,-1
215,10,-1
216,10,-1
217,10,-1
218,10,-1
219,10,-1
220,10,-1
221,10,-1
222,10,-1
223,10,-1
224,10,-1
225,10,-1
226,10,-1
227,10,-1
228,10,-1
229,10,-1
230,10,-1
231,10,-1
232,10,-1
233,10,-1
234,10,-1
235,10,-1
236,10,-1
237,10,-1
238,10,-1
239,10,-1
240,10,-1
241,10,-1
242,10,-1
243,10,-1
244,10,-1
245,10,-1
246,10,-1
247,10,-1
248,10,-1
249,10,-1
250,10,-1
251,10,-1
252,10,-1
253,10,-1
254,10,-1
255,10,-1
256,10,-1
257,10,-1
258,10,-1
259,10,-1
260,10,-1
261,10,-1
262,10,-1
263,10,-1
264,10,-1
265,10,-1
266,10,-1
267,10,-1
268,10,-1
269,10,-1
270,10,-1
271,10,-1
272,10,-1
273,10,-1
274,10,-1
275,10,-1
276,10,-1
277,10,-1
278,10,-1
279,10,-1
280,10,-1
281,10,-1
282,10,-1
283,10,-1
284,10,-1
285,10,-1
286,10,-1
287,10,-1
288,10,-1
289,10,-1
290,10,-1
291,10,-1
292,10,-1
293,10,-1
294,10,-1
295,10,-1
296,10,-1
297,10,-1
298,10,-1
299,10,-1
300,10,-1
301,10,-1
302,10,-1
303,10,-1
304,10,-1
305,10,-1
306,10,-1
307,10,-1
308,10,-1
309,10,-1
310,10,-1
311,10,-1
312,10,-1
313,10,-1
314,10,-1
315,10,-1
316,10,-1
317,10,-1
318,10,-1
319,10,-1
320,10,-1
321,10,-1
322,10,-1
323,10,-1
324,10,-1
325,10,-1
326,10,-1
327,10,-1
328,10,-1
329,10,-1
330,10,-1
331,10,-1
332,10,-1
333,10,-1
334,10,-1
335,10,-1
336,10,-1
337,10,-1
338,10,-1
339,10,-1
340,10,-1
341,10,-1
342,10,-1
343,10,-1
344,10,-1
345,10,-1
346,10,-1
347,10,-1
348,10,-1
349,10,-1
350,10,-1
351,10,-1
352,10,-1
353,10,-1
354,10,-1
355,10,-1
356,10,-1
357,10,-1
358,10,-1
359,10,-1
360,10,-1
361,10,-1
362,10,-1
363,10,-1
364,10,-1
365,10,-1
366,10,-1
367,10,-1
368,10,-1
369,10,-1
370,10,-1
371,10,-1
372,10,-1
373,10,-1
374,10,-1
375,10,-1
376,10,-1
377,10,-1
378,10,-1
379,10,-1
380,10,-1
381,10,-1
382,10,-1
383,10,-1
384,10,-1
385,10,-1
386,10,-1
387,10,-1
388,10,-1
389,10,-1
390,10,-1
391,10,-1
392,10,-1
393,10,-1
394,10,-1
395,10,-1
396,10,-1
397,10,-1
398,10,-1
399,10,-1
400,10,-1
401,10,-1
402,10,-1
403,10,-1
404,10,-1
405,10,-1
406,10,-1
407,10,-1
408,10,-1
409,10,-1
410,10,-1
411,10,-1
412,10,-1
413,10,-1
414,10,-1
415,10,-1
416,10,-1
417,10,-1
418,10,-1
419,10,-1
420,10,-1
421,10,-1
422,10,-1
423,10,-1
424,10,-1
425,10,-1
426,10,-1
427,10,-1
428,10,-1
429,10,-1
430,10,-1
431,10,-1
432,10,-1
433,10,-1
434,10,-1
435,10,-1
436,10,-1
437,10,-1
438,10,-1
439,10,-1
440,10,-1
441,10,-1
442,10,-1
443,10,-1
444,10,-1
445,10,-1
446,10,-1
447,10,-1
448,10,-1
449,10,-1
450,10,-1
451,10,-1
452,10,-1
453,10,-1
454,10,-1
455,10,-1
456,10,-1
457,10,-1
458,10,-1
459,10,-1
460,10,-1
461,10,-1
462,10,-1
463,10,-1
464,10,-1
465,10,-1
466,10,-1
467,10,-1
468,10,-1
469,10,-1
470,10,-1
471,10,-1
472,10,-1
473,10,-1
474,10,-1
475,10,-1
476,10,-1
477,10,-1
478,10,-1
479,10,-1
480,10,-1
481,10,-1
482,10,-1
483,10,-1
484,10,-1
485,10,-1
486,10,-1
487,10,-1
488,10,-1
489,10,-1
490,10,-1
491,10,-1
492,10,-1
493,10,-1
494,10,-1
495,10,-1
496,10,-1
497,10,-1
498,10,-1
499,10,-1
500,10,-1
501,10,-1
502,10,-1
503,10,-1
504,10,-1
505,10,-1
506,10,-1
507,10,-1
508,10,-1
509,10,-1
510,10,-1
511,10,-1
512,10,-1
513,10,-1
514,10,-1
515,10,-1
516,10,-1
517,10,-1
518,10,-1
519,10,-1
520,10,-1
521,10,-1
522,10,-1
523,10,-1
524,10,-1
525,10,-1
526,10,-1
527,10,-1
528,10,-1
529,10,-1
530,10,-1
531,10,-1
532,10,-1
533,10,-1
534,10,-1
535,10,-1
536,10,-1
537,10,-1
538,10,-1
539,10,-1
540,10,-1
541,10,-1
542,10,-1
543,10,-1
544,10,-1
545,10,-1
546,10,-1
547,10,-1
548,10,-1
549,10,-1
550,10,-1
551,10,-1
552,10,-1
553,10,-1
554,10,-1
555,10,-1
556,10,-1
557,10,-1
558,10,-1
559,10,-1
560,10,-1
561,10,-1
562,10,-1
563,10,-1
564,10,-1
565,10,-1
566,10,-1
567,10,-1
568,10,-1
569,10,-1
570,10,-1
571,10,-1
572,10,-1
573,10,-1
574,10,-1
575,10,-1
576,10,-1
577,10,-1
578,10,-1
579,10,-1
580,10,-1
581,10,-1
582,10,-1
583,10,-1
584,10,-1
585,10,-1
586,10,-1
587,10,-1
588,10,-1
589,10,-1
590,10,-1
591,10,-1
592,10,-1
593,10,-1
594,10,-1
595,10,-1
596,10,-1
597,10,-1
598,10,-1
599,10,-1
600,10,-1
601,10,-1
602,10,-1
603,10,-1
604,10,-1
605,10,-1
606,10,-1
607,10,-1
608,10,-1
609,10,-1
610,10,-1
611,10,-1
612,10,-1
613,10,-1
614,10,-1
615,10,-1
616,10,-1
617,10,-1
618,10,-1
619,10,-1
620,10,-1
621,10,-1
622,10,-1
623,10,-1
624,10,-1
625,10,-1
626,10,-1
627,10,-1
628,10,-1
629,10,-1
630,10,-1
631,10,-1
632,10,-1
633,10,-1
634,10,-1
635,10,-1
636,10,-1
637,10,-1
638,10,-1
639,10,-1
640,10,-1
641,10,-1
642,10,-1
643,10,-1
644,10,-1
645,10,-1
646,10,-1
647,10,-1
648,10,-1
649,10,-1
650,10,-1
651,10,-1
652,10,-1
653,10,-1
654,10,-1
655,10,-1
656,10,-1
657,10,-1
658,10,-1
659,10,-1
660,10,-1
661,10,-1
662,10,-1
663,10,-1
664,10,-1
665,10,-1
666,10,-1
667,10,-1
668,10,-1
669,10,-1
670,10,-1
671,10,-1
672,10,-1
673,10,-1
674,10,-1
675,10,-1
676,10,-1
677,10,-1
678,10,-1
679,10,-1
680,10,-1
681,10,-1
682,10,-1
683,10,-1
684,10,-1
685,10,-1
686,10,-1
687,10,-1
688,10,-1
689,10,-1
690,10,-1
691,10,-1
692,10,-1
693,10,-1
694,10,-1
695,10,-1
696,10,-1
697,10,-1
698,10,-1
699,10,-1
700,10,-1
701,10,-1
702,10,-1
703,10,-1
704,10,-1
705,10,-1
706,10,-1
707,10,-1
708,10,-1
709,10,-1
710,10,-1
711,10,-1
712,10,-1
713,10,-1
714,10,-1
715,10,-1
716,10,-1
717,10,-1
718,10,-1
719,10,-1
720,10,-1
721,10,-1
722,10,-1
723,10,-1
724,10,-1
725,10,-1
726,10,-1
727,10,-1
728,10,-1
729,10,-1
730,10,-1
731,10,-1
732,10,-1
733,10,-1
734,10,-1
735,10,-1
736,10,-1
737,10,-1
738,10,-1
739,10,-1
740,10,-1
741,10,-1
742,10,-1
743,10,-1
744,10,-1
745,10,-1
746,10,-1
747,10,-1
748,10,-1
749,10,-1
750,10,-1
751,10,-1
752,10,-1
753,10,-1
754,10,-1
755,10,-1
756,10,-1
757,10,-1
758,10,-1
759,10,-1
760,10,-1
761,10,-1
762,10,-1
763,10,-1
764,10,-1
765,10,-1
766,10,-1
767,10,-1
768,10,-1
769,10,-1
770,10,-1
771,10,-1
772,10,-1
773,10,-1
774,10,-1
775,10,-1
776,10,-1
777,10,-1
778,10,-1
779,10,-1
780,10,-1
781,10,-1
782,10,-1
783,10,-1
784,10,-1
785,10,-1
786,10,-1
787,10,-1
788,10,-1
789,10,-1
790,10,-1
791,10,-1
792,10,-1
793,10,-1
794,10,-1
795,10,-1
796,10,-1
797,10,-1
798,10,-1
799,10,-1
800,10,-1
801,10,-1
802,10,-1
803,10,-1
804,10,-1
805,10,-1
806,10,-1
807,10,-1
808,10,-1
809,10,-1
810,10,-1
811,10,-1
812,10,-1
813,10,-1
814,10,-1
815,10,-1
816,10,-1
817,10,-1
818,10,-1
819,10,-1
820,10,-1
821,10,-1
822,10,-1
823,10,-1
824,10,-1
825,10,-1
826,10,-1
827,10,-1
828,10,-1
829,10,-1
830,10,-1
831,10,-1
832,10,-1
833,10,-1
834,10,-1
835,10,-1
836,10,-1
837,10,-1
838,10,-1
839,10,-1
840,10,-1
841,10,-1
842,10,-1
843,10,-1
844,10,-1
845,10,-1
846,10,-1
847,10,-1
848,10,-1
849,10,-1
850,10,-1
851,10,-1
852,10,-1
853,10,-1
854,10,-1
855,10,-1
856,10,-1
857,10,-1
858,10,-1
859,10,-1
860,10,-1
861,10,-1
862,10,-1
863,10,-1
864,10,-1
865,10,-1
866,10,-1
867,10,-1
868,10,-1
869,10,-1
870,10,-1
871,10,-1
872,10,-1
873,10,-1
874,10,-1
875,10,-1
876,10,-1
877,10,-1
878,10,-1
879,10,-1
880,10,-1
881,10,-1
882,10,-1
883,10,-1
884,10,-1
885,10,-1
886,10,-1
887,10,-1
888,10,-1
889,10,-1
890,10,-1
891,10,-1
892,10,-1
893,10,-1
894,10,-1
895,10,-1
896,10,-1
897,10,-1
898,10,-1
899,10,-1
900,10,-1
901,10,-1
902,10,-1
903,10,-1
904,10,-1
905,10,-1
906,10,-1
907,10,-1
908,10,-1
909,10,-1
910,10,-1
911,10,-1
912,10,-1
913,10,-1
914,10,-1
915,10,-1
916,10,-1
917,10,-1
918,10,-1
919,10,-1
920,10,-1
921,10,-1
922,10,-1
923,10,-1
924,10,-1
925,10,-1
926,10,-1
927,10,-1
928,10,-1
929,10,-1
930,10,-1
931,10,-1
932,10,-1
933,10,-1
934,10,-1
935,10,-1
936,10,-1
937,10,-1
938,10,-1
939,10,-1
940,10,-1
941,10,-1
942,10,-1
943,10,-1
944,10,-1
945,10,-1
946,10,-1
947,10,-1
948,10,-1
949,10,-1
950,10,-1
951,10,-1
952,10,-1
953,10,-1
954,10,-1
955,10,-1
956,10,-1
957,10,-1
958,10,-1
959,10,-1
960,10,-1
961,10,-1
962,10,-1
963,10,-1
964,10,-1
965,10,-1
966,10,-1
967,10,-1
968,10,-1
969,10,-1
970,10,-1
971,10,-1
972,10,-1
973,10,-1
974,10,-1
975,10,-1
976,10,-1
977,10,-1
978,10,-1
979,10,-1
980,10,-1
981,10,-1
982,10,-1
983,10,-1
984,10,-1
985,10,-1
986,10,-1
987,10,-1
988,10,-1
989,10,-1
990,10,-1
991,10,-1
992,10,-1
993,10,-1
994,10,-1
995,10,-1
996,10,-1
997,10,-1
998,10,-1
999,10,-1
1000,10,-1
1001,10,-1
1002,10,-1
1003,10,-1
1004,10,-1
1005,10,-1
1006,10,-1
1007,10,-1
1008,10,-1
1009,10,-1
1010,10,-1
1011,10,-1
1012,10,-1
1013,10,-1
1014,10,-1
1015,10,-1
1016,10,-1
1017,10,-1
1018,10,-1
1019,10,-1
1020,10,-1
1021,10,-1
1022,10,-1
1023,10,-1
1024,10,-1
1025,10,-1
1026,10,-1
1027,10,-1
1028,10,-1
1029,10,-1
1030,10,-1
1031,10,-1
1032,10,-1
1033,10,-1
1034,10,-1
1035,10,-1
1036,10,-1
1037,10,-1
1038,10,-1
1039,10,-1
1040,10,-1
1041,10,-1
1042,10,-1
1043,10,-1
1044,10,-1
1045,10,-1
1046,10,-1
1047,10,-1
1048,10,-1
1049,10,-1
1050,10,-1
1051,10,-1
1052,10,-1
1053,10,-1
1054,10,-1
1055,10,-1
1056,10,-1
1057,10,-1
1058,10,-1
1059,10,-1
1060,10,-1
1061,10,-1
1062,10,-1
1063,10,-1
1064,10,-1
1065,10,-1
1066,10,-1
1067,10,-1
1068,10,-1
1069,10,-1
1070,10,-1
1071,10,-1
1072,10,-1
1073,10,-1
1074,10,-1
1075,10,-1
1076,10,-1
1077,10,-1
1078,10,-1
1079,10,-1
1080,10,-1
1081,10,-1
1082,10,-1
1083,10,-1
1084,10,-1
1085,10,-1
1086,10,-1
1087,10,-1
1088,10,-1
1089,10,-1
1090,10,-1
1091,10,-1
1092,10,-1
1093,10,-1
1094,10,-1
1095,10,-1
1096,10,-1
1097,10,-1
1098,10,-1
1099,10,-1
1100,10,-1
1101,10,-1
1102,10,-1
1103,10,-1
1104,10,-1
1105,10,-1
1106,10,-1
1107,10,-1
1108,10,-1
1109,10,-1
1110,10,-1
1111,10,-1
1112,10,-1
1113,10,-1
1114,10,-1
1115,10,-1
1116,10,-1
1117,10,-1
1118,10,-1
1119,10,-1
1120,10,-1
1121,10,-1
1122,10,-1
1123,10,-1
1124,10,-1
1125,10,-1
1126,10,-1
1127,10,-1
1128,10,-1
1129,10,-1
1130,10,-1
1131,10,-1
1132,10,-1
1133,10,-1
1134,10,-1
1135,10,-1
1136,10,-1
1137,10,-1
1138,10,-1
1139,10,-1
1140,10,-1
1141,10,-1
1142,10,-1
1143,10,-1
1144,10,-1
1145,10,-1
1146,10,-1
1147,10,-1
1148,10,-1
1149,10,-1
1150,10,-1
1151,10,-1
1152,10,-1
1153,10,-1
1154,10,-1
1155,10,-1
1156,10,-1
1157,10,-1
1158,10,-1
1159,10,-1
1160,10,-1
1161,10,-1
1162,10,-1
1163,10,-1
1164,10,-1
1165,10,-1
1166,10,-1
1167,10,-1
1168,10,-1
1169,10,-1
1170,10,-1
1171,10,-1
1172,10,-1
1173,10,-1
1174,10,-1
1175,10,-1
1176,10,-1
1177,10,-1
1178,10,-1
1179,10,-1
1180,10,-1
1181,10,-1
1182,10,-1
1183,10,-1
1184,10,-1
1185,10,-1
1186,10,-1
1187,10,-1
1188,10,-1
1189,10,-1
1190,10,-1
1191,10,-1
1192,10,-1
1193,10,-1
1194,10,-1
1195,10,-1
1196,10,-1
1197,10,-1
1198,10,-1
1199,10,-1
1200,10,-1
1201,10,-1
1202,10,-1
1203,10,-1
1204,10,-1
1205,10,-1
1206,10,-1
1207,10,-1
1208,10,-1
1209,10,-1
1210,10,-1
1211,10,-1
1212,10,-1
1213,10,-1
1214,10,-1
1215,10,-1
1216,10,-1
1217,10,-1
1218,10,-1
1219,10,-1
1220,10,-1
1221,10,-1
1222,10,-1
1223,10,-1
1224,10,-1
1225,10,-1
1226,10,-1
1227,10,-1
1228,10,-1
1229,10,-1
1230,10,-1
1231,10,-1
1232,10,-1
1233,10,-1
1234,10,-1
1235,10,-1
1236,10,-1
1237,10,-1
1238,10,-1
1239,10,-1
1240,10,-1
1241,10,-1
1242,10,-1
1243,10,-1
1244,10,-1
1245,10,-1
1246,10,-1
1247,10,-1
1248,10,-1
1249,10,-1
1250,10,-1
1251,10,-1
1252,10,-1
1253,10,-1
1254,10,-1
1255,10,-1
1256,10,-1
1257,10,-1
1258,10,-1
1259,10,-1
1260,10,-1
1261,10,-1
1262,10,-1
1263,10,-1
1264,10,-1
1265,10,-1
1266,10,-1
1267,10,-1
1268,10,-1
1269,10,-1
1270,10,-1
1271,10,-1
1272,10,-1
1273,10,-1
1274,10,-1
1275,10,-1
1276,10,-1
1277,10,-1
1278,10,-1
1279,10,-1
1280,10,-1
1281,10,-1
1282,10,-1
1283,10,-1
1284,10,-1
1285,10,-1
1286,10,-1
1287,10,-1
1288,10,-1
1289,10,-1
1290,10,-1
1291,10,-1
1292,10,-1
1293,10,-1
1294,10,-1
1295,10,-1
1296,10,-1
1297,10,-1
1298,10,-1
1299,10,-1
1300,10,-1
1301,10,-1
1302,10,-1
1303,10,-1
1304,10,-1
1305,10,-1
1306,10,-1
1307,10,-1
1308,10,-1
1309,10,-1
1310,10,-1
1311,10,-1
1312,10,-1
1313,10,-1
1314,10,-1
1315,10,-1
1316,10,-1
1317,10,-1
1318,10,-1
1319,10,-1
1320,10,-1
1321,10,-1
1322,10,-1
1323,10,-1
1324,10,-1
1325,10,-1
1326,10,-1
1327,10,-1
1328,10,-1
1329,10,-1
1330,10,-1
1331,10,-1
1332,10,-1
1333,10,-1
1334,10,-1
1335,10,-1
1336,10,-1
1337,10,-1
1338,10,-1
1339,10,-1
1340,10,-1
1341,10,-1
1342,10,-1
1343,10,-1
1344,10,-1
1345,10,-1
1346,10,-1
1347,10,-1
1348,10,-1
1349,10,-1
1350,10,-1
1351,10,-1
1352,10,-1
1353,10,-1
1354,10,-1
1355,10,-1
1356,10,-1
1357,10,-1
1358,10,-1
1359,10,-1
1360,10,-1
1361,10,-1
1362,10,-1
1363,10,-1
1364,10,-1
1365,10,-1
1366,10,-1
1367,10,-1
1368,10,-1
1369,10,-1
1370,10,-1
1371,10,-1
1372,10,-1
1373,10,-1
1374,10,-1
1375,10,-1
1376,10,-1
1377,10,-1
1378,10,-1
1379,10,-1
1380,10,-1
1381,10,-1
1382,10,-1
1383,10,-1
1384,10,-1
1385,10,-1
1386,10,-1
1387,10,-1
1388,10,-1
1389,10,-1
1390,10,-1
1391,10,-1
1392,10,-1
1393,10,-1
1394,10,-1
1395,10,-1
1396,10,-1
1397,10,-1
1398,10,-1
1399,10,-1
1400,10,-1
1401,10,-1
1402,10,-1
1403,10,-1
1404,10,-1
1405,10,-1
1406,10,-1
1407,10,-1
1408,10,-1
1409,10,-1
1410,10,-1
1411,10,-1
1412,10,-1
1413,10,-1
1414,10,-1
1415,10,-1
1416,10,-1
1417,10,-1
1418,10,-1
1419,10,-1
1420,10,-1
1421,10,-1
1422,10,-1
1423,10,-1
1424,10,-1
1425,10,-1
1426,10,-1
1427,10,-1
1428,10,-1
1429,10,-1
1430,10,-1
1431,10,-1
1432,10,-1
1433,10,-1
1434,10,-1
1435,10,-1
1436,10,-1
1437,10,-1
1438,10,-1
1439,10,-1
1440,10,-1
1441,10,-1
1442,10,-1
1443,10,-1
1444,10,-1
1445,10,-1
1446,10,-1
1447,10,-1
1448,10,-1
1449,10,-1
1450,10,-1
1451,10,-1
1452,10,-1
1453,10,-1
1454,10,-1
1455,10,-1
1456,10,-1
1457,10,-1
1458,10,-1
1459,10,-1
1460,10,-1
1461,10,-1
1462,10,-1
1463,10,-1
1464,10,-1
1465,10,-1
1466,10,-1
1467,10,-1
1468,10,-1
1469,10,-1
1470,10,-1
1471,10,-1
1472,10,-1
1473,10,-1
1474,10,-1
1475,10,-1
1476,10,-1
1477,10,-1
1478,10,-1
1479,10,-1
1480,10,-1
1481,10,-1
1482,10,-1
1483,10,-1
1484,10,-1
1485,10,-1
1486,10,-1
1487,10,-1
1488,10,-1
1489,10,-1
1490,10,-1
1491,10,-1
1492,10,-1
1493,10,-1
1494,10,-1
1495,10,-1
1496,10,-1
1497,10,-1
1498,10,-1
1499,10,-1
1500,10,-1
1501,10,-1
1502,10,-1
1503,10,-1
1504,10,-1
1505,10,-1
1506,10,-1
1507,10,-1
1508,10,-1
1509,10,-1
1510,10,-1
1511,10,-1
1512,10,-1
1513,10,-1
1514,10,-1
1515,10,-1
1516,10,-1
1517,10,-1
1518,10,-1
1519,10,-1
1520,10,-1
1521,10,-1
1522,10,-1
1523,10,-1
1524,10,-1
1525,10,-1
1526,10,-1
1527,10,-1
1528,10,-1
1529,10,-1
1530,10,-1
1531,10,-1
1532,10,-1
1533,10,-1
1534,10,-1
1535,10,-1
1536,10,-1
1537,10,-1
1538,10,-1
1539,10,-1
1540,10,-1
1541,10,-1
1542,10,-1
1543,10,-1
1544,10,-1
1545,10,-1
1546,10,-1
1547,10,-1
1548,10,-1
1549,10,-1
1550,10,-1
1551,10,-1
1552,10,-1
1553,10,-1
1554,10,-1
1555,10,-1
1556,10,-1
1557,10,-1
1558,10,-1
1559,10,-1
1560,10,-1
1561,10,-1
1562,10,-1
1563,10,-1
1564,10,-1
1565,10,-1
1566,10,-1
1567,10,-1
1568,10,-1
1569,10,-1
1570,10,-1
1571,10,-1
1572,10,-1
1573,10,-1
1574,10,-1
1575,10,-1
1576,10,-1
1577,10,-1
1578,10,-1
1579,10,-1
1580,10,-1
1581,10,-1
1582,10,-1
1583,10,-1
1584,10,-1
1585,10,-1
1586,10,-1
1587,10,-1
1588,10,-1
1589,10,-1
1590,10,-1
1591,10,-1
1592,10,-1
1593,10,-1
1594,10,-1
1595,10,-1
1596,10,-1
1597,10,-1
1598,10,-1
1599,10,-1
1600,10,-1
1601,10,-1
1602,10,-1
1603,10,-1
1604,10,-1
1605,10,-1
1606,10,-1
1607,10,-1
1608,10,-1
1609,10,-1
1610,10,-1
1611,10,-1
1612,10,-1
1613,10,-1
1614,10,-1
1615,10,-1
1616,10,-1
1617,10,-1
1618,10,-1
1619,10,-1
1620,10,-1
1621,10,-1
1622,10,-1
1623,10,-1
1624,10,-1
1625,10,-1
1626,10,-1
1627,10,-1
1628,10,-1
1629,10,-1
1630,10,-1
1631,10,-1
1632,10,-1
1633,10,-1
1634,10,-1
1635,10,-1
1636,10,-1
1637,10,-1
1638,10,-1
1639,10,-1
1640,10,-1
1641,10,-1
1642,10,-1
1643,10,-1
1644,10,-1
1645,10,-1
1646,10,-1
1647,10,-1
1648,10,-1
1649,10,-1
1650,10,-1
1651,10,-1
1652,10,-1
1653,10,-1
1654,10,-1
1655,10,-1
1656,10,-1
1657,10,-1
1658,10,-1
1659,10,-1
1660,10,-1
1661,10,-1
1662,10,-1
1663,10,-1
1664,10,-1
1665,10,-1
1666,10,-1
1667,10,-1
1668,10,-1
1669,10,-1
1670,10,-1
1671,10,-1
1672,10,-1
1673,10,-1
1674,10,-1
1675,10,-1
1676,10,-1
1677,10,-1
1678,10,-1
1679,10,-1
1680,10,-1
1681,10,-1
1682,10,-1
1683,10,-1
1684,10,-1
1685,10,-1
1686,10,-1
1687,10,-1
1688,10,-1
1689,10,-1
1690,10,-1
1691,10,-1
1692,10,-1
1693,10,-1
1694,10,-1
1695,10,-1
1696,10,-1
1697,10,-1
1698,10,-1
1699,10,-1
1700,10,-1
1701,10,-1
1702,10,-1
1703,10,-1
1704,10,-1
1705,10,-1
1706,10,-1
1707,10,-1
1708,10,-1
1709,10,-1
1710,10,-1
1711,10,-1
1712,10,-1
1713,10,-1
1714,10,-1
1715,10,-1
1716,10,-1
1717,10,-1
1718,10,-1
1719,10,-1
1720,10,-1
1721,10,-1
1722,10,-1
1723,10,-1
1724,10,-1
1725,10,-1
1726,10,-1
1727,10,-1
1728,10,-1
1729,10,-1
1730,10,-1
1731,10,-1
1732,10,-1
1733,10,-1
1734,10,-1
1735,10,-1
1736,10,-1
1737,10,-1
1738,10,-1
1739,10,-1
1740,10,-1
1741,10,-1
1742,10,-1
1743,10,-1
1744,10,-1
1745,10,-1
1746,10,-1
1747,10,-1
1748,10,-1
1749,10,-1
1750,10,-1
1751,10,-1
1752,10,-1
1753,10,-1
1754,10,-1
1755,10,-1
1756,10,-1
1757,10,-1
1758,10,-1
1759,10,-1
1760,10,-1
1761,10,-1
1762,10,-1
1763,10,-1
1764,10,-1
1765,10,-1
1766,10,-1
1767,10,-1
1768,10,-1
1769,10,-1
1770,10,-1
1771,10,-1
1772,10,-1
1773,10,-1
1774,10,-1
1775,10,-1
1776,10,-1
1777,10,-1
1778,10,-1
1779,10,-1
1780,10,-1
1781,10,-1
1782,10,-1
1783,10,-1
1784,10,-1
1785,10,-1
1786,10,-1
1787,10,-1
1788,10,-1
1789,10,-1
1790,10,-1
1791,10,-1
1792,10,-1
1793,10,-1
1794,10,-1
1795,10,-1
1796,10,-1
1797,10,-1
1798,10,-1
1799,10,-1
1800,10,-1
1801,10,-1
1802,10,-1
1803,10,-1
1804,10,-1
1805,10,-1
1806,10,-1
1807,10,-1
1808,10,-1
1809,10,-1
1810,10,-1
1811,10,-1
1812,10,-1
1813,10,-1
1814,10,-1
1815,10,-1
1816,10,-1
1817,10,-1
1818,10,-1
1819,10,-1
1820,10,-1
1821,10,-1
1822,10,-1
1823,10,-1
1824,10,-1
1825,10,-1
1826,10,-1
1827,10,-1
1828,10,-1
1829,10,-1
1830,10,-1
1831,10,-1
1832,10,-1
1833,10,-1
1834,10,-1
1835,10,-1
1836,10,-1
1837,10,-1
1838,10,-1
1839,10,-1
1840,10,-1
1841,10,-1
1842,10,-1
1843,10,-1
1844,10,-1
1845,10,-1
1846,10,-1
1847,10,-1
1848,10,-1
1849,10,-1
1850,10,-1
1851,10,-1
1852,10,-1
1853,10,-1
1854,10,-1
1855,10,-1
1856,10,-1
1857,10,-1
1858,10,-1
1859,10,-1
1860,10,-1
1861,10,-1
1862,10,-1
1863,10,-1
1864,10,-1
1865,10,-1
1866,10,-1
1867,10,-1
1868,10,-1
1869,10,-1
1870,10,-1
1871,10,-1
1872,10,-1
1873,10,-1
1874,10,-1
1875,10,-1
1876,10,-1
1877,10,-1
1878,10,-1
1879,10,-1
1880,10,-1
1881,10,-1
1882,10,-1
1883,10,-1
1884,10,-1
1885,10,-1
1886,10,-1
1887,10,-1
1888,10,-1
1889,10,-1
1890,10,-1
1891,10,-1
1892,10,-1
1893,10,-1
1894,10,-1
1895,10,-1
1896,10,-1
1897,10,-1
1898,10,-1
1899,10,-1
1900,10,-1
1901,10,-1
1902,10,-1
1903,10,-1
1904,10,-1
1905,10,-1
1906,10,-1
1907,10,-1
1908,10,-1
1909,10,-1
1910,10,-1
1911,10,-1
1912,10,-1
1913,10,-1
1914,10,-1
1915,10,-1
1916,10,-1
1917,10,-1
1918,10,-1
1919,10,-1
1920,10,-1
1921,10,-1
1922,10,-1
1923,10,-1
1924,10,-1
1925,10,-1
1926,10,-1
1927,10,-1
1928,10,-1
1929,10,-1
1930,10,-1
1931,10,-1
1932,10,-1
1933,10,-1
1934,10,-1
1935,10,-1
1936,10,-1
1937,10,-1
1938,10,-1
1939,10,-1
1940,10,-1
1941,10,-1
1942,10,-1
1943,10,-1
1944,10,-1
1945,10,-1
1946,10,-1
1947,10,-1
1948,10,-1
1949,10,-1
1950,10,-1
1951,10,-1
1952,10,-1
1953,10,-1
1954,10,-1
1955,10,-1
1956,10,-1
1957,10,-1
1958,10,-1
1959,10,-1
1960,10,-1
1961,10,-1
1962,10,-1
1963,10,-1
1964,10,-1
1965,10,-1
1966,10,-1
1967,10,-1
1968,10,-1
1969,10,-1
1970,10,-1
1971,10,-1
1972,10,-1
1973,10,-1
1974,10,-1
1975,10,-1
1976,10,-1
1977,10,-1
1978,10,-1
1979,10,-1
1980,10,-1
1981,10,-1
1982,10,-1
1983,10,-1
1984,10,-1
1985,10,-1
1986,10,-1
1987,10,-1
1988,10,-1
1989,10,-1
1990,10,-1
1991,10,-1
1992,10,-1
1993,10,-1
1994,10,-1
1995,10,-1
1996,10,-1
1997,10,-1
1998,10,-1
1999,10,-1
2000,10,-1
2001,10,-1
2002,10,-1
2003,10,-1
2004,10,-1
2005,10,-1
2006,10,-1
2007,10,-1
2008,10,-1
2009,10,-1
2010,10,-1
2011,10,-1
2012,10,-1
2013,10,-1
2014,10,-1
2015,10,-1
2016,10,-1
2017,10,-1
2018,10,-1
2019,10,-1
2020,10,-1
2021,10,-1
2022,10,-1
2023,10,-1
2024,10,-1
2025,10,-1
2026,10,-1
2027,10,-1
2028,10,-1
2029,10,-1
2030,10,-1
2031,10,-1
2032,10,-1
2033,10,-1
2034,10,-1
2035,10,-1
2036,10,-1
2037,10,-1
2038,10,-1
2039,10,-1
2040,10,-1
2041,10,-1
2042,10,-1
2043,10,-1
2044,10,-1
2045,10,-1
2046,10,-1
2047,10,-1
2048,10,-1
2049,10,-1
2050,10,-1
2051,10,-1
2052,10,-1
2053,10,-1
2054,10,-1
2055,10,-1
2056,10,-1
2057,10,-1
2058,10,-1
2059,10,-1
2060,10,-1
2061,10,-1
2062,10,-1
2063,10,-1
2064,10,-1
2065,10,-1
2066,10,-1
2067,10,-1
2068,10,-1
2069,10,-1
2070,10,-1
2071,10,-1
2072,10,-1
2073,10,-1
2074,10,-1
2075,10,-1
2076,10,-1
2077,10,-1
2078,10,-1
2079,10,-1
2080,10,-1
2081,10,-1
2082,10,-1
2083,10,-1
2084,10,-1
2085,10,-1
2086,10,-1
2087,10,-1
2088,10,-1
2089,10,-1
2090,10,-1
2091,10,-1
2092,10,-1
2093,10,-1
2094,10,-1
2095,10,-1
2096,10,-1
2097,10,-1
2098,10,-1
2099,10,-1
2100,10,-1
2101,10,-1
2102,10,-1
2103,10,-1
2104,10,-1
2105,10,-1
2106,10,-1
2107,10,-1
2108,10,-1
2109,10,-1
2110,10,-1
2111,10,-1
2112,10,-1
2113,10,-1
2114,10,-1
2115,10,-1
2116,10,-1
2117,10,-1
2118,10,-1
2119,10,-1
2120,10,-1
2121,10,-1
2122,10,-1
2123,10,-1
2124,10,-1
2125,10,-1
2126,10,-1
2127,10,-1
2128,10,-1
2129,10,-1
2130,10,-1
2131,10,-1
2132,10,-1
2133,10,-1
2134,10,-1
2135,10,-1
2136,10,-1
2137,10,-1
2138,10,-1
2139,10,-1
2140,10,-1
2141,10,-1
2142,10,-1
2143,10,-1
2144,10,-1
2145,10,-1
2146,10,-1
2147,10,-1
2148,10,-1
2149,10,-1
2150,10,-1
2151,10,-1
2152,10,-1
2153,10,-1
2154,10,-1
2155,10,-1
2156,10,-1
2157,10,-1
2158,10,-1
2159,10,-1
2160,10,-1
2161,10,-1
2162,10,-1
2163,10,-1
2164,10,-1
2165,10,-1
2166,10,-1
2167,10,-1
2168,10,-1
2169,10,-1
2170,10,-1
2171,10,-1
2172,10,-1
2173,10,-1
2174,10,-1
2175,10,-1
2176,10,-1
2177,10,-1
2178,10,-1
2179,10,-1
2180,10,-1
2181,10,-1
2182,10,-1
2183,10,-1
2184,10,-1
2185,10,-1
2186,10,-1
2187,10,-1
2188,10,-1
2189,10,-1
2190,10,-1
2191,10,-1
2192,10,-1
2193,10,-1
2194,10,-1
2195,10,-1
2196,10,-1
2197,10,-1
2198,10,-1
2199,10,-1
2200,10,-1
2201,10,-1
2202,10,-1
2203,10,-1
2204,10,-1
2205,10,-1
2206,10,-1
2207,10,-1
2208,10,-1
2209,10,-1
2210,10,-1
2211,10,-1
2212,10,-1
2213,10,-1
2214,10,-1
2215,10,-1
2216,10,-1
2217,10,-1
2218,10,-1
2219,10,-1
2220,10,-1
2221,10,-1
2222,10,-1
2223,10,-1
2224,10,-1
2225,10,-1
2226,10,-1
2227,10,-1
2228,10,-1
2229,10,-1
2230,10,-1
2231,10,-1
2232,10,-1
2233,10,-1
2234,10,-1
2235,10,-1
2236,10,-1
2237,10,-1
2238,10,-1
2239,10,-1
2240,10,-1
2241,10,-1
2242,10,-1
2243,10,-1
2244,10,-1
2245,10,-1
2246,10,-1
2247,10,-1
2248,10,-1
2249,10,-1
2250,10,-1
2251,10,-1
2252,10,-1
2253,10,-1
2254,10,-1
2255,10,-1
2256,10,-1
2257,10,-1
2258,10,-1
2259,10,-1
2260,10,-1
2261,10,-1
2262,10,-1
2263,10,-1
2264,10,-1
2265,10,-1
2266,10,-1
2267,10,-1
2268,10,-1
2269,10,-1
2270,10,-1
2271,10,-1
2272,10,-1
2273,10,-1
2274,10,-1
2275,10,-1
2276,10,-1
2277,10,-1
2278,10,-1
2279,10,-1
2280,10,-1
2281,10,-1
2282,10,-1
2283,10,-1
2284,10,-1
2285,10,-1
2286,10,-1
2287,10,-1
2288,10,-1
2289,10,-1
2290,10,-1
2291,10,-1
2292,10,-1
2293,10,-1
2294,10,-1
2295,10,-1
2296,10,-1
2297,10,-1
2298,10,-1
2299,10,-1
2300,10,-1
2301,10,-1
2302,10,-1
2303,10,-1
2304,10,-1
2305,10,-1
2306,10,-1
2307,10,-1
2308,10,-1
2309,10,-1
2310,10,-1
2311,10,-1
2312,10,-1
2313,10,-1
2314,10,-1
2315,10,-1
2316,10,-1
2317,10,-1
2318,10,-1
2319,10,-1
2320,10,-1
2321,10,-1
2322,10,-1
2323,10,-1
2324,10,-1
2325,10,-1
2326,10,-1
2327,10,-1
2328,10,-1
2329,10,-1
2330,10,-1
2331,10,-1
2332,10,-1
2333,10,-1
2334,10,-1
2335,10,-1
2336,10,-1
2337,10,-1
2338,10,-1
2339,10,-1
2340,10,-1
2341,10,-1
2342,10,-1
2343,10,-1
2344,10,-1
2345,10,-1
2346,10,-1
2347,10,-1
2348,10,-1
2349,10,-1
2350,10,-1
2351,10,-1
2352,10,-1
2353,10,-1
2354,10,-1
2355,10,-1
2356,10,-1
2357,10,-1
2358,10,-1
2359,10,-1
2360,10,-1
2361,10,-1
2362,10,-1
2363,10,-1
2364,10,-1
2365,10,-1
2366,10,-1
2367,10,-1
2368,10,-1
2369,10,-1
2370,10,-1
2371,10,-1
2372,10,-1
2373,10,-1
2374,10,-1
2375,10,-1
2376,10,-1
2377,10,-1
2378,10,-1
2379,10,-1
2380,10,-1
2381,10,-1
2382,10,-1
2383,10,-1
2384,10,-1
2385,10,-1
2386,10,-1
2387,10,-1
2388,10,-1
2389,10,-1
2390,10,-1
2391,10,-1
2392,10,-1
2393,10,-1
2394,10,-1
2395,10,-1
2396,10,-1
2397,10,-1
2398,10,-1
2399,10,-1
2400,10,-1
2401,10,-1
2402,10,-1
2403,10,-1
2404,10,-1
2405,10,-1
2406,10,-1
2407,10,-1
2408,10,-1
2409,10,-1
2410,10,-1
2411,10,-1
2412,10,-1
2413,10,-1
2414,10,-1
2415,10,-1
2416,10,-1
2417,10,-1
2418,10,-1
2419,10,-1
2420,10,-1
2421,10,-1
2422,10,-1
2423,10,-1
2424,10,-1
2425,10,-1
2426,10,-1
2427,10,-1
2428,10,-1
2429,10,-1
2430,10,-1
2431,10,-1
2432,10,-1
2433,10,-1
2434,10,-1
2435,10,-1
2436,10,-1
2437,10,-1
2438,10,-1
2439,10,-1
2440,10,-1
2441,10,-1
2442,10,-1
2443,10,-1
2444,10,-1
2445,10,-1
2446,10,-1
2447,10,-1
2448,10,-1
2449,10,-1
2450,10,-1
2451,10,-1
2452,10,-1
2453,10,-1
2454,10,-1
2455,10,-1
2456,10,-1
2457,10,-1
2458,10,-1
2459,10,-1
2460,10,-1
2461,10,-1
2462,10,-1
2463,10,-1
2464,10,-1
2465,10,-1
2466,10,-1
2467,10,-1
2468,10,-1
2469,10,-1
2470,10,-1
2471,10,-1
2472,10,-1
2473,10,-1
2474,10,-1
2475,10,-1
2476,10,-1
2477,10,-1
2478,10,-1
2479,10,-1
2480,10,-1
2481,10,-1
2482,10,-1
2483,10,-1
2484,10,-1
2485,10,-1
2486,10,-1
2487,10,-1
2488,10,-1
2489,10,-1
2490,10,-1
2491,10,-1
2492,10,-1
2493,10,-1
2494,10,-1
2495,10,-1
2496,10,-1
2497,10,-1
2498,10,-1
2499,10,-1
2500,10,-1
2501,10,-1
2502,10,-1
2503,10,-1
2504,10,-1
2505,10,-1
2506,10,-1
2507,10,-1
2508,10,-1
2509,10,-1
2510,10,-1
2511,10,-1
2512,10,-1
2513,10,-1
2514,10,-1
2515,10,-1
2516,10,-1
2517,10,-1
2518,10,-1
2519,10,-1
2520,10,-1
2521,10,-1
2522,10,-1
2523,10,-1
2524,10,-1
2525,10,-1
2526,10,-1
2527,10,-1
2528,10,-1
2529,10,-1
2530,10,-1
2531,10,-1
2532,10,-1
2533,10,-1
2534,10,-1
2535,10,-1
2536,10,-1
2537,10,-1
2538,10,-1
2539,10,-1
2540,10,-1
2541,10,-1
2542,10,-1
2543,10,-1
2544,10,-1
2545,10,-1
2546,10,-1
2547,10,-1
2548,10,-1
2549,10,-1
2550,10,-1
2551,10,-1
2552,10,-1
2553,10,-1
2554,10,-1
2555,10,-1
2556,10,-1
2557,10,-1
2558,10,-1
2559,10,-1
2560,10,-1
2561,10,-1
2562,10,-1
2563,10,-1
2564,10,-1
2565,10,-1
2566,10,-1
2567,10,-1
2568,10,-1
2569,10,-1
2570,10,-1
2571,10,-1
2572,10,-1
2573,10,-1
2574,10,-1
2575,10,-1
2576,10,-1
2577,10,-1
2578,10,-1
2579,10,-1
2580,10,-1
2581,10,-1
2582,10,-1
2583,10,-1
2584,10,-1
2585,10,-1
2586,10,-1
2587,10,-1
2588,10,-1
2589,10,-1
2590,10,-1
2591,10,-1
2592,10,-1
2593,10,-1
2594,10,-1
2595,10,-1
2596,10,-1
2597,10,-1
2598,10,-1
2599,10,-1
2600,10,-1
2601,10,-1
2602,10,-1
2603,10,-1
2604,10,-1
2605,10,-1
2606,10,-1
2607,10,-1
2608,10,-1
2609,10,-1
2610,10,-1
2611,10,-1
2612,10,-1
2613,10,-1
2614,10,-1
2615,10,-1
2616,10,-1
2617,10,-1
2618,10,-1
2619,10,-1
2620,10,-1
2621,10,-1
2622,10,-1
2623,10,-1
2624,10,-1
2625,10,-1
2626,10,-1
2627,10,-1
2628,10,-1
2629,10,-1
2630,10,-1
2631,10,-1
2632,10,-1
2633,10,-1
2634,10,-1
2635,10,-1
2636,10,-1
2637,10,-1
2638,10,-1
2639,10,-1
2640,10,-1
2641,10,-1
2642,10,-1
2643,10,-1
2644,10,-1
2645,10,-1
2646,10,-1
2647,10,-1
2648,10,-1
2649,10,-1
2650,10,-1
2651,10,-1
2652,10,-1
2653,10,-1
2654,10,-1
2655,10,-1
2656,10,-1
2657,10,-1
2658,10,-1
2659,10,-1
2660,10,-1
2661,10,-1
2662,10,-1
2663,10,-1
2664,10,-1
2665,10,-1
2666,10,-1
2667,10,-1
2668,10,-1
2669,10,-1
2670,10,-1
2671,10,-1
2672,10,-1
2673,10,-1
2674,10,-1
2675,10,-1
2676,10,-1
2677,10,-1
2678,10,-1
2679,10,-1
2680,10,-1
2681,10,-1
2682,10,-1
2683,10,-1
2684,10,-1
2685,10,-1
2686,10,-1
2687,10,-1
2688,10,-1
2689,10,-1
2690,10,-1
2691,10,-1
2692,10,-1
2693,10,-1
2694,10,-1
2695,10,-1
2696,10,-1
2697,10,-1
2698,10,-1
2699,10,-1
2700,10,-1
2701,10,-1
2702,10,-1
2703,10,-1
2704,10,-1
2705,10,-1
2706,10,-1
2707,10,-1
2708,10,-1
2709,10,-1
2710,10,-1
2711,10,-1
2712,10,-1
2713,10,-1
2714,10,-1
2715,10,-1
2716,10,-1
2717,10,-1
2718,10,-1
2719,10,-1
2720,10,-1
2721,10,-1
2722,10,-1
2723,10,-1
2724,10,-1
2725,10,-1
2726,10,-1
2727,10,-1
2728,10,-1
2729,10,-1
2730,10,-1
2731,10,-1
2732,10,-1
2733,10,-1
2734,10,-1
2735,10,-1
2736,10,-1
2737,10,-1
2738,10,-1
2739,10,-1
2740,10,-1
2741,10,-1
2742,10,-1
2743,10,-1
2744,10,-1
2745,10,-1
2746,10,-1
2747,10,-1
2748,10,-1
2749,10,-1
2750,10,-1
2751,10,-1
2752,10,-1
2753,10,-1
2754,10,-1
2755,10,-1
2756,10,-1
2757,10,-1
2758,10,-1
2759,10,-1
2760,10,-1
2761,10,-1
2762,10,-1
2763,10,-1
2764,10,-1
2765,10,-1
2766,10,-1
2767,10,-1
2768,10,-1
2769,10,-1
2770,10,-1
2771,10,-1
2772,10,-1
2773,10,-1
2774,10,-1
2775,10,-1
2776,10,-1
2777,10,-1
2778,10,-1
2779,10,-1
2780,10,-1
2781,10,-1
2782,10,-1
2783,10,-1
2784,10,-1
2785,10,-1
2786,10,-1
2787,10,-1
2788,10,-1
2789,10,-1
2790,10,-1
2791,10,-1
2792,10,-1
2793,10,-1
2794,10,-1
2795,10,-1
2796,10,-1
2797,10,-1
2798,10,-1
2799,10,-1
2800,10,-1
2801,10,-1
2802,10,-1
2803,10,-1
2804,10,-1
2805,10,-1
2806,10,-1
2807,10,-1
2808,10,-1
2809,10,-1
2810,10,-1
2811,10,-1
2812,10,-1
2813,10,-1
2814,10,-1
2815,10,-1
2816,10,-1
2817,10,-1
2818,10,-1
2819,10,-1
2820,10,-1
2821,10,-1
2822,10,-1
2823,10,-1
2824,10,-1
2825,10,-1
2826,10,-1
2827,10,-1
2828,10,-1
2829,10,-1
2830,10,-1
2831,10,-1
2832,10,-1
2833,10,-1
2834,10,-1
2835,10,-1
2836,10,-1
2837,10,-1
2838,10,-1
2839,10,-1
2840,10,-1
2841,10,-1
2842,10,-1
2843,10,-1
2844,10,-1
2845,10,-1
2846,10,-1
2847,10,-1
2848,10,-1
2849,10,-1
2850,10,-1
2851,10,-1
2852,10,-1
2853,10,-1
2854,10,-1
2855,10,-1
2856,10,-1
2857,10,-1
2858,10,-1
2859,10,-1
2860,10,-1
2861,10,-1
2862,10,-1
2863,10,-1
2864,10,-1
2865,10,-1
2866,10,-1
2867,10,-1
2868,10,-1
2869,10,-1
2870,10,-1
2871,10,-1
2872,10,-1
2873,10,-1
2874,10,-1
2875,10,-1
2876,10,-1
2877,10,-1
2878,10,-1
2879,10,-1
2880,10,-1
2881,10,-1
2882,10,-1
2883,10,-1
2884,10,-1
2885,10,-1
2886,10,-1
2887,10,-1
2888,10,-1
2889,10,-1
2890,10,-1
2891,10,-1
2892,10,-1
2893,10,-1
2894,10,-1
2895,10,-1
2896,10,-1
2897,10,-1
2898,10,-1
2899,10,-1
2900,10,-1
2901,10,-1
2902,10,-1
2903,10,-1
2904,10,-1
2905,10,-1
2906,10,-1
2907,10,-1
2908,10,-1
2909,10,-1
2910,10,-1
2911,10,-1
2912,10,-1
2913,10,-1
2914,10,-1
2915,10,-1
2916,10,-1
2917,10,-1
2918,10,-1
2919,10,-1
2920,10,-1
2921,10,-1
2922,10,-1
2923,10,-1
2924,10,-1
2925,10,-1
2926,10,-1
2927,10,-1
2928,10,-1
2929,10,-1
2930,10,-1
2931,10,-1
2932,10,-1
2933,10,-1
2934,10,-1
2935,10,-1
2936,10,-1
2937,10,-1
2938,10,-1
2939,10,-1
2940,10,-1
2941,10,-1
2942,10,-1
2943,10,-1
2944,10,-1
2945,10,-1
2946,10,-1
2947,10,-1
2948,10,-1
2949,10,-1
2950,10,-1
2951,10,-1
2952,10,-1
2953,10,-1
2954,10,-1
2955,10,-1
2956,10,-1
2957,10,-1
2958,10,-1
2959,10,-1
2960,10,-1
2961,10,-1
2962,10,-1
2963,10,-1
2964,10,-1
2965,10,-1
2966,10,-1
2967,10,-1
2968,10,-1
2969,10,-1
2970,10,-1
2971,10,-1
2972,10,-1
2973,10,-1
2974,10,-1
2975,10,-1
2976,10,-1
2977,10,-1
2978,10,-1
2979,10,-1
2980,10,-1
2981,10,-1
2982,10,-1
2983,10,-1
2984,10,-1
2985,10,-1
2986,10,-1
2987,10,-1
2988,10,-1
2989,10,-1
2990,10,-1
2991,10,-1
2992,10,-1
2993,10,-1
2994,10,-1
2995,10,-1
2996,10,-1
2997,10,-1
2998,10,-1
2999,10,-1
3000,10,-1
3001,10,-1
3002,10,-1
3003,10,-1
3004,10,-1
3005,10,-1
3006,10,-1
3007,10,-1
3008,10,-1
3009,10,-1
3010,10,-1
3011,10,-1
3012,10,-1
3013,10,-1
3014,10,-1
3015,10,-1
3016,10,-1
3017,10,-1
3018,10,-1
3019,10,-1
3020,10,-1
3021,10,-1
3022,10,-1
3023,10,-1
3024,10,-1
3025,10,-1
3026,10,-1
3027,10,-1
3028,10,-1
3029,10,-1
3030,10,-1
3031,10,-1
3032,10,-1
3033,10,-1
3034,10,-1
3035,10,-1
3036,10,-1
3037,10,-1
3038,10,-1
3039,10,-1
3040,10,-1
3041,10,-1
3042,10,-1
3043,10,-1
3044,10,-1
3045,10,-1
3046,10,-1
3047,10,-1
3048,10,-1
3049,10,-1
3050,10,-1
3051,10,-1
3052,10,-1
3053,10,-1
3054,10,-1
3055,10,-1
3056,10,-1
3057,10,-1
3058,10,-1
3059,10,-1
3060,10,-1
3061,10,-1
3062,10,-1
3063,10,-1
3064,10,-1
3065,10,-1
3066,10,-1
3067,10,-1
3068,10,-1
3069,10,-1
3070,10,-1
3071,10,-1
3072,10,-1
3073,10,-1
3074,10,-1
3075,10,-1
3076,10,-1
3077,10,-1
3078,10,-1
3079,10,-1
3080,10,-1
3081,10,-1
3082,10,-1
3083,10,-1
3084,10,-1
3085,10,-1
3086,10,-1
3087,10,-1
3088,10,-1
3089,10,-1
3090,10,-1
3091,10,-1
3092,10,-1
3093,10,-1
3094,10,-1
3095,10,-1
3096,10,-1
3097,10,-1
3098,10,-1
3099,10,-1
3100,10,-1
3101,10,-1
3102,10,-1
3103,10,-1
3104,10,-1
3105,10,-1
3106,10,-1
3107,10,-1
3108,10,-1
3109,10,-1
3110,10,-1
3111,10,-1
3112,10,-1
3113,10,-1
3114,10,-1
3115,10,-1
3116,10,-1
3117,10,-1
3118,10,-1
3119,10,-1
3120,10,-1
3121,10,-1
3122,10,-1
3123,10,-1
3124,10,-1
3125,10,-1
3126,10,-1
3127,10,-1
3128,10,-1
3129,10,-1
3130,10,-1
3131,10,-1
3132,10,-1
3133,10,-1
3134,10,-1
3135,10,-1
3136,10,-1
3137,10,-1
3138,10,-1
3139,10,-1
3140,10,-1
3141,10,-1
3142,10,-1
3143,10,-1
3144,10,-1
3145,10,-1
3146,10,-1
3147,10,-1
3148,10,-1
3149,10,-1
3150,10,-1
3151,10,-1
3152,10,-1
3153,10,-1
3154,10,-1
3155,10,-1
3156,10,-1
3157,10,-1
3158,10,-1
3159,10,-1
3160,10,-1
3161,10,-1
3162,10,-1
3163,10,-1
3164,10,-1
3165,10,-1
3166,10,-1
3167,10,-1
3168,10,-1
3169,10,-1
3170,10,-1
3171,10,-1
3172,10,-1
3173,10,-1
3174,10,-1
3175,10,-1
3176,10,-1
3177,10,-1
3178,10,-1
3179,10,-1
3180,10,-1
3181,10,-1
3182,10,-1
3183,10,-1
3184,10,-1
3185,10,-1
3186,10,-1
3187,10,-1
3188,10,-1
3189,10,-1
3190,10,-1
3191,10,-1
3192,10,-1
3193,10,-1
3194,10,-1
3195,10,-1
3196,10,-1
3197,10,-1
3198,10,-1
3199,10,-1
3200,10,-1
3201,10,-1
3202,10,-1
3203,10,-1
3204,10,-1
3205,10,-1
3206,10,-1
3207,10,-1
3208,10,-1
3209,10,-1
3210,10,-1
3211,10,-1
3212,10,-1
3213,10,-1
3214,10,-1
3215,10,-1
3216,10,-1
3217,10,-1
3218,10,-1
3219,10,-1
3220,10,-1
3221,10,-1
3222,10,-1
3223,10,-1
3224,10,-1
3225,10,-1
3226,10,-1
3227,10,-1
3228,10,-1
3229,10,-1
3230,10,-1
3231,10,-1
3232,10,-1
3233,10,-1
3234,10,-1
3235,10,-1
3236,10,-1
3237,10,-1
3238,10,-1
3239,10,-1
3240,10,-1
3241,10,-1
3242,10,-1
3243,10,-1
3244,10,-1
3245,10,-1
3246,10,-1
3247,10,-1
3248,10,-1
3249,10,-1
3250,10,-1
3251,10,-1
3252,10,-1
3253,10,-1
3254,10,-1
3255,10,-1
3256,10,-1
3257,10,-1
3258,10,-1
3259,10,-1
3260,10,-1
3261,10,-1
3262,10,-1
3263,10,-1
3264,10,-1
3265,10,-1
3266,10,-1
3267,10,-1
3268,10,-1
3269,10,-1
3270,10,-1
3271,10,-1
3272,10,-1
3273,10,-1
3274,10,-1
3275,10,-1
3276,10,-1
3277,10,-1
3278,10,-1
3279,10,-1
3280,10,-1
3281,10,-1
3282,10,-1
3283,10,-1
3284,10,-1
3285,10,-1
3286,10,-1
3287,10,-1
3288,10,-1
3289,10,-1
3290,10,-1
3291,10,-1
3292,10,-1
3293,10,-1
3294,10,-1
3295,10,-1
3296,10,-1
3297,10,-1
3298,10,-1
3299,10,-1
3300,10,-1
3301,10,-1
3302,10,-1
3303,10,-1
3304,10,-1
3305,10,-1
3306,10,-1
3307,10,-1
3308,10,-1
3309,10,-1
3310,10,-1
3311,10,-1
3312,10,-1
3313,10,-1
3314,10,-1
3315,10,-1
3316,10,-1
3317,10,-1
3318,10,-1
3319,10,-1
3320,10,-1
3321,10,-1
3322,10,-1
3323,10,-1
3324,10,-1
3325,10,-1
3326,10,-1
3327,10,-1
3328,10,-1
3329,10,-1
3330,10,-1
3331,10,-1
3332,10,-1
3333,10,-1
3334,10,-1
3335,10,-1
3336,10,-1
3337,10,-1
3338,10,-1
3339,10,-1
3340,10,-1
3341,10,-1
3342,10,-1
3343,10,-1
3344,10,-1
3345,10,-1
3346,10,-1
3347,10,-1
3348,10,-1
3349,10,-1
3350,10,-1
3351,10,-1
3352,10,-1
3353,10,-1
3354,10,-1
3355,10,-1
3356,10,-1
3357,10,-1
3358,10,-1
3359,10,-1
3360,10,-1
3361,10,-1
3362,10,-1
3363,10,-1
3364,10,-1
3365,10,-1
3366,10,-1
3367,10,-1
3368,10,-1
3369,10,-1
3370,10,-1
3371,10,-1
3372,10,-1
3373,10,-1
3374,10,-1
3375,10,-1
3376,10,-1
3377,10,-1
3378,10,-1
3379,10,-1
3380,10,-1
3381,10,-1
3382,10,-1
3383,10,-1
3384,10,-1
3385,10,-1
3386,10,-1
3387,10,-1
3388,10,-1
3389,10,-1
3390,10,-1
3391,10,-1
3392,10,-1
3393,10,-1
3394,10,-1
3395,10,-1
3396,10,-1
3397,10,-1
3398,10,-1
3399,10,-1
3400,10,-1
3401,10,-1
3402,10,-1
3403,10,-1
3404,10,-1
3405,10,-1
3406,10,-1
3407,10,-1
3408,10,-1
3409,10,-1
3410,10,-1
3411,10,-1
3412,10,-1
3413,10,-1
3414,10,-1
3415,10,-1
3416,10,-1
3417,10,-1
3418,10,-1
3419,10,-1
3420,10,-1
3421,10,-1
3422,10,-1
3423,10,-1
3424,10,-1
3425,10,-1
3426,10,-1
3427,10,-1
3428,10,-1
3429,10,-1
3430,10,-1
3431,10,-1
3432,10,-1
3433,10,-1
3434,10,-1
3435,10,-1
3436,10,-1
3437,10,-1
3438,10,-1
3439,10,-1
3440,10,-1
3441,10,-1
3442,10,-1
3443,10,-1
3444,10,-1
3445,10,-1
3446,10,-1
3447,10,-1
3448,10,-1
3449,10,-1
3450,10,-1
3451,10,-1
3452,10,-1
3453,10,-1
3454,10,-1
3455,10,-1
3456,10,-1
3457,10,-1
3458,10,-1
3459,10,-1
3460,10,-1
3461,10,-1
3462,10,-1
3463,10,-1
3464,10,-1
3465,10,-1
3466,10,-1
3467,10,-1
3468,10,-1
3469,10,-1
3470,10,-1
3471,10,-1
3472,10,-1
3473,10,-1
3474,10,-1
3475,10,-1
3476,10,-1
3477,10,-1
3478,10,-1
3479,10,-1
3480,10,-1
3481,10,-1
3482,10,-1
3483,10,-1
3484,10,-1
3485,10,-1
3486,10,-1
3487,10,-1
3488,10,-1
3489,10,-1
3490,10,-1
3491,10,-1
3492,10,-1
3493,10,-1
3494,10,-1
3495,10,-1
3496,10,-1
3497,10,-1
3498,10,-1
3499,10,-1
3500,10,-1
3501,10,-1
3502,10,-1
3503,10,-1
3504,10,-1
3505,10,-1
3506,10,-1
3507,10,-1
3508,10,-1
3509,10,-1
3510,10,-1
3511,10,-1
3512,10,-1
3513,10,-1
3514,10,-1
3515,10,-1
3516,10,-1
3517,10,-1
3518,10,-1
3519,10,-1
3520,10,-1
3521,10,-1
3522,10,-1
3523,10,-1
3524,10,-1
3525,10,-1
3526,10,-1
3527,10,-1
3528,10,-1
3529,10,-1
3530,10,-1
3531,10,-1
3532,10,-1
3533,10,-1
3534,10,-1
3535,10,-1
3536,10,-1
3537,10,-1
3538,10,-1
3539,10,-1
3540,10,-1
3541,10,-1
3542,10,-1
3543,10,-1
3544,10,-1
3545,10,-1
3546,10,-1
3547,10,-1
3548,10,-1
3549,10,-1
3550,10,-1
3551,10,-1
3552,10,-1
3553,10,-1
3554,10,-1
3555,10,-1
3556,10,-1
3557,10,-1
3558,10,-1
3559,10,-1
3560,10,-1
3561,10,-1
3562,10,-1
3563,10,-1
3564,10,-1
3565,10,-1
3566,10,-1
3567,10,-1
3568,10,-1
3569,10,-1
3570,10,-1
3571,10,-1
3572,10,-1
3573,10,-1
3574,10,-1
3575,10,-1
3576,10,-1
3577,10,-1
3578,10,-1
3579,10,-1
3580,10,-1
3581,10,-1
3582,10,-1
3583,10,-1
3584,10,-1
3585,10,-1
3586,10,-1
3587,10,-1
3588,10,-1
3589,10,-1
3590,10,-1
3591,10,-1
3592,10,-1
3593,10,-1
3594,10,-1
3595,10,-1
3596,10,-1
3597,10,-1
3598,10,-1
3599,10,-1
3600,10,-1
3601,10,-1
3602,10,-1
3603,10,-1
3604,10,-1
3605,10,-1
3606,10,-1
3607,10,-1
3608,10,-1
3609,10,-1
3610,10,-1
3611,10,-1
3612,10,-1
3613,10,-1
3614,10,-1
3615,10,-1
3616,10,-1
3617,10,-1
3618,10,-1
3619,10,-1
3620,10,-1
3621,10,-1
3622,10,-1
3623,10,-1
3624,10,-1
3625,10,-1
3626,10,-1
3627,10,-1
3628,10,-1
3629,10,-1
3630,10,-1
3631,10,-1
3632,10,-1
3633,10,-1
3634,10,-1
3635,10,-1
3636,10,-1
3637,10,-1
3638,10,-1
3639,10,-1
3640,10,-1
3641,10,-1
3642,10,-1
3643,10,-1
3644,10,-1
3645,10,-1
3646,10,-1
3647,10,-1
3648,10,-1
3649,10,-1
3650,10,-1
3651,10,-1
3652,10,-1
3653,10,-1
3654,10,-1
3655,10,-1
3656,10,-1
3657,10,-1
3658,10,-1
3659,10,-1
3660,10,-1
3661,10,-1
3662,10,-1
3663,10,-1
3664,10,-1
3665,10,-1
3666,10,-1
3667,10,-1
3668,10,-1
3669,10,-1
3670,10,-1
3671,10,-1
3672,10,-1
3673,10,-1
3674,10,-1
3675,10,-1
3676,10,-1
3677,10,-1
3678,10,-1
3679,10,-1
3680,10,-1
3681,10,-1
3682,10,-1
3683,10,-1
3684,10,-1
3685,10,-1
3686,10,-1
3687,10,-1
3688,10,-1
3689,10,-1
3690,10,-1
3691,10,-1
3692,10,-1
3693,10,-1
3694,10,-1
3695,10,-1
3696,10,-1
3697,10,-1
3698,10,-1
3699,10,-1
3700,10,-1
3701,10,-1
3702,10,-1
3703,10,-1
3704,10,-1
3705,10,-1
3706,10,-1
3707,10,-1
3708,10,-1
3709,10,-1
3710,10,-1
3711,10,-1
3712,10,-1
3713,10,-1
3714,10,-1
3715,10,-1
3716,10,-1
3717,10,-1
3718,10,-1
3719,10,-1
3720,10,-1
3721,10,-1
3722,10,-1
3723,10,-1
3724,10,-1
3725,10,-1
3726,10,-1
3727,10,-1
3728,10,-1
3729,10,-1
3730,10,-1
3731,10,-1
3732,10,-1
3733,10,-1
3734,10,-1
3735,10,-1
3736,10,-1
3737,10,-1
3738,10,-1
3739,10,-1
3740,10,-1
3741,10,-1
3742,10,-1
3743,10,-1
3744,10,-1
3745,10,-1
3746,10,-1
3747,10,-1
3748,10,-1
3749,10,-1
3750,10,-1
3751,10,-1
3752,10,-1
3753,10,-1
3754,10,-1
3755,10,-1
3756,10,-1
3757,10,-1
3758,10,-1
3759,10,-1
3760,10,-1
3761,10,-1
3762,10,-1
3763,10,-1
3764,10,-1
3765,10,-1
3766,10,-1
3767,10,-1
3768,10,-1
3769,10,-1
3770,10,-1
3771,10,-1
3772,10,-1
3773,10,-1
3774,10,-1
3775,10,-1
3776,10,-1
3777,10,-1
3778,10,-1
3779,10,-1
3780,10,-1
3781,10,-1
3782,10,-1
3783,10,-1
3784,10,-1
3785,10,-1
3786,10,-1
3787,10,-1
3788,10,-1
3789,10,-1
3790,10,-1
3791,10,-1
3792,10,-1
3793,10,-1
3794,10,-1
3795,10,-1
3796,10,-1
3797,10,-1
3798,10,-1
3799,10,-1
3800,10,-1
3801,10,-1
3802,10,-1
3803,10,-1
3804,10,-1
3805,10,-1
3806,10,-1
3807,10,-1
3808,10,-1
3809,10,-1
3810,10,-1
3811,10,-1
3812,10,-1
3813,10,-1
3814,10,-1
3815,10,-1
3816,10,-1
3817,10,-1
3818,10,-1
3819,10,-1
3820,10,-1
3821,10,-1
3822,10,-1
3823,10,-1
3824,10,-1
3825,10,-1
3826,10,-1
3827,10,-1
3828,10,-1
3829,10,-1
3830,10,-1
3831,10,-1
3832,10,-1
3833,10,-1
3834,10,-1
3835,10,-1
3836,10,-1
3837,10,-1
3838,10,-1
3839,10,-1
3840,10,-1
3841,10,-1
3842,10,-1
3843,10,-1
3844,10,-1
3845,10,-1
3846,10,-1
3847,10,-1
3848,10,-1
3849,10,-1
3850,10,-1
3851,10,-1
3852,10,-1
3853,10,-1
3854,10,-1
3855,10,-1
3856,10,-1
3857,10,-1
3858,10,-1
3859,10,-1
3860,10,-1
3861,10,-1
3862,10,-1
3863,10,-1
3864,10,-1
3865,10,-1
3866,10,-1
3867,10,-1
3868,10,-1
3869,10,-1
3870,10,-1
3871,10,-1
3872,10,-1
3873,10,-1
3874,10,-1
3875,10,-1
3876,10,-1
3877,10,-1
3878,10,-1
3879,10,-1
3880,10,-1
3881,10,-1
3882,10,-1
3883,10,-1
3884,10,-1
3885,10,-1
3886,10,-1
3887,10,-1
3888,10,-1
3889,10,-1
3890,10,-1
3891,10,-1
3892,10,-1
3893,10,-1
3894,10,-1
3895,10,-1
3896,10,-1
3897,10,-1
3898,10,-1
3899,10,-1
3900,10,-1
3901,10,-1
3902,10,-1
3903,10,-1
3904,10,-1
3905,10,-1
3906,10,-1
3907,10,-1
3908,10,-1
3909,10,-1
3910,10,-1
3911,10,-1
3912,10,-1
3913,10,-1
3914,10,-1
3915,10,-1
3916,10,-1
3917,10,-1
3918,10,-1
3919,10,-1
3920,10,-1
3921,10,-1
3922,10,-1
3923,10,-1
3924,10,-1
3925,10,-1
3926,10,-1
3927,10,-1
3928,10,-1
3929,10,-1
3930,10,-1
3931,10,-1
3932,10,-1
3933,10,-1
3934,10,-1
3935,10,-1
3936,10,-1
3937,10,-1
3938,10,-1
3939,10,-1
3940,10,-1
3941,10,-1
3942,10,-1
3943,10,-1
3944,10,-1
3945,10,-1
3946,10,-1
3947,10,-1
3948,10,-1
3949,10,-1
3950,10,-1
3951,10,-1
3952,10,-1
3953,10,-1
3954,10,-1
3955,10,-1
3956,10,-1
3957,10,-1
3958,10,-1
3959,10,-1
3960,10,-1
3961,10,-1
3962,10,-1
3963,10,-1
3964,10,-1
3965,10,-1
3966,10,-1
3967,10,-1
3968,10,-1
3969,10,-1
3970,10,-1
3971,10,-1
3972,10,-1
3973,10,-1
3974,10,-1
3975,10,-1
3976,10,-1
3977,10,-1
3978,10,-1
3979,10,-1
3980,10,-1
3981,10,-1
3982,10,-1
3983,10,-1
3984,10,-1
3985,10,-1
3986,10,-1
3987,10,-1
3988,10,-1
3989,10,-1
3990,10,-1
3991,10,-1
3992,10,-1
3993,10,-1
3994,10,-1
3995,10,-1
3996,10,-1
3997,10,-1
3998,10,-1
3999,10,-1
4000,10,-1
4001,10,-1
4002,10,-1
4003,10,-1
4004,10,-1
4005,10,-1
4006,10,-1
4007,10,-1
4008,10,-1
4009,10,-1
4010,10,-1
4011,10,-1
4012,10,-1
4013,10,-1
4014,10,-1
4015,10,-1
4016,10,-1
4017,10,-1
4018,10,-1
4019,10,-1
4020,10,-1
4021,10,-1
4022,10,-1
4023,10,-1
4024,10,-1
4025,10,-1
4026,10,-1
4027,10,-1
4028,10,-1
4029,10,-1
4030,10,-1
4031,10,-1
4032,10,-1
4033,10,-1
4034,10,-1
4035,10,-1
4036,10,-1
4037,10,-1
4038,10,-1
4039,10,-1
4040,10,-1
4041,10,-1
4042,10,-1
4043,10,-1
4044,10,-1
4045,10,-1
4046,10,-1
4047,10,-1
4048,10,-1
4049,10,-1
4050,10,-1
4051,10,-1
4052,10,-1
4053,10,-1
4054,10,-1
4055,10,-1
4056,10,-1
4057,10,-1
4058,10,-1
4059,10,-1
4060,10,-1
4061,10,-1
4062,10,-1
4063,10,-1
4064,10,-1
4065,10,-1
4066,10,-1
4067,10,-1
4068,10,-1
4069,10,-1
4070,10,-1
4071,10,-1
4072,10,-1
4073,10,-1
4074,10,-1
4075,10,-1
4076,10,-1
4077,10,-1
4078,10,-1
4079,10,-1
4080,10,-1
4081,10,-1
4082,10,-1
4083,10,-1
4084,10,-1
4085,10,-1
4086,10,-1
4087,10,-1
4088,10,-1
4089,10,-1
4090,10,-1
4091,10,-1
4092,10,-1
4093,10,-1
4094,10,-1
4095,10,-1
4096,10,-1
4097,10,-1
4098,10,-1
4099,10,-1
4100,10,-1
4101,10,-1
4102,10,-1
4103,10,-1
4104,10,-1
4105,10,-1
4106,10,-1
4107,10,-1
4108,10,-1
4109,10,-1
4110,10,-1
4111,10,-1
4112,10,-1
4113,10,-1
4114,10,-1
4115,10,-1
4116,10,-1
4117,10,-1
4118,10,-1
4119,10,-1
4120,10,-1
4121,10,-1
4122,10,-1
4123,10,-1
4124,10,-1
4125,10,-1
4126,10,-1
4127,10,-1
4128,10,-1
4129,10,-1
4130,10,-1
4131,10,-1
4132,10,-1
4133,10,-1
4134,10,-1
4135,10,-1
4136,10,-1
4137,10,-1
4138,10,-1
4139,10,-1
4140,10,-1
4141,10,-1
4142,10,-1
4143,10,-1
4144,10,-1
4145,10,-1
4146,10,-1
4147,10,-1
4148,10,-1
4149,10,-1
4150,10,-1
4151,10,-1
4152,10,-1
4153,10,-1
4154,10,-1
4155,10,-1
4156,10,-1
4157,10,-1
4158,10,-1
4159,10,-1
4160,10,-1
4161,10,-1
4162,10,-1
4163,10,-1
4164,10,-1
4165,10,-1
4166,10,-1
4167,10,-1
4168,10,-1
4169,10,-1
4170,10,-1
4171,10,-1
4172,10,-1
4173,10,-1
4174,10,-1
4175,10,-1
4176,10,-1
4177,10,-1
4178,10,-1
4179,10,-1
4180,10,-1
4181,10,-1
4182,10,-1
4183,10,-1
4184,10,-1
4185,10,-1
4186,10,-1
4187,10,-1
4188,10,-1
4189,10,-1
4190,10,-1
4191,10,-1
4192,10,-1
4193,10,-1
4194,10,-1
4195,10,-1
4196,10,-1
4197,10,-1
4198,10,-1
4199,10,-1
4200,10,-1
4201,10,-1
4202,10,-1
4203,10,-1
4204,10,-1
4205,10,-1
4206,10,-1
4207,10,-1
4208,10,-1
4209,10,-1
4210,10,-1
4211,10,-1
4212,10,-1
4213,10,-1
4214,10,-1
4215,10,-1
4216,10,-1
4217,10,-1
4218,10,-1
4219,10,-1
4220,10,-1
4221,10,-1
4222,10,-1
4223,10,-1
4224,10,-1
4225,10,-1
4226,10,-1
4227,10,-1
4228,10,-1
4229,10,-1
4230,10,-1
4231,10,-1
4232,10,-1
4233,10,-1
4234,10,-1
4235,10,-1
4236,10,-1
4237,10,-1
4238,10,-1
4239,10,-1
4240,10,-1
4241,10,-1
4242,10,-1
4243,10,-1
4244,10,-1
4245,10,-1
4246,10,-1
4247,10,-1
4248,10,-1
4249,10,-1
4250,10,-1
4251,10,-1
4252,10,-1
4253,10,-1
4254,10,-1
4255,10,-1
4256,10,-1
4257,10,-1
4258,10,-1
4259,10,-1
4260,10,-1
4261,10,-1
4262,10,-1
4263,10,-1
4264,10,-1
4265,10,-1
4266,10,-1
4267,10,-1
4268,10,-1
4269,10,-1
4270,10,-1
4271,10,-1
4272,10,-1
4273,10,-1
4274,10,-1
4275,10,-1
4276,10,-1
4277,10,-1
4278,10,-1
4279,10,-1
4280,10,-1
4281,10,-1
4282,10,-1
4283,10,-1
4284,10,-1
4285,10,-1
4286,10,-1
4287,10,-1
4288,10,-1
4289,10,-1
4290,10,-1
4291,10,-1
4292,10,-1
4293,10,-1
4294,10,-1
4295,10,-1
4296,10,-1
4297,10,-1
4298,10,-1
4299,10,-1
4300,10,-1
4301,10,-1
4302,10,-1
4303,10,-1
4304,10,-1
4305,10,-1
4306,10,-1
4307,10,-1
4308,10,-1
4309,10,-1
4310,10,-1
4311,10,-1
4312,10,-1
4313,10,-1
4314,10,-1
4315,10,-1
4316,10,-1
4317,10,-1
4318,10,-1
4319,10,-1
4320,10,-1
4321,10,-1
4322,10,-1
4323,10,-1
4324,10,-1
4325,10,-1
4326,10,-1
4327,10,-1
4328,10,-1
4329,10,-1
4330,10,-1
4331,10,-1
4332,10,-1
4333,10,-1
4334,10,-1
4335,10,-1
4336,10,-1
4337,10,-1
4338,10,-1
4339,10,-1
4340,10,-1
4341,10,-1
4342,10,-1
4343,10,-1
4344,10,-1
4345,10,-1
4346,10,-1
4347,10,-1
4348,10,-1
4349,10,-1
4350,10,-1
4351,10,-1
4352,10,-1
4353,10,-1
4354,10,-1
4355,10,-1
4356,10,-1
4357,10,-1
4358,10,-1
4359,10,-1
4360,10,-1
4361,10,-1
4362,10,-1
4363,10,-1
4364,10,-1
4365,10,-1
4366,10,-1
4367,10,-1
4368,10,-1
4369,10,-1
4370,10,-1
4371,10,-1
4372,10,-1
4373,10,-1
4374,10,-1
4375,10,-1
4376,10,-1
4377,10,-1
4378,10,-1
4379,10,-1
4380,10,-1
4381,10,-1
4382,10,-1
4383,10,-1
4384,10,-1
4385,10,-1
4386,10,-1
4387,10,-1
4388,10,-1
4389,10,-1
4390,10,-1
4391,10,-1
4392,10,-1
4393,10,-1
4394,10,-1
4395,10,-1
4396,10,-1
4397,10,-1
4398,10,-1
4399,10,-1
4400,10,-1
4401,10,-1
4402,10,-1
4403,10,-1
4404,10,-1
4405,10,-1
4406,10,-1
4407,10,-1
4408,10,-1
4409,10,-1
4410,10,-1
4411,10,-1
4412,10,-1
4413,10,-1
4414,10,-1
4415,10,-1
4416,10,-1
4417,10,-1
4418,10,-1
4419,10,-1
4420,10,-1
4421,10,-1
4422,10,-1
4423,10,-1
4424,10,-1
4425,10,-1
4426,10,-1
4427,10,-1
4428,10,-1
4429,10,-1
4430,10,-1
4431,10,-1
4432,10,-1
4433,10,-1
4434,10,-1
4435,10,-1
4436,10,-1
4437,10,-1
4438,10,-1
4439,10,-1
4440,10,-1
4441,10,-1
4442,10,-1
4443,10,-1
4444,10,-1
4445,10,-1
4446,10,-1
4447,10,-1
4448,10,-1
4449,10,-1
4450,10,-1
4451,10,-1
4452,10,-1
4453,10,-1
4454,10,-1
4455,10,-1
4456,10,-1
4457,10,-1
4458,10,-1
4459,10,-1
4460,10,-1
4461,10,-1
4462,10,-1
4463,10,-1
4464,10,-1
4465,10,-1
4466,10,-1
4467,10,-1
4468,10,-1
4469,10,-1
4470,10,-1
4471,10,-1
4472,10,-1
4473,10,-1
4474,10,-1
4475,10,-1
4476,10,-1
4477,10,-1
4478,10,-1
4479,10,-1
4480,10,-1
4481,10,-1
4482,10,-1
4483,10,-1
4484,10,-1
4485,10,-1
4486,10,-1
4487,10,-1
4488,10,-1
4489,10,-1
4490,10,-1
4491,10,-1
4492,10,-1
4493,10,-1
4494,10,-1
4495,10,-1
4496,10,-1
4497,10,-1
4498,10,-1
4499,10,-1
4500,10,-1
4501,10,-1
4502,10,-1
4503,10,-1
4504,10,-1
4505,10,-1
4506,10,-1
4507,10,-1
4508,10,-1
4509,10,-1
4510,10,-1
4511,10,-1
4512,10,-1
4513,10,-1
4514,10,-1
4515,10,-1
4516,10,-1
4517,10,-1
4518,10,-1
4519,10,-1
4520,10,-1
4521,10,-1
4522,10,-1
4523,10,-1
4524,10,-1
4525,10,-1
4526,10,-1
4527,10,-1
4528,10,-1
4529,10,-1
4530,10,-1
4531,10,-1
4532,10,-1
4533,10,-1
4534,10,-1
4535,10,-1
4536,10,-1
4537,10,-1
4538,10,-1
4539,10,-1
4540,10,-1
4541,10,-1
4542,10,-1
4543,10,-1
4544,10,-1
4545,10,-1
4546,10,-1
4547,10,-1
4548,10,-1
4549,10,-1
4550,10,-1
4551,10,-1
4552,10,-1
4553,10,-1
4554,10,-1
4555,10,-1
4556,10,-1
4557,10,-1
4558,10,-1
4559,10,-1
4560,10,-1
4561,10,-1
4562,10,-1
4563,10,-1
4564,10,-1
4565,10,-1
4566,10,-1
4567,10,-1
4568,10,-1
4569,10,-1
4570,10,-1
4571,10,-1
4572,10,-1
4573,10,-1
4574,10,-1
4575,10,-1
4576,10,-1
4577,10,-1
4578,10,-1
4579,10,-1
4580,10,-1
4581,10,-1
4582,10,-1
4583,10,-1
4584,10,-1
4585,10,-1
4586,10,-1
4587,10,-1
4588,10,-1
4589,10,-1
4590,10,-1
4591,10,-1
4592,10,-1
4593,10,-1
4594,10,-1
4595,10,-1
4596,10,-1
4597,10,-1
4598,10,-1
4599,10,-1
4600,10,-1
4601,10,-1
4602,10,-1
4603,10,-1
4604,10,-1
4605,10,-1
4606,10,-1
4607,10,-1
4608,10,-1
4609,10,-1
4610,10,-1
4611,10,-1
4612,10,-1
4613,10,-1
4614,10,-1
4615,10,-1
4616,10,-1
4617,10,-1
4618,10,-1
4619,10,-1
4620,10,-1
4621,10,-1
4622,10,-1
4623,10,-1
4624,10,-1
4625,10,-1
4626,10,-1
4627,10,-1
4628,10,-1
4629,10,-1
4630,10,-1
4631,10,-1
4632,10,-1
4633,10,-1
4634,10,-1
4635,10,-1
4636,10,-1
4637,10,-1
4638,10,-1
4639,10,-1
4640,10,-1
4641,10,-1
4642,10,-1
4643,10,-1
4644,10,-1
4645,10,-1
4646,10,-1
4647,10,-1
4648,10,-1
4649,10,-1
4650,10,-1
4651,10,-1
4652,10,-1
4653,10,-1
4654,10,-1
4655,10,-1
4656,10,-1
4657,10,-1
4658,10,-1
4659,10,-1
4660,10,-1
4661,10,-1
4662,10,-1
4663,10,-1
4664,10,-1
4665,10,-1
4666,10,-1
4667,10,-1
4668,10,-1
4669,10,-1
4670,10,-1
4671,10,-1
4672,10,-1
4673,10,-1
4674,10,-1
4675,10,-1
4676,10,-1
4677,10,-1
4678,10,-1
4679,10,-1
4680,10,-1
4681,10,-1
4682,10,-1
4683,10,-1
4684,10,-1
4685,10,-1
4686,10,-1
4687,10,-1
4688,10,-1
4689,10,-1
4690,10,-1
4691,10,-1
4692,10,-1
4693,10,-1
4694,10,-1
4695,10,-1
4696,10,-1
4697,10,-1
4698,10,-1
4699,10,-1
4700,10,-1
4701,10,-1
4702,10,-1
4703,10,-1
4704,10,-1
4705,10,-1
4706,10,-1
4707,10,-1
4708,10,-1
4709,10,-1
4710,10,-1
4711,10,-1
4712,10,-1
4713,10,-1
4714,10,-1
4715,10,-1
4716,10,-1
4717,10,-1
4718,10,-1
4719,10,-1
4720,10,-1
4721,10,-1
4722,10,-1
4723,10,-1
4724,10,-1
4725,10,-1
4726,10,-1
4727,10,-1
4728,10,-1
4729,10,-1
4730,10,-1
4731,10,-1
4732,10,-1
4733,10,-1
4734,10,-1
4735,10,-1
4736,10,-1
4737,10,-1
4738,10,-1
4739,10,-1
4740,10,-1
4741,10,-1
4742,10,-1
4743,10,-1
4744,10,-1
4745,10,-1
4746,10,-1
4747,10,-1
4748,10,-1
4749,10,-1
4750,10,-1
4751,10,-1
4752,10,-1
4753,10,-1
4754,10,-1
4755,10,-1
4756,10,-1
4757,10,-1
4758,10,-1
4759,10,-1
4760,10,-1
4761,10,-1
4762,10,-1
4763,10,-1
4764,10,-1
4765,10,-1
4766,10,-1
4767,10,-1
4768,10,-1
4769,10,-1
4770,10,-1
4771,10,-1
4772,10,-1
4773,10,-1
4774,10,-1
4775,10,-1
4776,10,-1
4777,10,-1
4778,10,-1
4779,10,-1
4780,10,-1
4781,10,-1
4782,10,-1
4783,10,-1
4784,10,-1
4785,10,-1
4786,10,-1
4787,10,-1
4788,10,-1
4789,10,-1
4790,10,-1
4791,10,-1
4792,10,-1
4793,10,-1
4794,10,-1
4795,10,-1
4796,10,-1
4797,10,-1
4798,10,-1
4799,10,-1
4800,10,-1
4801,10,-1
4802,10,-1
4803,10,-1
4804,10,-1
4805,10,-1
4806,10,-1
4807,10,-1
4808,10,-1
4809,10,-1
4810,10,-1
4811,10,-1
4812,10,-1
4813,10,-1
4814,10,-1
4815,10,-1
4816,10,-1
4817,10,-1
4818,10,-1
4819,10,-1
4820,10,-1
4821,10,-1
4822,10,-1
4823,10,-1
4824,10,-1
4825,10,-1
4826,10,-1
4827,10,-1
4828,10,-1
4829,10,-1
4830,10,-1
4831,10,-1
4832,10,-1
4833,10,-1
4834,10,-1
4835,10,-1
4836,10,-1
4837,10,-1
4838,10,-1
4839,10,-1
4840,10,-1
4841,10,-1
4842,10,-1
4843,10,-1
4844,10,-1
4845,10,-1
4846,10,-1
4847,10,-1
4848,10,-1
4849,10,-1
4850,10,-1
4851,10,-1
4852,10,-1
4853,10,-1
4854,10,-1
4855,10,-1
4856,10,-1
4857,10,-1
4858,10,-1
4859,10,-1
4860,10,-1
4861,10,-1
4862,10,-1
4863,10,-1
4864,10,-1
4865,10,-1
4866,10,-1
4867,10,-1
4868,10,-1
4869,10,-1
4870,10,-1
4871,10,-1
4872,10,-1
4873,10,-1
4874,10,-1
4875,10,-1
4876,10,-1
4877,10,-1
4878,10,-1
4879,10,-1
4880,10,-1
4881,10,-1
4882,10,-1
4883,10,-1
4884,10,-1
4885,10,-1
4886,10,-1
4887,10,-1
4888,10,-1
4889,10,-1
4890,10,-1
4891,10,-1
4892,10,-1
4893,10,-1
4894,10,-1
4895,10,-1
4896,10,-1
4897,10,-1
4898,10,-1
4899,10,-1
4900,10,-1
4901,10,-1
4902,10,-1
4903,10,-1
4904,10,-1
4905,10,-1
4906,10,-1
4907,10,-1
4908,10,-1
4909,10,-1
4910,10,-1
4911,10,-1
4912,10,-1
4913,10,-1
4914,10,-1
4915,10,-1
4916,10,-1
4917,10,-1
4918,10,-1
4919,10,-1
4920,10,-1
4921,10,-1
4922,10,-1
4923,10,-1
4924,10,-1
4925,10,-1
4926,10,-1
4927,10,-1
4928,10,-1
4929,10,-1
4930,10,-1
4931,10,-1
4932,10,-1
4933,10,-1
4934,10,-1
4935,10,-1
4936,10,-1
4937,10,-1
4938,10,-1
4939,10,-1
4940,10,-1
4941,10,-1
4942,10,-1
4943,10,-1
4944,10,-1
4945,10,-1
4946,10,-1
4947,10,-1
4948,10,-1
4949,10,-1
4950,10,-1
4951,10,-1
4952,10,-1
4953,10,-1
4954,10,-1
4955,10,-1
4956,10,-1
4957,10,-1
4958,10,-1
4959,10,-1
4960,10,-1
4961,10,-1
4962,10,-1
4963,10,-1
4964,10,-1
4965,10,-1
4966,10,-1
4967,10,-1
4968,10,-1
4969,10,-1
4970,10,-1
4971,10,-1
4972,10,-1
4973,10,-1
4974,10,-1
4975,10,-1
4976,10,-1
4977,10,-1
4978,10,-1
4979,10,-1
4980,10,-1
4981,10,-1
4982,10,-1
4983,10,-1
4984,10,-1
4985,10,-1
4986,10,-1
4987,10,-1
4988,10,-1
4989,10,-1
4990,10,-1
4991,10,-1
4992,10,-1
4993,10,-1
4994,10,-1
4995,10,-1
4996,10,-1
4997,10,-1
4998,10,-1
4999,10,-1
5000,10,-1
5001,10,-1
5002,10,-1
5003,10,-1
5004,10,-1
5005,10,-1
5006,10,-1
5007,10,-1
5008,10,-1
5009,10,-1
5010,10,-1
5011,10,-1
5012,10,-1
5013,10,-1
5014,10,-1
5015,10,-1
5016,10,-1
5017,10,-1
5018,10,-1
5019,10,-1
5020,10,-1
5021,10,-1
5022,10,-1
5023,10,-1
5024,10,-1
5025,10,-1
5026,10,-1
5027,10,-1
5028,10,-1
5029,10,-1
5030,10,-1
5031,10,-1
5032,10,-1
5033,10,-1
5034,10,-1
5035,10,-1
5036,10,-1
5037,10,-1
5038,10,-1
5039,10,-1
5040,10,-1
5041,10,-1
5042,10,-1
5043,10,-1
5044,10,-1
5045,10,-1
5046,10,-1
5047,10,-1
5048,10,-1
5049,10,-1
5050,10,-1
5051,10,-1
5052,10,-1
5053,10,-1
5054,10,-1
5055,10,-1
5056,10,-1
5057,10,-1
5058,10,-1
5059,10,-1
5060,10,-1
5061,10,-1
5062,10,-1
5063,10,-1
5064,10,-1
5065,10,-1
5066,10,-1
5067,10,-1
5068,10,-1
5069,10,-1
5070,10,-1
5071,10,-1
5072,10,-1
5073,10,-1
5074,10,-1
5075,10,-1
5076,10,-1
5077,10,-1
5078,10,-1
5079,10,-1
5080,10,-1
5081,10,-1
5082,10,-1
5083,10,-1
5084,10,-1
5085,10,-1
5086,10,-1
5087,10,-1
5088,10,-1
5089,10,-1
5090,10,-1
5091,10,-1
5092,10,-1
5093,10,-1
5094,10,-1
5095,10,-1
5096,10,-1
5097,10,-1
5098,10,-1
5099,10,-1
5100,10,-1
5101,10,-1
5102,10,-1
5103,10,-1
5104,10,-1
5105,10,-1
5106,10,-1
5107,10,-1
5108,10,-1
5109,10,-1
5110,10,-1
5111,10,-1
5112,10,-1
5113,10,-1
5114,10,-1
5115,10,-1
5116,10,-1
5117,10,-1
5118,10,-1
5119,10,-1
5120,10,-1
5121,10,-1
5122,10,-1
5123,10,-1
5124,10,-1
5125,10,-1
5126,10,-1
5127,10,-1
5128,10,-1
5129,10,-1
5130,10,-1
5131,10,-1
5132,10,-1
5133,10,-1
5134,10,-1
5135,10,-1
5136,10,-1
5137,10,-1
5138,10,-1
5139,10,-1
5140,10,-1
5141,10,-1
5142,10,-1
5143,10,-1
5144,10,-1
5145,10,-1
5146,10,-1
5147,10,-1
5148,10,-1
5149,10,-1
5150,10,-1
5151,10,-1
5152,10,-1
5153,10,-1
5154,10,-1
5155,10,-1
5156,10,-1
5157,10,-1
5158,10,-1
5159,10,-1
5160,10,-1
5161,10,-1
5162,10,-1
5163,10,-1
5164,10,-1
5165,10,-1
5166,10,-1
5167,10,-1
5168,10,-1
5169,10,-1
5170,10,-1
5171,10,-1
5172,10,-1
5173,10,-1
5174,10,-1
5175,10,-1
5176,10,-1
5177,10,-1
5178,10,-1
5179,10,-1
5180,10,-1
5181,10,-1
5182,10,-1
5183,10,-1
5184,10,-1
5185,10,-1
5186,10,-1
5187,10,-1
5188,10,-1
5189,10,-1
5190,10,-1
5191,10,-1
5192,10,-1
5193,10,-1
5194,10,-1
5195,10,-1
5196,10,-1
5197,10,-1
5198,10,-1
5199,10,-1
5200,10,-1
5201,10,-1
5202,10,-1
5203,10,-1
5204,10,-1
5205,10,-1
5206,10,-1
5207,10,-1
5208,10,-1
5209,10,-1
5210,10,-1
5211,10,-1
5212,10,-1
5213,10,-1
5214,10,-1
5215,10,-1
5216,10,-1
5217,10,-1
5218,10,-1
5219,10,-1
5220,10,-1
5221,10,-1
5222,10,-1
5223,10,-1
5224,10,-1
5225,10,-1
5226,10,-1
5227,10,-1
5228,10,-1
5229,10,-1
5230,10,-1
5231,10,-1
5232,10,-1
5233,10,-1
5234,10,-1
5235,10,-1
5236,10,-1
5237,10,-1
5238,10,-1
5239,10,-1
5240,10,-1
5241,10,-1
5242,10,-1
5243,10,-1
5244,10,-1
5245,10,-1
5246,10,-1
5247,10,-1
5248,10,-1
5249,10,-1
5250,10,-1
5251,10,-1
5252,10,-1
5253,10,-1
5254,10,-1
5255,10,-1
5256,10,-1
5257,10,-1
5258,10,-1
5259,10,-1
5260,10,-1
5261,10,-1
5262,10,-1
5263,10,-1
5264,10,-1
5265,10,-1
5266,10,-1
5267,10,-1
5268,10,-1
5269,10,-1
5270,10,-1
5271,10,-1
5272,10,-1
5273,10,-1
5274,10,-1
5275,10,-1
5276,10,-1
5277,10,-1
5278,10,-1
5279,10,-1
5280,10,-1
5281,10,-1
5282,10,-1
5283,10,-1
5284,10,-1
5285,10,-1
5286,10,-1
5287,10,-1
5288,10,-1
5289,10,-1
5290,10,-1
5291,10,-1
5292,10,-1
5293,10,-1
5294,10,-1
5295,10,-1
5296,10,-1
5297,10,-1
5298,10,-1
5299,10,-1
5300,10,-1
5301,10,-1
5302,10,-1
5303,10,-1
5304,10,-1
5305,10,-1
5306,10,-1
5307,10,-1
5308,10,-1
5309,10,-1
5310,10,-1
5311,10,-1
5312,10,-1
5313,10,-1
5314,10,-1
5315,10,-1
5316,10,-1
5317,10,-1
5318,10,-1
5319,10,-1
5320,10,-1
5321,10,-1
5322,10,-1
5323,10,-1
5324,10,-1
5325,10,-1
5326,10,-1
5327,10,-1
5328,10,-1
5329,10,-1
5330,10,-1
5331,10,-1
5332,10,-1
5333,10,-1
5334,10,-1
5335,10,-1
5336,10,-1
5337,10,-1
5338,10,-1
5339,10,-1
5340,10,-1
5341,10,-1
5342,10,-1
5343,10,-1
5344,10,-1
5345,10,-1
5346,10,-1
5347,10,-1
5348,10,-1
5349,10,-1
5350,10,-1
5351,10,-1
5352,10,-1
5353,10,-1
5354,10,-1
5355,10,-1
5356,10,-1
5357,10,-1
5358,10,-1
5359,10,-1
5360,10,-1
5361,10,-1
5362,10,-1
5363,10,-1
5364,10,-1
5365,10,-1
5366,10,-1
5367,10,-1
5368,10,-1
5369,10,-1
5370,10,-1
5371,10,-1
5372,10,-1
5373,10,-1
5374,10,-1
5375,10,-1
5376,10,-1
5377,10,-1
5378,10,-1
5379,10,-1
5380,10,-1
5381,10,-1
5382,10,-1
5383,10,-1
5384,10,-1
5385,10,-1
5386,10,-1
5387,10,-1
5388,10,-1
5389,10,-1
5390,10,-1
5391,10,-1
5392,10,-1
5393,10,-1
5394,10,-1
5395,10,-1
5396,10,-1
5397,10,-1
5398,10,-1
5399,10,-1
5400,10,-1
5401,10,-1
5402,10,-1
5403,10,-1
5404,10,-1
5405,10,-1
5406,10,-1
5407,10,-1
5408,10,-1
5409,10,-1
5410,10,-1
5411,10,-1
5412,10,-1
5413,10,-1
5414,10,-1
5415,10,-1
5416,10,-1
5417,10,-1
5418,10,-1
5419,10,-1
5420,10,-1
5421,10,-1
5422,10,-1
5423,10,-1
5424,10,-1
5425,10,-1
5426,10,-1
5427,10,-1
5428,10,-1
5429,10,-1
5430,10,-1
5431,10,-1
5432,10,-1
5433,10,-1
5434,10,-1
5435,10,-1
5436,10,-1
5437,10,-1
5438,10,-1
5439,10,-1
5440,10,-1
5441,10,-1
5442,10,-1
5443,10,-1
5444,10,-1
5445,10,-1
5446,10,-1
5447,10,-1
5448,10,-1
5449,10,-1
5450,10,-1
5451,10,-1
5452,10,-1
5453,10,-1
5454,10,-1
5455,10,-1
5456,10,-1
5457,10,-1
5458,10,-1
5459,10,-1
5460,10,-1
5461,10,-1
5462,10,-1
5463,10,-1
5464,10,-1
5465,10,-1
5466,10,-1
5467,10,-1
5468,10,-1
5469,10,-1
5470,10,-1
5471,10,-1
5472,10,-1
5473,10,-1
5474,10,-1
5475,10,-1
5476,10,-1
5477,10,-1
5478,10,-1
5479,10,-1
5480,10,-1
5481,10,-1
5482,10,-1
5483,10,-1
5484,10,-1
5485,10,-1
5486,10,-1
5487,10,-1
5488,10,-1
5489,10,-1
5490,10,-1
5491,10,-1
5492,10,-1
5493,10,-1
5494,10,-1
5495,10,-1
5496,10,-1
5497,10,-1
5498,10,-1
5499,10,-1
5500,10,-1
5501,10,-1
5502,10,-1
5503,10,-1
5504,10,-1
5505,10,-1
5506,10,-1
5507,10,-1
5508,10,-1
5509,10,-1
5510,10,-1
5511,10,-1
5512,10,-1
5513,10,-1
5514,10,-1
5515,10,-1
5516,10,-1
5517,10,-1
5518,10,-1
5519,10,-1
5520,10,-1
5521,10,-1
5522,10,-1
5523,10,-1
5524,10,-1
5525,10,-1
5526,10,-1
5527,10,-1
5528,10,-1
5529,10,-1
5530,10,-1
5531,10,-1
5532,10,-1
5533,10,-1
5534,10,-1
5535,10,-1
5536,10,-1
5537,10,-1
5538,10,-1
5539,10,-1
5540,10,-1
5541,10,-1
5542,10,-1
5543,10,-1
5544,10,-1
5545,10,-1
5546,10,-1
5547,10,-1
5548,10,-1
5549,10,-1
5550,10,-1
5551,10,-1
5552,10,-1
5553,10,-1
5554,10,-1
5555,10,-1
5556,10,-1
5557,10,-1
5558,10,-1
5559,10,-1
5560,10,-1
5561,10,-1
5562,10,-1
5563,10,-1
5564,10,-1
5565,10,-1
5566,10,-1
5567,10,-1
5568,10,-1
5569,10,-1
5570,10,-1
5571,10,-1
5572,10,-1
5573,10,-1
5574,10,-1
5575,10,-1
5576,10,-1
5577,10,-1
5578,10,-1
5579,10,-1
5580,10,-1
5581,10,-1
5582,10,-1
5583,10,-1
5584,10,-1
5585,10,-1
5586,10,-1
5587,10,-1
5588,10,-1
5589,10,-1
5590,10,-1
5591,10,-1
5592,10,-1
5593,10,-1
5594,10,-1
5595,10,-1
5596,10,-1
5597,10,-1
5598,10,-1
5599,10,-1
5600,10,-1
5601,10,-1
5602,10,-1
5603,10,-1
5604,10,-1
5605,10,-1
5606,10,-1
5607,10,-1
5608,10,-1
5609,10,-1
5610,10,-1
5611,10,-1
5612,10,-1
5613,10,-1
5614,10,-1
5615,10,-1
5616,10,-1
5617,10,-1
5618,10,-1
5619,10,-1
5620,10,-1
5621,10,-1
5622,10,-1
5623,10,-1
5624,10,-1
5625,10,-1
5626,10,-1
5627,10,-1
5628,10,-1
5629,10,-1
5630,10,-1
5631,10,-1
5632,10,-1
5633,10,-1
5634,10,-1
5635,10,-1
5636,10,-1
5637,10,-1
5638,10,-1
5639,10,-1
5640,10,-1
5641,10,-1
5642,10,-1
5643,10,-1
5644,10,-1
5645,10,-1
5646,10,-1
5647,10,-1
5648,10,-1
5649,10,-1
5650,10,-1
5651,10,-1
5652,10,-1
5653,10,-1
5654,10,-1
5655,10,-1
5656,10,-1
5657,10,-1
5658,10,-1
5659,10,-1
5660,10,-1
5661,10,-1
5662,10,-1
5663,10,-1
5664,10,-1
5665,10,-1
5666,10,-1
5667,10,-1
5668,10,-1
5669,10,-1
5670,10,-1
5671,10,-1
5672,10,-1
5673,10,-1
5674,10,-1
5675,10,-1
5676,10,-1
5677,10,-1
5678,10,-1
5679,10,-1
5680,10,-1
5681,10,-1
5682,10,-1
5683,10,-1
5684,10,-1
5685,10,-1
5686,10,-1
5687,10,-1
5688,10,-1
5689,10,-1
5690,10,-1
5691,10,-1
5692,10,-1
5693,10,-1
5694,10,-1
5695,10,-1
5696,10,-1
5697,10,-1
5698,10,-1
5699,10,-1
5700,10,-1
5701,10,-1
5702,10,-1
5703,10,-1
5704,10,-1
5705,10,-1
5706,10,-1
5707,10,-1
5708,10,-1
5709,10,-1
5710,10,-1
5711,10,-1
5712,10,-1
5713,10,-1
5714,10,-1
5715,10,-1
5716,10,-1
5717,10,-1
5718,10,-1
5719,10,-1
5720,10,-1
5721,10,-1
5722,10,-1
5723,10,-1
5724,10,-1
5725,10,-1
5726,10,-1
5727,10,-1
5728,10,-1
5729,10,-1
5730,10,-1
5731,10,-1
5732,10,-1
5733,10,-1
5734,10,-1
5735,10,-1
5736,10,-1
5737,10,-1
5738,10,-1
5739,10,-1
5740,10,-1
5741,10,-1
5742,10,-1
5743,10,-1
5744,10,-1
5745,10,-1
5746,10,-1
5747,10,-1
5748,10,-1
5749,10,-1
5750,10,-1
5751,10,-1
5752,10,-1
5753,10,-1
5754,10,-1
5755,10,-1
5756,10,-1
5757,10,-1
5758,10,-1
5759,10,-1
5760,10,-1
5761,10,-1
5762,10,-1
5763,10,-1
5764,10,-1
5765,10,-1
5766,10,-1
5767,10,-1
5768,10,-1
5769,10,-1
5770,10,-1
5771,10,-1
5772,10,-1
5773,10,-1
5774,10,-1
5775,10,-1
5776,10,-1
5777,10,-1
5778,10,-1
5779,10,-1
5780,10,-1
5781,10,-1
5782,10,-1
5783,10,-1
5784,10,-1
5785,10,-1
5786,10,-1
5787,10,-1
5788,10,-1
5789,10,-1
5790,10,-1
5791,10,-1
5792,10,-1
5793,10,-1
5794,10,-1
5795,10,-1
5796,10,-1
5797,10,-1
5798,10,-1
5799,10,-1
5800,10,-1
5801,10,-1
5802,10,-1
5803,10,-1
5804,10,-1
5805,10,-1
5806,10,-1
5807,10,-1
5808,10,-1
5809,10,-1
5810,10,-1
5811,10,-1
5812,10,-1
5813,10,-1
5814,10,-1
5815,10,-1
5816,10,-1
5817,10,-1
5818,10,-1
5819,10,-1
5820,10,-1
5821,10,-1
5822,10,-1
5823,10,-1
5824,10,-1
5825,10,-1
5826,10,-1
5827,10,-1
5828,10,-1
5829,10,-1
5830,10,-1
5831,10,-1
5832,10,-1
5833,10,-1
5834,10,-1
5835,10,-1
5836,10,-1
5837,10,-1
5838,10,-1
5839,10,-1
5840,10,-1
5841,10,-1
5842,10,-1
5843,10,-1
5844,10,-1
5845,10,-1
5846,10,-1
5847,10,-1
5848,10,-1
5849,10,-1
5850,10,-1
5851,10,-1
5852,10,-1
5853,10,-1
5854,10,-1
5855,10,-1
5856,10,-1
5857,10,-1
5858,10,-1
5859,10,-1
5860,10,-1
5861,10,-1
5862,10,-1
5863,10,-1
5864,10,-1
5865,10,-1
5866,10,-1
5867,10,-1
5868,10,-1
5869,10,-1
5870,10,-1
5871,10,-1
5872,10,-1
5873,10,-1
5874,10,-1
5875,10,-1
5876,10,-1
5877,10,-1
5878,10,-1
5879,10,-1
5880,10,-1
5881,10,-1
5882,10,-1
5883,10,-1
5884,10,-1
5885,10,-1
5886,10,-1
5887,10,-1
5888,10,-1
5889,10,-1
5890,10,-1
5891,10,-1
5892,10,-1
5893,10,-1
5894,10,-1
5895,10,-1
5896,10,-1
5897,10,-1
5898,10,-1
5899,10,-1
5900,10,-1
5901,10,-1
5902,10,-1
5903,10,-1
5904,10,-1
5905,10,-1
5906,10,-1
5907,10,-1
5908,10,-1
5909,10,-1
5910,10,-1
5911,10,-1
5912,10,-1
5913,10,-1
5914,10,-1
5915,10,-1
5916,10,-1
5917,10,-1
5918,10,-1
5919,10,-1
5920,10,-1
5921,10,-1
5922,10,-1
5923,10,-1
5924,10,-1
5925,10,-1
5926,10,-1
5927,10,-1
5928,10,-1
5929,10,-1
5930,10,-1
5931,10,-1
5932,10,-1
5933,10,-1
5934,10,-1
5935,10,-1
5936,10,-1
5937,10,-1
5938,10,-1
5939,10,-1
5940,10,-1
5941,10,-1
5942,10,-1
5943,10,-1
5944,10,-1
5945,10,-1
5946,10,-1
5947,10,-1
5948,10,-1
5949,10,-1
5950,10,-1
5951,10,-1
5952,10,-1
5953,10,-1
5954,10,-1
5955,10,-1
5956,10,-1
5957,10,-1
5958,10,-1
5959,10,-1
5960,10,-1
5961,10,-1
5962,10,-1
5963,10,-1
5964,10,-1
5965,10,-1
5966,10,-1
5967,10,-1
5968,10,-1
5969,10,-1
5970,10,-1
5971,10,-1
5972,10,-1
5973,10,-1
5974,10,-1
5975,10,-1
5976,10,-1
5977,10,-1
5978,10,-1
5979,10,-1
5980,10,-1
5981,10,-1
5982,10,-1
5983,10,-1
5984,10,-1
5985,10,-1
5986,10,-1
5987,10,-1
5988,10,-1
5989,10,-1
5990,10,-1
5991,10,-1
5992,10,-1
5993,10,-1
5994,10,-1
5995,10,-1
5996,10,-1
5997,10,-1
5998,10,-1
5999,10,-1
6000,10,-1
6001,10,-1
6002,10,-1
6003,10,-1
6004,10,-1
6005,10,-1
6006,10,-1
6007,10,-1
6008,10,-1
6009,10,-1
6010,10,-1
6011,10,-1
6012,10,-1
6013,10,-1
6014,10,-1
6015,10,-1
6016,10,-1
6017,10,-1
6018,10,-1
6019,10,-1
6020,10,-1
6021,10,-1
6022,10,-1
6023,10,-1
6024,10,-1
6025,10,-1
6026,10,-1
6027,10,-1
6028,10,-1
6029,10,-1
6030,10,-1
6031,10,-1
6032,10,-1
6033,10,-1
6034,10,-1
6035,10,-1
6036,10,-1
6037,10,-1
6038,10,-1
6039,10,-1
6040,10,-1
6041,10,-1
6042,10,-1
6043,10,-1
6044,10,-1
6045,10,-1
6046,10,-1
6047,10,-1
6048,10,-1
6049,10,-1
6050,10,-1
6051,10,-1
6052,10,-1
6053,10,-1
6054,10,-1
6055,10,-1
6056,10,-1
6057,10,-1
6058,10,-1
6059,10,-1
6060,10,-1
6061,10,-1
6062,10,-1
6063,10,-1
6064,10,-1
6065,10,-1
6066,10,-1
6067,10,-1
6068,10,-1
6069,10,-1
6070,10,-1
6071,10,-1
6072,10,-1
6073,10,-1
6074,10,-1
6075,10,-1
6076,10,-1
6077,10,-1
6078,10,-1
6079,10,-1
6080,10,-1
6081,10,-1
6082,10,-1
6083,10,-1
6084,10,-1
6085,10,-1
6086,10,-1
6087,10,-1
6088,10,-1
6089,10,-1
6090,10,-1
6091,10,-1
6092,10,-1
6093,10,-1
6094,10,-1
6095,10,-1
6096,10,-1
6097,10,-1
6098,10,-1
6099,10,-1
6100,10,-1
6101,10,-1
6102,10,-1
6103,10,-1
6104,10,-1
6105,10,-1
6106,10,-1
6107,10,-1
6108,10,-1
6109,10,-1
6110,10,-1
6111,10,-1
6112,10,-1
6113,10,-1
6114,10,-1
6115,10,-1
6116,10,-1
6117,10,-1
6118,10,-1
6119,10,-1
6120,10,-1
6121,10,-1
6122,10,-1
6123,10,-1
6124,10,-1
6125,10,-1
6126,10,-1
6127,10,-1
6128,10,-1
6129,10,-1
6130,10,-1
6131,10,-1
6132,10,-1
6133,10,-1
6134,10,-1
6135,10,-1
6136,10,-1
6137,10,-1
6138,10,-1
6139,10,-1
6140,10,-1
6141,10,-1
6142,10,-1
6143,10,-1
6144,10,-1
6145,10,-1
6146,10,-1
6147,10,-1
6148,10,-1
6149,10,-1
6150,10,-1
6151,10,-1
6152,10,-1
6153,10,-1
6154,10,-1
6155,10,-1
6156,10,-1
6157,10,-1
6158,10,-1
6159,10,-1
6160,10,-1
6161,10,-1
6162,10,-1
6163,10,-1
6164,10,-1
6165,10,-1
6166,10,-1
6167,10,-1
6168,10,-1
6169,10,-1
6170,10,-1
6171,10,-1
6172,10,-1
6173,10,-1
6174,10,-1
6175,10,-1
6176,10,-1
6177,10,-1
6178,10,-1
6179,10,-1
6180,10,-1
6181,10,-1
6182,10,-1
6183,10,-1
6184,10,-1
6185,10,-1
6186,10,-1
6187,10,-1
6188,10,-1
6189,10,-1
6190,10,-1
6191,10,-1
6192,10,-1
6193,10,-1
6194,10,-1
6195,10,-1
6196,10,-1
6197,10,-1
6198,10,-1
6199,10,-1
6200,10,-1
6201,10,-1
6202,10,-1
6203,10,-1
6204,10,-1
6205,10,-1
6206,10,-1
6207,10,-1
6208,10,-1
6209,10,-1
6210,10,-1
6211,10,-1
6212,10,-1
6213,10,-1
6214,10,-1
6215,10,-1
6216,10,-1
6217,10,-1
6218,10,-1
6219,10,-1
6220,10,-1
6221,10,-1
6222,10,-1
6223,10,-1
6224,10,-1
6225,10,-1
6226,10,-1
6227,10,-1
6228,10,-1
6229,10,-1
6230,10,-1
6231,10,-1
6232,10,-1
6233,10,-1
6234,10,-1
6235,10,-1
6236,10,-1
6237,10,-1
6238,10,-1
6239,10,-1
6240,10,-1
6241,10,-1
6242,10,-1
6243,10,-1
6244,10,-1
6245,10,-1
6246,10,-1
6247,10,-1
6248,10,-1
6249,10,-1
6250,10,-1
6251,10,-1
6252,10,-1
6253,10,-1
6254,10,-1
6255,10,-1
6256,10,-1
6257,10,-1
6258,10,-1
6259,10,-1
6260,10,-1
6261,10,-1
6262,10,-1
6263,10,-1
6264,10,-1
6265,10,-1
6266,10,-1
6267,10,-1
6268,10,-1
6269,10,-1
6270,10,-1
6271,10,-1
6272,10,-1
6273,10,-1
6274,10,-1
6275,10,-1
6276,10,-1
6277,10,-1
6278,10,-1
6279,10,-1
6280,10,-1
6281,10,-1
6282,10,-1
6283,10,-1
6284,10,-1
6285,10,-1
6286,10,-1
6287,10,-1
6288,10,-1
6289,10,-1
6290,10,-1
6291,10,-1
6292,10,-1
6293,10,-1
6294,10,-1
6295,10,-1
6296,10,-1
6297,10,-1
6298,10,-1
6299,10,-1
6300,10,-1
6301,10,-1
6302,10,-1
6303,10,-1
6304,10,-1
6305,10,-1
6306,10,-1
6307,10,-1
6308,10,-1
6309,10,-1
6310,10,-1
6311,10,-1
6312,10,-1
6313,10,-1
6314,10,-1
6315,10,-1
6316,10,-1
6317,10,-1
6318,10,-1
6319,10,-1
6320,10,-1
6321,10,-1
6322,10,-1
6323,10,-1
6324,10,-1
6325,10,-1
6326,10,-1
6327,10,-1
6328,10,-1
6329,10,-1
6330,10,-1
6331,10,-1
6332,10,-1
6333,10,-1
6334,10,-1
6335,10,-1
6336,10,-1
6337,10,-1
6338,10,-1
6339,10,-1
6340,10,-1
6341,10,-1
6342,10,-1
6343,10,-1
6344,10,-1
6345,10,-1
6346,10,-1
6347,10,-1
6348,10,-1
6349,10,-1
6350,10,-1
6351,10,-1
6352,10,-1
6353,10,-1
6354,10,-1
6355,10,-1
6356,10,-1
6357,10,-1
6358,10,-1
6359,10,-1
6360,10,-1
6361,10,-1
6362,10,-1
6363,10,-1
6364,10,-1
6365,10,-1
6366,10,-1
6367,10,-1
6368,10,-1
6369,10,-1
6370,10,-1
6371,10,-1
6372,10,-1
6373,10,-1
6374,10,-1
6375,10,-1
6376,10,-1
6377,10,-1
6378,10,-1
6379,10,-1
6380,10,-1
6381,10,-1
6382,10,-1
6383,10,-1
6384,10,-1
6385,10,-1
6386,10,-1
6387,10,-1
6388,10,-1
6389,10,-1
6390,10,-1
6391,10,-1
6392,10,-1
6393,10,-1
6394,10,-1
6395,10,-1
6396,10,-1
6397,10,-1
6398,10,-1
6399,10,-1
6400,10,-1
6401,10,-1
6402,10,-1
6403,10,-1
6404,10,-1
6405,10,-1
6406,10,-1
6407,10,-1
6408,10,-1
6409,10,-1
6410,10,-1
6411,10,-1
6412,10,-1
6413,10,-1
6414,10,-1
6415,10,-1
6416,10,-1
6417,10,-1
6418,10,-1
6419,10,-1
6420,10,-1
6421,10,-1
6422,10,-1
6423,10,-1
6424,10,-1
6425,10,-1
6426,10,-1
6427,10,-1
6428,10,-1
6429,10,-1
6430,10,-1
6431,10,-1
6432,10,-1
6433,10,-1
6434,10,-1
6435,10,-1
6436,10,-1
6437,10,-1
6438,10,-1
6439,10,-1
6440,10,-1
6441,10,-1
6442,10,-1
6443,10,-1
6444,10,-1
6445,10,-1
6446,10,-1
6447,10,-1
6448,10,-1
6449,10,-1
6450,10,-1
6451,10,-1
6452,10,-1
6453,10,-1
6454,10,-1
6455,10,-1
6456,10,-1
6457,10,-1
6458,10,-1
6459,10,-1
6460,10,-1
6461,10,-1
6462,10,-1
6463,10,-1
6464,10,-1
6465,10,-1
6466,10,-1
6467,10,-1
6468,10,-1
6469,10,-1
6470,10,-1
6471,10,-1
6472,10,-1
6473,10,-1
6474,10,-1
6475,10,-1
6476,10,-1
6477,10,-1
6478,10,-1
6479,10,-1
6480,10,-1
6481,10,-1
6482,10,-1
6483,10,-1
6484,10,-1
6485,10,-1
6486,10,-1
6487,10,-1
6488,10,-1
6489,10,-1
6490,10,-1
6491,10,-1
6492,10,-1
6493,10,-1
6494,10,-1
6495,10,-1
6496,10,-1
6497,10,-1
6498,10,-1
6499,10,-1
6500,10,-1
6501,10,-1
6502,10,-1
6503,10,-1
6504,10,-1
6505,10,-1
6506,10,-1
6507,10,-1
6508,10,-1
6509,10,-1
6510,10,-1
6511,10,-1
6512,10,-1
6513,10,-1
6514,10,-1
6515,10,-1
6516,10,-1
6517,10,-1
6518,10,-1
6519,10,-1
6520,10,-1
6521,10,-1
6522,10,-1
6523,10,-1
6524,10,-1
6525,10,-1
6526,10,-1
6527,10,-1
6528,10,-1
6529,10,-1
6530,10,-1
6531,10,-1
6532,10,-1
6533,10,-1
6534,10,-1
6535,10,-1
6536,10,-1
6537,10,-1
6538,10,-1
6539,10,-1
6540,10,-1
6541,10,-1
6542,10,-1
6543,10,-1
6544,10,-1
6545,10,-1
6546,10,-1
6547,10,-1
6548,10,-1
6549,10,-1
6550,10,-1
6551,10,-1
6552,10,-1
6553,10,-1
6554,10,-1
6555,10,-1
6556,10,-1
6557,10,-1
6558,10,-1
6559,10,-1
6560,10,-1
6561,10,-1
6562,10,-1
6563,10,-1
6564,10,-1
6565,10,-1
6566,10,-1
6567,10,-1
6568,10,-1
6569,10,-1
6570,10,-1
6571,10,-1
6572,10,-1
6573,10,-1
6574,10,-1
6575,10,-1
6576,10,-1
6577,10,-1
6578,10,-1
6579,10,-1
6580,10,-1
6581,10,-1
6582,10,-1
6583,10,-1
6584,10,-1
6585,10,-1
6586,10,-1
6587,10,-1
6588,10,-1
6589,10,-1
6590,10,-1
6591,10,-1
6592,10,-1
6593,10,-1
6594,10,-1
6595,10,-1
6596,10,-1
6597,10,-1
6598,10,-1
6599,10,-1
6600,10,-1
6601,10,-1
6602,10,-1
6603,10,-1
6604,10,-1
6605,10,-1
6606,10,-1
6607,10,-1
6608,10,-1
6609,10,-1
6610,10,-1
6611,10,-1
6612,10,-1
6613,10,-1
6614,10,-1
6615,10,-1
6616,10,-1
6617,10,-1
6618,10,-1
6619,10,-1
6620,10,-1
6621,10,-1
6622,10,-1
6623,10,-1
6624,10,-1
6625,10,-1
6626,10,-1
6627,10,-1
6628,10,-1
6629,10,-1
6630,10,-1
6631,10,-1
6632,10,-1
6633,10,-1
6634,10,-1
6635,10,-1
6636,10,-1
6637,10,-1
6638,10,-1
6639,10,-1
6640,10,-1
6641,10,-1
6642,10,-1
6643,10,-1
6644,10,-1
6645,10,-1
6646,10,-1
6647,10,-1
6648,10,-1
6649,10,-1
6650,10,-1
6651,10,-1
6652,10,-1
6653,10,-1
6654,10,-1
6655,10,-1
6656,10,-1
6657,10,-1
6658,10,-1
6659,10,-1
6660,10,-1
6661,10,-1
6662,10,-1
6663,10,-1
6664,10,-1
6665,10,-1
6666,10,-1
6667,10,-1
6668,10,-1
6669,10,-1
6670,10,-1
6671,10,-1
6672,10,-1
6673,10,-1
6674,10,-1
6675,10,-1
6676,10,-1
6677,10,-1
6678,10,-1
6679,10,-1
6680,10,-1
6681,10,-1
6682,10,-1
6683,10,-1
6684,10,-1
6685,10,-1
6686,10,-1
6687,10,-1
6688,10,-1
6689,10,-1
6690,10,-1
6691,10,-1
6692,10,-1
6693,10,-1
6694,10,-1
6695,10,-1
6696,10,-1
6697,10,-1
6698,10,-1
6699,10,-1
6700,10,-1
6701,10,-1
6702,10,-1
6703,10,-1
6704,10,-1
6705,10,-1
6706,10,-1
6707,10,-1
6708,10,-1
6709,10,-1
6710,10,-1
6711,10,-1
6712,10,-1
6713,10,-1
6714,10,-1
6715,10,-1
6716,10,-1
6717,10,-1
6718,10,-1
6719,10,-1
6720,10,-1
6721,10,-1
6722,10,-1
6723,10,-1
6724,10,-1
6725,10,-1
6726,10,-1
6727,10,-1
6728,10,-1
6729,10,-1
6730,10,-1
6731,10,-1
6732,10,-1
6733,10,-1
6734,10,-1
6735,10,-1
6736,10,-1
6737,10,-1
6738,10,-1
6739,10,-1
6740,10,-1
6741,10,-1
6742,10,-1
6743,10,-1
6744,10,-1
6745,10,-1
6746,10,-1
6747,10,-1
6748,10,-1
6749,10,-1
6750,10,-1
6751,10,-1
6752,10,-1
6753,10,-1
6754,10,-1
6755,10,-1
6756,10,-1
6757,10,-1
6758,10,-1
6759,10,-1
6760,10,-1
6761,10,-1
6762,10,-1
6763,10,-1
6764,10,-1
6765,10,-1
6766,10,-1
6767,10,-1
6768,10,-1
6769,10,-1
6770,10,-1
6771,10,-1
6772,10,-1
6773,10,-1
6774,10,-1
6775,10,-1
6776,10,-1
6777,10,-1
6778,10,-1
6779,10,-1
6780,10,-1
6781,10,-1
6782,10,-1
6783,10,-1
6784,10,-1
6785,10,-1
6786,10,-1
6787,10,-1
6788,10,-1
6789,10,-1
6790,10,-1
6791,10,-1
6792,10,-1
6793,10,-1
6794,10,-1
6795,10,-1
6796,10,-1
6797,10,-1
6798,10,-1
6799,10,-1
6800,10,-1
6801,10,-1
6802,10,-1
6803,10,-1
6804,10,-1
6805,10,-1
6806,10,-1
6807,10,-1
6808,10,-1
6809,10,-1
6810,10,-1
6811,10,-1
6812,10,-1
6813,10,-1
6814,10,-1
6815,10,-1
6816,10,-1
6817,10,-1
6818,10,-1
6819,10,-1
6820,10,-1
6821,10,-1
6822,10,-1
6823,10,-1
6824,10,-1
6825,10,-1
6826,10,-1
6827,10,-1
6828,10,-1
6829,10,-1
6830,10,-1
6831,10,-1
6832,10,-1
6833,10,-1
6834,10,-1
6835,10,-1
6836,10,-1
6837,10,-1
6838,10,-1
6839,10,-1
6840,10,-1
6841,10,-1
6842,10,-1
6843,10,-1
6844,10,-1
6845,10,-1
6846,10,-1
6847,10,-1
6848,10,-1
6849,10,-1
6850,10,-1
6851,10,-1
6852,10,-1
6853,10,-1
6854,10,-1
6855,10,-1
6856,10,-1
6857,10,-1
6858,10,-1
6859,10,-1
6860,10,-1
6861,10,-1
6862,10,-1
6863,10,-1
6864,10,-1
6865,10,-1
6866,10,-1
6867,10,-1
6868,10,-1
6869,10,-1
6870,10,-1
6871,10,-1
6872,10,-1
6873,10,-1
6874,10,-1
6875,10,-1
6876,10,-1
6877,10,-1
6878,10,-1
6879,10,-1
6880,10,-1
6881,10,-1
6882,10,-1
6883,10,-1
6884,10,-1
6885,10,-1
6886,10,-1
6887,10,-1
6888,10,-1
6889,10,-1
6890,10,-1
6891,10,-1
6892,10,-1
6893,10,-1
6894,10,-1
6895,10,-1
6896,10,-1
6897,10,-1
6898,10,-1
6899,10,-1
6900,10,-1
6901,10,-1
6902,10,-1
6903,10,-1
6904,10,-1
6905,10,-1
6906,10,-1
6907,10,-1
6908,10,-1
6909,10,-1
6910,10,-1
6911,10,-1
6912,10,-1
6913,10,-1
6914,10,-1
6915,10,-1
6916,10,-1
6917,10,-1
6918,10,-1
6919,10,-1
6920,10,-1
6921,10,-1
6922,10,-1
6923,10,-1
6924,10,-1
6925,10,-1
6926,10,-1
6927,10,-1
6928,10,-1
6929,10,-1
6930,10,-1
6931,10,-1
6932,10,-1
6933,10,-1
6934,10,-1
6935,10,-1
6936,10,-1
6937,10,-1
6938,10,-1
6939,10,-1
6940,10,-1
6941,10,-1
6942,10,-1
6943,10,-1
6944,10,-1
6945,10,-1
6946,10,-1
6947,10,-1
6948,10,-1
6949,10,-1
6950,10,-1
6951,10,-1
6952,10,-1
6953,10,-1
6954,10,-1
6955,10,-1
6956,10,-1
6957,10,-1
6958,10,-1
6959,10,-1
6960,10,-1
6961,10,-1
6962,10,-1
6963,10,-1
6964,10,-1
6965,10,-1
6966,10,-1
6967,10,-1
6968,10,-1
6969,10,-1
6970,10,-1
6971,10,-1
6972,10,-1
6973,10,-1
6974,10,-1
6975,10,-1
6976,10,-1
6977,10,-1
6978,10,-1
6979,10,-1
6980,10,-1
6981,10,-1
6982,10,-1
6983,10,-1
6984,10,-1
6985,10,-1
6986,10,-1
6987,10,-1
6988,10,-1
6989,10,-1
6990,10,-1
6991,10,-1
6992,10,-1
6993,10,-1
6994,10,-1
6995,10,-1
6996,10,-1
6997,10,-1
6998,10,-1
6999,10,-1
7000,10,-1
7001,10,-1
7002,10,-1
7003,10,-1
7004,10,-1
7005,10,-1
7006,10,-1
7007,10,-1
7008,10,-1
7009,10,-1
7010,10,-1
7011,10,-1
7012,10,-1
7013,10,-1
7014,10,-1
7015,10,-1
7016,10,-1
7017,10,-1
7018,10,-1
7019,10,-1
7020,10,-1
7021,10,-1
7022,10,-1
7023,10,-1
7024,10,-1
7025,10,-1
7026,10,-1
7027,10,-1
7028,10,-1
7029,10,-1
7030,10,-1
7031,10,-1
7032,10,-1
7033,10,-1
7034,10,-1
7035,10,-1
7036,10,-1
7037,10,-1
7038,10,-1
7039,10,-1
7040,10,-1
7041,10,-1
7042,10,-1
7043,10,-1
7044,10,-1
7045,10,-1
7046,10,-1
7047,10,-1
7048,10,-1
7049,10,-1
7050,10,-1
7051,10,-1
7052,10,-1
7053,10,-1
7054,10,-1
7055,10,-1
7056,10,-1
7057,10,-1
7058,10,-1
7059,10,-1
7060,10,-1
7061,10,-1
7062,10,-1
7063,10,-1
7064,10,-1
7065,10,-1
7066,10,-1
7067,10,-1
7068,10,-1
7069,10,-1
7070,10,-1
7071,10,-1
7072,10,-1
7073,10,-1
7074,10,-1
7075,10,-1
7076,10,-1
7077,10,-1
7078,10,-1
7079,10,-1
7080,10,-1
7081,10,-1
7082,10,-1
7083,10,-1
7084,10,-1
7085,10,-1
7086,10,-1
7087,10,-1
7088,10,-1
7089,10,-1
7090,10,-1
7091,10,-1
7092,10,-1
7093,10,-1
7094,10,-1
7095,10,-1
7096,10,-1
7097,10,-1
7098,10,-1
7099,10,-1
7100,10,-1
7101,10,-1
7102,10,-1
7103,10,-1
7104,10,-1
7105,10,-1
7106,10,-1
7107,10,-1
7108,10,-1
7109,10,-1
7110,10,-1
7111,10,-1
7112,10,-1
7113,10,-1
7114,10,-1
7115,10,-1
7116,10,-1
7117,10,-1
7118,10,-1
7119,10,-1
7120,10,-1
7121,10,-1
7122,10,-1
7123,10,-1
7124,10,-1
7125,10,-1
7126,10,-1
7127,10,-1
7128,10,-1
7129,10,-1
7130,10,-1
7131,10,-1
7132,10,-1
7133,10,-1
7134,10,-1
7135,10,-1
7136,10,-1
7137,10,-1
7138,10,-1
7139,10,-1
7140,10,-1
7141,10,-1
7142,10,-1
7143,10,-1
7144,10,-1
7145,10,-1
7146,10,-1
7147,10,-1
7148,10,-1
7149,10,-1
7150,10,-1
7151,10,-1
7152,10,-1
7153,10,-1
7154,10,-1
7155,10,-1
7156,10,-1
7157,10,-1
7158,10,-1
7159,10,-1
7160,10,-1
7161,10,-1
7162,10,-1
7163,10,-1
7164,10,-1
7165,10,-1
7166,10,-1
7167,10,-1
7168,10,-1
7169,10,-1
7170,10,-1
7171,10,-1
7172,10,-1
7173,10,-1
7174,10,-1
7175,10,-1
7176,10,-1
7177,10,-1
7178,10,-1
7179,10,-1
7180,10,-1
7181,10,-1
7182,10,-1
7183,10,-1
7184,10,-1
7185,10,-1
7186,10,-1
7187,10,-1
7188,10,-1
7189,10,-1
7190,10,-1
7191,10,-1
7192,10,-1
7193,10,-1
7194,10,-1
7195,10,-1
7196,10,-1
7197,10,-1
7198,10,-1
7199,10,-1
7200,10,-1
7201,10,-1
7202,10,-1
7203,10,-1
7204,10,-1
7205,10,-1
7206,10,-1
7207,10,-1
7208,10,-1
7209,10,-1
7210,10,-1
7211,10,-1
7212,10,-1
7213,10,-1
7214,10,-1
7215,10,-1
7216,10,-1
7217,10,-1
7218,10,-1
7219,10,-1
7220,10,-1
7221,10,-1
7222,10,-1
7223,10,-1
7224,10,-1
7225,10,-1
7226,10,-1
7227,10,-1
7228,10,-1
7229,10,-1
7230,10,-1
7231,10,-1
7232,10,-1
7233,10,-1
7234,10,-1
7235,10,-1
7236,10,-1
7237,10,-1
7238,10,-1
7239,10,-1
7240,10,-1
7241,10,-1
7242,10,-1
7243,10,-1
7244,10,-1
7245,10,-1
7246,10,-1
7247,10,-1
7248,10,-1
7249,10,-1
7250,10,-1
7251,10,-1
7252,10,-1
7253,10,-1
7254,10,-1
7255,10,-1
7256,10,-1
7257,10,-1
7258,10,-1
7259,10,-1
7260,10,-1
7261,10,-1
7262,10,-1
7263,10,-1
7264,10,-1
7265,10,-1
7266,10,-1
7267,10,-1
7268,10,-1
7269,10,-1
7270,10,-1
7271,10,-1
7272,10,-1
7273,10,-1
7274,10,-1
7275,10,-1
7276,10,-1
7277,10,-1
7278,10,-1
7279,10,-1
7280,10,-1
7281,10,-1
7282,10,-1
7283,10,-1
7284,10,-1
7285,10,-1
7286,10,-1
7287,10,-1
7288,10,-1
7289,10,-1
7290,10,-1
7291,10,-1
7292,10,-1
7293,10,-1
7294,10,-1
7295,10,-1
7296,10,-1
7297,10,-1
7298,10,-1
7299,10,-1
7300,10,-1
7301,10,-1
7302,10,-1
7303,10,-1
7304,10,-1
7305,10,-1
7306,10,-1
7307,10,-1
7308,10,-1
7309,10,-1
7310,10,-1
7311,10,-1
7312,10,-1
7313,10,-1
7314,10,-1
7315,10,-1
7316,10,-1
7317,10,-1
7318,10,-1
7319,10,-1
7320,10,-1
7321,10,-1
7322,10,-1
7323,10,-1
7324,10,-1
7325,10,-1
7326,10,-1
7327,10,-1
7328,10,-1
7329,10,-1
7330,10,-1
7331,10,-1
7332,10,-1
7333,10,-1
7334,10,-1
7335,10,-1
7336,10,-1
7337,10,-1
7338,10,-1
7339,10,-1
7340,10,-1
7341,10,-1
7342,10,-1
7343,10,-1
7344,10,-1
7345,10,-1
7346,10,-1
7347,10,-1
7348,10,-1
7349,10,-1
7350,10,-1
7351,10,-1
7352,10,-1
7353,10,-1
7354,10,-1
7355,10,-1
7356,10,-1
7357,10,-1
7358,10,-1
7359,10,-1
7360,10,-1
7361,10,-1
7362,10,-1
7363,10,-1
7364,10,-1
7365,10,-1
7366,10,-1
7367,10,-1
7368,10,-1
7369,10,-1
7370,10,-1
7371,10,-1
7372,10,-1
7373,10,-1
7374,10,-1
7375,10,-1
7376,10,-1
7377,10,-1
7378,10,-1
7379,10,-1
7380,10,-1
7381,10,-1
7382,10,-1
7383,10,-1
7384,10,-1
7385,10,-1
7386,10,-1
7387,10,-1
7388,10,-1
7389,10,-1
7390,10,-1
7391,10,-1
7392,10,-1
7393,10,-1
7394,10,-1
7395,10,-1
7396,10,-1
7397,10,-1
7398,10,-1
7399,10,-1
7400,10,-1
7401,10,-1
7402,10,-1
7403,10,-1
7404,10,-1
7405,10,-1
7406,10,-1
7407,10,-1
7408,10,-1
7409,10,-1
7410,10,-1
7411,10,-1
7412,10,-1
7413,10,-1
7414,10,-1
7415,10,-1
7416,10,-1
7417,10,-1
7418,10,-1
7419,10,-1
7420,10,-1
7421,10,-1
7422,10,-1
7423,10,-1
7424,10,-1
7425,10,-1
7426,10,-1
7427,10,-1
7428,10,-1
7429,10,-1
7430,10,-1
7431,10,-1
7432,10,-1
7433,10,-1
7434,10,-1
7435,10,-1
7436,10,-1
7437,10,-1
7438,10,-1
7439,10,-1
7440,10,-1
7441,10,-1
7442,10,-1
7443,10,-1
7444,10,-1
7445,10,-1
7446,10,-1
7447,10,-1
7448,10,-1
7449,10,-1
7450,10,-1
7451,10,-1
7452,10,-1
7453,10,-1
7454,10,-1
7455,10,-1
7456,10,-1
7457,10,-1
7458,10,-1
7459,10,-1
7460,10,-1
7461,10,-1
7462,10,-1
7463,10,-1
7464,10,-1
7465,10,-1
7466,10,-1
7467,10,-1
7468,10,-1
7469,10,-1
7470,10,-1
7471,10,-1
7472,10,-1
7473,10,-1
7474,10,-1
7475,10,-1
7476,10,-1
7477,10,-1
7478,10,-1
7479,10,-1
7480,10,-1
7481,10,-1
7482,10,-1
7483,10,-1
7484,10,-1
7485,10,-1
7486,10,-1
7487,10,-1
7488,10,-1
7489,10,-1
7490,10,-1
7491,10,-1
7492,10,-1
7493,10,-1
7494,10,-1
7495,10,-1
7496,10,-1
7497,10,-1
7498,10,-1
7499,10,-1
7500,10,-1
7501,10,-1
7502,10,-1
7503,10,-1
7504,10,-1
7505,10,-1
7506,10,-1
7507,10,-1
7508,10,-1
7509,10,-1
7510,10,-1
7511,10,-1
7512,10,-1
7513,10,-1
7514,10,-1
7515,10,-1
7516,10,-1
7517,10,-1
7518,10,-1
7519,10,-1
7520,10,-1
7521,10,-1
7522,10,-1
7523,10,-1
7524,10,-1
7525,10,-1
7526,10,-1
7527,10,-1
7528,10,-1
7529,10,-1
7530,10,-1
7531,10,-1
7532,10,-1
7533,10,-1
7534,10,-1
7535,10,-1
7536,10,-1
7537,10,-1
7538,10,-1
7539,10,-1
7540,10,-1
7541,10,-1
7542,10,-1
7543,10,-1
7544,10,-1
7545,10,-1
7546,10,-1
7547,10,-1
7548,10,-1
7549,10,-1
7550,10,-1
7551,10,-1
7552,10,-1
7553,10,-1
7554,10,-1
7555,10,-1
7556,10,-1
7557,10,-1
7558,10,-1
7559,10,-1
7560,10,-1
7561,10,-1
7562,10,-1
7563,10,-1
7564,10,-1
7565,10,-1
7566,10,-1
7567,10,-1
7568,10,-1
7569,10,-1
7570,10,-1
7571,10,-1
7572,10,-1
7573,10,-1
7574,10,-1
7575,10,-1
7576,10,-1
7577,10,-1
7578,10,-1
7579,10,-1
7580,10,-1
7581,10,-1
7582,10,-1
7583,10,-1
7584,10,-1
7585,10,-1
7586,10,-1
7587,10,-1
7588,10,-1
7589,10,-1
7590,10,-1
7591,10,-1
7592,10,-1
7593,10,-1
7594,10,-1
7595,10,-1
7596,10,-1
7597,10,-1
7598,10,-1
7599,10,-1
7600,10,-1
7601,10,-1
7602,10,-1
7603,10,-1
7604,10,-1
7605,10,-1
7606,10,-1
7607,10,-1
7608,10,-1
7609,10,-1
7610,10,-1
7611,10,-1
7612,10,-1
7613,10,-1
7614,10,-1
7615,10,-1
7616,10,-1
7617,10,-1
7618,10,-1
7619,10,-1
7620,10,-1
7621,10,-1
7622,10,-1
7623,10,-1
7624,10,-1
7625,10,-1
7626,10,-1
7627,10,-1
7628,10,-1
7629,10,-1
7630,10,-1
7631,10,-1
7632,10,-1
7633,10,-1
7634,10,-1
7635,10,-1
7636,10,-1
7637,10,-1
7638,10,-1
7639,10,-1
7640,10,-1
7641,10,-1
7642,10,-1
7643,10,-1
7644,10,-1
7645,10,-1
7646,10,-1
7647,10,-1
7648,10,-1
7649,10,-1
7650,10,-1
7651,10,-1
7652,10,-1
7653,10,-1
7654,10,-1
7655,10,-1
7656,10,-1
7657,10,-1
7658,10,-1
7659,10,-1
7660,10,-1
7661,10,-1
7662,10,-1
7663,10,-1
7664,10,-1
7665,10,-1
7666,10,-1
7667,10,-1
7668,10,-1
7669,10,-1
7670,10,-1
7671,10,-1
7672,10,-1
7673,10,-1
7674,10,-1
7675,10,-1
7676,10,-1
7677,10,-1
7678,10,-1
7679,10,-1
7680,10,-1
7681,10,-1
7682,10,-1
7683,10,-1
7684,10,-1
7685,10,-1
7686,10,-1
7687,10,-1
7688,10,-1
7689,10,-1
7690,10,-1
7691,10,-1
7692,10,-1
7693,10,-1
7694,10,-1
7695,10,-1
7696,10,-1
7697,10,-1
7698,10,-1
7699,10,-1
7700,10,-1
7701,10,-1
7702,10,-1
7703,10,-1
7704,10,-1
7705,10,-1
7706,10,-1
7707,10,-1
7708,10,-1
7709,10,-1
7710,10,-1
7711,10,-1
7712,10,-1
7713,10,-1
7714,10,-1
7715,10,-1
7716,10,-1
7717,10,-1
7718,10,-1
7719,10,-1
7720,10,-1
7721,10,-1
7722,10,-1
7723,10,-1
7724,10,-1
7725,10,-1
7726,10,-1
7727,10,-1
7728,10,-1
7729,10,-1
7730,10,-1
7731,10,-1
7732,10,-1
7733,10,-1
7734,10,-1
7735,10,-1
7736,10,-1
7737,10,-1
7738,10,-1
7739,10,-1
7740,10,-1
7741,10,-1
7742,10,-1
7743,10,-1
7744,10,-1
7745,10,-1
7746,10,-1
7747,10,-1
7748,10,-1
7749,10,-1
7750,10,-1
7751,10,-1
7752,10,-1
7753,10,-1
7754,10,-1
7755,10,-1
7756,10,-1
7757,10,-1
7758,10,-1
7759,10,-1
7760,10,-1
7761,10,-1
7762,10,-1
7763,10,-1
7764,10,-1
7765,10,-1
7766,10,-1
7767,10,-1
7768,10,-1
7769,10,-1
7770,10,-1
7771,10,-1
7772,10,-1
7773,10,-1
7774,10,-1
7775,10,-1
7776,10,-1
7777,10,-1
7778,10,-1
7779,10,-1
7780,10,-1
7781,10,-1
7782,10,-1
7783,10,-1
7784,10,-1
7785,10,-1
7786,10,-1
7787,10,-1
7788,10,-1
7789,10,-1
7790,10,-1
7791,10,-1
7792,10,-1
7793,10,-1
7794,10,-1
7795,10,-1
7796,10,-1
7797,10,-1
7798,10,-1
7799,10,-1
7800,10,-1
7801,10,-1
7802,10,-1
7803,10,-1
7804,10,-1
7805,10,-1
7806,10,-1
7807,10,-1
7808,10,-1
7809,10,-1
7810,10,-1
7811,10,-1
7812,10,-1
7813,10,-1
7814,10,-1
7815,10,-1
7816,10,-1
7817,10,-1
7818,10,-1
7819,10,-1
7820,10,-1
7821,10,-1
7822,10,-1
7823,10,-1
7824,10,-1
7825,10,-1
7826,10,-1
7827,10,-1
7828,10,-1
7829,10,-1
7830,10,-1
7831,10,-1
7832,10,-1
7833,10,-1
7834,10,-1
7835,10,-1
7836,10,-1
7837,10,-1
7838,10,-1
7839,10,-1
7840,10,-1
7841,10,-1
7842,10,-1
7843,10,-1
7844,10,-1
7845,10,-1
7846,10,-1
7847,10,-1
7848,10,-1
7849,10,-1
7850,10,-1
7851,10,-1
7852,10,-1
7853,10,-1
7854,10,-1
7855,10,-1
7856,10,-1
7857,10,-1
7858,10,-1
7859,10,-1
7860,10,-1
7861,10,-1
7862,10,-1
7863,10,-1
7864,10,-1
7865,10,-1
7866,10,-1
7867,10,-1
7868,10,-1
7869,10,-1
7870,10,-1
7871,10,-1
7872,10,-1
7873,10,-1
7874,10,-1
7875,10,-1
7876,10,-1
7877,10,-1
7878,10,-1
7879,10,-1
7880,10,-1
7881,10,-1
7882,10,-1
7883,10,-1
7884,10,-1
7885,10,-1
7886,10,-1
7887,10,-1
7888,10,-1
7889,10,-1
7890,10,-1
7891,10,-1
7892,10,-1
7893,10,-1
7894,10,-1
7895,10,-1
7896,10,-1
7897,10,-1
7898,10,-1
7899,10,-1
7900,10,-1
7901,10,-1
7902,10,-1
7903,10,-1
7904,10,-1
7905,10,-1
7906,10,-1
7907,10,-1
7908,10,-1
7909,10,-1
7910,10,-1
7911,10,-1
7912,10,-1
7913,10,-1
7914,10,-1
7915,10,-1
7916,10,-1
7917,10,-1
7918,10,-1
7919,10,-1
7920,10,-1
7921,10,-1
7922,10,-1
7923,10,-1
7924,10,-1
7925,10,-1
7926,10,-1
7927,10,-1
7928,10,-1
7929,10,-1
7930,10,-1
7931,10,-1
7932,10,-1
7933,10,-1
7934,10,-1
7935,10,-1
7936,10,-1
7937,10,-1
7938,10,-1
7939,10,-1
7940,10,-1
7941,10,-1
7942,10,-1
7943,10,-1
7944,10,-1
7945,10,-1
7946,10,-1
7947,10,-1
7948,10,-1
7949,10,-1
7950,10,-1
7951,10,-1
7952,10,-1
7953,10,-1
7954,10,-1
7955,10,-1
7956,10,-1
7957,10,-1
7958,10,-1
7959,10,-1
7960,10,-1
7961,10,-1
7962,10,-1
7963,10,-1
7964,10,-1
7965,10,-1
7966,10,-1
7967,10,-1
7968,10,-1
7969,10,-1
7970,10,-1
7971,10,-1
7972,10,-1
7973,10,-1
7974,10,-1
7975,10,-1
7976,10,-1
7977,10,-1
7978,10,-1
7979,10,-1
7980,10,-1
7981,10,-1
7982,10,-1
7983,10,-1
7984,10,-1
7985,10,-1
7986,10,-1
7987,10,-1
7988,10,-1
7989,10,-1
7990,10,-1
7991,10,-1
7992,10,-1
7993,10,-1
7994,10,-1
7995,10,-1
7996,10,-1
7997,10,-1
7998,10,-1
7999,10,-1
8000,10,-1
8001,10,-1
8002,10,-1
8003,10,-1
8004,10,-1
8005,10,-1
8006,10,-1
8007,10,-1
8008,10,-1
8009,10,-1
8010,10,-1
8011,10,-1
8012,10,-1
8013,10,-1
8014,10,-1
8015,10,-1
8016,10,-1
8017,10,-1
8018,10,-1
8019,10,-1
8020,10,-1
8021,10,-1
8022,10,-1
8023,10,-1
8024,10,-1
8025,10,-1
8026,10,-1
8027,10,-1
8028,10,-1
8029,10,-1
8030,10,-1
8031,10,-1
8032,10,-1
8033,10,-1
8034,10,-1
8035,10,-1
8036,10,-1
8037,10,-1
8038,10,-1
8039,10,-1
8040,10,-1
8041,10,-1
8042,10,-1
8043,10,-1
8044,10,-1
8045,10,-1
8046,10,-1
8047,10,-1
8048,10,-1
8049,10,-1
8050,10,-1
8051,10,-1
8052,10,-1
8053,10,-1
8054,10,-1
8055,10,-1
8056,10,-1
8057,10,-1
8058,10,-1
8059,10,-1
8060,10,-1
8061,10,-1
8062,10,-1
8063,10,-1
8064,10,-1
8065,10,-1
8066,10,-1
8067,10,-1
8068,10,-1
8069,10,-1
8070,10,-1
8071,10,-1
8072,10,-1
8073,10,-1
8074,10,-1
8075,10,-1
8076,10,-1
8077,10,-1
8078,10,-1
8079,10,-1
8080,10,-1
8081,10,-1
8082,10,-1
8083,10,-1
8084,10,-1
8085,10,-1
8086,10,-1
8087,10,-1
8088,10,-1
8089,10,-1
8090,10,-1
8091,10,-1
8092,10,-1
8093,10,-1
8094,10,-1
8095,10,-1
8096,10,-1
8097,10,-1
8098,10,-1
8099,10,-1
8100,10,-1
8101,10,-1
8102,10,-1
8103,10,-1
8104,10,-1
8105,10,-1
8106,10,-1
8107,10,-1
8108,10,-1
8109,10,-1
8110,10,-1
8111,10,-1
8112,10,-1
8113,10,-1
8114,10,-1
8115,10,-1
8116,10,-1
8117,10,-1
8118,10,-1
8119,10,-1
8120,10,-1
8121,10,-1
8122,10,-1
8123,10,-1
8124,10,-1
8125,10,-1
8126,10,-1
8127,10,-1
8128,10,-1
8129,10,-1
8130,10,-1
8131,10,-1
8132,10,-1
8133,10,-1
8134,10,-1
8135,10,-1
8136,10,-1
8137,10,-1
8138,10,-1
8139,10,-1
8140,10,-1
8141,10,-1
8142,10,-1
8143,10,-1
8144,10,-1
8145,10,-1
8146,10,-1
8147,10,-1
8148,10,-1
8149,10,-1
8150,10,-1
8151,10,-1
8152,10,-1
8153,10,-1
8154,10,-1
8155,10,-1
8156,10,-1
8157,10,-1
8158,10,-1
8159,10,-1
8160,10,-1
8161,10,-1
8162,10,-1
8163,10,-1
8164,10,-1
8165,10,-1
8166,10,-1
8167,10,-1
8168,10,-1
8169,10,-1
8170,10,-1
8171,10,-1
8172,10,-1
8173,10,-1
8174,10,-1
8175,10,-1
8176,10,-1
8177,10,-1
8178,10,-1
8179,10,-1
8180,10,-1
8181,10,-1
8182,10,-1
8183,10,-1
8184,10,-1
8185,10,-1
8186,10,-1
8187,10,-1
8188,10,-1
8189,10,-1
8190,10,-1
8191,10,-1
8192,10,-1
8193,10,-1
8194,10,-1
8195,10,-1
8196,10,-1
8197,10,-1
8198,10,-1
8199,10,-1
8200,10,-1
8201,10,-1
8202,10,-1
8203,10,-1
8204,10,-1
8205,10,-1
8206,10,-1
8207,10,-1
8208,10,-1
8209,10,-1
8210,10,-1
8211,10,-1
8212,10,-1
8213,10,-1
8214,10,-1
8215,10,-1
8216,10,-1
8217,10,-1
8218,10,-1
8219,10,-1
8220,10,-1
8221,10,-1
8222,10,-1
8223,10,-1
8224,10,-1
8225,10,-1
8226,10,-1
8227,10,-1
8228,10,-1
8229,10,-1
8230,10,-1
8231,10,-1
8232,10,-1
8233,10,-1
8234,10,-1
8235,10,-1
8236,10,-1
8237,10,-1
8238,10,-1
8239,10,-1
8240,10,-1
8241,10,-1
8242,10,-1
8243,10,-1
8244,10,-1
8245,10,-1
8246,10,-1
8247,10,-1
8248,10,-1
8249,10,-1
8250,10,-1
8251,10,-1
8252,10,-1
8253,10,-1
8254,10,-1
8255,10,-1
8256,10,-1
8257,10,-1
8258,10,-1
8259,10,-1
8260,10,-1
8261,10,-1
8262,10,-1
8263,10,-1
8264,10,-1
8265,10,-1
8266,10,-1
8267,10,-1
8268,10,-1
8269,10,-1
8270,10,-1
8271,10,-1
8272,10,-1
8273,10,-1
8274,10,-1
8275,10,-1
8276,10,-1
8277,10,-1
8278,10,-1
8279,10,-1
8280,10,-1
8281,10,-1
8282,10,-1
8283,10,-1
8284,10,-1
8285,10,-1
8286,10,-1
8287,10,-1
8288,10,-1
8289,10,-1
8290,10,-1
8291,10,-1
8292,10,-1
8293,10,-1
8294,10,-1
8295,10,-1
8296,10,-1
8297,10,-1
8298,10,-1
8299,10,-1
8300,10,-1
8301,10,-1
8302,10,-1
8303,10,-1
8304,10,-1
8305,10,-1
8306,10,-1
8307,10,-1
8308,10,-1
8309,10,-1
8310,10,-1
8311,10,-1
8312,10,-1
8313,10,-1
8314,10,-1
8315,10,-1
8316,10,-1
8317,10,-1
8318,10,-1
8319,10,-1
8320,10,-1
8321,10,-1
8322,10,-1
8323,10,-1
8324,10,-1
8325,10,-1
8326,10,-1
8327,10,-1
8328,10,-1
8329,10,-1
8330,10,-1
8331,10,-1
8332,10,-1
8333,10,-1
8334,10,-1
8335,10,-1
8336,10,-1
8337,10,-1
8338,10,-1
8339,10,-1
8340,10,-1
8341,10,-1
8342,10,-1
8343,10,-1
8344,10,-1
8345,10,-1
8346,10,-1
8347,10,-1
8348,10,-1
8349,10,-1
8350,10,-1
8351,10,-1
8352,10,-1
8353,10,-1
8354,10,-1
8355,10,-1
8356,10,-1
8357,10,-1
8358,10,-1
8359,10,-1
8360,10,-1
8361,10,-1
8362,10,-1
8363,10,-1
8364,10,-1
8365,10,-1
8366,10,-1
8367,10,-1
8368,10,-1
8369,10,-1
8370,10,-1
8371,10,-1
8372,10,-1
8373,10,-1
8374,10,-1
8375,10,-1
8376,10,-1
8377,10,-1
8378,10,-1
8379,10,-1
8380,10,-1
8381,10,-1
8382,10,-1
8383,10,-1
8384,10,-1
8385,10,-1
8386,10,-1
8387,10,-1
8388,10,-1
8389,10,-1
8390,10,-1
8391,10,-1
8392,10,-1
8393,10,-1
8394,10,-1
8395,10,-1
8396,10,-1
8397,10,-1
8398,10,-1
8399,10,-1
8400,10,-1
8401,10,-1
8402,10,-1
8403,10,-1
8404,10,-1
8405,10,-1
8406,10,-1
8407,10,-1
8408,10,-1
8409,10,-1
8410,10,-1
8411,10,-1
8412,10,-1
8413,10,-1
8414,10,-1
8415,10,-1
8416,10,-1
8417,10,-1
8418,10,-1
8419,10,-1
8420,10,-1
8421,10,-1
8422,10,-1
8423,10,-1
8424,10,-1
8425,10,-1
8426,10,-1
8427,10,-1
8428,10,-1
8429,10,-1
8430,10,-1
8431,10,-1
8432,10,-1
8433,10,-1
8434,10,-1
8435,10,-1
8436,10,-1
8437,10,-1
8438,10,-1
8439,10,-1
8440,10,-1
8441,10,-1
8442,10,-1
8443,10,-1
8444,10,-1
8445,10,-1
8446,10,-1
8447,10,-1
8448,10,-1
8449,10,-1
8450,10,-1
8451,10,-1
8452,10,-1
8453,10,-1
8454,10,-1
8455,10,-1
8456,10,-1
8457,10,-1
8458,10,-1
8459,10,-1
8460,10,-1
8461,10,-1
8462,10,-1
8463,10,-1
8464,10,-1
8465,10,-1
8466,10,-1
8467,10,-1
8468,10,-1
8469,10,-1
8470,10,-1
8471,10,-1
8472,10,-1
8473,10,-1
8474,10,-1
8475,10,-1
8476,10,-1
8477,10,-1
8478,10,-1
8479,10,-1
8480,10,-1
8481,10,-1
8482,10,-1
8483,10,-1
8484,10,-1
8485,10,-1
8486,10,-1
8487,10,-1
8488,10,-1
8489,10,-1
8490,10,-1
8491,10,-1
8492,10,-1
8493,10,-1
8494,10,-1
8495,10,-1
8496,10,-1
8497,10,-1
8498,10,-1
8499,10,-1
8500,10,-1
8501,10,-1
8502,10,-1
8503,10,-1
8504,10,-1
8505,10,-1
8506,10,-1
8507,10,-1
8508,10,-1
8509,10,-1
8510,10,-1
8511,10,-1
8512,10,-1
8513,10,-1
8514,10,-1
8515,10,-1
8516,10,-1
8517,10,-1
8518,10,-1
8519,10,-1
8520,10,-1
8521,10,-1
8522,10,-1
8523,10,-1
8524,10,-1
8525,10,-1
8526,10,-1
8527,10,-1
8528,10,-1
8529,10,-1
8530,10,-1
8531,10,-1
8532,10,-1
8533,10,-1
8534,10,-1
8535,10,-1
8536,10,-1
8537,10,-1
8538,10,-1
8539,10,-1
8540,10,-1
8541,10,-1
8542,10,-1
8543,10,-1
8544,10,-1
8545,10,-1
8546,10,-1
8547,10,-1
8548,10,-1
8549,10,-1
8550,10,-1
8551,10,-1
8552,10,-1
8553,10,-1
8554,10,-1
8555,10,-1
8556,10,-1
8557,10,-1
8558,10,-1
8559,10,-1
8560,10,-1
8561,10,-1
8562,10,-1
8563,10,-1
8564,10,-1
8565,10,-1
8566,10,-1
8567,10,-1
8568,10,-1
8569,10,-1
8570,10,-1
8571,10,-1
8572,10,-1
8573,10,-1
8574,10,-1
8575,10,-1
8576,10,-1
8577,10,-1
8578,10,-1
8579,10,-1
8580,10,-1
8581,10,-1
8582,10,-1
8583,10,-1
8584,10,-1
8585,10,-1
8586,10,-1
8587,10,-1
8588,10,-1
8589,10,-1
8590,10,-1
8591,10,-1
8592,10,-1
8593,10,-1
8594,10,-1
8595,10,-1
8596,10,-1
8597,10,-1
8598,10,-1
8599,10,-1
8600,10,-1
8601,10,-1
8602,10,-1
8603,10,-1
8604,10,-1
8605,10,-1
8606,10,-1
8607,10,-1
8608,10,-1
8609,10,-1
8610,10,-1
8611,10,-1
8612,10,-1
8613,10,-1
8614,10,-1
8615,10,-1
8616,10,-1
8617,10,-1
8618,10,-1
8619,10,-1
8620,10,-1
8621,10,-1
8622,10,-1
8623,10,-1
8624,10,-1
8625,10,-1
8626,10,-1
8627,10,-1
8628,10,-1
8629,10,-1
8630,10,-1
8631,10,-1
8632,10,-1
8633,10,-1
8634,10,-1
8635,10,-1
8636,10,-1
8637,10,-1
8638,10,-1
8639,10,-1
8640,10,-1
8641,10,-1
8642,10,-1
8643,10,-1
8644,10,-1
8645,10,-1
8646,10,-1
8647,10,-1
8648,10,-1
8649,10,-1
8650,10,-1
8651,10,-1
8652,10,-1
8653,10,-1
8654,10,-1
8655,10,-1
8656,10,-1
8657,10,-1
8658,10,-1
8659,10,-1
8660,10,-1
8661,10,-1
8662,10,-1
8663,10,-1
8664,10,-1
8665,10,-1
8666,10,-1
8667,10,-1
8668,10,-1
8669,10,-1
8670,10,-1
8671,10,-1
8672,10,-1
8673,10,-1
8674,10,-1
8675,10,-1
8676,10,-1
8677,10,-1
8678,10,-1
8679,10,-1
8680,10,-1
8681,10,-1
8682,10,-1
8683,10,-1
8684,10,-1
8685,10,-1
8686,10,-1
8687,10,-1
8688,10,-1
8689,10,-1
8690,10,-1
8691,10,-1
8692,10,-1
8693,10,-1
8694,10,-1
8695,10,-1
8696,10,-1
8697,10,-1
8698,10,-1
8699,10,-1
8700,10,-1
8701,10,-1
8702,10,-1
8703,10,-1
8704,10,-1
8705,10,-1
8706,10,-1
8707,10,-1
8708,10,-1
8709,10,-1
8710,10,-1
8711,10,-1
8712,10,-1
8713,10,-1
8714,10,-1
8715,10,-1
8716,10,-1
8717,10,-1
8718,10,-1
8719,10,-1
8720,10,-1
8721,10,-1
8722,10,-1
8723,10,-1
8724,10,-1
8725,10,-1
8726,10,-1
8727,10,-1
8728,10,-1
8729,10,-1
8730,10,-1
8731,10,-1
8732,10,-1
8733,10,-1
8734,10,-1
8735,10,-1
8736,10,-1
8737,10,-1
8738,10,-1
8739,10,-1
8740,10,-1
8741,10,-1
8742,10,-1
8743,10,-1
8744,10,-1
8745,10,-1
8746,10,-1
8747,10,-1
8748,10,-1
8749,10,-1
8750,10,-1
8751,10,-1
8752,10,-1
8753,10,-1
8754,10,-1
8755,10,-1
8756,10,-1
8757,10,-1
8758,10,-1
8759,10,-1
8760,10,-1
8761,10,-1
8762,10,-1
8763,10,-1
8764,10,-1
8765,10,-1
8766,10,-1
8767,10,-1
8768,10,-1
8769,10,-1
8770,10,-1
8771,10,-1
8772,10,-1
8773,10,-1
8774,10,-1
8775,10,-1
8776,10,-1
8777,10,-1
8778,10,-1
8779,10,-1
8780,10,-1
8781,10,-1
8782,10,-1
8783,10,-1
8784,10,-1
8785,10,-1
8786,10,-1
8787,10,-1
8788,10,-1
8789,10,-1
8790,10,-1
8791,10,-1
8792,10,-1
8793,10,-1
8794,10,-1
8795,10,-1
8796,10,-1
8797,10,-1
8798,10,-1
8799,10,-1
8800,10,-1
8801,10,-1
8802,10,-1
8803,10,-1
8804,10,-1
8805,10,-1
8806,10,-1
8807,10,-1
8808,10,-1
8809,10,-1
8810,10,-1
8811,10,-1
8812,10,-1
8813,10,-1
8814,10,-1
8815,10,-1
8816,10,-1
8817,10,-1
8818,10,-1
8819,10,-1
8820,10,-1
8821,10,-1
8822,10,-1
8823,10,-1
8824,10,-1
8825,10,-1
8826,10,-1
8827,10,-1
8828,10,-1
8829,10,-1
8830,10,-1
8831,10,-1
8832,10,-1
8833,10,-1
8834,10,-1
8835,10,-1
8836,10,-1
8837,10,-1
8838,10,-1
8839,10,-1
8840,10,-1
8841,10,-1
8842,10,-1
8843,10,-1
8844,10,-1
8845,10,-1
8846,10,-1
8847,10,-1
8848,10,-1
8849,10,-1
8850,10,-1
8851,10,-1
8852,10,-1
8853,10,-1
8854,10,-1
8855,10,-1
8856,10,-1
8857,10,-1
8858,10,-1
8859,10,-1
8860,10,-1
8861,10,-1
8862,10,-1
8863,10,-1
8864,10,-1
8865,10,-1
8866,10,-1
8867,10,-1
8868,10,-1
8869,10,-1
8870,10,-1
8871,10,-1
8872,10,-1
8873,10,-1
8874,10,-1
8875,10,-1
8876,10,-1
8877,10,-1
8878,10,-1
8879,10,-1
8880,10,-1
8881,10,-1
8882,10,-1
8883,10,-1
8884,10,-1
8885,10,-1
8886,10,-1
8887,10,-1
8888,10,-1
8889,10,-1
8890,10,-1
8891,10,-1
8892,10,-1
8893,10,-1
8894,10,-1
8895,10,-1
8896,10,-1
8897,10,-1
8898,10,-1
8899,10,-1
8900,10,-1
8901,10,-1
8902,10,-1
8903,10,-1
8904,10,-1
8905,10,-1
8906,10,-1
8907,10,-1
8908,10,-1
8909,10,-1
8910,10,-1
8911,10,-1
8912,10,-1
8913,10,-1
8914,10,-1
8915,10,-1
8916,10,-1
8917,10,-1
8918,10,-1
8919,10,-1
8920,10,-1
8921,10,-1
8922,10,-1
8923,10,-1
8924,10,-1
8925,10,-1
8926,10,-1
8927,10,-1
8928,10,-1
8929,10,-1
8930,10,-1
8931,10,-1
8932,10,-1
8933,10,-1
8934,10,-1
8935,10,-1
8936,10,-1
8937,10,-1
8938,10,-1
8939,10,-1
8940,10,-1
8941,10,-1
8942,10,-1
8943,10,-1
8944,10,-1
8945,10,-1
8946,10,-1
8947,10,-1
8948,10,-1
8949,10,-1
8950,10,-1
8951,10,-1
8952,10,-1
8953,10,-1
8954,10,-1
8955,10,-1
8956,10,-1
8957,10,-1
8958,10,-1
8959,10,-1
8960,10,-1
8961,10,-1
8962,10,-1
8963,10,-1
8964,10,-1
8965,10,-1
8966,10,-1
8967,10,-1
8968,10,-1
8969,10,-1
8970,10,-1
8971,10,-1
8972,10,-1
8973,10,-1
8974,10,-1
8975,10,-1
8976,10,-1
8977,10,-1
8978,10,-1
8979,10,-1
8980,10,-1
8981,10,-1
8982,10,-1
8983,10,-1
8984,10,-1
8985,10,-1
8986,10,-1
8987,10,-1
8988,10,-1
8989,10,-1
8990,10,-1
8991,10,-1
8992,10,-1
8993,10,-1
8994,10,-1
8995,10,-1
8996,10,-1
8997,10,-1
8998,10,-1
8999,10,-1
9000,10,-1
9001,10,-1
9002,10,-1
9003,10,-1
9004,10,-1
9005,10,-1
9006,10,-1
9007,10,-1
9008,10,-1
9009,10,-1
9010,10,-1
9011,10,-1
9012,10,-1
9013,10,-1
9014,10,-1
9015,10,-1
9016,10,-1
9017,10,-1
9018,10,-1
9019,10,-1
9020,10,-1
9021,10,-1
9022,10,-1
9023,10,-1
9024,10,-1
9025,10,-1
9026,10,-1
9027,10,-1
9028,10,-1
9029,10,-1
9030,10,-1
9031,10,-1
9032,10,-1
9033,10,-1
9034,10,-1
9035,10,-1
9036,10,-1
9037,10,-1
9038,10,-1
9039,10,-1
9040,10,-1
9041,10,-1
9042,10,-1
9043,10,-1
9044,10,-1
9045,10,-1
9046,10,-1
9047,10,-1
9048,10,-1
9049,10,-1
9050,10,-1
9051,10,-1
9052,10,-1
9053,10,-1
9054,10,-1
9055,10,-1
9056,10,-1
9057,10,-1
9058,10,-1
9059,10,-1
9060,10,-1
9061,10,-1
9062,10,-1
9063,10,-1
9064,10,-1
9065,10,-1
9066,10,-1
9067,10,-1
9068,10,-1
9069,10,-1
9070,10,-1
9071,10,-1
9072,10,-1
9073,10,-1
9074,10,-1
9075,10,-1
9076,10,-1
9077,10,-1
9078,10,-1
9079,10,-1
9080,10,-1
9081,10,-1
9082,10,-1
9083,10,-1
9084,10,-1
9085,10,-1
9086,10,-1
9087,10,-1
9088,10,-1
9089,10,-1
9090,10,-1
9091,10,-1
9092,10,-1
9093,10,-1
9094,10,-1
9095,10,-1
9096,10,-1
9097,10,-1
9098,10,-1
9099,10,-1
9100,10,-1
9101,10,-1
9102,10,-1
9103,10,-1
9104,10,-1
9105,10,-1
9106,10,-1
9107,10,-1
9108,10,-1
9109,10,-1
9110,10,-1
9111,10,-1
9112,10,-1
9113,10,-1
9114,10,-1
9115,10,-1
9116,10,-1
9117,10,-1
9118,10,-1
9119,10,-1
9120,10,-1
9121,10,-1
9122,10,-1
9123,10,-1
9124,10,-1
9125,10,-1
9126,10,-1
9127,10,-1
9128,10,-1
9129,10,-1
9130,10,-1
9131,10,-1
9132,10,-1
9133,10,-1
9134,10,-1
9135,10,-1
9136,10,-1
9137,10,-1
9138,10,-1
9139,10,-1
9140,10,-1
9141,10,-1
9142,10,-1
9143,10,-1
9144,10,-1
9145,10,-1
9146,10,-1
9147,10,-1
9148,10,-1
9149,10,-1
9150,10,-1
9151,10,-1
9152,10,-1
9153,10,-1
9154,10,-1
9155,10,-1
9156,10,-1
9157,10,-1
9158,10,-1
9159,10,-1
9160,10,-1
9161,10,-1
9162,10,-1
9163,10,-1
9164,10,-1
9165,10,-1
9166,10,-1
9167,10,-1
9168,10,-1
9169,10,-1
9170,10,-1
9171,10,-1
9172,10,-1
9173,10,-1
9174,10,-1
9175,10,-1
9176,10,-1
9177,10,-1
9178,10,-1
9179,10,-1
9180,10,-1
9181,10,-1
9182,10,-1
9183,10,-1
9184,10,-1
9185,10,-1
9186,10,-1
9187,10,-1
9188,10,-1
