,cluster0,cluster1,cluster2,cluster3,cluster4,cluster5,cluster6,cluster7,cluster8,cluster9,cluster_length0,cluster_length1,cluster_length2,cluster_length3,cluster_length4,cluster_length5,cluster_length6,cluster_length7,cluster_length8,cluster_length9
0,4.0004,4.0013,4.0017,4.0004,4.0017,4.0017,4.0013,4.0017,4.0004,4.0017,617,343,476,432,474,557,560,342,472,460
1,4.0013,4.0013,4.0026,4.0004,4.0017,4.0026,4.0026,4.0017,4.0013,4.0017,-1,-1,-1,-1,-1,-1,-1,-1,-1,-1
2,4.0013,4.0017,4.0026,4.0004,4.0017,4.0026,4.0035,4.0061,4.0017,4.0035,-1,-1,-1,-1,-1,-1,-1,-1,-1,-1
3,4.0035,4.0035,4.0035,4.0017,4.0017,4.0026,4.0052,4.007,4.0044,4.0079,-1,-1,-1,-1,-1,-1,-1,-1,-1,-1
4,4.0044,4.0044,4.0088,4.0026,4.0017,4.0035,4.0052,4.0079,4.0052,4.0088,-1,-1,-1,-1,-1,-1,-1,-1,-1,-1
5,4.0052,4.0052,4.0088,4.0026,4.0044,4.0044,4.0052,4.0106,4.007,4.0137,-1,-1,-1,-1,-1,-1,-1,-1,-1,-1
6,4.0061,4.0061,4.0114,4.0026,4.0061,4.0052,4.0052,4.0132,4.0088,4.0146,-1,-1,-1,-1,-1,-1,-1,-1,-1,-1
7,4.0061,4.007,4.0132,4.0052,4.007,4.007,4.0052,4.0132,4.0088,4.0155,-1,-1,-1,-1,-1,-1,-1,-1,-1,-1
8,4.007,4.0097,4.0137,4.0079,4.0079,4.0088,4.0079,4.0137,4.0088,4.0155,-1,-1,-1,-1,-1,-1,-1,-1,-1,-1
9,4.0097,4.0114,4.0146,4.0079,4.0097,4.0097,4.0079,4.0137,4.0088,4.0155,-1,-1,-1,-1,-1,-1,-1,-1,-1,-1
10,4.0106,4.0137,4.0155,4.0088,4.0097,4.0132,4.0079,4.0146,4.0097,4.0182,-1,-1,-1,-1,-1,-1,-1,-1,-1,-1
11,4.0106,4.0155,4.0173,4.0088,4.0106,4.0137,4.0079,4.0146,4.0097,4.02,-1,-1,-1,-1,-1,-1,-1,-1,-1,-1
12,4.0114,4.0164,4.0214,4.0123,4.0106,4.0137,4.0079,4.0155,4.0106,4.02,-1,-1,-1,-1,-1,-1,-1,-1,-1,-1
13,4.0114,4.0173,4.0223,4.0123,4.0114,4.0164,4.0097,4.0173,4.0106,4.0214,-1,-1,-1,-1,-1,-1,-1,-1,-1,-1
14,4.0123,4.0173,4.0223,4.0155,4.0123,4.0173,4.0097,4.0173,4.0114,4.0214,-1,-1,-1,-1,-1,-1,-1,-1,-1,-1
15,4.0123,4.0182,4.0223,4.0155,4.0146,4.0173,4.0114,4.0182,4.0114,4.0223,-1,-1,-1,-1,-1,-1,-1,-1,-1,-1
16,4.0132,4.0191,4.0241,4.0173,4.0155,4.0173,4.0132,4.0182,4.0123,4.0273,-1,-1,-1,-1,-1,-1,-1,-1,-1,-1
17,4.0137,4.0191,4.0241,4.0182,4.0191,4.0191,4.0137,4.0205,4.0123,4.0292,-1,-1,-1,-1,-1,-1,-1,-1,-1,-1
18,4.0137,4.02,4.025,4.02,4.0191,4.02,4.0155,4.0241,4.0123,4.0325,-1,-1,-1,-1,-1,-1,-1,-1,-1,-1
19,4.0164,4.0205,4.0273,4.0205,4.0191,4.0205,4.0164,4.0273,4.0132,4.0334,-1,-1,-1,-1,-1,-1,-1,-1,-1,-1
20,4.0182,4.0214,4.0273,4.0255,4.0191,4.0205,4.0173,4.0301,4.0146,4.0367,-1,-1,-1,-1,-1,-1,-1,-1,-1,-1
21,4.0182,4.0214,4.0292,4.0292,4.0205,4.0223,4.0182,4.0311,4.0146,4.0376,-1,-1,-1,-1,-1,-1,-1,-1,-1,-1
22,4.02,4.0214,4.0292,4.0301,4.0214,4.025,4.0182,4.0315,4.0164,4.0395,-1,-1,-1,-1,-1,-1,-1,-1,-1,-1
23,4.0205,4.025,4.0301,4.0325,4.0223,4.025,4.0191,4.0325,4.0191,4.0395,-1,-1,-1,-1,-1,-1,-1,-1,-1,-1
24,4.0205,4.0264,4.0301,4.0343,4.0255,4.0264,4.0223,4.0325,4.0191,4.04,-1,-1,-1,-1,-1,-1,-1,-1,-1,-1
25,4.0214,4.0264,4.0315,4.0362,4.0255,4.0273,4.0232,4.0343,4.0191,4.0438,-1,-1,-1,-1,-1,-1,-1,-1,-1,-1
26,4.0223,4.0273,4.0334,4.0362,4.0283,4.0273,4.025,4.0353,4.02,4.0487,-1,-1,-1,-1,-1,-1,-1,-1,-1,-1
27,4.0232,4.0292,4.0334,4.0362,4.0325,4.0273,4.0264,4.0362,4.0214,4.0506,-1,-1,-1,-1,-1,-1,-1,-1,-1,-1
28,4.025,4.0301,4.0343,4.0362,4.0334,4.0292,4.0264,4.0362,4.0214,4.0516,-1,-1,-1,-1,-1,-1,-1,-1,-1,-1
29,4.0255,4.0315,4.0343,4.0362,4.0362,4.0292,4.0264,4.04,4.0241,4.055,-1,-1,-1,-1,-1,-1,-1,-1,-1,-1
30,4.0264,4.0325,4.0362,4.0362,4.0362,4.0301,4.0273,4.0419,4.0264,4.0555,-1,-1,-1,-1,-1,-1,-1,-1,-1,-1
31,4.0273,4.0353,4.0367,4.0362,4.0362,4.0311,4.0283,4.0453,4.0264,4.0555,-1,-1,-1,-1,-1,-1,-1,-1,-1,-1
32,4.0273,4.0395,4.0376,4.0362,4.0362,4.0315,4.0292,4.0453,4.0273,4.0585,-1,-1,-1,-1,-1,-1,-1,-1,-1,-1
33,4.0283,4.0395,4.0376,4.0395,4.0395,4.0315,4.0292,4.0487,4.0292,4.06,-1,-1,-1,-1,-1,-1,-1,-1,-1,-1
34,4.0292,4.04,4.0386,4.041,4.0438,4.0315,4.0315,4.0496,4.0292,4.061,-1,-1,-1,-1,-1,-1,-1,-1,-1,-1
35,4.0292,4.04,4.0395,4.0429,4.0448,4.0334,4.0315,4.0506,4.0301,4.061,-1,-1,-1,-1,-1,-1,-1,-1,-1,-1
36,4.0311,4.041,4.04,4.0438,4.0453,4.0334,4.0334,4.0531,4.0311,4.061,-1,-1,-1,-1,-1,-1,-1,-1,-1,-1
37,4.0311,4.0438,4.041,4.0453,4.0453,4.0343,4.0353,4.061,4.0325,4.061,-1,-1,-1,-1,-1,-1,-1,-1,-1,-1
38,4.0315,4.0438,4.0429,4.0453,4.0453,4.0362,4.0362,4.0635,4.0334,4.062,-1,-1,-1,-1,-1,-1,-1,-1,-1,-1
39,4.0334,4.0472,4.0448,4.0453,4.0453,4.0362,4.0362,4.066,4.0334,4.0645,-1,-1,-1,-1,-1,-1,-1,-1,-1,-1
40,4.0334,4.0482,4.0448,4.0453,4.0453,4.0395,4.0367,4.067,4.0367,4.0645,-1,-1,-1,-1,-1,-1,-1,-1,-1,-1
41,4.0353,4.0487,4.0453,4.0453,4.0462,4.0395,4.0386,4.0721,4.0376,4.066,-1,-1,-1,-1,-1,-1,-1,-1,-1,-1
42,4.0353,4.0506,4.0453,4.0453,4.0472,4.04,4.041,4.0731,4.0395,4.067,-1,-1,-1,-1,-1,-1,-1,-1,-1,-1
43,4.0367,4.054,4.0453,4.0453,4.0516,4.0419,4.041,4.0742,4.041,4.0675,-1,-1,-1,-1,-1,-1,-1,-1,-1,-1
44,4.04,4.0565,4.0453,4.0453,4.0521,4.0419,4.0419,4.0762,4.0419,4.0675,-1,-1,-1,-1,-1,-1,-1,-1,-1,-1
45,4.04,4.0565,4.0472,4.0453,4.054,4.0419,4.0419,4.0773,4.0419,4.0675,-1,-1,-1,-1,-1,-1,-1,-1,-1,-1
46,4.0429,4.0565,4.0521,4.0453,4.06,4.0429,4.0429,4.0783,4.0429,4.0675,-1,-1,-1,-1,-1,-1,-1,-1,-1,-1
47,4.0438,4.06,4.0531,4.0453,4.061,4.0429,4.0453,4.0794,4.0438,4.0696,-1,-1,-1,-1,-1,-1,-1,-1,-1,-1
48,4.0448,4.062,4.0531,4.0453,4.0635,4.0438,4.0453,4.0799,4.0438,4.0706,-1,-1,-1,-1,-1,-1,-1,-1,-1,-1
49,4.0448,4.065,4.0531,4.0453,4.0635,4.0438,4.0462,4.0799,4.0453,4.0747,-1,-1,-1,-1,-1,-1,-1,-1,-1,-1
50,4.0462,4.067,4.0531,4.0453,4.0685,4.0448,4.0462,4.0825,4.0453,4.0747,-1,-1,-1,-1,-1,-1,-1,-1,-1,-1
51,4.0472,4.067,4.0531,4.0453,4.0685,4.0462,4.0521,4.0862,4.0487,4.0762,-1,-1,-1,-1,-1,-1,-1,-1,-1,-1
52,4.0472,4.0675,4.0531,4.0453,4.0696,4.0462,4.0531,4.0862,4.054,4.0773,-1,-1,-1,-1,-1,-1,-1,-1,-1,-1
53,4.0496,4.0685,4.054,4.0453,4.0711,4.0472,4.0531,4.0862,4.054,4.0794,-1,-1,-1,-1,-1,-1,-1,-1,-1,-1
54,4.0506,4.0706,4.0555,4.0453,4.0731,4.0487,4.0531,4.0862,4.0555,4.0799,-1,-1,-1,-1,-1,-1,-1,-1,-1,-1
55,4.054,4.0706,4.0565,4.0453,4.0747,4.0496,4.054,4.0862,4.0565,4.0809,-1,-1,-1,-1,-1,-1,-1,-1,-1,-1
56,4.055,4.0706,4.059,4.0453,4.0762,4.0506,4.054,4.0899,4.0565,4.0846,-1,-1,-1,-1,-1,-1,-1,-1,-1,-1
57,4.0555,4.0721,4.0635,4.0453,4.0762,4.0516,4.054,4.0904,4.0565,4.0851,-1,-1,-1,-1,-1,-1,-1,-1,-1,-1
58,4.061,4.0721,4.067,4.0453,4.0783,4.0516,4.055,4.0915,4.0575,4.0862,-1,-1,-1,-1,-1,-1,-1,-1,-1,-1
59,4.062,4.0773,4.0685,4.0453,4.0783,4.0516,4.0575,4.0926,4.0575,4.0878,-1,-1,-1,-1,-1,-1,-1,-1,-1,-1
60,4.0625,4.0773,4.0696,4.0453,4.0799,4.0531,4.059,4.0969,4.0575,4.0888,-1,-1,-1,-1,-1,-1,-1,-1,-1,-1
61,4.0625,4.0794,4.0706,4.0453,4.0809,4.054,4.059,4.0996,4.0585,4.0888,-1,-1,-1,-1,-1,-1,-1,-1,-1,-1
62,4.0635,4.0851,4.0721,4.0453,4.0809,4.054,4.06,4.1018,4.059,4.0888,-1,-1,-1,-1,-1,-1,-1,-1,-1,-1
63,4.0645,4.0851,4.0721,4.0453,4.082,4.054,4.061,4.1046,4.06,4.0899,-1,-1,-1,-1,-1,-1,-1,-1,-1,-1
64,4.0645,4.0888,4.0731,4.0453,4.0835,4.055,4.061,4.1062,4.061,4.0915,-1,-1,-1,-1,-1,-1,-1,-1,-1,-1
65,4.065,4.0942,4.0742,4.0453,4.0835,4.0555,4.061,4.1062,4.062,4.0931,-1,-1,-1,-1,-1,-1,-1,-1,-1,-1
66,4.066,4.0942,4.0742,4.0453,4.0846,4.0565,4.061,4.1073,4.062,4.0942,-1,-1,-1,-1,-1,-1,-1,-1,-1,-1
67,4.067,4.0958,4.0762,4.0453,4.0872,4.0575,4.061,4.109,4.0635,4.0942,-1,-1,-1,-1,-1,-1,-1,-1,-1,-1
68,4.067,4.0975,4.0762,4.0453,4.0872,4.0575,4.061,4.1107,4.0645,4.0942,-1,-1,-1,-1,-1,-1,-1,-1,-1,-1
69,4.0685,4.0985,4.0762,4.0453,4.0878,4.0575,4.061,4.1107,4.0645,4.0947,-1,-1,-1,-1,-1,-1,-1,-1,-1,-1
70,4.0706,4.0985,4.0783,4.0453,4.0878,4.06,4.061,4.1107,4.065,4.0947,-1,-1,-1,-1,-1,-1,-1,-1,-1,-1
71,4.0731,4.1057,4.0794,4.0453,4.0904,4.0635,4.0625,4.1135,4.065,4.0969,-1,-1,-1,-1,-1,-1,-1,-1,-1,-1
72,4.0747,4.1057,4.0799,4.0453,4.0904,4.066,4.0625,4.1141,4.066,4.0985,-1,-1,-1,-1,-1,-1,-1,-1,-1,-1
73,4.0757,4.1062,4.0825,4.0453,4.0904,4.0685,4.0635,4.1141,4.0685,4.0996,-1,-1,-1,-1,-1,-1,-1,-1,-1,-1
74,4.0773,4.109,4.0835,4.0453,4.0942,4.0696,4.0685,4.1141,4.0685,4.0996,-1,-1,-1,-1,-1,-1,-1,-1,-1,-1
75,4.0794,4.1101,4.0846,4.0453,4.0942,4.0706,4.0696,4.1163,4.0742,4.1013,-1,-1,-1,-1,-1,-1,-1,-1,-1,-1
76,4.0799,4.1118,4.0846,4.0453,4.0975,4.0721,4.0721,4.1169,4.0762,4.1018,-1,-1,-1,-1,-1,-1,-1,-1,-1,-1
77,4.082,4.1135,4.0862,4.0516,4.1002,4.0742,4.0721,4.1169,4.0783,4.1029,-1,-1,-1,-1,-1,-1,-1,-1,-1,-1
78,4.0835,4.1198,4.0862,4.0521,4.1013,4.0742,4.0731,4.118,4.0794,4.1079,-1,-1,-1,-1,-1,-1,-1,-1,-1,-1
79,4.0846,4.1203,4.0878,4.0521,4.1018,4.0762,4.0731,4.1198,4.0799,4.1107,-1,-1,-1,-1,-1,-1,-1,-1,-1,-1
80,4.0846,4.1215,4.0878,4.0531,4.1029,4.0773,4.0762,4.1198,4.0799,4.1118,-1,-1,-1,-1,-1,-1,-1,-1,-1,-1
81,4.0878,4.1238,4.0904,4.054,4.1029,4.0783,4.0762,4.1203,4.0799,4.1118,-1,-1,-1,-1,-1,-1,-1,-1,-1,-1
82,4.0888,4.1267,4.0904,4.0555,4.1046,4.0794,4.0783,4.1203,4.0872,4.1118,-1,-1,-1,-1,-1,-1,-1,-1,-1,-1
83,4.0899,4.1267,4.0942,4.0565,4.1079,4.0794,4.0799,4.1215,4.0878,4.1118,-1,-1,-1,-1,-1,-1,-1,-1,-1,-1
84,4.0899,4.129,4.0947,4.0585,4.109,4.0794,4.0825,4.1232,4.0915,4.1118,-1,-1,-1,-1,-1,-1,-1,-1,-1,-1
85,4.0899,4.1308,4.0947,4.0585,4.1118,4.0794,4.0825,4.1249,4.0915,4.1118,-1,-1,-1,-1,-1,-1,-1,-1,-1,-1
86,4.0904,4.1308,4.0958,4.0585,4.1118,4.0799,4.0846,4.129,4.0931,4.1118,-1,-1,-1,-1,-1,-1,-1,-1,-1,-1
87,4.0904,4.1319,4.0958,4.0585,4.1141,4.0799,4.0851,4.1302,4.0931,4.1118,-1,-1,-1,-1,-1,-1,-1,-1,-1,-1
88,4.0904,4.1325,4.0975,4.0585,4.1141,4.0825,4.0904,4.1325,4.0942,4.1118,-1,-1,-1,-1,-1,-1,-1,-1,-1,-1
89,4.0942,4.1325,4.0975,4.0585,4.1152,4.0835,4.0904,4.1337,4.0985,4.1118,-1,-1,-1,-1,-1,-1,-1,-1,-1,-1
90,4.0958,4.1337,4.0985,4.0585,4.1163,4.0862,4.0942,4.1343,4.0985,4.1118,-1,-1,-1,-1,-1,-1,-1,-1,-1,-1
91,4.0969,4.1343,4.1046,4.0585,4.118,4.0872,4.0947,4.1355,4.1002,4.1118,-1,-1,-1,-1,-1,-1,-1,-1,-1,-1
92,4.0969,4.1373,4.1046,4.062,4.118,4.0872,4.0969,4.1379,4.1002,4.1124,-1,-1,-1,-1,-1,-1,-1,-1,-1,-1
93,4.0975,4.1379,4.1062,4.0625,4.1198,4.0878,4.0969,4.1379,4.1002,4.1135,-1,-1,-1,-1,-1,-1,-1,-1,-1,-1
94,4.0975,4.1391,4.1079,4.0711,4.1203,4.0878,4.0969,4.1415,4.1002,4.1152,-1,-1,-1,-1,-1,-1,-1,-1,-1,-1
95,4.0996,4.1391,4.1079,4.0747,4.1215,4.0888,4.0969,4.1433,4.1013,4.1163,-1,-1,-1,-1,-1,-1,-1,-1,-1,-1
96,4.1029,4.1391,4.109,4.0757,4.1238,4.0926,4.0975,4.1457,4.1013,4.118,-1,-1,-1,-1,-1,-1,-1,-1,-1,-1
97,4.1046,4.1397,4.109,4.082,4.1249,4.0931,4.0985,4.1469,4.1018,4.118,-1,-1,-1,-1,-1,-1,-1,-1,-1,-1
98,4.1046,4.1397,4.109,4.082,4.1249,4.0931,4.0985,4.1469,4.1018,4.118,-1,-1,-1,-1,-1,-1,-1,-1,-1,-1
99,4.1062,4.1409,4.1101,4.0825,4.1267,4.0942,4.0985,4.1475,4.1057,4.1186,-1,-1,-1,-1,-1,-1,-1,-1,-1,-1
100,4.1073,4.1415,4.1118,4.0835,4.1308,4.0942,4.0985,4.1494,4.1057,4.1198,-1,-1,-1,-1,-1,-1,-1,-1,-1,-1
101,4.1073,4.1475,4.1118,4.0835,4.1355,4.0942,4.0985,4.1494,4.1062,4.1198,-1,-1,-1,-1,-1,-1,-1,-1,-1,-1
102,4.1073,4.15,4.1135,4.0835,4.1355,4.0958,4.0985,4.1512,4.1079,4.1215,-1,-1,-1,-1,-1,-1,-1,-1,-1,-1
103,4.1101,4.1518,4.1141,4.0904,4.1409,4.0969,4.0985,4.153,4.109,4.1221,-1,-1,-1,-1,-1,-1,-1,-1,-1,-1
104,4.1101,4.1518,4.1141,4.0904,4.1415,4.0996,4.0985,4.1574,4.1118,4.1232,-1,-1,-1,-1,-1,-1,-1,-1,-1,-1
105,4.1118,4.1543,4.1152,4.0915,4.1415,4.0996,4.0985,4.1618,4.1118,4.1249,-1,-1,-1,-1,-1,-1,-1,-1,-1,-1
106,4.1118,4.1561,4.1152,4.0931,4.1421,4.1002,4.0985,4.1618,4.1118,4.1255,-1,-1,-1,-1,-1,-1,-1,-1,-1,-1
107,4.1118,4.158,4.1163,4.0931,4.1433,4.1029,4.0985,4.1643,4.1118,4.1267,-1,-1,-1,-1,-1,-1,-1,-1,-1,-1
108,4.1118,4.158,4.1163,4.0947,4.1451,4.1029,4.0985,4.1643,4.1118,4.1267,-1,-1,-1,-1,-1,-1,-1,-1,-1,-1
109,4.1118,4.1599,4.1186,4.0996,4.1457,4.104,4.0985,4.1643,4.1118,4.1267,-1,-1,-1,-1,-1,-1,-1,-1,-1,-1
110,4.1118,4.1649,4.1186,4.0996,4.1475,4.1057,4.0996,4.1649,4.1118,4.129,-1,-1,-1,-1,-1,-1,-1,-1,-1,-1
111,4.1118,4.1649,4.1198,4.0996,4.1487,4.1057,4.0996,4.1681,4.1118,4.1308,-1,-1,-1,-1,-1,-1,-1,-1,-1,-1
112,4.1118,4.1669,4.1221,4.0996,4.15,4.1062,4.0996,4.1681,4.1118,4.1325,-1,-1,-1,-1,-1,-1,-1,-1,-1,-1
113,4.1118,4.1681,4.1249,4.0996,4.1518,4.1062,4.1018,4.1681,4.1141,4.1325,-1,-1,-1,-1,-1,-1,-1,-1,-1,-1
114,4.1118,4.1694,4.1284,4.0996,4.153,4.1062,4.1018,4.1694,4.1141,4.1343,-1,-1,-1,-1,-1,-1,-1,-1,-1,-1
115,4.1118,4.1707,4.129,4.1013,4.153,4.1079,4.104,4.172,4.1152,4.1343,-1,-1,-1,-1,-1,-1,-1,-1,-1,-1
116,4.1118,4.1713,4.129,4.1013,4.1555,4.109,4.1046,4.172,4.1152,4.1355,-1,-1,-1,-1,-1,-1,-1,-1,-1,-1
117,4.1118,4.1713,4.1325,4.1013,4.1555,4.109,4.1073,4.1733,4.1152,4.1379,-1,-1,-1,-1,-1,-1,-1,-1,-1,-1
118,4.1118,4.1739,4.1355,4.1046,4.1561,4.1118,4.1079,4.1746,4.1152,4.1391,-1,-1,-1,-1,-1,-1,-1,-1,-1,-1
119,4.1118,4.1765,4.1391,4.1046,4.1574,4.1118,4.1107,4.1765,4.1169,4.1391,-1,-1,-1,-1,-1,-1,-1,-1,-1,-1
120,4.1118,4.1811,4.1409,4.1046,4.1574,4.1163,4.1107,4.1765,4.118,4.1397,-1,-1,-1,-1,-1,-1,-1,-1,-1,-1
121,4.1118,4.1818,4.1409,4.1046,4.1593,4.1163,4.1107,4.1765,4.1186,4.1397,-1,-1,-1,-1,-1,-1,-1,-1,-1,-1
122,4.1118,4.1851,4.1421,4.1046,4.1599,4.118,4.1118,4.1765,4.1198,4.1409,-1,-1,-1,-1,-1,-1,-1,-1,-1,-1
123,4.1118,4.1851,4.1433,4.1046,4.1599,4.1186,4.1118,4.1818,4.1215,4.1415,-1,-1,-1,-1,-1,-1,-1,-1,-1,-1
124,4.1118,4.1858,4.1451,4.1046,4.1637,4.1186,4.1118,4.1851,4.1238,4.1421,-1,-1,-1,-1,-1,-1,-1,-1,-1,-1
125,4.1118,4.1878,4.1512,4.1046,4.1643,4.1198,4.1118,4.1911,4.1273,4.1433,-1,-1,-1,-1,-1,-1,-1,-1,-1,-1
126,4.1118,4.1878,4.1518,4.1046,4.1649,4.1198,4.1118,4.1938,4.1273,4.1439,-1,-1,-1,-1,-1,-1,-1,-1,-1,-1
127,4.1118,4.1898,4.1518,4.1046,4.1669,4.1215,4.1118,4.1965,4.1284,4.1439,-1,-1,-1,-1,-1,-1,-1,-1,-1,-1
128,4.1118,4.1911,4.1537,4.1046,4.1688,4.1221,4.1124,4.1965,4.1284,4.1457,-1,-1,-1,-1,-1,-1,-1,-1,-1,-1
129,4.1118,4.1911,4.1537,4.1046,4.1713,4.1221,4.1135,4.2027,4.1284,4.1457,-1,-1,-1,-1,-1,-1,-1,-1,-1,-1
130,4.1163,4.1918,4.1543,4.1062,4.1733,4.1232,4.1135,4.2027,4.1308,4.1494,-1,-1,-1,-1,-1,-1,-1,-1,-1,-1
131,4.1163,4.1925,4.1543,4.1079,4.1759,4.1232,4.1169,4.2055,4.1337,4.1494,-1,-1,-1,-1,-1,-1,-1,-1,-1,-1
132,4.1169,4.1938,4.1543,4.1079,4.1818,4.1238,4.118,4.209,4.1373,4.1494,-1,-1,-1,-1,-1,-1,-1,-1,-1,-1
133,4.118,4.1945,4.1543,4.1107,4.1818,4.1249,4.1186,4.2097,4.1421,4.1494,-1,-1,-1,-1,-1,-1,-1,-1,-1,-1
134,4.1198,4.2013,4.1555,4.1107,4.1838,4.1267,4.1186,4.2125,4.1433,4.15,-1,-1,-1,-1,-1,-1,-1,-1,-1,-1
135,4.1198,4.2034,4.1555,4.1118,4.1851,4.1273,4.1198,4.2175,4.1433,4.1561,-1,-1,-1,-1,-1,-1,-1,-1,-1,-1
136,4.1198,4.2055,4.1593,4.1118,4.1858,4.1284,4.1198,4.2269,4.1433,4.1599,-1,-1,-1,-1,-1,-1,-1,-1,-1,-1
137,4.1215,4.2062,4.1599,4.1141,4.1858,4.129,4.1198,4.2269,4.1469,4.1637,-1,-1,-1,-1,-1,-1,-1,-1,-1,-1
138,4.1215,4.2062,4.1605,4.1141,4.1891,4.1337,4.1215,4.2284,4.15,4.1649,-1,-1,-1,-1,-1,-1,-1,-1,-1,-1
139,4.1215,4.2062,4.1605,4.1141,4.1925,4.1337,4.1238,4.2336,4.1512,4.1662,-1,-1,-1,-1,-1,-1,-1,-1,-1,-1
140,4.1215,4.2062,4.1618,4.1163,4.1925,4.1373,4.1238,4.2358,4.1518,4.1669,-1,-1,-1,-1,-1,-1,-1,-1,-1,-1
141,4.1215,4.2062,4.1624,4.1203,4.2,4.1379,4.1249,4.2366,4.1518,4.1694,-1,-1,-1,-1,-1,-1,-1,-1,-1,-1
142,4.1215,4.2069,4.1649,4.1221,4.2013,4.1391,4.1249,4.2373,4.1537,4.1733,-1,-1,-1,-1,-1,-1,-1,-1,-1,-1
143,4.1215,4.2154,4.1669,4.1232,4.2013,4.1397,4.1273,4.2381,4.1561,4.1733,-1,-1,-1,-1,-1,-1,-1,-1,-1,-1
144,4.1215,4.2161,4.1688,4.1249,4.2027,4.1409,4.1284,4.2403,4.1574,4.1733,-1,-1,-1,-1,-1,-1,-1,-1,-1,-1
145,4.1215,4.2197,4.1688,4.129,4.2034,4.1409,4.129,4.2434,4.158,4.1759,-1,-1,-1,-1,-1,-1,-1,-1,-1,-1
146,4.1215,4.2233,4.1713,4.129,4.2034,4.1409,4.129,4.2434,4.1593,4.1778,-1,-1,-1,-1,-1,-1,-1,-1,-1,-1
147,4.1215,4.224,4.1733,4.129,4.2034,4.1409,4.129,4.2449,4.1599,4.1785,-1,-1,-1,-1,-1,-1,-1,-1,-1,-1
148,4.1215,4.2269,4.1733,4.129,4.2069,4.1415,4.1308,4.248,4.1605,4.1785,-1,-1,-1,-1,-1,-1,-1,-1,-1,-1
149,4.1215,4.2277,4.1739,4.129,4.2118,4.1421,4.1325,4.248,4.1618,4.1838,-1,-1,-1,-1,-1,-1,-1,-1,-1,-1
150,4.1215,4.2284,4.1746,4.129,4.2168,4.1421,4.1325,4.2487,4.1624,4.1858,-1,-1,-1,-1,-1,-1,-1,-1,-1,-1
151,4.1215,4.2306,4.1759,4.129,4.2175,4.1433,4.1343,4.2503,4.1643,4.1878,-1,-1,-1,-1,-1,-1,-1,-1,-1,-1
152,4.1215,4.2321,4.1759,4.129,4.2204,4.1439,4.1355,4.2573,4.1669,4.1911,-1,-1,-1,-1,-1,-1,-1,-1,-1,-1
153,4.1255,4.2336,4.1759,4.129,4.2211,4.1475,4.1355,4.2604,4.1694,4.1911,-1,-1,-1,-1,-1,-1,-1,-1,-1,-1
154,4.1267,4.2366,4.1765,4.129,4.2211,4.1475,4.1361,4.2604,4.1694,4.1911,-1,-1,-1,-1,-1,-1,-1,-1,-1,-1
155,4.1284,4.2366,4.1778,4.129,4.2226,4.15,4.1373,4.2644,4.1694,4.1918,-1,-1,-1,-1,-1,-1,-1,-1,-1,-1
156,4.129,4.2381,4.1785,4.129,4.2233,4.15,4.1379,4.266,4.1713,4.1979,-1,-1,-1,-1,-1,-1,-1,-1,-1,-1
157,4.129,4.2381,4.1785,4.129,4.224,4.1518,4.1391,4.2692,4.1733,4.2,-1,-1,-1,-1,-1,-1,-1,-1,-1,-1
158,4.129,4.2381,4.1791,4.129,4.2248,4.153,4.1397,4.27,4.1733,4.2007,-1,-1,-1,-1,-1,-1,-1,-1,-1,-1
159,4.1302,4.2403,4.1791,4.129,4.2262,4.1537,4.1409,4.2741,4.1739,4.2027,-1,-1,-1,-1,-1,-1,-1,-1,-1,-1
160,4.1319,4.2411,4.1818,4.129,4.2277,4.1537,4.1415,4.2757,4.1759,4.2027,-1,-1,-1,-1,-1,-1,-1,-1,-1,-1
161,4.1325,4.2418,4.1818,4.129,4.2314,4.1543,4.1415,4.2765,4.1765,4.2034,-1,-1,-1,-1,-1,-1,-1,-1,-1,-1
162,4.1325,4.2418,4.1858,4.129,4.2351,4.1555,4.1439,4.2807,4.1791,4.2034,-1,-1,-1,-1,-1,-1,-1,-1,-1,-1
163,4.1325,4.2434,4.1878,4.129,4.2351,4.1555,4.1451,4.2807,4.1805,4.2034,-1,-1,-1,-1,-1,-1,-1,-1,-1,-1
164,4.1337,4.2457,4.1898,4.129,4.2351,4.1599,4.1451,4.2815,4.1805,4.2055,-1,-1,-1,-1,-1,-1,-1,-1,-1,-1
165,4.1337,4.2457,4.1911,4.129,4.2411,4.1637,4.1457,4.2848,4.1805,4.2062,-1,-1,-1,-1,-1,-1,-1,-1,-1,-1
166,4.1343,4.2464,4.1911,4.129,4.2449,4.1649,4.1469,4.2857,4.1805,4.2069,-1,-1,-1,-1,-1,-1,-1,-1,-1,-1
167,4.1343,4.2472,4.1918,4.129,4.2457,4.1662,4.1494,4.2874,4.1818,4.2069,-1,-1,-1,-1,-1,-1,-1,-1,-1,-1
168,4.1343,4.248,4.1938,4.129,4.2487,4.1662,4.1494,4.2882,4.1838,4.2069,-1,-1,-1,-1,-1,-1,-1,-1,-1,-1
169,4.1361,4.2636,4.1952,4.129,4.2487,4.1688,4.1494,4.2882,4.1851,4.2104,-1,-1,-1,-1,-1,-1,-1,-1,-1,-1
170,4.1361,4.2636,4.1979,4.129,4.2503,4.1713,4.1494,4.2924,4.1851,4.214,-1,-1,-1,-1,-1,-1,-1,-1,-1,-1
171,4.1373,4.2668,4.2013,4.129,4.251,4.172,4.1512,4.2993,4.1858,4.214,-1,-1,-1,-1,-1,-1,-1,-1,-1,-1
172,4.1379,4.2692,4.2055,4.1308,4.2526,4.1739,4.1555,4.3019,4.1864,4.214,-1,-1,-1,-1,-1,-1,-1,-1,-1,-1
173,4.1379,4.27,4.2062,4.1308,4.2534,4.1746,4.1555,4.3098,4.1878,4.2168,-1,-1,-1,-1,-1,-1,-1,-1,-1,-1
174,4.1415,4.27,4.2076,4.1308,4.2534,4.1759,4.1618,4.3116,4.1884,4.2175,-1,-1,-1,-1,-1,-1,-1,-1,-1,-1
175,4.1421,4.27,4.2076,4.1308,4.2541,4.1765,4.1618,4.3161,4.1925,4.2182,-1,-1,-1,-1,-1,-1,-1,-1,-1,-1
176,4.1439,4.2716,4.2125,4.1308,4.2541,4.1778,4.1618,4.3179,4.1925,4.2197,-1,-1,-1,-1,-1,-1,-1,-1,-1,-1
177,4.1487,4.2733,4.2161,4.1308,4.2541,4.1778,4.1618,4.3215,4.1938,4.2197,-1,-1,-1,-1,-1,-1,-1,-1,-1,-1
178,4.1512,4.2774,4.2175,4.1308,4.2549,4.1785,4.1643,4.3372,4.1945,4.2248,-1,-1,-1,-1,-1,-1,-1,-1,-1,-1
179,4.1518,4.2807,4.2182,4.1308,4.262,4.1785,4.1649,4.3382,4.1979,4.2248,-1,-1,-1,-1,-1,-1,-1,-1,-1,-1
180,4.158,4.2815,4.2197,4.1308,4.2668,4.1791,4.1669,4.3391,4.1979,4.2306,-1,-1,-1,-1,-1,-1,-1,-1,-1,-1
181,4.1599,4.2823,4.2197,4.1308,4.2692,4.1805,4.1713,4.3468,4.1986,4.2314,-1,-1,-1,-1,-1,-1,-1,-1,-1,-1
182,4.1599,4.2882,4.224,4.1319,4.2716,4.1811,4.172,4.3546,4.2,4.2328,-1,-1,-1,-1,-1,-1,-1,-1,-1,-1
183,4.1624,4.2916,4.2248,4.1379,4.2741,4.1811,4.172,4.3546,4.2034,4.2328,-1,-1,-1,-1,-1,-1,-1,-1,-1,-1
184,4.1624,4.2924,4.2277,4.1415,4.2741,4.1811,4.1739,4.3556,4.2041,4.2336,-1,-1,-1,-1,-1,-1,-1,-1,-1,-1
185,4.1637,4.2924,4.2291,4.1421,4.2749,4.1858,4.1746,4.3565,4.2076,4.2358,-1,-1,-1,-1,-1,-1,-1,-1,-1,-1
186,4.1637,4.2933,4.2291,4.1433,4.2757,4.1864,4.1785,4.3565,4.2076,4.2358,-1,-1,-1,-1,-1,-1,-1,-1,-1,-1
187,4.1643,4.2941,4.2351,4.1457,4.2765,4.1891,4.1785,4.3575,4.2104,4.2396,-1,-1,-1,-1,-1,-1,-1,-1,-1,-1
188,4.1662,4.295,4.2396,4.1457,4.2774,4.1925,4.1805,4.3625,4.2104,4.2411,-1,-1,-1,-1,-1,-1,-1,-1,-1,-1
189,4.1681,4.2993,4.2426,4.1469,4.2782,4.1938,4.1805,4.3655,4.2118,4.2411,-1,-1,-1,-1,-1,-1,-1,-1,-1,-1
190,4.1688,4.3002,4.2449,4.1469,4.2782,4.1952,4.1811,4.3686,4.2118,4.2418,-1,-1,-1,-1,-1,-1,-1,-1,-1,-1
191,4.1707,4.3019,4.2449,4.1555,4.2798,4.1952,4.1818,4.3768,4.2118,4.2426,-1,-1,-1,-1,-1,-1,-1,-1,-1,-1
192,4.1733,4.3161,4.2449,4.158,4.2832,4.1965,4.1831,4.3778,4.2125,4.2426,-1,-1,-1,-1,-1,-1,-1,-1,-1,-1
193,4.1733,4.3206,4.2457,4.1593,4.2848,4.2,4.1838,4.3851,4.214,4.2449,-1,-1,-1,-1,-1,-1,-1,-1,-1,-1
194,4.1746,4.3242,4.2457,4.1599,4.2882,4.2027,4.1838,4.3851,4.2154,4.2449,-1,-1,-1,-1,-1,-1,-1,-1,-1,-1
195,4.1805,4.327,4.2457,4.1599,4.2916,4.2041,4.1878,4.3862,4.2168,4.2464,-1,-1,-1,-1,-1,-1,-1,-1,-1,-1
196,4.1805,4.3363,4.2472,4.1599,4.295,4.2041,4.1884,4.3862,4.2175,4.2464,-1,-1,-1,-1,-1,-1,-1,-1,-1,-1
197,4.1851,4.341,4.248,4.1599,4.2958,4.2041,4.1891,4.3872,4.2204,4.2472,-1,-1,-1,-1,-1,-1,-1,-1,-1,-1
198,4.1851,4.342,4.2487,4.1599,4.301,4.2055,4.1891,4.3883,4.2204,4.248,-1,-1,-1,-1,-1,-1,-1,-1,-1,-1
199,4.1858,4.3458,4.2487,4.1599,4.3125,4.2055,4.1898,4.3947,4.2211,4.2565,-1,-1,-1,-1,-1,-1,-1,-1,-1,-1
200,4.1864,4.3556,4.2487,4.1599,4.3134,4.2062,4.1938,4.3947,4.2211,4.2581,-1,-1,-1,-1,-1,-1,-1,-1,-1,-1
201,4.1884,4.3575,4.2503,4.1599,4.3161,4.2062,4.1945,4.3947,4.2233,4.2588,-1,-1,-1,-1,-1,-1,-1,-1,-1,-1
202,4.1925,4.3585,4.251,4.1599,4.3197,4.2069,4.1952,4.3947,4.2248,4.2588,-1,-1,-1,-1,-1,-1,-1,-1,-1,-1
203,4.1938,4.3625,4.2518,4.1599,4.3224,4.2069,4.1972,4.3947,4.2262,4.2612,-1,-1,-1,-1,-1,-1,-1,-1,-1,-1
204,4.1952,4.3655,4.2518,4.1599,4.3224,4.209,4.1986,4.3979,4.2262,4.2636,-1,-1,-1,-1,-1,-1,-1,-1,-1,-1
205,4.1965,4.3675,4.2534,4.1599,4.3233,4.2097,4.1986,4.4023,4.2277,4.2668,-1,-1,-1,-1,-1,-1,-1,-1,-1,-1
206,4.1965,4.3778,4.2534,4.1599,4.3261,4.2118,4.2,4.4056,4.2284,4.27,-1,-1,-1,-1,-1,-1,-1,-1,-1,-1
207,4.1979,4.382,4.2534,4.1599,4.3261,4.2118,4.2,4.4157,4.2321,4.27,-1,-1,-1,-1,-1,-1,-1,-1,-1,-1
208,4.2,4.382,4.2549,4.1599,4.3261,4.2125,4.2007,4.4179,4.2321,4.2716,-1,-1,-1,-1,-1,-1,-1,-1,-1,-1
209,4.2007,4.3851,4.2573,4.1624,4.3261,4.214,4.2013,4.4179,4.2328,4.2725,-1,-1,-1,-1,-1,-1,-1,-1,-1,-1
210,4.2027,4.3969,4.2573,4.1649,4.3261,4.2154,4.2041,4.4237,4.2366,4.2725,-1,-1,-1,-1,-1,-1,-1,-1,-1,-1
211,4.2027,4.4112,4.2604,4.1681,4.3261,4.2154,4.2104,4.4306,4.2396,4.2725,-1,-1,-1,-1,-1,-1,-1,-1,-1,-1
212,4.2034,4.4123,4.2668,4.1688,4.3261,4.2168,4.2118,4.4365,4.2411,4.2725,-1,-1,-1,-1,-1,-1,-1,-1,-1,-1
213,4.2041,4.4123,4.2668,4.1688,4.3261,4.2182,4.214,4.4401,4.2426,4.2725,-1,-1,-1,-1,-1,-1,-1,-1,-1,-1
214,4.2097,4.4134,4.2676,4.1688,4.3261,4.2204,4.2197,4.4413,4.2457,4.2725,-1,-1,-1,-1,-1,-1,-1,-1,-1,-1
215,4.2097,4.4134,4.2692,4.172,4.3261,4.2204,4.2211,4.4486,4.2457,4.2725,-1,-1,-1,-1,-1,-1,-1,-1,-1,-1
216,4.2097,4.4168,4.2716,4.172,4.327,4.2211,4.2226,4.4522,4.2464,4.2741,-1,-1,-1,-1,-1,-1,-1,-1,-1,-1
217,4.2118,4.4191,4.2741,4.1746,4.3279,4.224,4.2226,4.4522,4.2464,4.2765,-1,-1,-1,-1,-1,-1,-1,-1,-1,-1
218,4.2125,4.4271,4.2765,4.1759,4.3298,4.224,4.2233,4.4572,4.2487,4.2774,-1,-1,-1,-1,-1,-1,-1,-1,-1,-1
219,4.2132,4.4295,4.2798,4.1818,4.3307,4.2248,4.224,4.4597,4.2534,4.289,-1,-1,-1,-1,-1,-1,-1,-1,-1,-1
220,4.214,4.4295,4.2815,4.1831,4.3307,4.2248,4.224,4.4647,4.2573,4.2976,-1,-1,-1,-1,-1,-1,-1,-1,-1,-1
221,4.2154,4.4318,4.2832,4.1838,4.3307,4.2262,4.224,4.466,4.2573,4.3002,-1,-1,-1,-1,-1,-1,-1,-1,-1,-1
222,4.2161,4.4318,4.284,4.1838,4.3307,4.2269,4.224,4.4672,4.2581,4.3089,-1,-1,-1,-1,-1,-1,-1,-1,-1,-1
223,4.2168,4.4365,4.2848,4.1838,4.3307,4.2277,4.224,4.4672,4.2588,4.3116,-1,-1,-1,-1,-1,-1,-1,-1,-1,-1
224,4.2168,4.4389,4.2857,4.1838,4.3307,4.2277,4.224,4.4672,4.2604,4.3125,-1,-1,-1,-1,-1,-1,-1,-1,-1,-1
225,4.2182,4.4413,4.2865,4.1838,4.3307,4.2277,4.2269,4.4763,4.2652,4.3152,-1,-1,-1,-1,-1,-1,-1,-1,-1,-1
226,4.2233,4.4449,4.2941,4.1838,4.3307,4.2291,4.2291,4.4763,4.2652,4.317,-1,-1,-1,-1,-1,-1,-1,-1,-1,-1
227,4.2269,4.4473,4.2967,4.1838,4.3316,4.2291,4.2306,4.4789,4.27,4.3215,-1,-1,-1,-1,-1,-1,-1,-1,-1,-1
228,4.2269,4.4473,4.2976,4.1838,4.3325,4.2291,4.2328,4.4828,4.27,4.3215,-1,-1,-1,-1,-1,-1,-1,-1,-1,-1
229,4.2269,4.4486,4.3002,4.1838,4.3344,4.2306,4.2351,4.4855,4.2716,4.3224,-1,-1,-1,-1,-1,-1,-1,-1,-1,-1
230,4.2284,4.4486,4.3036,4.1838,4.3372,4.2306,4.2358,4.4855,4.2725,4.3233,-1,-1,-1,-1,-1,-1,-1,-1,-1,-1
231,4.2284,4.451,4.3045,4.1851,4.3391,4.2306,4.2366,4.4949,4.2725,4.3242,-1,-1,-1,-1,-1,-1,-1,-1,-1,-1
232,4.2284,4.451,4.3098,4.1884,4.3401,4.2306,4.2396,4.4949,4.2765,4.327,-1,-1,-1,-1,-1,-1,-1,-1,-1,-1
233,4.2291,4.4547,4.3116,4.1898,4.3439,4.2306,4.2403,4.5143,4.2798,4.327,-1,-1,-1,-1,-1,-1,-1,-1,-1,-1
234,4.2314,4.4572,4.3125,4.1911,4.3458,4.2306,4.2418,4.52,4.284,4.327,-1,-1,-1,-1,-1,-1,-1,-1,-1,-1
235,4.2314,4.4647,4.3215,4.1911,4.3468,4.2321,4.2418,4.5229,4.2882,4.3316,-1,-1,-1,-1,-1,-1,-1,-1,-1,-1
236,4.2351,4.466,4.3224,4.1972,4.3546,4.2373,4.2449,4.5272,4.2933,4.3316,-1,-1,-1,-1,-1,-1,-1,-1,-1,-1
237,4.2358,4.466,4.3242,4.1972,4.3585,4.2403,4.2464,4.5346,4.2933,4.3363,-1,-1,-1,-1,-1,-1,-1,-1,-1,-1
238,4.2366,4.4672,4.3251,4.2013,4.3605,4.2426,4.2472,4.5361,4.295,4.3372,-1,-1,-1,-1,-1,-1,-1,-1,-1,-1
239,4.2373,4.4685,4.3279,4.2027,4.3615,4.2434,4.2472,4.5421,4.2967,4.3372,-1,-1,-1,-1,-1,-1,-1,-1,-1,-1
240,4.2381,4.4711,4.3307,4.2034,4.3625,4.2449,4.2503,4.5528,4.2984,4.3382,-1,-1,-1,-1,-1,-1,-1,-1,-1,-1
241,4.2396,4.4855,4.3316,4.2062,4.3625,4.2487,4.2503,4.5544,4.3028,4.3391,-1,-1,-1,-1,-1,-1,-1,-1,-1,-1
242,4.2411,4.4976,4.3335,4.2062,4.3625,4.251,4.251,4.5544,4.3054,4.341,-1,-1,-1,-1,-1,-1,-1,-1,-1,-1
243,4.2418,4.4989,4.3354,4.2062,4.3635,4.2518,4.2526,4.5544,4.308,4.3429,-1,-1,-1,-1,-1,-1,-1,-1,-1,-1
244,4.2426,4.5045,4.3372,4.2062,4.3675,4.2534,4.2534,4.556,4.3107,4.3439,-1,-1,-1,-1,-1,-1,-1,-1,-1,-1
245,4.2434,4.5143,4.3382,4.2062,4.3686,4.2541,4.2549,4.5686,4.3116,4.3497,-1,-1,-1,-1,-1,-1,-1,-1,-1,-1
246,4.2434,4.5229,4.3458,4.209,4.3706,4.2612,4.2565,4.5719,4.3143,4.3526,-1,-1,-1,-1,-1,-1,-1,-1,-1,-1
247,4.2449,4.5229,4.3468,4.2118,4.3706,4.2636,4.2588,4.6021,4.3152,4.3556,-1,-1,-1,-1,-1,-1,-1,-1,-1,-1
248,4.2457,4.5229,4.3516,4.2154,4.3716,4.2644,4.2588,4.6162,4.317,4.3575,-1,-1,-1,-1,-1,-1,-1,-1,-1,-1
249,4.2464,4.5302,4.3546,4.2154,4.3716,4.2652,4.2636,4.6198,4.317,4.3595,-1,-1,-1,-1,-1,-1,-1,-1,-1,-1
250,4.2472,4.5331,4.3575,4.2168,4.3726,4.2652,4.27,4.6216,4.317,4.3605,-1,-1,-1,-1,-1,-1,-1,-1,-1,-1
251,4.248,4.5331,4.3585,4.2182,4.3737,4.2684,4.2716,4.6271,4.3224,4.3696,-1,-1,-1,-1,-1,-1,-1,-1,-1,-1
252,4.2503,4.5406,4.3595,4.2182,4.3757,4.2692,4.2725,4.6289,4.3224,4.3726,-1,-1,-1,-1,-1,-1,-1,-1,-1,-1
253,4.251,4.5452,4.3605,4.2204,4.3768,4.27,4.2725,4.6326,4.3233,4.3737,-1,-1,-1,-1,-1,-1,-1,-1,-1,-1
254,4.2526,4.5544,4.3615,4.2204,4.384,4.2716,4.2741,4.6421,4.3242,4.3747,-1,-1,-1,-1,-1,-1,-1,-1,-1,-1
255,4.2549,4.5622,4.3615,4.2204,4.384,4.2725,4.2765,4.644,4.3288,4.3768,-1,-1,-1,-1,-1,-1,-1,-1,-1,-1
256,4.2565,4.5622,4.3625,4.2248,4.3893,4.2749,4.2774,4.6478,4.3307,4.3778,-1,-1,-1,-1,-1,-1,-1,-1,-1,-1
257,4.262,4.5622,4.3625,4.2277,4.3925,4.2765,4.2823,4.6615,4.3307,4.3809,-1,-1,-1,-1,-1,-1,-1,-1,-1,-1
258,4.262,4.567,4.3625,4.2328,4.3936,4.2765,4.2857,4.6696,4.3316,4.3809,-1,-1,-1,-1,-1,-1,-1,-1,-1,-1
259,4.2636,4.5702,4.3655,4.2336,4.3936,4.2765,4.2857,4.6819,4.3335,4.3862,-1,-1,-1,-1,-1,-1,-1,-1,-1,-1
260,4.266,4.5735,4.3706,4.2366,4.3936,4.2765,4.2865,4.684,4.3335,4.3883,-1,-1,-1,-1,-1,-1,-1,-1,-1,-1
261,4.2676,4.58,4.3716,4.2366,4.3958,4.2823,4.2933,4.6904,4.3344,4.3893,-1,-1,-1,-1,-1,-1,-1,-1,-1,-1
262,4.2676,4.5817,4.3737,4.2373,4.3958,4.2874,4.2933,4.6904,4.3354,4.3904,-1,-1,-1,-1,-1,-1,-1,-1,-1,-1
263,4.2676,4.5834,4.3757,4.2396,4.3979,4.2916,4.2941,4.6968,4.3382,4.3925,-1,-1,-1,-1,-1,-1,-1,-1,-1,-1
264,4.27,4.5834,4.3778,4.2411,4.4034,4.2924,4.2976,4.7055,4.342,4.3958,-1,-1,-1,-1,-1,-1,-1,-1,-1,-1
265,4.27,4.5867,4.384,4.2411,4.4034,4.2933,4.301,4.719,4.3468,4.4034,-1,-1,-1,-1,-1,-1,-1,-1,-1,-1
266,4.27,4.5867,4.3883,4.2418,4.4045,4.2941,4.3028,4.7305,4.3468,4.4168,-1,-1,-1,-1,-1,-1,-1,-1,-1,-1
267,4.2725,4.5935,4.3883,4.2449,4.4045,4.295,4.3036,4.7399,4.3487,4.4168,-1,-1,-1,-1,-1,-1,-1,-1,-1,-1
268,4.2725,4.6073,4.3958,4.2487,4.4056,4.2958,4.3045,4.752,4.3556,4.4168,-1,-1,-1,-1,-1,-1,-1,-1,-1,-1
269,4.2725,4.6108,4.4034,4.2549,4.4056,4.2976,4.3054,4.7545,4.3565,4.4168,-1,-1,-1,-1,-1,-1,-1,-1,-1,-1
270,4.2725,4.6126,4.4056,4.2581,4.4101,4.2984,4.3098,4.7878,4.3575,4.4168,-1,-1,-1,-1,-1,-1,-1,-1,-1,-1
271,4.2725,4.6126,4.4056,4.2604,4.4123,4.2993,4.3116,4.7932,4.3625,4.4168,-1,-1,-1,-1,-1,-1,-1,-1,-1,-1
272,4.2733,4.6216,4.4168,4.2604,4.4157,4.301,4.3152,4.7932,4.3655,4.4168,-1,-1,-1,-1,-1,-1,-1,-1,-1,-1
273,4.2741,4.6216,4.4168,4.2644,4.4157,4.3028,4.3179,4.8069,4.3737,4.4168,-1,-1,-1,-1,-1,-1,-1,-1,-1,-1
274,4.2782,4.6234,4.4179,4.2652,4.4168,4.3036,4.3179,4.8125,4.3757,4.4214,-1,-1,-1,-1,-1,-1,-1,-1,-1,-1
275,4.2782,4.6326,4.4179,4.27,4.4168,4.3036,4.3224,4.8125,4.3778,4.4283,-1,-1,-1,-1,-1,-1,-1,-1,-1,-1
276,4.2865,4.6421,4.4214,4.2757,4.4168,4.3045,4.3261,4.8297,4.3799,4.4365,-1,-1,-1,-1,-1,-1,-1,-1,-1,-1
277,4.2865,4.644,4.4214,4.2765,4.4168,4.3098,4.3261,4.8386,4.3799,4.4486,-1,-1,-1,-1,-1,-1,-1,-1,-1,-1
278,4.2874,4.6459,4.4237,4.2823,4.4168,4.3125,4.3261,4.8508,4.3799,4.4522,-1,-1,-1,-1,-1,-1,-1,-1,-1,-1
279,4.2882,4.6459,4.4237,4.2832,4.4179,4.3125,4.3261,4.8827,4.3799,4.4559,-1,-1,-1,-1,-1,-1,-1,-1,-1,-1
280,4.2899,4.6576,4.4248,4.2865,4.4191,4.3143,4.3261,4.8861,4.383,4.466,-1,-1,-1,-1,-1,-1,-1,-1,-1,-1
281,4.2924,4.6778,4.4283,4.289,4.4202,4.3152,4.3261,4.9136,4.3883,4.4685,-1,-1,-1,-1,-1,-1,-1,-1,-1,-1
282,4.2958,4.6799,4.4283,4.2933,4.4271,4.3161,4.3261,4.9245,4.3893,4.4698,-1,-1,-1,-1,-1,-1,-1,-1,-1,-1
283,4.2976,4.6819,4.433,4.295,4.4318,4.317,4.3363,4.9318,4.3947,4.4737,-1,-1,-1,-1,-1,-1,-1,-1,-1,-1
284,4.2976,4.6904,4.4365,4.2993,4.433,4.3188,4.3372,4.9393,4.3947,4.4868,-1,-1,-1,-1,-1,-1,-1,-1,-1,-1
285,4.301,4.7235,4.4449,4.3002,4.4353,4.3197,4.3372,4.9431,4.3969,4.4868,-1,-1,-1,-1,-1,-1,-1,-1,-1,-1
286,4.301,4.7305,4.4473,4.301,4.4473,4.3224,4.3391,4.9469,4.399,4.4868,-1,-1,-1,-1,-1,-1,-1,-1,-1,-1
287,4.3028,4.7328,4.4486,4.3054,4.4498,4.3233,4.3487,4.9547,4.4001,4.4868,-1,-1,-1,-1,-1,-1,-1,-1,-1,-1
288,4.3028,4.757,4.4522,4.3054,4.4522,4.3242,4.3497,4.9547,4.4023,4.4895,-1,-1,-1,-1,-1,-1,-1,-1,-1,-1
289,4.3036,4.7645,4.4522,4.3107,4.4572,4.3279,4.3526,4.9788,4.4023,4.4921,-1,-1,-1,-1,-1,-1,-1,-1,-1,-1
290,4.3054,4.767,4.4559,4.3116,4.4572,4.3298,4.3556,4.9788,4.4067,4.4989,-1,-1,-1,-1,-1,-1,-1,-1,-1,-1
291,4.3063,4.7721,4.4597,4.3116,4.4584,4.3316,4.3556,4.9872,4.4101,4.5017,-1,-1,-1,-1,-1,-1,-1,-1,-1,-1
292,4.3063,4.7773,4.466,4.3125,4.4597,4.3325,4.3556,5.0395,4.4168,4.5031,-1,-1,-1,-1,-1,-1,-1,-1,-1,-1
293,4.3107,4.7773,4.4698,4.3152,4.466,4.3325,4.3565,5.057,4.4168,4.5045,-1,-1,-1,-1,-1,-1,-1,-1,-1,-1
294,4.3116,4.7905,4.475,4.317,4.4698,4.3335,4.3575,5.0778,4.4168,4.5072,-1,-1,-1,-1,-1,-1,-1,-1,-1,-1
295,4.3152,4.8125,4.4776,4.3233,4.4698,4.3363,4.3605,5.083,4.4168,4.51,-1,-1,-1,-1,-1,-1,-1,-1,-1,-1
296,4.3152,4.8153,4.4802,4.3251,4.4802,4.3391,4.3625,5.0867,4.4179,4.5243,-1,-1,-1,-1,-1,-1,-1,-1,-1,-1
297,4.3152,4.821,4.4802,4.327,4.4855,4.3391,4.3655,5.0878,4.4179,4.5317,-1,-1,-1,-1,-1,-1,-1,-1,-1,-1
298,4.3161,4.8416,4.4815,4.3288,4.4895,4.3401,4.3655,5.091,4.4202,4.5376,-1,-1,-1,-1,-1,-1,-1,-1,-1,-1
299,4.317,4.8447,4.4828,4.3307,4.4989,4.3478,4.3655,5.0931,4.4237,4.5421,-1,-1,-1,-1,-1,-1,-1,-1,-1,-1
300,4.3179,4.8601,4.4828,4.3335,4.5003,4.3497,4.3665,5.1226,4.4237,4.5467,-1,-1,-1,-1,-1,-1,-1,-1,-1,-1
301,4.3215,4.8665,4.4841,4.3391,4.5003,4.3507,4.3675,5.1296,4.4318,4.5544,-1,-1,-1,-1,-1,-1,-1,-1,-1,-1
302,4.3215,4.8794,4.4841,4.3391,4.5031,4.3516,4.3675,5.1308,4.4413,4.5591,-1,-1,-1,-1,-1,-1,-1,-1,-1,-1
303,4.3224,4.8928,4.4855,4.342,4.5086,4.3526,4.3686,5.1463,4.4461,4.5638,-1,-1,-1,-1,-1,-1,-1,-1,-1,-1
304,4.3242,4.8962,4.4895,4.3449,4.5114,4.3546,4.3686,5.1624,4.4461,4.5638,-1,-1,-1,-1,-1,-1,-1,-1,-1,-1
305,4.3279,4.9066,4.4895,4.3449,4.5129,4.3546,4.3686,5.1624,4.4473,4.5654,-1,-1,-1,-1,-1,-1,-1,-1,-1,-1
306,4.3298,4.9245,4.4921,4.3536,4.5129,4.3556,4.3726,5.1972,4.4559,4.5768,-1,-1,-1,-1,-1,-1,-1,-1,-1,-1
307,4.3307,4.9469,4.4921,4.3585,4.5143,4.3556,4.3737,5.1972,4.4559,4.58,-1,-1,-1,-1,-1,-1,-1,-1,-1,-1
308,4.3307,4.9469,4.4949,4.3605,4.5171,4.3575,4.3747,5.2055,4.4559,4.5817,-1,-1,-1,-1,-1,-1,-1,-1,-1,-1
309,4.3307,4.9666,4.4989,4.3625,4.5186,4.3575,4.3768,5.2351,4.4584,4.5834,-1,-1,-1,-1,-1,-1,-1,-1,-1,-1
310,4.3307,4.9706,4.5017,4.3625,4.5214,4.3585,4.3788,5.266,4.4609,4.585,-1,-1,-1,-1,-1,-1,-1,-1,-1,-1
311,4.3307,5.0114,4.5017,4.3645,4.5214,4.3625,4.3851,5.2958,4.4647,4.5918,-1,-1,-1,-1,-1,-1,-1,-1,-1,-1
312,4.3307,5.0467,4.5031,4.3696,4.5229,4.3625,4.3883,5.3335,4.4685,4.5918,-1,-1,-1,-1,-1,-1,-1,-1,-1,-1
313,4.3307,5.0467,4.5045,4.3696,4.5243,4.3625,4.3883,5.3862,4.4685,4.5969,-1,-1,-1,-1,-1,-1,-1,-1,-1,-1
314,4.3307,5.0467,4.51,4.382,4.5272,4.3635,4.3893,5.3904,4.4763,4.6003,-1,-1,-1,-1,-1,-1,-1,-1,-1,-1
315,4.3307,5.0747,4.5114,4.383,4.5376,4.3655,4.3979,5.3936,4.4789,4.6038,-1,-1,-1,-1,-1,-1,-1,-1,-1,-1
316,4.3307,5.1002,4.5129,4.3883,4.5376,4.3665,4.4001,5.4724,4.4802,4.6091,-1,-1,-1,-1,-1,-1,-1,-1,-1,-1
317,4.3307,5.118,4.5287,4.4001,4.5391,4.3706,4.4001,5.4737,4.4855,4.6108,-1,-1,-1,-1,-1,-1,-1,-1,-1,-1
318,4.3307,5.1284,4.5317,4.4045,4.5391,4.3716,4.4023,5.4962,4.4855,4.6108,-1,-1,-1,-1,-1,-1,-1,-1,-1,-1
319,4.3307,5.1361,4.5331,4.4089,4.5421,4.3716,4.4023,5.6003,4.4855,4.6144,-1,-1,-1,-1,-1,-1,-1,-1,-1,-1
320,4.3307,5.1512,4.5331,4.4089,4.5467,4.3778,4.4045,5.6091,4.4881,4.6144,-1,-1,-1,-1,-1,-1,-1,-1,-1,-1
321,4.3307,5.1871,4.5361,4.4134,4.5513,4.3778,4.4123,5.6198,4.4908,4.6144,-1,-1,-1,-1,-1,-1,-1,-1,-1,-1
322,4.3344,5.2284,4.5376,4.4157,4.5513,4.382,4.4145,5.6716,4.4921,4.6216,-1,-1,-1,-1,-1,-1,-1,-1,-1,-1
323,4.3363,5.2434,4.5391,4.4295,4.5528,4.3851,4.4168,5.6882,4.4921,4.6216,-1,-1,-1,-1,-1,-1,-1,-1,-1,-1
324,4.3382,5.3098,4.5391,4.4318,4.5719,4.3862,4.4168,5.7645,4.4976,4.6216,-1,-1,-1,-1,-1,-1,-1,-1,-1,-1
325,4.3391,5.3401,4.5467,4.4318,4.5784,4.3872,4.4202,5.7773,4.4976,4.6596,-1,-1,-1,-1,-1,-1,-1,-1,-1,-1
326,4.3391,5.3757,4.5467,4.4353,4.5784,4.3883,4.4214,5.7932,4.5045,4.6615,-1,-1,-1,-1,-1,-1,-1,-1,-1,-1
327,4.3391,5.3809,4.5482,4.4377,4.5867,4.3904,4.4225,5.8153,4.5045,4.6696,-1,-1,-1,-1,-1,-1,-1,-1,-1,-1
328,4.3401,5.4248,4.5513,4.4413,4.5918,4.3915,4.4225,5.8794,4.5045,4.6799,-1,-1,-1,-1,-1,-1,-1,-1,-1,-1
329,4.3401,5.4949,4.5544,4.4498,4.5918,4.3947,4.4237,5.9747,4.5157,4.6799,-1,-1,-1,-1,-1,-1,-1,-1,-1,-1
330,4.3439,5.5017,4.5544,4.451,4.5918,4.3947,4.4248,6.1273,4.5214,4.684,-1,-1,-1,-1,-1,-1,-1,-1,-1,-1
331,4.3458,5.5302,4.556,4.466,4.5935,4.399,4.4271,6.3089,4.5302,4.684,-1,-1,-1,-1,-1,-1,-1,-1,-1,-1
332,4.3468,5.5735,4.5591,4.4672,4.5935,4.4023,4.4318,6.3565,4.5302,4.6861,-1,-1,-1,-1,-1,-1,-1,-1,-1,-1
333,4.3487,5.6882,4.5638,4.4763,4.6021,4.4056,4.4318,6.7122,4.5361,4.6882,-1,-1,-1,-1,-1,-1,-1,-1,-1,-1
334,4.3497,5.6882,4.5654,4.4763,4.6021,4.4056,4.4353,6.7122,4.5361,4.6904,-1,-1,-1,-1,-1,-1,-1,-1,-1,-1
335,4.3497,5.7011,4.567,4.4802,4.6055,4.4067,4.4425,7.3354,4.5376,4.699,-1,-1,-1,-1,-1,-1,-1,-1,-1,-1
336,4.3516,5.7932,4.5686,4.4828,4.6216,4.4067,4.4437,7.4855,4.5436,4.7011,-1,-1,-1,-1,-1,-1,-1,-1,-1,-1
337,4.3536,5.8097,4.5719,4.4828,4.6216,4.4078,4.4449,7.8097,4.5513,4.7011,-1,-1,-1,-1,-1,-1,-1,-1,-1,-1
338,4.3546,6.1331,4.5735,4.4855,4.6216,4.4123,4.4486,7.9469,4.5544,4.7055,-1,-1,-1,-1,-1,-1,-1,-1,-1,-1
339,4.3546,6.3344,4.5735,4.4895,4.6271,4.4123,4.4486,7.9469,4.5591,4.71,-1,-1,-1,-1,-1,-1,-1,-1,-1,-1
340,4.3565,6.6882,4.5784,4.4989,4.6364,4.4123,4.4498,8.2226,4.5591,4.7167,-1,-1,-1,-1,-1,-1,-1,-1,-1,-1
341,4.3575,6.7852,4.5867,4.5157,4.6402,4.4134,4.4522,8.6778,4.5638,4.7212,-1,-1,-1,-1,-1,-1,-1,-1,-1,-1
342,4.3575,7.3152,4.5867,4.5186,4.6478,4.4168,4.4522,-1,4.567,4.7258,-1,-1,-1,-1,-1,-1,-1,-1,-1,-1
343,4.3595,-1,4.5901,4.5243,4.6478,4.4168,4.4572,-1,4.567,4.7328,-1,-1,-1,-1,-1,-1,-1,-1,-1,-1
344,4.3595,-1,4.5901,4.5243,4.6498,4.4168,4.4572,-1,4.5702,4.7328,-1,-1,-1,-1,-1,-1,-1,-1,-1,-1
345,4.3595,-1,4.5918,4.5317,4.6635,4.4168,4.4622,-1,4.5735,4.7352,-1,-1,-1,-1,-1,-1,-1,-1,-1,-1
346,4.3605,-1,4.5969,4.5317,4.6635,4.4179,4.4622,-1,4.5735,4.7447,-1,-1,-1,-1,-1,-1,-1,-1,-1,-1
347,4.3615,-1,4.5986,4.5391,4.6716,4.4214,4.4634,-1,4.5735,4.752,-1,-1,-1,-1,-1,-1,-1,-1,-1,-1
348,4.3635,-1,4.6021,4.5467,4.6778,4.4225,4.4672,-1,4.5817,4.757,-1,-1,-1,-1,-1,-1,-1,-1,-1,-1
349,4.3635,-1,4.6126,4.5513,4.6861,4.4225,4.4685,-1,4.5935,4.762,-1,-1,-1,-1,-1,-1,-1,-1,-1,-1
350,4.3635,-1,4.6126,4.5735,4.6882,4.4225,4.4698,-1,4.5952,4.767,-1,-1,-1,-1,-1,-1,-1,-1,-1,-1
351,4.3655,-1,4.6126,4.5834,4.6925,4.4271,4.4711,-1,4.6108,4.7696,-1,-1,-1,-1,-1,-1,-1,-1,-1,-1
352,4.3655,-1,4.618,4.5986,4.6946,4.4486,4.4737,-1,4.6108,4.7825,-1,-1,-1,-1,-1,-1,-1,-1,-1,-1
353,4.3665,-1,4.6234,4.6126,4.6968,4.451,4.4789,-1,4.6144,4.7852,-1,-1,-1,-1,-1,-1,-1,-1,-1,-1
354,4.3675,-1,4.6289,4.6216,4.699,4.4522,4.4802,-1,4.6144,4.7905,-1,-1,-1,-1,-1,-1,-1,-1,-1,-1
355,4.3726,-1,4.6308,4.6459,4.7122,4.4535,4.4815,-1,4.6216,4.7959,-1,-1,-1,-1,-1,-1,-1,-1,-1,-1
356,4.3726,-1,4.6326,4.6498,4.7122,4.4547,4.4895,-1,4.6289,4.7986,-1,-1,-1,-1,-1,-1,-1,-1,-1,-1
357,4.3726,-1,4.6383,4.6517,4.719,4.4547,4.4908,-1,4.6308,4.7986,-1,-1,-1,-1,-1,-1,-1,-1,-1,-1
358,4.3726,-1,4.644,4.6576,4.7212,4.4572,4.4935,-1,4.6364,4.8013,-1,-1,-1,-1,-1,-1,-1,-1,-1,-1
359,4.3737,-1,4.644,4.6596,4.7212,4.4609,4.4949,-1,4.6421,4.8097,-1,-1,-1,-1,-1,-1,-1,-1,-1,-1
360,4.3757,-1,4.6478,4.6635,4.7258,4.4622,4.4962,-1,4.6421,4.8097,-1,-1,-1,-1,-1,-1,-1,-1,-1,-1
361,4.3809,-1,4.6536,4.6696,4.7305,4.4622,4.5017,-1,4.6576,4.8097,-1,-1,-1,-1,-1,-1,-1,-1,-1,-1
362,4.3851,-1,4.6596,4.6757,4.7328,4.4634,4.5045,-1,4.6576,4.8097,-1,-1,-1,-1,-1,-1,-1,-1,-1,-1
363,4.3851,-1,4.6596,4.6778,4.7399,4.4672,4.5157,-1,4.6635,4.8239,-1,-1,-1,-1,-1,-1,-1,-1,-1,-1
364,4.3872,-1,4.6615,4.6819,4.7496,4.4672,4.5229,-1,4.6676,4.8327,-1,-1,-1,-1,-1,-1,-1,-1,-1,-1
365,4.3872,-1,4.6757,4.6882,4.762,4.4698,4.5272,-1,4.6696,4.8477,-1,-1,-1,-1,-1,-1,-1,-1,-1,-1
366,4.3872,-1,4.6799,4.6904,4.7696,4.4698,4.5272,-1,4.6716,4.8539,-1,-1,-1,-1,-1,-1,-1,-1,-1,-1
367,4.3883,-1,4.6925,4.7011,4.7747,4.4711,4.5331,-1,4.6778,4.8539,-1,-1,-1,-1,-1,-1,-1,-1,-1,-1
368,4.4001,-1,4.6946,4.7055,4.7905,4.4711,4.5331,-1,4.6778,4.8633,-1,-1,-1,-1,-1,-1,-1,-1,-1,-1
369,4.4012,-1,4.7011,4.719,4.7986,4.4724,4.5331,-1,4.6925,4.8794,-1,-1,-1,-1,-1,-1,-1,-1,-1,-1
370,4.4012,-1,4.7055,4.7258,4.7986,4.4737,4.5331,-1,4.6946,4.8962,-1,-1,-1,-1,-1,-1,-1,-1,-1,-1
371,4.4045,-1,4.7077,4.7282,4.8069,4.4737,4.5376,-1,4.7011,4.9031,-1,-1,-1,-1,-1,-1,-1,-1,-1,-1
372,4.4056,-1,4.7122,4.7305,4.8097,4.4763,4.5376,-1,4.71,4.9066,-1,-1,-1,-1,-1,-1,-1,-1,-1,-1
373,4.4056,-1,4.7144,4.7352,4.8153,4.4802,4.5391,-1,4.7122,4.9066,-1,-1,-1,-1,-1,-1,-1,-1,-1,-1
374,4.4056,-1,4.719,4.7423,4.8182,4.4855,4.5406,-1,4.7167,4.9318,-1,-1,-1,-1,-1,-1,-1,-1,-1,-1
375,4.4067,-1,4.7258,4.752,4.8182,4.4935,4.5421,-1,4.7167,4.9393,-1,-1,-1,-1,-1,-1,-1,-1,-1,-1
376,4.4134,-1,4.7282,4.7645,4.8239,4.4949,4.5513,-1,4.7282,4.9469,-1,-1,-1,-1,-1,-1,-1,-1,-1,-1
377,4.4145,-1,4.7328,4.7799,4.8268,4.5045,4.5528,-1,4.7352,4.9788,-1,-1,-1,-1,-1,-1,-1,-1,-1,-1
378,4.4168,-1,4.7352,4.7932,4.8297,4.5129,4.5575,-1,4.7375,5.0035,-1,-1,-1,-1,-1,-1,-1,-1,-1,-1
379,4.4225,-1,4.7352,4.8041,4.8327,4.5214,4.5622,-1,4.7545,5.0128,-1,-1,-1,-1,-1,-1,-1,-1,-1,-1
380,4.4248,-1,4.7352,4.8153,4.8327,4.5214,4.567,-1,4.762,5.0292,-1,-1,-1,-1,-1,-1,-1,-1,-1,-1
381,4.4283,-1,4.7423,4.8153,4.8416,4.5272,4.5686,-1,4.7645,5.041,-1,-1,-1,-1,-1,-1,-1,-1,-1,-1
382,4.4377,-1,4.7423,4.8508,4.8447,4.5272,4.5686,-1,4.7721,5.0615,-1,-1,-1,-1,-1,-1,-1,-1,-1,-1
383,4.4437,-1,4.757,4.857,4.8477,4.5272,4.5719,-1,4.7747,5.0625,-1,-1,-1,-1,-1,-1,-1,-1,-1,-1
384,4.4437,-1,4.762,4.857,4.8508,4.5272,4.5719,-1,4.7852,5.0625,-1,-1,-1,-1,-1,-1,-1,-1,-1,-1
385,4.4522,-1,4.7799,4.8761,4.857,4.5331,4.5735,-1,4.7932,5.0625,-1,-1,-1,-1,-1,-1,-1,-1,-1,-1
386,4.4547,-1,4.7852,4.8861,4.8633,4.5331,4.5768,-1,4.7986,5.0706,-1,-1,-1,-1,-1,-1,-1,-1,-1,-1
387,4.4572,-1,4.7986,4.8962,4.8665,4.5346,4.58,-1,4.7986,5.0757,-1,-1,-1,-1,-1,-1,-1,-1,-1,-1
388,4.4597,-1,4.8013,4.9245,4.8729,4.5361,4.585,-1,4.8041,5.083,-1,-1,-1,-1,-1,-1,-1,-1,-1,-1
389,4.4597,-1,4.8097,4.9318,4.8761,4.5376,4.585,-1,4.8097,5.0857,-1,-1,-1,-1,-1,-1,-1,-1,-1,-1
390,4.4634,-1,4.8182,4.9431,4.8761,4.5406,4.585,-1,4.8097,5.0942,-1,-1,-1,-1,-1,-1,-1,-1,-1,-1
391,4.4634,-1,4.8182,4.9747,4.8761,4.5421,4.5867,-1,4.8153,5.1068,-1,-1,-1,-1,-1,-1,-1,-1,-1,-1
392,4.4647,-1,4.8239,4.983,4.8761,4.5513,4.5935,-1,4.8153,5.1451,-1,-1,-1,-1,-1,-1,-1,-1,-1,-1
393,4.4685,-1,4.8297,4.9872,4.8928,4.5544,4.5935,-1,4.8182,5.1871,-1,-1,-1,-1,-1,-1,-1,-1,-1,-1
394,4.4685,-1,4.8356,5.0079,4.8928,4.5575,4.6003,-1,4.8182,5.1952,-1,-1,-1,-1,-1,-1,-1,-1,-1,-1
395,4.4737,-1,4.8386,5.0128,4.8962,4.5638,4.6055,-1,4.8268,5.1952,-1,-1,-1,-1,-1,-1,-1,-1,-1,-1
396,4.475,-1,4.8416,5.0218,4.9136,4.5784,4.6073,-1,4.8297,5.1965,-1,-1,-1,-1,-1,-1,-1,-1,-1,-1
397,4.475,-1,4.8508,5.0625,4.9172,4.5834,4.6073,-1,4.8697,5.1986,-1,-1,-1,-1,-1,-1,-1,-1,-1,-1
398,4.475,-1,4.8601,5.0731,4.9208,4.5834,4.6073,-1,4.8697,5.219,-1,-1,-1,-1,-1,-1,-1,-1,-1,-1
399,4.4789,-1,4.8729,5.0747,4.9469,4.585,4.6073,-1,4.8729,5.2204,-1,-1,-1,-1,-1,-1,-1,-1,-1,-1
400,4.4802,-1,4.8861,5.0931,4.9706,4.5918,4.6108,-1,4.8761,5.2306,-1,-1,-1,-1,-1,-1,-1,-1,-1,-1
401,4.4828,-1,4.8861,5.1079,4.9957,4.5935,4.618,-1,4.8861,5.248,-1,-1,-1,-1,-1,-1,-1,-1,-1,-1
402,4.4828,-1,4.8894,5.1624,5.0092,4.5952,4.6271,-1,4.8894,5.2815,-1,-1,-1,-1,-1,-1,-1,-1,-1,-1
403,4.4855,-1,4.8996,5.1624,5.025,4.6108,4.6383,-1,4.8962,5.2823,-1,-1,-1,-1,-1,-1,-1,-1,-1,-1
404,4.4881,-1,4.9031,5.1898,5.0467,4.6108,4.6459,-1,4.8962,5.2857,-1,-1,-1,-1,-1,-1,-1,-1,-1,-1
405,4.4895,-1,4.9136,5.1965,5.0526,4.6108,4.6478,-1,4.8996,5.2993,-1,-1,-1,-1,-1,-1,-1,-1,-1,-1
406,4.4895,-1,4.9172,5.2204,5.0555,4.6144,4.6498,-1,4.9066,5.3179,-1,-1,-1,-1,-1,-1,-1,-1,-1,-1
407,4.4908,-1,4.9208,5.2204,5.0615,4.6144,4.6556,-1,4.9101,5.3215,-1,-1,-1,-1,-1,-1,-1,-1,-1,-1
408,4.4935,-1,4.9281,5.3335,5.0625,4.6198,4.6576,-1,4.9172,5.3288,-1,-1,-1,-1,-1,-1,-1,-1,-1,-1
409,4.4989,-1,4.9393,5.3363,5.0625,4.6253,4.6615,-1,4.9281,5.3401,-1,-1,-1,-1,-1,-1,-1,-1,-1,-1
410,4.5072,-1,4.9431,5.3757,5.0778,4.6271,4.6615,-1,4.9431,5.3605,-1,-1,-1,-1,-1,-1,-1,-1,-1,-1
411,4.5072,-1,4.9508,5.4895,5.0857,4.6326,4.6737,-1,4.9508,5.3757,-1,-1,-1,-1,-1,-1,-1,-1,-1,-1
412,4.5086,-1,4.9586,5.5017,5.1385,4.6364,4.6757,-1,4.9706,5.4522,-1,-1,-1,-1,-1,-1,-1,-1,-1,-1
413,4.51,-1,4.9626,5.6882,5.1397,4.6459,4.6757,-1,4.9788,5.4763,-1,-1,-1,-1,-1,-1,-1,-1,-1,-1
414,4.5143,-1,4.983,5.699,5.1409,4.6635,4.6757,-1,4.9872,5.4868,-1,-1,-1,-1,-1,-1,-1,-1,-1,-1
415,4.5157,-1,5.0,5.762,5.2013,4.6635,4.6778,-1,4.9872,5.4989,-1,-1,-1,-1,-1,-1,-1,-1,-1,-1
416,4.5171,-1,5.0114,5.9245,5.2034,4.6655,4.6799,-1,5.0329,5.5003,-1,-1,-1,-1,-1,-1,-1,-1,-1,-1
417,4.5186,-1,5.0306,6.214,5.2041,4.6696,4.6882,-1,5.0395,5.5482,-1,-1,-1,-1,-1,-1,-1,-1,-1,-1
418,4.5214,-1,5.0443,6.2716,5.2147,4.6696,4.6968,-1,5.0424,5.6021,-1,-1,-1,-1,-1,-1,-1,-1,-1,-1
419,4.5214,-1,5.0625,6.4486,5.2373,4.6716,4.7011,-1,5.0535,5.6326,-1,-1,-1,-1,-1,-1,-1,-1,-1,-1
420,4.5243,-1,5.0625,6.4711,5.2848,4.6737,4.7011,-1,5.0625,5.6882,-1,-1,-1,-1,-1,-1,-1,-1,-1,-1
421,4.5272,-1,5.0799,6.8268,5.2941,4.684,4.7011,-1,5.0778,5.6882,-1,-1,-1,-1,-1,-1,-1,-1,-1,-1
422,4.5287,-1,5.0857,7.0419,5.3072,4.6861,4.7033,-1,5.082,5.6882,-1,-1,-1,-1,-1,-1,-1,-1,-1,-1
423,4.5302,-1,5.0878,7.2104,5.3556,4.6904,4.7055,-1,5.0867,5.6882,-1,-1,-1,-1,-1,-1,-1,-1,-1,-1
424,4.5331,-1,5.118,7.3645,5.3556,4.7033,4.7055,-1,5.1238,5.6882,-1,-1,-1,-1,-1,-1,-1,-1,-1,-1
425,4.5361,-1,5.1198,7.3958,5.3556,4.7033,4.7077,-1,5.1397,5.7077,-1,-1,-1,-1,-1,-1,-1,-1,-1,-1
426,4.5421,-1,5.15,7.51,5.383,4.7055,4.7077,-1,5.1409,5.7167,-1,-1,-1,-1,-1,-1,-1,-1,-1,-1
427,4.5436,-1,5.2147,7.5391,5.4078,4.71,4.7122,-1,5.2076,5.7305,-1,-1,-1,-1,-1,-1,-1,-1,-1,-1
428,4.5452,-1,5.2541,7.5391,5.4237,4.7212,4.719,-1,5.219,5.7447,-1,-1,-1,-1,-1,-1,-1,-1,-1,-1
429,4.5467,-1,5.289,7.5784,5.4498,4.7212,4.7282,-1,5.2765,5.7825,-1,-1,-1,-1,-1,-1,-1,-1,-1,-1
430,4.5513,-1,5.3036,8.1831,5.4802,4.7258,4.7352,-1,5.2857,5.7986,-1,-1,-1,-1,-1,-1,-1,-1,-1,-1
431,4.5638,-1,5.3224,8.2182,5.5391,4.7282,4.7447,-1,5.2882,5.8894,-1,-1,-1,-1,-1,-1,-1,-1,-1,-1
432,4.5817,-1,5.3354,-1,5.6108,4.7328,4.7471,-1,5.2916,6.0348,-1,-1,-1,-1,-1,-1,-1,-1,-1,-1
433,4.585,-1,5.3497,-1,5.6345,4.7352,4.7471,-1,5.3179,6.0453,-1,-1,-1,-1,-1,-1,-1,-1,-1,-1
434,4.585,-1,5.3904,-1,5.6421,4.7352,4.7471,-1,5.3242,6.0526,-1,-1,-1,-1,-1,-1,-1,-1,-1,-1
435,4.585,-1,5.4179,-1,5.6882,4.7352,4.752,-1,5.3325,6.1379,-1,-1,-1,-1,-1,-1,-1,-1,-1,-1
436,4.5918,-1,5.4225,-1,5.6882,4.7399,4.7545,-1,5.3335,6.2418,-1,-1,-1,-1,-1,-1,-1,-1,-1,-1
437,4.6003,-1,5.4318,-1,5.6882,4.7545,4.762,-1,5.3354,6.3344,-1,-1,-1,-1,-1,-1,-1,-1,-1,-1
438,4.6091,-1,5.4609,-1,5.7282,4.757,4.767,-1,5.3401,6.3536,-1,-1,-1,-1,-1,-1,-1,-1,-1,-1
439,4.6126,-1,5.4622,-1,5.7305,4.757,4.7721,-1,5.3497,6.3565,-1,-1,-1,-1,-1,-1,-1,-1,-1,-1
440,4.6126,-1,5.4776,-1,5.7305,4.7645,4.7747,-1,5.3585,6.4134,-1,-1,-1,-1,-1,-1,-1,-1,-1,-1
441,4.6198,-1,5.4921,-1,5.7305,4.767,4.7852,-1,5.383,6.4318,-1,-1,-1,-1,-1,-1,-1,-1,-1,-1
442,4.6289,-1,5.5186,-1,5.7305,4.7721,4.7905,-1,5.3925,6.4802,-1,-1,-1,-1,-1,-1,-1,-1,-1,-1
443,4.6289,-1,5.52,-1,5.8297,4.7799,4.7932,-1,5.3958,6.5072,-1,-1,-1,-1,-1,-1,-1,-1,-1,-1
444,4.6308,-1,5.5918,-1,5.9706,4.7932,4.7932,-1,5.4001,6.6676,-1,-1,-1,-1,-1,-1,-1,-1,-1,-1
445,4.6326,-1,5.6144,-1,5.9872,4.8041,4.8041,-1,5.4881,6.6676,-1,-1,-1,-1,-1,-1,-1,-1,-1,-1
446,4.6345,-1,5.6882,-1,6.3401,4.8069,4.821,-1,5.4949,6.6676,-1,-1,-1,-1,-1,-1,-1,-1,-1,-1
447,4.6478,-1,5.7167,-1,6.3565,4.8153,4.8268,-1,5.5017,6.7122,-1,-1,-1,-1,-1,-1,-1,-1,-1,-1
448,4.6556,-1,5.7305,-1,6.3565,4.8153,4.8297,-1,5.5186,6.7122,-1,-1,-1,-1,-1,-1,-1,-1,-1,-1
449,4.6576,-1,5.7375,-1,6.3936,4.8268,4.8356,-1,5.5406,6.7122,-1,-1,-1,-1,-1,-1,-1,-1,-1,-1
450,4.6596,-1,5.9136,-1,6.5072,4.8268,4.8508,-1,5.5834,6.7122,-1,-1,-1,-1,-1,-1,-1,-1,-1,-1
451,4.6696,-1,6.058,-1,6.5768,4.8416,4.8601,-1,5.6383,6.7122,-1,-1,-1,-1,-1,-1,-1,-1,-1,-1
452,4.6696,-1,6.0701,-1,6.6676,4.8447,4.8665,-1,5.6882,6.7122,-1,-1,-1,-1,-1,-1,-1,-1,-1,-1
453,4.6716,-1,6.0862,-1,6.6925,4.8477,4.8697,-1,5.6882,6.7122,-1,-1,-1,-1,-1,-1,-1,-1,-1,-1
454,4.6737,-1,6.0862,-1,6.7122,4.8508,4.8729,-1,5.6882,6.7122,-1,-1,-1,-1,-1,-1,-1,-1,-1,-1
455,4.6882,-1,6.262,-1,6.7122,4.8508,4.8794,-1,5.6882,6.7122,-1,-1,-1,-1,-1,-1,-1,-1,-1,-1
456,4.6946,-1,6.4949,-1,6.7122,4.8761,4.8894,-1,5.7305,6.7852,-1,-1,-1,-1,-1,-1,-1,-1,-1,-1
457,4.7011,-1,6.5114,-1,6.7122,4.8861,4.8928,-1,5.7328,6.7852,-1,-1,-1,-1,-1,-1,-1,-1,-1,-1
458,4.7055,-1,6.5768,-1,6.7122,4.9172,4.8928,-1,5.7932,7.0716,-1,-1,-1,-1,-1,-1,-1,-1,-1,-1
459,4.7077,-1,6.6676,-1,6.7122,4.9208,4.8962,-1,5.8416,7.2449,-1,-1,-1,-1,-1,-1,-1,-1,-1,-1
460,4.7077,-1,6.6925,-1,6.7122,4.9281,4.9066,-1,5.8416,-1,-1,-1,-1,-1,-1,-1,-1,-1,-1,-1
461,4.71,-1,6.7122,-1,6.7122,4.9355,4.9066,-1,5.8794,-1,-1,-1,-1,-1,-1,-1,-1,-1,-1,-1
462,4.7167,-1,6.7122,-1,6.7122,4.9355,4.9066,-1,6.202,-1,-1,-1,-1,-1,-1,-1,-1,-1,-1,-1
463,4.7167,-1,6.7122,-1,6.7122,4.9393,4.9136,-1,6.4949,-1,-1,-1,-1,-1,-1,-1,-1,-1,-1,-1
464,4.7235,-1,6.7122,-1,6.7122,4.9431,4.9136,-1,6.6676,-1,-1,-1,-1,-1,-1,-1,-1,-1,-1,-1
465,4.7305,-1,6.7122,-1,6.7122,4.9547,4.9355,-1,6.7122,-1,-1,-1,-1,-1,-1,-1,-1,-1,-1,-1
466,4.7305,-1,6.7122,-1,6.7122,4.9547,4.9469,-1,6.7122,-1,-1,-1,-1,-1,-1,-1,-1,-1,-1,-1
467,4.7352,-1,6.7122,-1,6.7122,4.9666,4.9666,-1,6.7122,-1,-1,-1,-1,-1,-1,-1,-1,-1,-1,-1
468,4.7352,-1,6.7122,-1,6.7122,4.9666,4.9706,-1,6.7122,-1,-1,-1,-1,-1,-1,-1,-1,-1,-1,-1
469,4.7375,-1,6.7122,-1,6.7122,4.9747,4.9706,-1,6.7122,-1,-1,-1,-1,-1,-1,-1,-1,-1,-1,-1
470,4.7375,-1,6.7122,-1,6.7122,4.9872,4.9706,-1,6.7852,-1,-1,-1,-1,-1,-1,-1,-1,-1,-1,-1
471,4.7399,-1,6.7122,-1,6.7852,4.9914,4.9706,-1,6.7852,-1,-1,-1,-1,-1,-1,-1,-1,-1,-1,-1
472,4.7471,-1,6.7122,-1,6.7852,4.9914,4.9747,-1,-1,-1,-1,-1,-1,-1,-1,-1,-1,-1,-1,-1
473,4.7471,-1,6.7122,-1,6.9547,4.9957,4.9788,-1,-1,-1,-1,-1,-1,-1,-1,-1,-1,-1,-1,-1
474,4.752,-1,6.7852,-1,-1,5.0035,4.983,-1,-1,-1,-1,-1,-1,-1,-1,-1,-1,-1,-1,-1
475,4.7595,-1,6.9547,-1,-1,5.0035,5.0,-1,-1,-1,-1,-1,-1,-1,-1,-1,-1,-1,-1,-1
476,4.762,-1,-1,-1,-1,5.0106,5.0092,-1,-1,-1,-1,-1,-1,-1,-1,-1,-1,-1,-1,-1
477,4.762,-1,-1,-1,-1,5.0128,5.0106,-1,-1,-1,-1,-1,-1,-1,-1,-1,-1,-1,-1,-1
478,4.7721,-1,-1,-1,-1,5.0227,5.0227,-1,-1,-1,-1,-1,-1,-1,-1,-1,-1,-1,-1,-1
479,4.7799,-1,-1,-1,-1,5.0237,5.025,-1,-1,-1,-1,-1,-1,-1,-1,-1,-1,-1,-1,-1
480,4.7852,-1,-1,-1,-1,5.0315,5.0339,-1,-1,-1,-1,-1,-1,-1,-1,-1,-1,-1,-1,-1
481,4.7852,-1,-1,-1,-1,5.0467,5.0625,-1,-1,-1,-1,-1,-1,-1,-1,-1,-1,-1,-1,-1
482,4.7986,-1,-1,-1,-1,5.0477,5.065,-1,-1,-1,-1,-1,-1,-1,-1,-1,-1,-1,-1,-1
483,4.7986,-1,-1,-1,-1,5.0615,5.0685,-1,-1,-1,-1,-1,-1,-1,-1,-1,-1,-1,-1,-1
484,4.8041,-1,-1,-1,-1,5.065,5.0857,-1,-1,-1,-1,-1,-1,-1,-1,-1,-1,-1,-1,-1
485,4.8041,-1,-1,-1,-1,5.0706,5.0878,-1,-1,-1,-1,-1,-1,-1,-1,-1,-1,-1,-1,-1
486,4.8125,-1,-1,-1,-1,5.0706,5.0969,-1,-1,-1,-1,-1,-1,-1,-1,-1,-1,-1,-1,-1
487,4.8153,-1,-1,-1,-1,5.0778,5.098,-1,-1,-1,-1,-1,-1,-1,-1,-1,-1,-1,-1,-1
488,4.821,-1,-1,-1,-1,5.0899,5.1325,-1,-1,-1,-1,-1,-1,-1,-1,-1,-1,-1,-1,-1
489,4.8239,-1,-1,-1,-1,5.0991,5.1593,-1,-1,-1,-1,-1,-1,-1,-1,-1,-1,-1,-1,-1
490,4.8297,-1,-1,-1,-1,5.0991,5.1931,-1,-1,-1,-1,-1,-1,-1,-1,-1,-1,-1,-1,-1
491,4.8297,-1,-1,-1,-1,5.1002,5.1972,-1,-1,-1,-1,-1,-1,-1,-1,-1,-1,-1,-1,-1
492,4.8386,-1,-1,-1,-1,5.1146,5.2,-1,-1,-1,-1,-1,-1,-1,-1,-1,-1,-1,-1,-1
493,4.8416,-1,-1,-1,-1,5.1273,5.2076,-1,-1,-1,-1,-1,-1,-1,-1,-1,-1,-1,-1,-1
494,4.8447,-1,-1,-1,-1,5.1308,5.209,-1,-1,-1,-1,-1,-1,-1,-1,-1,-1,-1,-1,-1
495,4.8477,-1,-1,-1,-1,5.1463,5.2104,-1,-1,-1,-1,-1,-1,-1,-1,-1,-1,-1,-1,-1
496,4.8477,-1,-1,-1,-1,5.1475,5.2262,-1,-1,-1,-1,-1,-1,-1,-1,-1,-1,-1,-1,-1
497,4.8539,-1,-1,-1,-1,5.1518,5.2343,-1,-1,-1,-1,-1,-1,-1,-1,-1,-1,-1,-1,-1
498,4.8539,-1,-1,-1,-1,5.153,5.2351,-1,-1,-1,-1,-1,-1,-1,-1,-1,-1,-1,-1,-1
499,4.857,-1,-1,-1,-1,5.1543,5.2366,-1,-1,-1,-1,-1,-1,-1,-1,-1,-1,-1,-1,-1
500,4.8665,-1,-1,-1,-1,5.1637,5.2449,-1,-1,-1,-1,-1,-1,-1,-1,-1,-1,-1,-1,-1
501,4.8761,-1,-1,-1,-1,5.1952,5.2457,-1,-1,-1,-1,-1,-1,-1,-1,-1,-1,-1,-1,-1
502,4.8996,-1,-1,-1,-1,5.2,5.2573,-1,-1,-1,-1,-1,-1,-1,-1,-1,-1,-1,-1,-1
503,4.9066,-1,-1,-1,-1,5.2161,5.3152,-1,-1,-1,-1,-1,-1,-1,-1,-1,-1,-1,-1,-1
504,4.9066,-1,-1,-1,-1,5.2262,5.3215,-1,-1,-1,-1,-1,-1,-1,-1,-1,-1,-1,-1,-1
505,4.9066,-1,-1,-1,-1,5.2366,5.327,-1,-1,-1,-1,-1,-1,-1,-1,-1,-1,-1,-1,-1
506,4.9101,-1,-1,-1,-1,5.2434,5.3556,-1,-1,-1,-1,-1,-1,-1,-1,-1,-1,-1,-1,-1
507,4.9172,-1,-1,-1,-1,5.2526,5.3665,-1,-1,-1,-1,-1,-1,-1,-1,-1,-1,-1,-1,-1
508,4.9172,-1,-1,-1,-1,5.2782,5.3788,-1,-1,-1,-1,-1,-1,-1,-1,-1,-1,-1,-1,-1
509,4.9318,-1,-1,-1,-1,5.2798,5.4056,-1,-1,-1,-1,-1,-1,-1,-1,-1,-1,-1,-1,-1
510,4.9318,-1,-1,-1,-1,5.2882,5.4112,-1,-1,-1,-1,-1,-1,-1,-1,-1,-1,-1,-1,-1
511,4.9355,-1,-1,-1,-1,5.2967,5.4112,-1,-1,-1,-1,-1,-1,-1,-1,-1,-1,-1,-1,-1
512,4.9431,-1,-1,-1,-1,5.2967,5.4112,-1,-1,-1,-1,-1,-1,-1,-1,-1,-1,-1,-1,-1
513,4.9508,-1,-1,-1,-1,5.2993,5.4112,-1,-1,-1,-1,-1,-1,-1,-1,-1,-1,-1,-1,-1
514,4.9747,-1,-1,-1,-1,5.3116,5.4389,-1,-1,-1,-1,-1,-1,-1,-1,-1,-1,-1,-1,-1
515,4.9788,-1,-1,-1,-1,5.3152,5.4473,-1,-1,-1,-1,-1,-1,-1,-1,-1,-1,-1,-1,-1
516,4.9788,-1,-1,-1,-1,5.4078,5.4634,-1,-1,-1,-1,-1,-1,-1,-1,-1,-1,-1,-1,-1
517,4.9914,-1,-1,-1,-1,5.4237,5.556,-1,-1,-1,-1,-1,-1,-1,-1,-1,-1,-1,-1,-1
518,4.9957,-1,-1,-1,-1,5.4353,5.6055,-1,-1,-1,-1,-1,-1,-1,-1,-1,-1,-1,-1,-1
519,5.0,-1,-1,-1,-1,5.4365,5.6778,-1,-1,-1,-1,-1,-1,-1,-1,-1,-1,-1,-1,-1
520,5.0,-1,-1,-1,-1,5.5243,5.6778,-1,-1,-1,-1,-1,-1,-1,-1,-1,-1,-1,-1,-1
521,5.0061,-1,-1,-1,-1,5.6126,5.6778,-1,-1,-1,-1,-1,-1,-1,-1,-1,-1,-1,-1,-1
522,5.0061,-1,-1,-1,-1,5.6596,5.6778,-1,-1,-1,-1,-1,-1,-1,-1,-1,-1,-1,-1,-1
523,5.0106,-1,-1,-1,-1,5.6819,5.6778,-1,-1,-1,-1,-1,-1,-1,-1,-1,-1,-1,-1,-1
524,5.0182,-1,-1,-1,-1,5.684,5.7144,-1,-1,-1,-1,-1,-1,-1,-1,-1,-1,-1,-1,-1
525,5.0264,-1,-1,-1,-1,5.6882,5.7305,-1,-1,-1,-1,-1,-1,-1,-1,-1,-1,-1,-1,-1
526,5.0339,-1,-1,-1,-1,5.6882,5.7305,-1,-1,-1,-1,-1,-1,-1,-1,-1,-1,-1,-1,-1
527,5.0386,-1,-1,-1,-1,5.6882,5.7305,-1,-1,-1,-1,-1,-1,-1,-1,-1,-1,-1,-1,-1
528,5.0747,-1,-1,-1,-1,5.6882,5.7905,-1,-1,-1,-1,-1,-1,-1,-1,-1,-1,-1,-1,-1
529,5.1002,-1,-1,-1,-1,5.7375,5.857,-1,-1,-1,-1,-1,-1,-1,-1,-1,-1,-1,-1,-1
530,5.109,-1,-1,-1,-1,5.7545,6.0088,-1,-1,-1,-1,-1,-1,-1,-1,-1,-1,-1,-1,-1
531,5.1113,-1,-1,-1,-1,5.767,6.1451,-1,-1,-1,-1,-1,-1,-1,-1,-1,-1,-1,-1,-1
532,5.1249,-1,-1,-1,-1,5.7932,6.1451,-1,-1,-1,-1,-1,-1,-1,-1,-1,-1,-1,-1,-1
533,5.1451,-1,-1,-1,-1,5.821,6.295,-1,-1,-1,-1,-1,-1,-1,-1,-1,-1,-1,-1,-1
534,5.1778,-1,-1,-1,-1,5.8729,6.4023,-1,-1,-1,-1,-1,-1,-1,-1,-1,-1,-1,-1,-1
535,5.2306,-1,-1,-1,-1,5.8861,6.4881,-1,-1,-1,-1,-1,-1,-1,-1,-1,-1,-1,-1,-1
536,5.2848,-1,-1,-1,-1,5.9136,6.6615,-1,-1,-1,-1,-1,-1,-1,-1,-1,-1,-1,-1,-1
537,5.2933,-1,-1,-1,-1,5.9508,6.6615,-1,-1,-1,-1,-1,-1,-1,-1,-1,-1,-1,-1,-1
538,5.3028,-1,-1,-1,-1,5.983,6.7122,-1,-1,-1,-1,-1,-1,-1,-1,-1,-1,-1,-1,-1
539,5.3134,-1,-1,-1,-1,6.1296,6.7122,-1,-1,-1,-1,-1,-1,-1,-1,-1,-1,-1,-1,-1
540,5.3152,-1,-1,-1,-1,6.1938,6.7122,-1,-1,-1,-1,-1,-1,-1,-1,-1,-1,-1,-1,-1
541,5.3197,-1,-1,-1,-1,6.3344,6.7122,-1,-1,-1,-1,-1,-1,-1,-1,-1,-1,-1,-1,-1
542,5.341,-1,-1,-1,-1,6.7122,6.7122,-1,-1,-1,-1,-1,-1,-1,-1,-1,-1,-1,-1,-1
543,5.3497,-1,-1,-1,-1,6.7122,6.7122,-1,-1,-1,-1,-1,-1,-1,-1,-1,-1,-1,-1,-1
544,5.3556,-1,-1,-1,-1,6.7122,6.7122,-1,-1,-1,-1,-1,-1,-1,-1,-1,-1,-1,-1,-1
545,5.3556,-1,-1,-1,-1,6.7122,6.7122,-1,-1,-1,-1,-1,-1,-1,-1,-1,-1,-1,-1,-1
546,5.3556,-1,-1,-1,-1,6.7122,6.7122,-1,-1,-1,-1,-1,-1,-1,-1,-1,-1,-1,-1,-1
547,5.3556,-1,-1,-1,-1,6.7122,6.7122,-1,-1,-1,-1,-1,-1,-1,-1,-1,-1,-1,-1,-1
548,5.3556,-1,-1,-1,-1,6.7122,6.7122,-1,-1,-1,-1,-1,-1,-1,-1,-1,-1,-1,-1,-1
549,5.383,-1,-1,-1,-1,6.7122,6.7122,-1,-1,-1,-1,-1,-1,-1,-1,-1,-1,-1,-1,-1
550,5.4157,-1,-1,-1,-1,6.7122,6.7122,-1,-1,-1,-1,-1,-1,-1,-1,-1,-1,-1,-1,-1
551,5.451,-1,-1,-1,-1,6.7852,6.7122,-1,-1,-1,-1,-1,-1,-1,-1,-1,-1,-1,-1,-1
552,5.4815,-1,-1,-1,-1,6.7852,6.7122,-1,-1,-1,-1,-1,-1,-1,-1,-1,-1,-1,-1,-1
553,5.4962,-1,-1,-1,-1,6.9547,6.7122,-1,-1,-1,-1,-1,-1,-1,-1,-1,-1,-1,-1,-1
554,5.5017,-1,-1,-1,-1,7.1451,6.7235,-1,-1,-1,-1,-1,-1,-1,-1,-1,-1,-1,-1,-1
555,5.5287,-1,-1,-1,-1,7.1624,6.7852,-1,-1,-1,-1,-1,-1,-1,-1,-1,-1,-1,-1,-1
556,5.5406,-1,-1,-1,-1,7.4908,6.9547,-1,-1,-1,-1,-1,-1,-1,-1,-1,-1,-1,-1,-1
557,5.556,-1,-1,-1,-1,-1,6.9547,-1,-1,-1,-1,-1,-1,-1,-1,-1,-1,-1,-1,-1
558,5.5719,-1,-1,-1,-1,-1,7.0297,-1,-1,-1,-1,-1,-1,-1,-1,-1,-1,-1,-1,-1
559,5.6198,-1,-1,-1,-1,-1,7.6253,-1,-1,-1,-1,-1,-1,-1,-1,-1,-1,-1,-1,-1
560,5.6882,-1,-1,-1,-1,-1,-1,-1,-1,-1,-1,-1,-1,-1,-1,-1,-1,-1,-1,-1
561,5.6882,-1,-1,-1,-1,-1,-1,-1,-1,-1,-1,-1,-1,-1,-1,-1,-1,-1,-1,-1
562,5.6882,-1,-1,-1,-1,-1,-1,-1,-1,-1,-1,-1,-1,-1,-1,-1,-1,-1,-1,-1
563,5.6882,-1,-1,-1,-1,-1,-1,-1,-1,-1,-1,-1,-1,-1,-1,-1,-1,-1,-1,-1
564,5.6882,-1,-1,-1,-1,-1,-1,-1,-1,-1,-1,-1,-1,-1,-1,-1,-1,-1,-1,-1
565,5.6882,-1,-1,-1,-1,-1,-1,-1,-1,-1,-1,-1,-1,-1,-1,-1,-1,-1,-1,-1
566,5.6882,-1,-1,-1,-1,-1,-1,-1,-1,-1,-1,-1,-1,-1,-1,-1,-1,-1,-1,-1
567,5.7212,-1,-1,-1,-1,-1,-1,-1,-1,-1,-1,-1,-1,-1,-1,-1,-1,-1,-1,-1
568,5.7305,-1,-1,-1,-1,-1,-1,-1,-1,-1,-1,-1,-1,-1,-1,-1,-1,-1,-1,-1
569,5.7471,-1,-1,-1,-1,-1,-1,-1,-1,-1,-1,-1,-1,-1,-1,-1,-1,-1,-1,-1
570,5.7721,-1,-1,-1,-1,-1,-1,-1,-1,-1,-1,-1,-1,-1,-1,-1,-1,-1,-1,-1
571,5.9586,-1,-1,-1,-1,-1,-1,-1,-1,-1,-1,-1,-1,-1,-1,-1,-1,-1,-1,-1
572,6.0066,-1,-1,-1,-1,-1,-1,-1,-1,-1,-1,-1,-1,-1,-1,-1,-1,-1,-1,-1
573,6.0701,-1,-1,-1,-1,-1,-1,-1,-1,-1,-1,-1,-1,-1,-1,-1,-1,-1,-1,-1
574,6.1273,-1,-1,-1,-1,-1,-1,-1,-1,-1,-1,-1,-1,-1,-1,-1,-1,-1,-1,-1
575,6.1858,-1,-1,-1,-1,-1,-1,-1,-1,-1,-1,-1,-1,-1,-1,-1,-1,-1,-1,-1
576,6.1858,-1,-1,-1,-1,-1,-1,-1,-1,-1,-1,-1,-1,-1,-1,-1,-1,-1,-1,-1
577,6.3344,-1,-1,-1,-1,-1,-1,-1,-1,-1,-1,-1,-1,-1,-1,-1,-1,-1,-1,-1
578,6.3429,-1,-1,-1,-1,-1,-1,-1,-1,-1,-1,-1,-1,-1,-1,-1,-1,-1,-1,-1
579,6.3565,-1,-1,-1,-1,-1,-1,-1,-1,-1,-1,-1,-1,-1,-1,-1,-1,-1,-1,-1
580,6.3565,-1,-1,-1,-1,-1,-1,-1,-1,-1,-1,-1,-1,-1,-1,-1,-1,-1,-1,-1
581,6.3565,-1,-1,-1,-1,-1,-1,-1,-1,-1,-1,-1,-1,-1,-1,-1,-1,-1,-1,-1
582,6.3936,-1,-1,-1,-1,-1,-1,-1,-1,-1,-1,-1,-1,-1,-1,-1,-1,-1,-1,-1
583,6.4318,-1,-1,-1,-1,-1,-1,-1,-1,-1,-1,-1,-1,-1,-1,-1,-1,-1,-1,-1
584,6.5302,-1,-1,-1,-1,-1,-1,-1,-1,-1,-1,-1,-1,-1,-1,-1,-1,-1,-1,-1
585,6.5768,-1,-1,-1,-1,-1,-1,-1,-1,-1,-1,-1,-1,-1,-1,-1,-1,-1,-1,-1
586,6.6904,-1,-1,-1,-1,-1,-1,-1,-1,-1,-1,-1,-1,-1,-1,-1,-1,-1,-1,-1
587,6.6925,-1,-1,-1,-1,-1,-1,-1,-1,-1,-1,-1,-1,-1,-1,-1,-1,-1,-1,-1
588,6.7122,-1,-1,-1,-1,-1,-1,-1,-1,-1,-1,-1,-1,-1,-1,-1,-1,-1,-1,-1
589,6.7122,-1,-1,-1,-1,-1,-1,-1,-1,-1,-1,-1,-1,-1,-1,-1,-1,-1,-1,-1
590,6.7122,-1,-1,-1,-1,-1,-1,-1,-1,-1,-1,-1,-1,-1,-1,-1,-1,-1,-1,-1
591,6.7122,-1,-1,-1,-1,-1,-1,-1,-1,-1,-1,-1,-1,-1,-1,-1,-1,-1,-1,-1
592,6.7122,-1,-1,-1,-1,-1,-1,-1,-1,-1,-1,-1,-1,-1,-1,-1,-1,-1,-1,-1
593,6.7122,-1,-1,-1,-1,-1,-1,-1,-1,-1,-1,-1,-1,-1,-1,-1,-1,-1,-1,-1
594,6.7122,-1,-1,-1,-1,-1,-1,-1,-1,-1,-1,-1,-1,-1,-1,-1,-1,-1,-1,-1
595,6.7122,-1,-1,-1,-1,-1,-1,-1,-1,-1,-1,-1,-1,-1,-1,-1,-1,-1,-1,-1
596,6.7122,-1,-1,-1,-1,-1,-1,-1,-1,-1,-1,-1,-1,-1,-1,-1,-1,-1,-1,-1
597,6.7122,-1,-1,-1,-1,-1,-1,-1,-1,-1,-1,-1,-1,-1,-1,-1,-1,-1,-1,-1
598,6.7122,-1,-1,-1,-1,-1,-1,-1,-1,-1,-1,-1,-1,-1,-1,-1,-1,-1,-1,-1
599,6.7122,-1,-1,-1,-1,-1,-1,-1,-1,-1,-1,-1,-1,-1,-1,-1,-1,-1,-1,-1
600,6.7122,-1,-1,-1,-1,-1,-1,-1,-1,-1,-1,-1,-1,-1,-1,-1,-1,-1,-1,-1
601,6.7122,-1,-1,-1,-1,-1,-1,-1,-1,-1,-1,-1,-1,-1,-1,-1,-1,-1,-1,-1
602,6.7122,-1,-1,-1,-1,-1,-1,-1,-1,-1,-1,-1,-1,-1,-1,-1,-1,-1,-1,-1
603,6.7122,-1,-1,-1,-1,-1,-1,-1,-1,-1,-1,-1,-1,-1,-1,-1,-1,-1,-1,-1
604,6.7122,-1,-1,-1,-1,-1,-1,-1,-1,-1,-1,-1,-1,-1,-1,-1,-1,-1,-1,-1
605,6.7122,-1,-1,-1,-1,-1,-1,-1,-1,-1,-1,-1,-1,-1,-1,-1,-1,-1,-1,-1
606,6.7122,-1,-1,-1,-1,-1,-1,-1,-1,-1,-1,-1,-1,-1,-1,-1,-1,-1,-1,-1
607,6.7122,-1,-1,-1,-1,-1,-1,-1,-1,-1,-1,-1,-1,-1,-1,-1,-1,-1,-1,-1
608,6.7122,-1,-1,-1,-1,-1,-1,-1,-1,-1,-1,-1,-1,-1,-1,-1,-1,-1,-1,-1
609,6.7122,-1,-1,-1,-1,-1,-1,-1,-1,-1,-1,-1,-1,-1,-1,-1,-1,-1,-1,-1
610,6.7122,-1,-1,-1,-1,-1,-1,-1,-1,-1,-1,-1,-1,-1,-1,-1,-1,-1,-1,-1
611,6.7852,-1,-1,-1,-1,-1,-1,-1,-1,-1,-1,-1,-1,-1,-1,-1,-1,-1,-1,-1
612,6.7852,-1,-1,-1,-1,-1,-1,-1,-1,-1,-1,-1,-1,-1,-1,-1,-1,-1,-1,-1
613,6.9547,-1,-1,-1,-1,-1,-1,-1,-1,-1,-1,-1,-1,-1,-1,-1,-1,-1,-1,-1
614,7.1785,-1,-1,-1,-1,-1,-1,-1,-1,-1,-1,-1,-1,-1,-1,-1,-1,-1,-1,-1
615,7.2815,-1,-1,-1,-1,-1,-1,-1,-1,-1,-1,-1,-1,-1,-1,-1,-1,-1,-1,-1
616,7.7799,-1,-1,-1,-1,-1,-1,-1,-1,-1,-1,-1,-1,-1,-1,-1,-1,-1,-1,-1
