,cluster0,cluster1,cluster2,cluster3,cluster4,cluster5,cluster6,cluster7,cluster8,cluster9,cluster_length0,cluster_length1,cluster_length2,cluster_length3,cluster_length4,cluster_length5,cluster_length6,cluster_length7,cluster_length8,cluster_length9
0,3.0004,3.0,3.0,3.0,3.0,3.0,3.0004,3.0,3.0,3.0,664,5274,3587,3017,2322,4613,262,990,4352,5343
1,3.0009,3.0,3.0,3.0,3.0,3.0,3.0039,3.0009,3.0,3.0004,-1,-1,-1,-1,-1,-1,-1,-1,-1,-1
2,3.0031,3.0009,3.0,3.0004,3.0,3.0,3.007,3.0022,3.0,3.0009,-1,-1,-1,-1,-1,-1,-1,-1,-1,-1
3,3.0035,3.0009,3.0,3.0004,3.0,3.0,3.0074,3.0022,3.0,3.0009,-1,-1,-1,-1,-1,-1,-1,-1,-1,-1
4,3.0039,3.0009,3.0004,3.0009,3.0,3.0,3.0074,3.0022,3.0,3.0009,-1,-1,-1,-1,-1,-1,-1,-1,-1,-1
5,3.0052,3.0009,3.0004,3.0009,3.0004,3.0004,3.0079,3.0031,3.0004,3.0009,-1,-1,-1,-1,-1,-1,-1,-1,-1,-1
6,3.0052,3.0017,3.0004,3.0022,3.0004,3.0004,3.0079,3.0031,3.0004,3.0009,-1,-1,-1,-1,-1,-1,-1,-1,-1,-1
7,3.0061,3.0017,3.0004,3.0022,3.0009,3.0004,3.0088,3.0035,3.0004,3.0017,-1,-1,-1,-1,-1,-1,-1,-1,-1,-1
8,3.0088,3.0017,3.0004,3.0022,3.0017,3.0004,3.0106,3.0039,3.0004,3.0017,-1,-1,-1,-1,-1,-1,-1,-1,-1,-1
9,3.0092,3.0017,3.0004,3.0022,3.0017,3.0004,3.0106,3.0044,3.0009,3.0017,-1,-1,-1,-1,-1,-1,-1,-1,-1,-1
10,3.0106,3.0017,3.0004,3.0031,3.0017,3.0004,3.0114,3.0044,3.0009,3.0017,-1,-1,-1,-1,-1,-1,-1,-1,-1,-1
11,3.0106,3.0022,3.0009,3.0031,3.0022,3.0009,3.0223,3.0044,3.0009,3.0022,-1,-1,-1,-1,-1,-1,-1,-1,-1,-1
12,3.0106,3.0022,3.0009,3.0031,3.0022,3.0009,3.0255,3.0057,3.0009,3.0022,-1,-1,-1,-1,-1,-1,-1,-1,-1,-1
13,3.0106,3.0022,3.0009,3.0031,3.0022,3.0009,3.0264,3.0057,3.0017,3.0022,-1,-1,-1,-1,-1,-1,-1,-1,-1,-1
14,3.0106,3.0022,3.0009,3.0031,3.0022,3.0009,3.0273,3.007,3.0017,3.0022,-1,-1,-1,-1,-1,-1,-1,-1,-1,-1
15,3.0106,3.0022,3.0017,3.0031,3.0039,3.0017,3.0283,3.0088,3.0017,3.0022,-1,-1,-1,-1,-1,-1,-1,-1,-1,-1
16,3.0106,3.0022,3.0017,3.0035,3.0039,3.0017,3.0297,3.0092,3.0017,3.0022,-1,-1,-1,-1,-1,-1,-1,-1,-1,-1
17,3.0106,3.0022,3.0017,3.0039,3.0039,3.0017,3.0362,3.0097,3.0017,3.0031,-1,-1,-1,-1,-1,-1,-1,-1,-1,-1
18,3.0106,3.0022,3.0022,3.0039,3.0039,3.0017,3.0376,3.0097,3.0017,3.0031,-1,-1,-1,-1,-1,-1,-1,-1,-1,-1
19,3.0106,3.0022,3.0022,3.0039,3.0039,3.0017,3.0381,3.0097,3.0022,3.0031,-1,-1,-1,-1,-1,-1,-1,-1,-1,-1
20,3.0106,3.0022,3.0022,3.0039,3.0039,3.0022,3.0395,3.0097,3.0022,3.0031,-1,-1,-1,-1,-1,-1,-1,-1,-1,-1
21,3.0106,3.0031,3.0022,3.0039,3.0039,3.0022,3.0395,3.0097,3.0022,3.0031,-1,-1,-1,-1,-1,-1,-1,-1,-1,-1
22,3.0106,3.0031,3.0022,3.0044,3.0039,3.0022,3.04,3.0106,3.0022,3.0031,-1,-1,-1,-1,-1,-1,-1,-1,-1,-1
23,3.0106,3.0031,3.0022,3.0044,3.0039,3.0022,3.0477,3.0106,3.0022,3.0031,-1,-1,-1,-1,-1,-1,-1,-1,-1,-1
24,3.0106,3.0031,3.0031,3.0044,3.0039,3.0022,3.0482,3.0106,3.0022,3.0035,-1,-1,-1,-1,-1,-1,-1,-1,-1,-1
25,3.0114,3.0031,3.0031,3.0044,3.0039,3.0022,3.0521,3.0106,3.0022,3.0035,-1,-1,-1,-1,-1,-1,-1,-1,-1,-1
26,3.0123,3.0031,3.0031,3.0044,3.0039,3.0022,3.0521,3.0106,3.0022,3.0035,-1,-1,-1,-1,-1,-1,-1,-1,-1,-1
27,3.0123,3.0031,3.0031,3.0044,3.0039,3.0031,3.0555,3.011,3.0022,3.0035,-1,-1,-1,-1,-1,-1,-1,-1,-1,-1
28,3.0123,3.0035,3.0031,3.0044,3.0044,3.0031,3.0555,3.0114,3.0031,3.0039,-1,-1,-1,-1,-1,-1,-1,-1,-1,-1
29,3.0128,3.0035,3.0031,3.0044,3.0044,3.0031,3.0555,3.0114,3.0035,3.0039,-1,-1,-1,-1,-1,-1,-1,-1,-1,-1
30,3.0173,3.0035,3.0031,3.0052,3.0044,3.0031,3.0555,3.0123,3.0035,3.0044,-1,-1,-1,-1,-1,-1,-1,-1,-1,-1
31,3.0182,3.0035,3.0035,3.0052,3.0052,3.0031,3.0575,3.0123,3.0035,3.0044,-1,-1,-1,-1,-1,-1,-1,-1,-1,-1
32,3.0182,3.0039,3.0039,3.0057,3.0052,3.0031,3.061,3.0132,3.0039,3.0044,-1,-1,-1,-1,-1,-1,-1,-1,-1,-1
33,3.0186,3.0039,3.0039,3.0057,3.0052,3.0031,3.061,3.0132,3.0039,3.0044,-1,-1,-1,-1,-1,-1,-1,-1,-1,-1
34,3.0186,3.0039,3.0044,3.0057,3.0052,3.0031,3.0635,3.0146,3.0039,3.0044,-1,-1,-1,-1,-1,-1,-1,-1,-1,-1
35,3.0191,3.0039,3.0044,3.0061,3.0052,3.0031,3.0655,3.0146,3.0039,3.0052,-1,-1,-1,-1,-1,-1,-1,-1,-1,-1
36,3.0191,3.0039,3.0044,3.007,3.0057,3.0031,3.0665,3.0146,3.0039,3.0052,-1,-1,-1,-1,-1,-1,-1,-1,-1,-1
37,3.0191,3.0039,3.0052,3.0074,3.0057,3.0031,3.0675,3.0146,3.0039,3.0052,-1,-1,-1,-1,-1,-1,-1,-1,-1,-1
38,3.0191,3.0039,3.0052,3.0074,3.0057,3.0031,3.068,3.015,3.0039,3.0052,-1,-1,-1,-1,-1,-1,-1,-1,-1,-1
39,3.02,3.0039,3.0052,3.0074,3.0057,3.0031,3.0685,3.015,3.0039,3.0057,-1,-1,-1,-1,-1,-1,-1,-1,-1,-1
40,3.02,3.0044,3.0052,3.0074,3.0057,3.0035,3.0691,3.015,3.0039,3.0057,-1,-1,-1,-1,-1,-1,-1,-1,-1,-1
41,3.02,3.0044,3.0057,3.0074,3.0057,3.0035,3.0706,3.015,3.0052,3.0057,-1,-1,-1,-1,-1,-1,-1,-1,-1,-1
42,3.02,3.0044,3.0057,3.0074,3.0057,3.0035,3.0814,3.0159,3.0057,3.0061,-1,-1,-1,-1,-1,-1,-1,-1,-1,-1
43,3.0205,3.0044,3.0057,3.0079,3.0061,3.0035,3.082,3.0159,3.0057,3.0061,-1,-1,-1,-1,-1,-1,-1,-1,-1,-1
44,3.0209,3.0044,3.0057,3.0079,3.0061,3.0035,3.0825,3.0159,3.0057,3.0061,-1,-1,-1,-1,-1,-1,-1,-1,-1,-1
45,3.0214,3.0044,3.0057,3.0079,3.0061,3.0035,3.0862,3.0168,3.0057,3.0061,-1,-1,-1,-1,-1,-1,-1,-1,-1,-1
46,3.0227,3.0052,3.0057,3.0079,3.0074,3.0035,3.0937,3.0173,3.0057,3.0061,-1,-1,-1,-1,-1,-1,-1,-1,-1,-1
47,3.025,3.0052,3.0057,3.0088,3.0079,3.0039,3.0975,3.0182,3.0057,3.0061,-1,-1,-1,-1,-1,-1,-1,-1,-1,-1
48,3.0269,3.0052,3.0057,3.0088,3.0079,3.0039,3.104,3.0182,3.0061,3.0061,-1,-1,-1,-1,-1,-1,-1,-1,-1,-1
49,3.0273,3.0052,3.0057,3.0088,3.0079,3.0039,3.1051,3.0186,3.0061,3.0061,-1,-1,-1,-1,-1,-1,-1,-1,-1,-1
50,3.0306,3.0052,3.0057,3.0106,3.0088,3.0039,3.1062,3.0186,3.0061,3.0074,-1,-1,-1,-1,-1,-1,-1,-1,-1,-1
51,3.0306,3.0052,3.0061,3.0106,3.0088,3.0039,3.1073,3.02,3.0061,3.0074,-1,-1,-1,-1,-1,-1,-1,-1,-1,-1
52,3.0325,3.0052,3.007,3.0106,3.0088,3.0044,3.1079,3.0205,3.007,3.0074,-1,-1,-1,-1,-1,-1,-1,-1,-1,-1
53,3.0329,3.0052,3.007,3.0106,3.0088,3.0044,3.1085,3.0209,3.007,3.0074,-1,-1,-1,-1,-1,-1,-1,-1,-1,-1
54,3.0329,3.0057,3.007,3.0106,3.0088,3.0044,3.1096,3.0214,3.007,3.0074,-1,-1,-1,-1,-1,-1,-1,-1,-1,-1
55,3.0348,3.0061,3.007,3.0106,3.0088,3.0052,3.1107,3.0214,3.007,3.0074,-1,-1,-1,-1,-1,-1,-1,-1,-1,-1
56,3.0376,3.0061,3.007,3.0106,3.0088,3.0052,3.1107,3.0214,3.007,3.0074,-1,-1,-1,-1,-1,-1,-1,-1,-1,-1
57,3.0376,3.0061,3.007,3.0106,3.0088,3.0057,3.1107,3.0214,3.0074,3.0074,-1,-1,-1,-1,-1,-1,-1,-1,-1,-1
58,3.0376,3.0061,3.0074,3.0106,3.0088,3.0057,3.1107,3.0214,3.0074,3.0074,-1,-1,-1,-1,-1,-1,-1,-1,-1,-1
59,3.0381,3.0061,3.0074,3.0106,3.0092,3.0057,3.1124,3.0214,3.0074,3.0074,-1,-1,-1,-1,-1,-1,-1,-1,-1,-1
60,3.0386,3.0061,3.0074,3.0106,3.0106,3.0057,3.1169,3.0214,3.0079,3.0074,-1,-1,-1,-1,-1,-1,-1,-1,-1,-1
61,3.0386,3.0061,3.0074,3.0106,3.0106,3.0057,3.1249,3.0223,3.0088,3.0079,-1,-1,-1,-1,-1,-1,-1,-1,-1,-1
62,3.0395,3.007,3.0079,3.0106,3.0106,3.0057,3.1325,3.0227,3.0088,3.0079,-1,-1,-1,-1,-1,-1,-1,-1,-1,-1
63,3.0405,3.007,3.0079,3.0106,3.0106,3.0057,3.1325,3.0227,3.0088,3.0079,-1,-1,-1,-1,-1,-1,-1,-1,-1,-1
64,3.0443,3.007,3.0079,3.0106,3.0106,3.0057,3.1379,3.0232,3.0088,3.0088,-1,-1,-1,-1,-1,-1,-1,-1,-1,-1
65,3.0448,3.007,3.0088,3.0106,3.0106,3.0061,3.1397,3.0232,3.0088,3.0088,-1,-1,-1,-1,-1,-1,-1,-1,-1,-1
66,3.0458,3.007,3.0088,3.0106,3.0106,3.0061,3.1397,3.0241,3.0088,3.0088,-1,-1,-1,-1,-1,-1,-1,-1,-1,-1
67,3.0482,3.007,3.0088,3.0106,3.0106,3.0061,3.1397,3.0241,3.0092,3.0092,-1,-1,-1,-1,-1,-1,-1,-1,-1,-1
68,3.0511,3.0074,3.0088,3.0106,3.0106,3.0061,3.1409,3.025,3.0092,3.0092,-1,-1,-1,-1,-1,-1,-1,-1,-1,-1
69,3.0511,3.0074,3.0092,3.0106,3.0106,3.0061,3.1427,3.0273,3.0097,3.0092,-1,-1,-1,-1,-1,-1,-1,-1,-1,-1
70,3.0511,3.0074,3.0092,3.0106,3.0106,3.0061,3.1427,3.0283,3.0097,3.0097,-1,-1,-1,-1,-1,-1,-1,-1,-1,-1
71,3.0511,3.0074,3.0092,3.0106,3.0106,3.0061,3.1427,3.0283,3.0097,3.0097,-1,-1,-1,-1,-1,-1,-1,-1,-1,-1
72,3.0531,3.0074,3.0092,3.0106,3.0106,3.0061,3.1506,3.0283,3.0106,3.0097,-1,-1,-1,-1,-1,-1,-1,-1,-1,-1
73,3.0545,3.0074,3.0097,3.0106,3.0106,3.0061,3.1518,3.0287,3.0106,3.0097,-1,-1,-1,-1,-1,-1,-1,-1,-1,-1
74,3.055,3.0074,3.0106,3.011,3.0106,3.0061,3.1605,3.0287,3.0106,3.0097,-1,-1,-1,-1,-1,-1,-1,-1,-1,-1
75,3.0575,3.0079,3.0106,3.011,3.0106,3.0061,3.1605,3.0297,3.0106,3.0097,-1,-1,-1,-1,-1,-1,-1,-1,-1,-1
76,3.058,3.0079,3.0106,3.0114,3.011,3.007,3.1612,3.0297,3.0106,3.0097,-1,-1,-1,-1,-1,-1,-1,-1,-1,-1
77,3.0595,3.0079,3.0106,3.0114,3.011,3.007,3.163,3.0297,3.0106,3.0097,-1,-1,-1,-1,-1,-1,-1,-1,-1,-1
78,3.0595,3.0079,3.0106,3.0114,3.011,3.007,3.1669,3.0306,3.0106,3.0106,-1,-1,-1,-1,-1,-1,-1,-1,-1,-1
79,3.061,3.0079,3.0106,3.0114,3.011,3.007,3.1675,3.0311,3.0106,3.0106,-1,-1,-1,-1,-1,-1,-1,-1,-1,-1
80,3.0625,3.0079,3.0106,3.0114,3.0114,3.007,3.1675,3.0311,3.0106,3.0106,-1,-1,-1,-1,-1,-1,-1,-1,-1,-1
81,3.0635,3.0079,3.0106,3.0114,3.0123,3.007,3.1798,3.0315,3.0106,3.0106,-1,-1,-1,-1,-1,-1,-1,-1,-1,-1
82,3.064,3.0079,3.0106,3.0114,3.0123,3.007,3.1818,3.0315,3.0106,3.0106,-1,-1,-1,-1,-1,-1,-1,-1,-1,-1
83,3.0645,3.0079,3.0106,3.0114,3.0128,3.0074,3.1831,3.0325,3.0106,3.0106,-1,-1,-1,-1,-1,-1,-1,-1,-1,-1
84,3.0665,3.0088,3.0106,3.0114,3.0128,3.0074,3.1871,3.0325,3.0106,3.0106,-1,-1,-1,-1,-1,-1,-1,-1,-1,-1
85,3.0685,3.0088,3.0106,3.0114,3.0128,3.0074,3.1925,3.0325,3.0106,3.0106,-1,-1,-1,-1,-1,-1,-1,-1,-1,-1
86,3.0685,3.0088,3.0106,3.0114,3.0128,3.0074,3.1925,3.0334,3.0106,3.0106,-1,-1,-1,-1,-1,-1,-1,-1,-1,-1
87,3.0721,3.0092,3.0106,3.0114,3.0128,3.0074,3.1959,3.0353,3.0106,3.0106,-1,-1,-1,-1,-1,-1,-1,-1,-1,-1
88,3.0731,3.0092,3.0106,3.0114,3.0128,3.0074,3.1959,3.0353,3.0106,3.0106,-1,-1,-1,-1,-1,-1,-1,-1,-1,-1
89,3.0731,3.0092,3.0106,3.0114,3.0128,3.0079,3.1959,3.0353,3.0106,3.0106,-1,-1,-1,-1,-1,-1,-1,-1,-1,-1
90,3.0752,3.0092,3.0106,3.0114,3.0132,3.0079,3.1986,3.0353,3.0106,3.0106,-1,-1,-1,-1,-1,-1,-1,-1,-1,-1
91,3.0757,3.0092,3.0106,3.0114,3.0132,3.0079,3.1993,3.0357,3.0106,3.0106,-1,-1,-1,-1,-1,-1,-1,-1,-1,-1
92,3.0757,3.0092,3.0106,3.0114,3.0132,3.0079,3.202,3.0376,3.0106,3.0106,-1,-1,-1,-1,-1,-1,-1,-1,-1,-1
93,3.0768,3.0092,3.0106,3.0114,3.0132,3.0079,3.202,3.0376,3.0106,3.0106,-1,-1,-1,-1,-1,-1,-1,-1,-1,-1
94,3.0768,3.0097,3.0106,3.0114,3.0132,3.0079,3.2041,3.0381,3.0106,3.0106,-1,-1,-1,-1,-1,-1,-1,-1,-1,-1
95,3.0773,3.0097,3.0106,3.0114,3.0132,3.0079,3.2076,3.0395,3.0106,3.0106,-1,-1,-1,-1,-1,-1,-1,-1,-1,-1
96,3.0773,3.0097,3.0106,3.0114,3.0132,3.0079,3.2097,3.0395,3.0106,3.0106,-1,-1,-1,-1,-1,-1,-1,-1,-1,-1
97,3.0773,3.0097,3.0106,3.0114,3.0141,3.0088,3.2125,3.04,3.0106,3.0106,-1,-1,-1,-1,-1,-1,-1,-1,-1,-1
98,3.0773,3.0106,3.0106,3.0114,3.0141,3.0088,3.2147,3.04,3.0106,3.0106,-1,-1,-1,-1,-1,-1,-1,-1,-1,-1
99,3.0778,3.0106,3.0106,3.0114,3.0146,3.0088,3.2168,3.0443,3.0106,3.0106,-1,-1,-1,-1,-1,-1,-1,-1,-1,-1
100,3.0783,3.0106,3.0106,3.0114,3.0146,3.0088,3.2204,3.0443,3.0106,3.0106,-1,-1,-1,-1,-1,-1,-1,-1,-1,-1
101,3.0814,3.0106,3.0106,3.0114,3.0146,3.0088,3.2218,3.0443,3.0106,3.0106,-1,-1,-1,-1,-1,-1,-1,-1,-1,-1
102,3.0814,3.0106,3.0106,3.0114,3.0146,3.0088,3.2218,3.0443,3.0106,3.0106,-1,-1,-1,-1,-1,-1,-1,-1,-1,-1
103,3.0814,3.0106,3.0106,3.0114,3.015,3.0088,3.2255,3.0453,3.0106,3.0106,-1,-1,-1,-1,-1,-1,-1,-1,-1,-1
104,3.082,3.0106,3.0106,3.0114,3.015,3.0092,3.2291,3.0458,3.0106,3.0106,-1,-1,-1,-1,-1,-1,-1,-1,-1,-1
105,3.083,3.0106,3.0106,3.0114,3.015,3.0092,3.2336,3.0458,3.0106,3.0106,-1,-1,-1,-1,-1,-1,-1,-1,-1,-1
106,3.083,3.0106,3.0106,3.0114,3.015,3.0092,3.2366,3.0467,3.0106,3.0106,-1,-1,-1,-1,-1,-1,-1,-1,-1,-1
107,3.0857,3.0106,3.011,3.0114,3.0168,3.0092,3.2381,3.0482,3.0106,3.0106,-1,-1,-1,-1,-1,-1,-1,-1,-1,-1
108,3.0857,3.0106,3.011,3.0114,3.0168,3.0092,3.2411,3.0491,3.0106,3.0106,-1,-1,-1,-1,-1,-1,-1,-1,-1,-1
109,3.0857,3.0106,3.011,3.0114,3.0173,3.0092,3.2418,3.0491,3.0106,3.0106,-1,-1,-1,-1,-1,-1,-1,-1,-1,-1
110,3.0862,3.0106,3.011,3.0114,3.0173,3.0092,3.2434,3.0496,3.0106,3.0106,-1,-1,-1,-1,-1,-1,-1,-1,-1,-1
111,3.0862,3.0106,3.011,3.0114,3.0182,3.0097,3.251,3.0501,3.0106,3.0106,-1,-1,-1,-1,-1,-1,-1,-1,-1,-1
112,3.0862,3.0106,3.0114,3.0114,3.0182,3.0097,3.2541,3.0511,3.0106,3.0106,-1,-1,-1,-1,-1,-1,-1,-1,-1,-1
113,3.0867,3.0106,3.0114,3.0123,3.0182,3.0106,3.2565,3.0511,3.0106,3.0106,-1,-1,-1,-1,-1,-1,-1,-1,-1,-1
114,3.0883,3.0106,3.0123,3.0123,3.0182,3.0106,3.2588,3.0511,3.0106,3.0106,-1,-1,-1,-1,-1,-1,-1,-1,-1,-1
115,3.0899,3.0106,3.0123,3.0123,3.0182,3.0106,3.2588,3.0531,3.0106,3.0106,-1,-1,-1,-1,-1,-1,-1,-1,-1,-1
116,3.091,3.0106,3.0123,3.0123,3.0182,3.0106,3.2612,3.0531,3.0106,3.0106,-1,-1,-1,-1,-1,-1,-1,-1,-1,-1
117,3.0915,3.0106,3.0123,3.0123,3.0186,3.0106,3.2636,3.055,3.0106,3.0106,-1,-1,-1,-1,-1,-1,-1,-1,-1,-1
118,3.0926,3.0106,3.0123,3.0128,3.0191,3.0106,3.2684,3.055,3.0106,3.0106,-1,-1,-1,-1,-1,-1,-1,-1,-1,-1
119,3.0926,3.0106,3.0123,3.0128,3.0191,3.0106,3.2684,3.058,3.011,3.0106,-1,-1,-1,-1,-1,-1,-1,-1,-1,-1
120,3.0937,3.0106,3.0123,3.0128,3.0191,3.0106,3.2716,3.058,3.011,3.0106,-1,-1,-1,-1,-1,-1,-1,-1,-1,-1
121,3.0937,3.0106,3.0128,3.0128,3.0205,3.0106,3.2716,3.058,3.011,3.0106,-1,-1,-1,-1,-1,-1,-1,-1,-1,-1
122,3.0942,3.0106,3.0132,3.0128,3.0205,3.0106,3.2733,3.0605,3.011,3.0106,-1,-1,-1,-1,-1,-1,-1,-1,-1,-1
123,3.098,3.0106,3.0132,3.0132,3.0205,3.0106,3.2865,3.0605,3.011,3.0106,-1,-1,-1,-1,-1,-1,-1,-1,-1,-1
124,3.0985,3.0106,3.0132,3.0141,3.0205,3.0106,3.2907,3.061,3.011,3.0106,-1,-1,-1,-1,-1,-1,-1,-1,-1,-1
125,3.0996,3.0106,3.0132,3.0141,3.0209,3.0106,3.2976,3.0615,3.011,3.0106,-1,-1,-1,-1,-1,-1,-1,-1,-1,-1
126,3.0996,3.0106,3.0141,3.0141,3.0214,3.0106,3.3045,3.0615,3.0114,3.0106,-1,-1,-1,-1,-1,-1,-1,-1,-1,-1
127,3.104,3.0106,3.0141,3.0141,3.0223,3.0106,3.3054,3.062,3.0114,3.0106,-1,-1,-1,-1,-1,-1,-1,-1,-1,-1
128,3.1046,3.0106,3.0141,3.0141,3.0223,3.0106,3.3072,3.062,3.0114,3.0106,-1,-1,-1,-1,-1,-1,-1,-1,-1,-1
129,3.1057,3.0106,3.0141,3.0141,3.0223,3.0106,3.3072,3.0625,3.0114,3.0106,-1,-1,-1,-1,-1,-1,-1,-1,-1,-1
130,3.1062,3.0106,3.0146,3.0141,3.0223,3.0106,3.3072,3.0625,3.0114,3.0106,-1,-1,-1,-1,-1,-1,-1,-1,-1,-1
131,3.1079,3.0106,3.0146,3.0146,3.0232,3.0106,3.3072,3.0625,3.0114,3.0106,-1,-1,-1,-1,-1,-1,-1,-1,-1,-1
132,3.1079,3.0106,3.0146,3.0146,3.0232,3.0106,3.3098,3.0625,3.0114,3.0106,-1,-1,-1,-1,-1,-1,-1,-1,-1,-1
133,3.1079,3.0106,3.0146,3.015,3.0232,3.0106,3.3107,3.0625,3.0114,3.0106,-1,-1,-1,-1,-1,-1,-1,-1,-1,-1
134,3.1085,3.0106,3.0146,3.0159,3.0241,3.0106,3.3116,3.0635,3.0123,3.0106,-1,-1,-1,-1,-1,-1,-1,-1,-1,-1
135,3.109,3.0106,3.015,3.0159,3.0241,3.0106,3.3116,3.0635,3.0123,3.0106,-1,-1,-1,-1,-1,-1,-1,-1,-1,-1
136,3.1096,3.0106,3.015,3.0159,3.0241,3.0106,3.3152,3.064,3.0123,3.0106,-1,-1,-1,-1,-1,-1,-1,-1,-1,-1
137,3.1118,3.0106,3.015,3.0159,3.0241,3.0106,3.3179,3.064,3.0123,3.0106,-1,-1,-1,-1,-1,-1,-1,-1,-1,-1
138,3.1124,3.0106,3.015,3.0159,3.0241,3.0106,3.3179,3.064,3.0123,3.0106,-1,-1,-1,-1,-1,-1,-1,-1,-1,-1
139,3.1135,3.0106,3.015,3.0164,3.0241,3.0106,3.3179,3.0645,3.0128,3.0106,-1,-1,-1,-1,-1,-1,-1,-1,-1,-1
140,3.1135,3.0106,3.015,3.0164,3.0241,3.0106,3.3179,3.0655,3.0132,3.0106,-1,-1,-1,-1,-1,-1,-1,-1,-1,-1
141,3.1152,3.0106,3.015,3.0164,3.0241,3.0106,3.3179,3.0665,3.0132,3.0106,-1,-1,-1,-1,-1,-1,-1,-1,-1,-1
142,3.1152,3.0106,3.0159,3.0168,3.0246,3.0106,3.3197,3.0665,3.0132,3.0106,-1,-1,-1,-1,-1,-1,-1,-1,-1,-1
143,3.1169,3.0106,3.0164,3.0173,3.0246,3.0106,3.3206,3.0665,3.0132,3.0106,-1,-1,-1,-1,-1,-1,-1,-1,-1,-1
144,3.1175,3.0106,3.0164,3.0173,3.025,3.0106,3.3288,3.0685,3.0132,3.0106,-1,-1,-1,-1,-1,-1,-1,-1,-1,-1
145,3.1175,3.0106,3.0164,3.0182,3.025,3.0106,3.341,3.0685,3.0132,3.0106,-1,-1,-1,-1,-1,-1,-1,-1,-1,-1
146,3.118,3.0106,3.0168,3.0182,3.025,3.0106,3.3439,3.0691,3.0141,3.0106,-1,-1,-1,-1,-1,-1,-1,-1,-1,-1
147,3.118,3.0106,3.0168,3.0182,3.0255,3.0106,3.3556,3.0706,3.0141,3.0106,-1,-1,-1,-1,-1,-1,-1,-1,-1,-1
148,3.1203,3.0106,3.0168,3.0191,3.0255,3.0106,3.3556,3.0706,3.0141,3.0106,-1,-1,-1,-1,-1,-1,-1,-1,-1,-1
149,3.1209,3.0106,3.0168,3.0191,3.0255,3.0106,3.3605,3.0721,3.0141,3.0106,-1,-1,-1,-1,-1,-1,-1,-1,-1,-1
150,3.1221,3.0106,3.0168,3.0191,3.0255,3.0106,3.3605,3.0737,3.0141,3.0106,-1,-1,-1,-1,-1,-1,-1,-1,-1,-1
151,3.1226,3.0106,3.0168,3.02,3.0255,3.0106,3.3605,3.0737,3.0141,3.0106,-1,-1,-1,-1,-1,-1,-1,-1,-1,-1
152,3.1226,3.0106,3.0168,3.0205,3.0273,3.0106,3.3655,3.0757,3.0146,3.0106,-1,-1,-1,-1,-1,-1,-1,-1,-1,-1
153,3.1261,3.0106,3.0173,3.0209,3.0273,3.0106,3.3665,3.0757,3.0146,3.0106,-1,-1,-1,-1,-1,-1,-1,-1,-1,-1
154,3.1273,3.0106,3.0173,3.0209,3.0273,3.0106,3.3757,3.0757,3.015,3.0106,-1,-1,-1,-1,-1,-1,-1,-1,-1,-1
155,3.129,3.0106,3.0173,3.0209,3.0283,3.0106,3.3757,3.0768,3.015,3.0106,-1,-1,-1,-1,-1,-1,-1,-1,-1,-1
156,3.1296,3.0106,3.0173,3.0209,3.0292,3.0106,3.3809,3.0773,3.015,3.0106,-1,-1,-1,-1,-1,-1,-1,-1,-1,-1
157,3.1319,3.0106,3.0173,3.0209,3.0292,3.0106,3.3851,3.0773,3.015,3.0106,-1,-1,-1,-1,-1,-1,-1,-1,-1,-1
158,3.1319,3.0106,3.0173,3.0214,3.0297,3.0106,3.3862,3.0778,3.0159,3.0106,-1,-1,-1,-1,-1,-1,-1,-1,-1,-1
159,3.1319,3.0106,3.0182,3.0214,3.0297,3.0106,3.3862,3.0778,3.0164,3.0106,-1,-1,-1,-1,-1,-1,-1,-1,-1,-1
160,3.1325,3.0106,3.0182,3.0214,3.0297,3.0106,3.3872,3.0778,3.0164,3.0106,-1,-1,-1,-1,-1,-1,-1,-1,-1,-1
161,3.1325,3.0106,3.0186,3.0214,3.0297,3.0106,3.3969,3.0783,3.0168,3.0106,-1,-1,-1,-1,-1,-1,-1,-1,-1,-1
162,3.1331,3.0106,3.0186,3.0223,3.0297,3.0106,3.4012,3.0783,3.0168,3.0106,-1,-1,-1,-1,-1,-1,-1,-1,-1,-1
163,3.1391,3.0106,3.0186,3.0223,3.0311,3.0106,3.4045,3.0783,3.0168,3.0106,-1,-1,-1,-1,-1,-1,-1,-1,-1,-1
164,3.1397,3.0106,3.0186,3.0232,3.0311,3.0106,3.4078,3.0788,3.0168,3.0106,-1,-1,-1,-1,-1,-1,-1,-1,-1,-1
165,3.1415,3.0106,3.0191,3.0232,3.0311,3.0106,3.4089,3.0794,3.0168,3.0106,-1,-1,-1,-1,-1,-1,-1,-1,-1,-1
166,3.1427,3.0106,3.0191,3.0232,3.0311,3.0106,3.4145,3.0814,3.0168,3.0106,-1,-1,-1,-1,-1,-1,-1,-1,-1,-1
167,3.1439,3.0106,3.0191,3.0232,3.0311,3.0106,3.4145,3.0814,3.0168,3.0106,-1,-1,-1,-1,-1,-1,-1,-1,-1,-1
168,3.1457,3.0106,3.0191,3.0232,3.0311,3.0106,3.4306,3.082,3.0168,3.0106,-1,-1,-1,-1,-1,-1,-1,-1,-1,-1
169,3.1481,3.0106,3.0205,3.0232,3.0311,3.0106,3.4389,3.0825,3.0168,3.0106,-1,-1,-1,-1,-1,-1,-1,-1,-1,-1
170,3.1487,3.0106,3.0205,3.0232,3.0315,3.0106,3.4389,3.0846,3.0173,3.0106,-1,-1,-1,-1,-1,-1,-1,-1,-1,-1
171,3.1487,3.0106,3.0205,3.0232,3.0315,3.0106,3.4413,3.0851,3.0173,3.0106,-1,-1,-1,-1,-1,-1,-1,-1,-1,-1
172,3.15,3.0106,3.0205,3.0232,3.0315,3.0106,3.4473,3.0851,3.0173,3.0106,-1,-1,-1,-1,-1,-1,-1,-1,-1,-1
173,3.1506,3.0106,3.0205,3.0232,3.0325,3.0106,3.451,3.0857,3.0173,3.0106,-1,-1,-1,-1,-1,-1,-1,-1,-1,-1
174,3.1518,3.0106,3.0205,3.0246,3.0325,3.011,3.4572,3.0857,3.0173,3.0106,-1,-1,-1,-1,-1,-1,-1,-1,-1,-1
175,3.1518,3.0106,3.0209,3.0246,3.0325,3.011,3.4634,3.0862,3.0182,3.0106,-1,-1,-1,-1,-1,-1,-1,-1,-1,-1
176,3.1518,3.0106,3.0209,3.0246,3.0325,3.011,3.4815,3.0862,3.0182,3.0106,-1,-1,-1,-1,-1,-1,-1,-1,-1,-1
177,3.1524,3.0106,3.0209,3.0246,3.0325,3.011,3.4855,3.0862,3.0182,3.0106,-1,-1,-1,-1,-1,-1,-1,-1,-1,-1
178,3.1524,3.0106,3.0209,3.0246,3.0325,3.011,3.4868,3.0862,3.0186,3.0106,-1,-1,-1,-1,-1,-1,-1,-1,-1,-1
179,3.1537,3.0106,3.0209,3.025,3.0325,3.0114,3.4949,3.0862,3.0186,3.0106,-1,-1,-1,-1,-1,-1,-1,-1,-1,-1
180,3.1537,3.0106,3.0214,3.025,3.0325,3.0114,3.4962,3.0862,3.0186,3.0106,-1,-1,-1,-1,-1,-1,-1,-1,-1,-1
181,3.1555,3.0106,3.0214,3.025,3.0325,3.0114,3.4976,3.0862,3.0186,3.0106,-1,-1,-1,-1,-1,-1,-1,-1,-1,-1
182,3.1555,3.0106,3.0214,3.025,3.0329,3.0114,3.51,3.0867,3.0186,3.0106,-1,-1,-1,-1,-1,-1,-1,-1,-1,-1
183,3.1555,3.0106,3.0214,3.025,3.0329,3.0114,3.5143,3.0888,3.0186,3.0106,-1,-1,-1,-1,-1,-1,-1,-1,-1,-1
184,3.1561,3.0106,3.0223,3.0255,3.0339,3.0114,3.5143,3.0915,3.0186,3.0106,-1,-1,-1,-1,-1,-1,-1,-1,-1,-1
185,3.1561,3.0106,3.0223,3.0255,3.0339,3.0114,3.5157,3.0915,3.0191,3.0106,-1,-1,-1,-1,-1,-1,-1,-1,-1,-1
186,3.1586,3.0106,3.0223,3.0255,3.0339,3.0114,3.52,3.0931,3.0191,3.0106,-1,-1,-1,-1,-1,-1,-1,-1,-1,-1
187,3.1586,3.0106,3.0223,3.0264,3.0348,3.0114,3.5214,3.0947,3.0191,3.0106,-1,-1,-1,-1,-1,-1,-1,-1,-1,-1
188,3.1593,3.0106,3.0223,3.0264,3.0353,3.0114,3.5258,3.0947,3.0191,3.0106,-1,-1,-1,-1,-1,-1,-1,-1,-1,-1
189,3.1593,3.0106,3.0223,3.0269,3.0353,3.0114,3.5287,3.0953,3.0191,3.0106,-1,-1,-1,-1,-1,-1,-1,-1,-1,-1
190,3.1605,3.0106,3.0223,3.0269,3.0353,3.0114,3.5287,3.0953,3.0191,3.0106,-1,-1,-1,-1,-1,-1,-1,-1,-1,-1
191,3.1612,3.0106,3.0227,3.0269,3.0353,3.0114,3.5287,3.0969,3.02,3.0106,-1,-1,-1,-1,-1,-1,-1,-1,-1,-1
192,3.1612,3.0106,3.0227,3.0269,3.0353,3.0114,3.5361,3.0969,3.02,3.0106,-1,-1,-1,-1,-1,-1,-1,-1,-1,-1
193,3.1624,3.0106,3.0227,3.0269,3.0357,3.0114,3.5361,3.0985,3.02,3.0106,-1,-1,-1,-1,-1,-1,-1,-1,-1,-1
194,3.1624,3.0106,3.0227,3.0269,3.0357,3.0114,3.5421,3.0985,3.02,3.0106,-1,-1,-1,-1,-1,-1,-1,-1,-1,-1
195,3.1624,3.0106,3.0232,3.0269,3.0362,3.0114,3.5421,3.0991,3.02,3.0106,-1,-1,-1,-1,-1,-1,-1,-1,-1,-1
196,3.1637,3.0106,3.0232,3.0273,3.0372,3.0114,3.5436,3.0996,3.02,3.0106,-1,-1,-1,-1,-1,-1,-1,-1,-1,-1
197,3.1649,3.0106,3.0232,3.0283,3.0376,3.0114,3.5436,3.1002,3.0205,3.0106,-1,-1,-1,-1,-1,-1,-1,-1,-1,-1
198,3.1649,3.0106,3.0232,3.0283,3.0376,3.0114,3.5918,3.1002,3.0205,3.0106,-1,-1,-1,-1,-1,-1,-1,-1,-1,-1
199,3.1681,3.0106,3.0241,3.0283,3.0376,3.0114,3.6091,3.1002,3.0209,3.0106,-1,-1,-1,-1,-1,-1,-1,-1,-1,-1
200,3.1688,3.0106,3.0241,3.0283,3.0376,3.0114,3.6234,3.1018,3.0209,3.0106,-1,-1,-1,-1,-1,-1,-1,-1,-1,-1
201,3.172,3.0106,3.0241,3.0283,3.0381,3.0114,3.6498,3.1035,3.0209,3.0106,-1,-1,-1,-1,-1,-1,-1,-1,-1,-1
202,3.172,3.0106,3.0241,3.0283,3.0381,3.0114,3.6615,3.1035,3.0209,3.0106,-1,-1,-1,-1,-1,-1,-1,-1,-1,-1
203,3.172,3.0106,3.0241,3.0283,3.0381,3.0114,3.6615,3.1046,3.0209,3.0106,-1,-1,-1,-1,-1,-1,-1,-1,-1,-1
204,3.1739,3.0106,3.0241,3.0283,3.0381,3.0114,3.6696,3.1057,3.0209,3.0106,-1,-1,-1,-1,-1,-1,-1,-1,-1,-1
205,3.1746,3.0106,3.0241,3.0292,3.0381,3.0114,3.6778,3.1057,3.0209,3.0106,-1,-1,-1,-1,-1,-1,-1,-1,-1,-1
206,3.1798,3.0106,3.0241,3.0292,3.0381,3.0114,3.6819,3.1057,3.0209,3.0106,-1,-1,-1,-1,-1,-1,-1,-1,-1,-1
207,3.1798,3.0106,3.0246,3.0292,3.0386,3.0114,3.699,3.1057,3.0209,3.0106,-1,-1,-1,-1,-1,-1,-1,-1,-1,-1
208,3.1805,3.0106,3.0246,3.0306,3.0395,3.0114,3.699,3.1062,3.0209,3.0106,-1,-1,-1,-1,-1,-1,-1,-1,-1,-1
209,3.1811,3.0106,3.0246,3.0311,3.0395,3.0114,3.719,3.1062,3.0209,3.0106,-1,-1,-1,-1,-1,-1,-1,-1,-1,-1
210,3.1824,3.0106,3.0246,3.0311,3.04,3.0114,3.7328,3.1085,3.0214,3.0106,-1,-1,-1,-1,-1,-1,-1,-1,-1,-1
211,3.1851,3.0106,3.0246,3.0311,3.04,3.0114,3.7423,3.1085,3.0214,3.0106,-1,-1,-1,-1,-1,-1,-1,-1,-1,-1
212,3.1851,3.0106,3.0246,3.0311,3.04,3.0114,3.7471,3.1101,3.0214,3.0106,-1,-1,-1,-1,-1,-1,-1,-1,-1,-1
213,3.1864,3.0106,3.025,3.0325,3.04,3.0123,3.7471,3.1107,3.0214,3.0106,-1,-1,-1,-1,-1,-1,-1,-1,-1,-1
214,3.1904,3.0106,3.025,3.0325,3.04,3.0123,3.762,3.1107,3.0214,3.0106,-1,-1,-1,-1,-1,-1,-1,-1,-1,-1
215,3.1925,3.0106,3.025,3.0325,3.04,3.0123,3.767,3.1107,3.0214,3.0106,-1,-1,-1,-1,-1,-1,-1,-1,-1,-1
216,3.1952,3.0106,3.025,3.0325,3.0405,3.0123,3.7696,3.1135,3.0223,3.0106,-1,-1,-1,-1,-1,-1,-1,-1,-1,-1
217,3.1959,3.0106,3.025,3.0325,3.041,3.0123,3.7696,3.1141,3.0223,3.0106,-1,-1,-1,-1,-1,-1,-1,-1,-1,-1
218,3.1972,3.0106,3.0255,3.0329,3.041,3.0123,3.7696,3.1141,3.0223,3.0106,-1,-1,-1,-1,-1,-1,-1,-1,-1,-1
219,3.2007,3.0106,3.0255,3.0329,3.041,3.0123,3.7773,3.1141,3.0223,3.0106,-1,-1,-1,-1,-1,-1,-1,-1,-1,-1
220,3.2041,3.0106,3.0255,3.0329,3.0419,3.0128,3.7773,3.1146,3.0227,3.0106,-1,-1,-1,-1,-1,-1,-1,-1,-1,-1
221,3.2076,3.0106,3.0255,3.0334,3.0419,3.0128,3.8601,3.1152,3.0227,3.0106,-1,-1,-1,-1,-1,-1,-1,-1,-1,-1
222,3.2083,3.0106,3.0255,3.0334,3.0419,3.0128,3.8894,3.1158,3.0227,3.0106,-1,-1,-1,-1,-1,-1,-1,-1,-1,-1
223,3.209,3.0106,3.0264,3.0334,3.0419,3.0128,3.8894,3.1158,3.0227,3.0106,-1,-1,-1,-1,-1,-1,-1,-1,-1,-1
224,3.209,3.0106,3.0264,3.0334,3.0419,3.0128,3.8894,3.1158,3.0227,3.0106,-1,-1,-1,-1,-1,-1,-1,-1,-1,-1
225,3.2104,3.0106,3.0264,3.0339,3.0424,3.0128,3.8996,3.1158,3.0232,3.0106,-1,-1,-1,-1,-1,-1,-1,-1,-1,-1
226,3.2118,3.0106,3.0269,3.0348,3.0424,3.0132,3.9431,3.1163,3.0232,3.0106,-1,-1,-1,-1,-1,-1,-1,-1,-1,-1
227,3.2154,3.0106,3.0273,3.0353,3.0424,3.0132,3.9666,3.1163,3.0232,3.0106,-1,-1,-1,-1,-1,-1,-1,-1,-1,-1
228,3.2168,3.0106,3.0273,3.0357,3.0424,3.0132,3.9666,3.1163,3.0232,3.0106,-1,-1,-1,-1,-1,-1,-1,-1,-1,-1
229,3.2168,3.0106,3.0273,3.0357,3.0424,3.0132,3.9747,3.1169,3.0232,3.0106,-1,-1,-1,-1,-1,-1,-1,-1,-1,-1
230,3.2168,3.0106,3.0273,3.0357,3.0424,3.0132,4.0132,3.1169,3.0241,3.0106,-1,-1,-1,-1,-1,-1,-1,-1,-1,-1
231,3.224,3.0106,3.0273,3.0362,3.0424,3.0132,4.0438,3.118,3.0241,3.0106,-1,-1,-1,-1,-1,-1,-1,-1,-1,-1
232,3.224,3.0106,3.0273,3.0362,3.0424,3.0132,4.0482,3.1186,3.0241,3.0106,-1,-1,-1,-1,-1,-1,-1,-1,-1,-1
233,3.224,3.0106,3.0273,3.0362,3.0424,3.0132,4.0482,3.1186,3.0241,3.0106,-1,-1,-1,-1,-1,-1,-1,-1,-1,-1
234,3.2277,3.0106,3.0273,3.0362,3.0424,3.0132,4.062,3.1198,3.0241,3.0106,-1,-1,-1,-1,-1,-1,-1,-1,-1,-1
235,3.2299,3.0106,3.0273,3.0362,3.0424,3.0141,4.062,3.1198,3.0241,3.0106,-1,-1,-1,-1,-1,-1,-1,-1,-1,-1
236,3.2328,3.0106,3.0283,3.0372,3.0429,3.0141,4.062,3.1198,3.0241,3.0106,-1,-1,-1,-1,-1,-1,-1,-1,-1,-1
237,3.2336,3.0106,3.0283,3.0376,3.0434,3.0141,4.0625,3.1209,3.0241,3.0106,-1,-1,-1,-1,-1,-1,-1,-1,-1,-1
238,3.2336,3.0106,3.0283,3.0376,3.0434,3.0141,4.1002,3.1221,3.0241,3.0106,-1,-1,-1,-1,-1,-1,-1,-1,-1,-1
239,3.2366,3.0106,3.0287,3.0376,3.0434,3.0141,4.1046,3.1221,3.0246,3.0106,-1,-1,-1,-1,-1,-1,-1,-1,-1,-1
240,3.2366,3.0106,3.0292,3.0376,3.0434,3.0141,4.1319,3.1221,3.0246,3.0106,-1,-1,-1,-1,-1,-1,-1,-1,-1,-1
241,3.2373,3.0106,3.0292,3.0376,3.0434,3.0141,4.1965,3.1238,3.0246,3.0106,-1,-1,-1,-1,-1,-1,-1,-1,-1,-1
242,3.2411,3.0106,3.0292,3.0376,3.0434,3.0146,4.2291,3.1249,3.0246,3.011,-1,-1,-1,-1,-1,-1,-1,-1,-1,-1
243,3.2426,3.0106,3.0297,3.0376,3.0434,3.0146,4.2503,3.1255,3.0246,3.011,-1,-1,-1,-1,-1,-1,-1,-1,-1,-1
244,3.2426,3.0106,3.0297,3.0376,3.0434,3.0146,4.2832,3.1267,3.025,3.011,-1,-1,-1,-1,-1,-1,-1,-1,-1,-1
245,3.248,3.0106,3.0297,3.0381,3.0434,3.0146,4.3595,3.1273,3.025,3.011,-1,-1,-1,-1,-1,-1,-1,-1,-1,-1
246,3.248,3.0106,3.0297,3.0381,3.0443,3.015,4.3904,3.1273,3.025,3.011,-1,-1,-1,-1,-1,-1,-1,-1,-1,-1
247,3.2487,3.0106,3.0297,3.0381,3.0443,3.015,4.4001,3.1284,3.025,3.011,-1,-1,-1,-1,-1,-1,-1,-1,-1,-1
248,3.2487,3.0106,3.0297,3.0386,3.0448,3.015,4.4841,3.1284,3.025,3.011,-1,-1,-1,-1,-1,-1,-1,-1,-1,-1
249,3.251,3.0106,3.0306,3.0386,3.0448,3.015,4.5544,3.1302,3.0255,3.011,-1,-1,-1,-1,-1,-1,-1,-1,-1,-1
250,3.2518,3.0106,3.0306,3.0395,3.0453,3.015,4.556,3.1308,3.0255,3.011,-1,-1,-1,-1,-1,-1,-1,-1,-1,-1
251,3.2526,3.0106,3.0306,3.0395,3.0453,3.015,4.6108,3.1308,3.0255,3.011,-1,-1,-1,-1,-1,-1,-1,-1,-1,-1
252,3.2526,3.0106,3.0306,3.0395,3.0453,3.015,4.6345,3.1314,3.0264,3.011,-1,-1,-1,-1,-1,-1,-1,-1,-1,-1
253,3.2526,3.0106,3.0306,3.04,3.0458,3.0159,4.6778,3.1314,3.0264,3.0114,-1,-1,-1,-1,-1,-1,-1,-1,-1,-1
254,3.2534,3.0106,3.0311,3.04,3.0458,3.0159,4.8327,3.1314,3.0264,3.0114,-1,-1,-1,-1,-1,-1,-1,-1,-1,-1
255,3.2534,3.0106,3.0311,3.04,3.0467,3.0159,4.8386,3.1314,3.0264,3.0114,-1,-1,-1,-1,-1,-1,-1,-1,-1,-1
256,3.2534,3.0106,3.0311,3.04,3.0472,3.0159,4.8447,3.1325,3.0269,3.0114,-1,-1,-1,-1,-1,-1,-1,-1,-1,-1
257,3.2541,3.0106,3.0311,3.04,3.0477,3.0164,4.8447,3.1325,3.0269,3.0114,-1,-1,-1,-1,-1,-1,-1,-1,-1,-1
258,3.2557,3.0106,3.0315,3.04,3.0477,3.0164,4.857,3.1331,3.0269,3.0114,-1,-1,-1,-1,-1,-1,-1,-1,-1,-1
259,3.2557,3.0106,3.0325,3.0405,3.0477,3.0164,4.8794,3.1331,3.0269,3.0114,-1,-1,-1,-1,-1,-1,-1,-1,-1,-1
260,3.2565,3.0106,3.0325,3.0419,3.0482,3.0164,5.2958,3.1343,3.0269,3.0114,-1,-1,-1,-1,-1,-1,-1,-1,-1,-1
261,3.2565,3.0106,3.0325,3.0419,3.0482,3.0164,5.5376,3.1343,3.0269,3.0114,-1,-1,-1,-1,-1,-1,-1,-1,-1,-1
262,3.2565,3.0106,3.0325,3.0424,3.0491,3.0164,-1,3.1343,3.0273,3.0114,-1,-1,-1,-1,-1,-1,-1,-1,-1,-1
263,3.2565,3.0106,3.0325,3.0429,3.0496,3.0164,-1,3.1343,3.0273,3.0114,-1,-1,-1,-1,-1,-1,-1,-1,-1,-1
264,3.2588,3.0106,3.0325,3.0429,3.0501,3.0164,-1,3.1355,3.0273,3.0114,-1,-1,-1,-1,-1,-1,-1,-1,-1,-1
265,3.2588,3.0106,3.0325,3.0434,3.0501,3.0168,-1,3.1361,3.0273,3.0114,-1,-1,-1,-1,-1,-1,-1,-1,-1,-1
266,3.2588,3.0106,3.0325,3.0443,3.0501,3.0168,-1,3.1361,3.0273,3.0114,-1,-1,-1,-1,-1,-1,-1,-1,-1,-1
267,3.2596,3.0106,3.0325,3.0443,3.0501,3.0168,-1,3.1361,3.0273,3.0114,-1,-1,-1,-1,-1,-1,-1,-1,-1,-1
268,3.2612,3.0106,3.0325,3.0443,3.0506,3.0168,-1,3.1379,3.0273,3.0114,-1,-1,-1,-1,-1,-1,-1,-1,-1,-1
269,3.2612,3.0106,3.0329,3.0443,3.0506,3.0168,-1,3.1397,3.0273,3.0114,-1,-1,-1,-1,-1,-1,-1,-1,-1,-1
270,3.2612,3.0106,3.0329,3.0443,3.0506,3.0168,-1,3.1397,3.0283,3.0114,-1,-1,-1,-1,-1,-1,-1,-1,-1,-1
271,3.2612,3.0106,3.0334,3.0458,3.0511,3.0173,-1,3.1409,3.0283,3.0114,-1,-1,-1,-1,-1,-1,-1,-1,-1,-1
272,3.2612,3.0106,3.0334,3.0467,3.0511,3.0173,-1,3.1415,3.0283,3.0114,-1,-1,-1,-1,-1,-1,-1,-1,-1,-1
273,3.2612,3.0106,3.0334,3.0467,3.0511,3.0173,-1,3.1457,3.0283,3.0114,-1,-1,-1,-1,-1,-1,-1,-1,-1,-1
274,3.2612,3.0106,3.0334,3.0467,3.0511,3.0182,-1,3.1463,3.0283,3.0114,-1,-1,-1,-1,-1,-1,-1,-1,-1,-1
275,3.2612,3.0106,3.0334,3.0467,3.0511,3.0182,-1,3.1463,3.0287,3.0114,-1,-1,-1,-1,-1,-1,-1,-1,-1,-1
276,3.2612,3.0106,3.0334,3.0467,3.0521,3.0182,-1,3.1463,3.0287,3.0114,-1,-1,-1,-1,-1,-1,-1,-1,-1,-1
277,3.2612,3.0106,3.0334,3.0467,3.0521,3.0182,-1,3.1463,3.0287,3.0114,-1,-1,-1,-1,-1,-1,-1,-1,-1,-1
278,3.2612,3.0106,3.0334,3.0472,3.0535,3.0182,-1,3.1469,3.0287,3.0114,-1,-1,-1,-1,-1,-1,-1,-1,-1,-1
279,3.2612,3.0106,3.0339,3.0472,3.0545,3.0182,-1,3.1469,3.0292,3.0114,-1,-1,-1,-1,-1,-1,-1,-1,-1,-1
280,3.2612,3.0106,3.0339,3.0472,3.0545,3.0186,-1,3.1469,3.0292,3.0114,-1,-1,-1,-1,-1,-1,-1,-1,-1,-1
281,3.2612,3.0106,3.0348,3.0472,3.0545,3.0186,-1,3.1469,3.0292,3.0114,-1,-1,-1,-1,-1,-1,-1,-1,-1,-1
282,3.2612,3.0106,3.0348,3.0472,3.0545,3.0186,-1,3.1481,3.0292,3.0114,-1,-1,-1,-1,-1,-1,-1,-1,-1,-1
283,3.2692,3.0106,3.0348,3.0472,3.055,3.0186,-1,3.1487,3.0292,3.0114,-1,-1,-1,-1,-1,-1,-1,-1,-1,-1
284,3.2692,3.0106,3.0353,3.0472,3.0555,3.0186,-1,3.1494,3.0292,3.0114,-1,-1,-1,-1,-1,-1,-1,-1,-1,-1
285,3.27,3.0106,3.0353,3.0472,3.0555,3.0186,-1,3.15,3.0292,3.0114,-1,-1,-1,-1,-1,-1,-1,-1,-1,-1
286,3.27,3.0106,3.0353,3.0472,3.0555,3.0186,-1,3.1506,3.0292,3.0114,-1,-1,-1,-1,-1,-1,-1,-1,-1,-1
287,3.2716,3.0106,3.0353,3.0472,3.0555,3.0186,-1,3.1506,3.0292,3.0114,-1,-1,-1,-1,-1,-1,-1,-1,-1,-1
288,3.2716,3.0106,3.0353,3.0477,3.0555,3.0191,-1,3.1512,3.0292,3.0114,-1,-1,-1,-1,-1,-1,-1,-1,-1,-1
289,3.2725,3.0106,3.0353,3.0477,3.056,3.0191,-1,3.1512,3.0292,3.0114,-1,-1,-1,-1,-1,-1,-1,-1,-1,-1
290,3.2725,3.0106,3.0353,3.0477,3.0565,3.0191,-1,3.1512,3.0297,3.0114,-1,-1,-1,-1,-1,-1,-1,-1,-1,-1
291,3.2741,3.0106,3.0353,3.0477,3.0585,3.0191,-1,3.1512,3.0297,3.0114,-1,-1,-1,-1,-1,-1,-1,-1,-1,-1
292,3.2741,3.0106,3.0353,3.0477,3.0585,3.0191,-1,3.1512,3.0297,3.0114,-1,-1,-1,-1,-1,-1,-1,-1,-1,-1
293,3.2749,3.0106,3.0357,3.0482,3.0585,3.0191,-1,3.1512,3.0297,3.0114,-1,-1,-1,-1,-1,-1,-1,-1,-1,-1
294,3.2749,3.0106,3.0357,3.0482,3.059,3.02,-1,3.1512,3.0306,3.0114,-1,-1,-1,-1,-1,-1,-1,-1,-1,-1
295,3.2749,3.0106,3.0357,3.0482,3.0595,3.02,-1,3.1518,3.0306,3.0114,-1,-1,-1,-1,-1,-1,-1,-1,-1,-1
296,3.2765,3.0106,3.0362,3.0491,3.0595,3.02,-1,3.1518,3.0306,3.0114,-1,-1,-1,-1,-1,-1,-1,-1,-1,-1
297,3.2765,3.0106,3.0362,3.0501,3.0595,3.02,-1,3.1518,3.0306,3.0114,-1,-1,-1,-1,-1,-1,-1,-1,-1,-1
298,3.2782,3.0106,3.0362,3.0501,3.061,3.02,-1,3.1524,3.0306,3.0114,-1,-1,-1,-1,-1,-1,-1,-1,-1,-1
299,3.2848,3.0106,3.0362,3.0506,3.061,3.02,-1,3.153,3.0306,3.0114,-1,-1,-1,-1,-1,-1,-1,-1,-1,-1
300,3.289,3.0106,3.0372,3.0506,3.062,3.0205,-1,3.1537,3.0306,3.0114,-1,-1,-1,-1,-1,-1,-1,-1,-1,-1
301,3.289,3.0106,3.0372,3.0511,3.062,3.0205,-1,3.1543,3.0311,3.0114,-1,-1,-1,-1,-1,-1,-1,-1,-1,-1
302,3.2899,3.0106,3.0372,3.0521,3.062,3.0205,-1,3.1549,3.0311,3.0114,-1,-1,-1,-1,-1,-1,-1,-1,-1,-1
303,3.2916,3.0106,3.0372,3.0521,3.0625,3.0205,-1,3.1555,3.0311,3.0114,-1,-1,-1,-1,-1,-1,-1,-1,-1,-1
304,3.295,3.0106,3.0372,3.0521,3.0625,3.0209,-1,3.1568,3.0315,3.0114,-1,-1,-1,-1,-1,-1,-1,-1,-1,-1
305,3.2967,3.0106,3.0372,3.0521,3.0635,3.0209,-1,3.1574,3.0315,3.0114,-1,-1,-1,-1,-1,-1,-1,-1,-1,-1
306,3.2984,3.0106,3.0372,3.0521,3.0635,3.0209,-1,3.1593,3.0315,3.0114,-1,-1,-1,-1,-1,-1,-1,-1,-1,-1
307,3.2984,3.0106,3.0372,3.0521,3.0635,3.0209,-1,3.1593,3.0315,3.0114,-1,-1,-1,-1,-1,-1,-1,-1,-1,-1
308,3.301,3.0106,3.0372,3.0526,3.0635,3.0209,-1,3.1624,3.0315,3.0114,-1,-1,-1,-1,-1,-1,-1,-1,-1,-1
309,3.3028,3.0106,3.0376,3.0531,3.064,3.0214,-1,3.163,3.0315,3.0114,-1,-1,-1,-1,-1,-1,-1,-1,-1,-1
310,3.3045,3.0106,3.0376,3.0531,3.064,3.0214,-1,3.1637,3.0315,3.0114,-1,-1,-1,-1,-1,-1,-1,-1,-1,-1
311,3.3045,3.0106,3.0381,3.0531,3.064,3.0223,-1,3.1637,3.0315,3.0114,-1,-1,-1,-1,-1,-1,-1,-1,-1,-1
312,3.3045,3.0106,3.0381,3.0531,3.064,3.0223,-1,3.1637,3.0315,3.0114,-1,-1,-1,-1,-1,-1,-1,-1,-1,-1
313,3.3045,3.0106,3.0381,3.0531,3.064,3.0223,-1,3.1643,3.0325,3.0114,-1,-1,-1,-1,-1,-1,-1,-1,-1,-1
314,3.3045,3.0106,3.0381,3.0535,3.065,3.0223,-1,3.1649,3.0325,3.0114,-1,-1,-1,-1,-1,-1,-1,-1,-1,-1
315,3.3089,3.0106,3.0381,3.0535,3.0665,3.0223,-1,3.1656,3.0325,3.0114,-1,-1,-1,-1,-1,-1,-1,-1,-1,-1
316,3.3125,3.0106,3.0381,3.0545,3.067,3.0223,-1,3.1694,3.0325,3.0114,-1,-1,-1,-1,-1,-1,-1,-1,-1,-1
317,3.3152,3.0106,3.0386,3.0545,3.067,3.0227,-1,3.1694,3.0325,3.0114,-1,-1,-1,-1,-1,-1,-1,-1,-1,-1
318,3.3179,3.0106,3.0386,3.0545,3.067,3.0227,-1,3.1701,3.0325,3.0114,-1,-1,-1,-1,-1,-1,-1,-1,-1,-1
319,3.3188,3.0106,3.0395,3.0545,3.067,3.0227,-1,3.1707,3.0325,3.0114,-1,-1,-1,-1,-1,-1,-1,-1,-1,-1
320,3.3197,3.0106,3.04,3.0545,3.067,3.0227,-1,3.1726,3.0325,3.0114,-1,-1,-1,-1,-1,-1,-1,-1,-1,-1
321,3.3224,3.0106,3.0405,3.055,3.0675,3.0232,-1,3.1726,3.0325,3.0114,-1,-1,-1,-1,-1,-1,-1,-1,-1,-1
322,3.327,3.0106,3.0405,3.0555,3.0675,3.0232,-1,3.1759,3.0325,3.0114,-1,-1,-1,-1,-1,-1,-1,-1,-1,-1
323,3.3288,3.0106,3.0405,3.0555,3.0675,3.0241,-1,3.1765,3.0325,3.0114,-1,-1,-1,-1,-1,-1,-1,-1,-1,-1
324,3.3307,3.0106,3.0405,3.056,3.0675,3.0241,-1,3.1765,3.0325,3.0114,-1,-1,-1,-1,-1,-1,-1,-1,-1,-1
325,3.3335,3.011,3.0405,3.056,3.068,3.0241,-1,3.1778,3.0325,3.0114,-1,-1,-1,-1,-1,-1,-1,-1,-1,-1
326,3.3363,3.011,3.0405,3.0575,3.0685,3.0241,-1,3.1778,3.0325,3.0114,-1,-1,-1,-1,-1,-1,-1,-1,-1,-1
327,3.3363,3.011,3.0405,3.0575,3.0691,3.0246,-1,3.1778,3.0325,3.0114,-1,-1,-1,-1,-1,-1,-1,-1,-1,-1
328,3.3363,3.011,3.0405,3.0575,3.0691,3.0246,-1,3.1791,3.0325,3.0114,-1,-1,-1,-1,-1,-1,-1,-1,-1,-1
329,3.3363,3.011,3.0405,3.0575,3.0701,3.0246,-1,3.1791,3.0325,3.0114,-1,-1,-1,-1,-1,-1,-1,-1,-1,-1
330,3.3372,3.011,3.0405,3.058,3.0701,3.0246,-1,3.1805,3.0329,3.0114,-1,-1,-1,-1,-1,-1,-1,-1,-1,-1
331,3.3372,3.011,3.041,3.058,3.0701,3.0246,-1,3.1818,3.0329,3.0114,-1,-1,-1,-1,-1,-1,-1,-1,-1,-1
332,3.3382,3.0114,3.041,3.058,3.0701,3.025,-1,3.1838,3.0329,3.0114,-1,-1,-1,-1,-1,-1,-1,-1,-1,-1
333,3.3391,3.0114,3.041,3.0585,3.0701,3.025,-1,3.1844,3.0329,3.0114,-1,-1,-1,-1,-1,-1,-1,-1,-1,-1
334,3.3458,3.0114,3.041,3.0585,3.0701,3.025,-1,3.1864,3.0329,3.0114,-1,-1,-1,-1,-1,-1,-1,-1,-1,-1
335,3.3468,3.0114,3.041,3.059,3.0706,3.025,-1,3.1878,3.0329,3.0114,-1,-1,-1,-1,-1,-1,-1,-1,-1,-1
336,3.3536,3.0114,3.0419,3.059,3.0706,3.025,-1,3.1884,3.0334,3.0114,-1,-1,-1,-1,-1,-1,-1,-1,-1,-1
337,3.3556,3.0114,3.0424,3.059,3.0706,3.025,-1,3.1898,3.0339,3.0114,-1,-1,-1,-1,-1,-1,-1,-1,-1,-1
338,3.3575,3.0114,3.0424,3.059,3.0706,3.025,-1,3.1904,3.0348,3.0114,-1,-1,-1,-1,-1,-1,-1,-1,-1,-1
339,3.3645,3.0114,3.0424,3.059,3.0716,3.025,-1,3.1925,3.0353,3.0114,-1,-1,-1,-1,-1,-1,-1,-1,-1,-1
340,3.3655,3.0114,3.0429,3.059,3.0716,3.0255,-1,3.1925,3.0353,3.0114,-1,-1,-1,-1,-1,-1,-1,-1,-1,-1
341,3.3655,3.0114,3.0429,3.0595,3.0716,3.0255,-1,3.1931,3.0353,3.0114,-1,-1,-1,-1,-1,-1,-1,-1,-1,-1
342,3.3726,3.0114,3.0429,3.0605,3.0721,3.0255,-1,3.1952,3.0353,3.0114,-1,-1,-1,-1,-1,-1,-1,-1,-1,-1
343,3.3726,3.0114,3.0429,3.0605,3.0721,3.0255,-1,3.1952,3.0353,3.0114,-1,-1,-1,-1,-1,-1,-1,-1,-1,-1
344,3.3747,3.0114,3.0429,3.0605,3.0721,3.0255,-1,3.1959,3.0353,3.0114,-1,-1,-1,-1,-1,-1,-1,-1,-1,-1
345,3.3757,3.0114,3.0429,3.0605,3.0737,3.0255,-1,3.1959,3.0353,3.0114,-1,-1,-1,-1,-1,-1,-1,-1,-1,-1
346,3.3757,3.0114,3.0434,3.0605,3.0737,3.0255,-1,3.1959,3.0353,3.0114,-1,-1,-1,-1,-1,-1,-1,-1,-1,-1
347,3.3809,3.0114,3.0434,3.0615,3.0737,3.0264,-1,3.1986,3.0353,3.0114,-1,-1,-1,-1,-1,-1,-1,-1,-1,-1
348,3.3809,3.0114,3.0434,3.0615,3.0742,3.0264,-1,3.1986,3.0357,3.0114,-1,-1,-1,-1,-1,-1,-1,-1,-1,-1
349,3.3809,3.0114,3.0434,3.0615,3.0747,3.0264,-1,3.1986,3.0357,3.0114,-1,-1,-1,-1,-1,-1,-1,-1,-1,-1
350,3.3809,3.0114,3.0434,3.0615,3.0752,3.0269,-1,3.1993,3.0357,3.0114,-1,-1,-1,-1,-1,-1,-1,-1,-1,-1
351,3.3851,3.0114,3.0443,3.0615,3.0752,3.0269,-1,3.202,3.0357,3.0114,-1,-1,-1,-1,-1,-1,-1,-1,-1,-1
352,3.3851,3.0114,3.0443,3.062,3.0757,3.0273,-1,3.202,3.0362,3.0114,-1,-1,-1,-1,-1,-1,-1,-1,-1,-1
353,3.3851,3.0114,3.0443,3.0625,3.0757,3.0273,-1,3.2027,3.0362,3.0114,-1,-1,-1,-1,-1,-1,-1,-1,-1,-1
354,3.3851,3.0114,3.0443,3.0625,3.0757,3.0273,-1,3.2027,3.0362,3.0114,-1,-1,-1,-1,-1,-1,-1,-1,-1,-1
355,3.3862,3.0114,3.0443,3.0625,3.0757,3.0273,-1,3.2027,3.0362,3.0114,-1,-1,-1,-1,-1,-1,-1,-1,-1,-1
356,3.3862,3.0114,3.0443,3.0625,3.0757,3.0273,-1,3.2041,3.0372,3.0114,-1,-1,-1,-1,-1,-1,-1,-1,-1,-1
357,3.3872,3.0114,3.0443,3.0635,3.0757,3.0273,-1,3.2041,3.0372,3.0114,-1,-1,-1,-1,-1,-1,-1,-1,-1,-1
358,3.3872,3.0114,3.0443,3.0635,3.0757,3.0273,-1,3.2055,3.0372,3.0114,-1,-1,-1,-1,-1,-1,-1,-1,-1,-1
359,3.3893,3.0114,3.0443,3.064,3.0757,3.0273,-1,3.2055,3.0372,3.0114,-1,-1,-1,-1,-1,-1,-1,-1,-1,-1
360,3.3904,3.0114,3.0443,3.064,3.0768,3.0273,-1,3.2055,3.0372,3.0114,-1,-1,-1,-1,-1,-1,-1,-1,-1,-1
361,3.3915,3.0114,3.0443,3.0645,3.0768,3.0273,-1,3.2062,3.0372,3.0114,-1,-1,-1,-1,-1,-1,-1,-1,-1,-1
362,3.3925,3.0114,3.0443,3.0645,3.0768,3.0283,-1,3.2062,3.0376,3.0114,-1,-1,-1,-1,-1,-1,-1,-1,-1,-1
363,3.3936,3.0114,3.0443,3.065,3.0773,3.0283,-1,3.2083,3.0376,3.0114,-1,-1,-1,-1,-1,-1,-1,-1,-1,-1
364,3.3936,3.0114,3.0448,3.065,3.0773,3.0283,-1,3.2083,3.0381,3.0114,-1,-1,-1,-1,-1,-1,-1,-1,-1,-1
365,3.3969,3.0114,3.0448,3.0655,3.0778,3.0283,-1,3.2083,3.0381,3.0114,-1,-1,-1,-1,-1,-1,-1,-1,-1,-1
366,3.3969,3.0114,3.0453,3.0655,3.0778,3.0287,-1,3.2083,3.0381,3.0114,-1,-1,-1,-1,-1,-1,-1,-1,-1,-1
367,3.399,3.0114,3.0453,3.0655,3.0778,3.0287,-1,3.2083,3.0381,3.0114,-1,-1,-1,-1,-1,-1,-1,-1,-1,-1
368,3.399,3.0114,3.0453,3.0655,3.0783,3.0287,-1,3.209,3.0381,3.0114,-1,-1,-1,-1,-1,-1,-1,-1,-1,-1
369,3.4001,3.0114,3.0453,3.0655,3.0788,3.0287,-1,3.209,3.0386,3.0114,-1,-1,-1,-1,-1,-1,-1,-1,-1,-1
370,3.4078,3.0114,3.0453,3.0655,3.0788,3.0287,-1,3.209,3.0386,3.0114,-1,-1,-1,-1,-1,-1,-1,-1,-1,-1
371,3.4123,3.0114,3.0453,3.0655,3.0788,3.0287,-1,3.209,3.0386,3.0114,-1,-1,-1,-1,-1,-1,-1,-1,-1,-1
372,3.4123,3.0114,3.0453,3.0655,3.0788,3.0287,-1,3.209,3.0395,3.0114,-1,-1,-1,-1,-1,-1,-1,-1,-1,-1
373,3.4123,3.0114,3.0453,3.0655,3.0804,3.0287,-1,3.2104,3.0395,3.0114,-1,-1,-1,-1,-1,-1,-1,-1,-1,-1
374,3.4145,3.0114,3.0453,3.0665,3.0804,3.0287,-1,3.2111,3.0395,3.0114,-1,-1,-1,-1,-1,-1,-1,-1,-1,-1
375,3.4157,3.0114,3.0453,3.0665,3.0809,3.0292,-1,3.2111,3.0395,3.0114,-1,-1,-1,-1,-1,-1,-1,-1,-1,-1
376,3.4191,3.0114,3.0453,3.0665,3.082,3.0292,-1,3.2132,3.0395,3.0114,-1,-1,-1,-1,-1,-1,-1,-1,-1,-1
377,3.4202,3.0114,3.0453,3.0665,3.082,3.0292,-1,3.2161,3.0395,3.0114,-1,-1,-1,-1,-1,-1,-1,-1,-1,-1
378,3.4202,3.0114,3.0453,3.0665,3.082,3.0292,-1,3.2161,3.04,3.0114,-1,-1,-1,-1,-1,-1,-1,-1,-1,-1
379,3.4202,3.0114,3.0453,3.0665,3.0825,3.0297,-1,3.2168,3.04,3.0114,-1,-1,-1,-1,-1,-1,-1,-1,-1,-1
380,3.4248,3.0114,3.0458,3.0665,3.0825,3.0297,-1,3.2175,3.04,3.0114,-1,-1,-1,-1,-1,-1,-1,-1,-1,-1
381,3.4271,3.0114,3.0458,3.0665,3.083,3.0297,-1,3.2175,3.0405,3.0114,-1,-1,-1,-1,-1,-1,-1,-1,-1,-1
382,3.4271,3.0114,3.0458,3.067,3.083,3.0297,-1,3.2182,3.0405,3.0114,-1,-1,-1,-1,-1,-1,-1,-1,-1,-1
383,3.4271,3.0114,3.0458,3.067,3.0835,3.0297,-1,3.2197,3.0405,3.0114,-1,-1,-1,-1,-1,-1,-1,-1,-1,-1
384,3.4318,3.0114,3.0458,3.067,3.0835,3.0297,-1,3.2197,3.0405,3.0114,-1,-1,-1,-1,-1,-1,-1,-1,-1,-1
385,3.4318,3.0114,3.0467,3.067,3.0846,3.0297,-1,3.2197,3.0405,3.0114,-1,-1,-1,-1,-1,-1,-1,-1,-1,-1
386,3.433,3.0114,3.0467,3.067,3.0846,3.0297,-1,3.2197,3.041,3.0114,-1,-1,-1,-1,-1,-1,-1,-1,-1,-1
387,3.433,3.0114,3.0467,3.0675,3.0846,3.0297,-1,3.2197,3.041,3.0114,-1,-1,-1,-1,-1,-1,-1,-1,-1,-1
388,3.433,3.0114,3.0467,3.068,3.0846,3.0297,-1,3.2197,3.041,3.0114,-1,-1,-1,-1,-1,-1,-1,-1,-1,-1
389,3.433,3.0114,3.0472,3.068,3.0846,3.0306,-1,3.2204,3.041,3.0114,-1,-1,-1,-1,-1,-1,-1,-1,-1,-1
390,3.4342,3.0114,3.0472,3.0685,3.0851,3.0306,-1,3.2218,3.041,3.0114,-1,-1,-1,-1,-1,-1,-1,-1,-1,-1
391,3.4342,3.0114,3.0472,3.0685,3.0851,3.0306,-1,3.2233,3.0419,3.0114,-1,-1,-1,-1,-1,-1,-1,-1,-1,-1
392,3.4353,3.0114,3.0472,3.0685,3.0851,3.0306,-1,3.2233,3.0419,3.0123,-1,-1,-1,-1,-1,-1,-1,-1,-1,-1
393,3.4401,3.0114,3.0472,3.0685,3.0857,3.0306,-1,3.2233,3.0419,3.0123,-1,-1,-1,-1,-1,-1,-1,-1,-1,-1
394,3.4401,3.0114,3.0477,3.0685,3.0857,3.0306,-1,3.2248,3.0419,3.0128,-1,-1,-1,-1,-1,-1,-1,-1,-1,-1
395,3.4401,3.0114,3.0477,3.0685,3.0857,3.0306,-1,3.2269,3.0419,3.0132,-1,-1,-1,-1,-1,-1,-1,-1,-1,-1
396,3.4401,3.0114,3.0477,3.0685,3.0857,3.0306,-1,3.2277,3.0419,3.0132,-1,-1,-1,-1,-1,-1,-1,-1,-1,-1
397,3.4401,3.0114,3.0477,3.0691,3.0857,3.0306,-1,3.2277,3.0419,3.0132,-1,-1,-1,-1,-1,-1,-1,-1,-1,-1
398,3.4401,3.0114,3.0477,3.0701,3.0857,3.0306,-1,3.2306,3.0424,3.0132,-1,-1,-1,-1,-1,-1,-1,-1,-1,-1
399,3.4401,3.0114,3.0477,3.0701,3.0862,3.0306,-1,3.2306,3.0424,3.0132,-1,-1,-1,-1,-1,-1,-1,-1,-1,-1
400,3.4401,3.0114,3.0482,3.0701,3.0862,3.0311,-1,3.2306,3.0424,3.0141,-1,-1,-1,-1,-1,-1,-1,-1,-1,-1
401,3.4401,3.0114,3.0482,3.0706,3.0862,3.0311,-1,3.2314,3.0424,3.0141,-1,-1,-1,-1,-1,-1,-1,-1,-1,-1
402,3.4425,3.0114,3.0482,3.0706,3.0867,3.0311,-1,3.2328,3.0429,3.0141,-1,-1,-1,-1,-1,-1,-1,-1,-1,-1
403,3.4437,3.0114,3.0482,3.0706,3.0872,3.0315,-1,3.2328,3.0429,3.0141,-1,-1,-1,-1,-1,-1,-1,-1,-1,-1
404,3.4461,3.0123,3.0482,3.0711,3.0883,3.0325,-1,3.2328,3.0429,3.0141,-1,-1,-1,-1,-1,-1,-1,-1,-1,-1
405,3.4473,3.0123,3.0482,3.0711,3.0883,3.0325,-1,3.2328,3.0429,3.0146,-1,-1,-1,-1,-1,-1,-1,-1,-1,-1
406,3.4535,3.0123,3.0482,3.0711,3.0883,3.0325,-1,3.2336,3.0429,3.0146,-1,-1,-1,-1,-1,-1,-1,-1,-1,-1
407,3.4547,3.0128,3.0491,3.0721,3.0883,3.0325,-1,3.2343,3.0429,3.0146,-1,-1,-1,-1,-1,-1,-1,-1,-1,-1
408,3.4572,3.0128,3.0491,3.0731,3.0883,3.0325,-1,3.2343,3.0429,3.0146,-1,-1,-1,-1,-1,-1,-1,-1,-1,-1
409,3.4609,3.0128,3.0491,3.0737,3.0883,3.0325,-1,3.2358,3.0429,3.0146,-1,-1,-1,-1,-1,-1,-1,-1,-1,-1
410,3.4634,3.0128,3.0496,3.0737,3.0883,3.0325,-1,3.2358,3.0434,3.015,-1,-1,-1,-1,-1,-1,-1,-1,-1,-1
411,3.4647,3.0132,3.0496,3.0737,3.0883,3.0325,-1,3.2358,3.0434,3.015,-1,-1,-1,-1,-1,-1,-1,-1,-1,-1
412,3.466,3.0132,3.0501,3.0737,3.0883,3.0325,-1,3.2366,3.0434,3.015,-1,-1,-1,-1,-1,-1,-1,-1,-1,-1
413,3.4698,3.0132,3.0501,3.0737,3.0888,3.0325,-1,3.2373,3.0434,3.015,-1,-1,-1,-1,-1,-1,-1,-1,-1,-1
414,3.4698,3.0132,3.0501,3.0742,3.0888,3.0325,-1,3.2396,3.0434,3.015,-1,-1,-1,-1,-1,-1,-1,-1,-1,-1
415,3.4711,3.0132,3.0506,3.0747,3.0888,3.0325,-1,3.2411,3.0434,3.015,-1,-1,-1,-1,-1,-1,-1,-1,-1,-1
416,3.4711,3.0132,3.0506,3.0747,3.0888,3.0329,-1,3.2418,3.0434,3.0159,-1,-1,-1,-1,-1,-1,-1,-1,-1,-1
417,3.4737,3.0132,3.0506,3.0747,3.0888,3.0329,-1,3.2418,3.0434,3.0159,-1,-1,-1,-1,-1,-1,-1,-1,-1,-1
418,3.475,3.0132,3.0511,3.0752,3.0894,3.0329,-1,3.2418,3.0434,3.0159,-1,-1,-1,-1,-1,-1,-1,-1,-1,-1
419,3.4763,3.0132,3.0511,3.0752,3.0894,3.0329,-1,3.2434,3.0434,3.0164,-1,-1,-1,-1,-1,-1,-1,-1,-1,-1
420,3.4763,3.0141,3.0511,3.0752,3.0899,3.0329,-1,3.2434,3.0443,3.0164,-1,-1,-1,-1,-1,-1,-1,-1,-1,-1
421,3.4763,3.0141,3.0521,3.0757,3.0899,3.0329,-1,3.2457,3.0443,3.0164,-1,-1,-1,-1,-1,-1,-1,-1,-1,-1
422,3.4763,3.0141,3.0521,3.0768,3.0899,3.0329,-1,3.2457,3.0443,3.0164,-1,-1,-1,-1,-1,-1,-1,-1,-1,-1
423,3.4789,3.0141,3.0521,3.0768,3.0899,3.0329,-1,3.2457,3.0443,3.0164,-1,-1,-1,-1,-1,-1,-1,-1,-1,-1
424,3.4789,3.0141,3.0526,3.0773,3.0899,3.0334,-1,3.248,3.0443,3.0164,-1,-1,-1,-1,-1,-1,-1,-1,-1,-1
425,3.4789,3.0141,3.0526,3.0773,3.0904,3.0334,-1,3.2487,3.0443,3.0164,-1,-1,-1,-1,-1,-1,-1,-1,-1,-1
426,3.4789,3.0146,3.0526,3.0773,3.091,3.0334,-1,3.251,3.0443,3.0164,-1,-1,-1,-1,-1,-1,-1,-1,-1,-1
427,3.4789,3.0146,3.0526,3.0783,3.091,3.0334,-1,3.2526,3.0443,3.0164,-1,-1,-1,-1,-1,-1,-1,-1,-1,-1
428,3.4802,3.0146,3.0526,3.0783,3.091,3.0334,-1,3.2534,3.0443,3.0164,-1,-1,-1,-1,-1,-1,-1,-1,-1,-1
429,3.4815,3.0146,3.0526,3.0788,3.0915,3.0334,-1,3.2534,3.0443,3.0164,-1,-1,-1,-1,-1,-1,-1,-1,-1,-1
430,3.4815,3.0146,3.0526,3.0788,3.0926,3.0334,-1,3.2534,3.0448,3.0168,-1,-1,-1,-1,-1,-1,-1,-1,-1,-1
431,3.4868,3.0146,3.0526,3.0788,3.0931,3.0334,-1,3.2534,3.0448,3.0173,-1,-1,-1,-1,-1,-1,-1,-1,-1,-1
432,3.4868,3.015,3.0526,3.0794,3.0937,3.0334,-1,3.2549,3.0448,3.0173,-1,-1,-1,-1,-1,-1,-1,-1,-1,-1
433,3.4881,3.015,3.0526,3.0794,3.0937,3.0334,-1,3.2549,3.0448,3.0173,-1,-1,-1,-1,-1,-1,-1,-1,-1,-1
434,3.4895,3.015,3.0531,3.0804,3.0937,3.0334,-1,3.2549,3.0448,3.0173,-1,-1,-1,-1,-1,-1,-1,-1,-1,-1
435,3.4908,3.015,3.0531,3.0804,3.0937,3.0334,-1,3.2565,3.0448,3.0173,-1,-1,-1,-1,-1,-1,-1,-1,-1,-1
436,3.4949,3.015,3.0531,3.0804,3.0937,3.0339,-1,3.2565,3.0448,3.0173,-1,-1,-1,-1,-1,-1,-1,-1,-1,-1
437,3.4976,3.015,3.0531,3.0804,3.0937,3.0339,-1,3.2588,3.0448,3.0182,-1,-1,-1,-1,-1,-1,-1,-1,-1,-1
438,3.5045,3.0159,3.0531,3.0809,3.0937,3.0348,-1,3.2588,3.0448,3.0182,-1,-1,-1,-1,-1,-1,-1,-1,-1,-1
439,3.51,3.0159,3.0531,3.0809,3.0937,3.0348,-1,3.2612,3.0448,3.0182,-1,-1,-1,-1,-1,-1,-1,-1,-1,-1
440,3.5143,3.0159,3.0531,3.0809,3.0942,3.0348,-1,3.2612,3.0448,3.0182,-1,-1,-1,-1,-1,-1,-1,-1,-1,-1
441,3.5171,3.0159,3.0535,3.0809,3.0942,3.0353,-1,3.2612,3.0458,3.0182,-1,-1,-1,-1,-1,-1,-1,-1,-1,-1
442,3.52,3.0159,3.0535,3.0809,3.0942,3.0357,-1,3.2612,3.0458,3.0182,-1,-1,-1,-1,-1,-1,-1,-1,-1,-1
443,3.52,3.0159,3.0535,3.0809,3.0953,3.0362,-1,3.2612,3.0458,3.0182,-1,-1,-1,-1,-1,-1,-1,-1,-1,-1
444,3.52,3.0159,3.0535,3.0809,3.0953,3.0362,-1,3.2628,3.0458,3.0182,-1,-1,-1,-1,-1,-1,-1,-1,-1,-1
445,3.5272,3.0164,3.0535,3.0814,3.0953,3.0362,-1,3.2628,3.0467,3.0182,-1,-1,-1,-1,-1,-1,-1,-1,-1,-1
446,3.5302,3.0164,3.0535,3.0814,3.0953,3.0362,-1,3.2628,3.0467,3.0186,-1,-1,-1,-1,-1,-1,-1,-1,-1,-1
447,3.5302,3.0164,3.0535,3.0814,3.0958,3.0362,-1,3.2652,3.0467,3.0186,-1,-1,-1,-1,-1,-1,-1,-1,-1,-1
448,3.5302,3.0164,3.0535,3.082,3.0958,3.0362,-1,3.2676,3.0472,3.0186,-1,-1,-1,-1,-1,-1,-1,-1,-1,-1
449,3.5302,3.0164,3.0535,3.082,3.0969,3.0362,-1,3.2708,3.0477,3.0186,-1,-1,-1,-1,-1,-1,-1,-1,-1,-1
450,3.5317,3.0168,3.0535,3.083,3.0969,3.0372,-1,3.2716,3.0477,3.0186,-1,-1,-1,-1,-1,-1,-1,-1,-1,-1
451,3.5317,3.0168,3.0555,3.083,3.0969,3.0372,-1,3.2716,3.0477,3.0186,-1,-1,-1,-1,-1,-1,-1,-1,-1,-1
452,3.5346,3.0168,3.0555,3.083,3.0969,3.0372,-1,3.2716,3.0477,3.0186,-1,-1,-1,-1,-1,-1,-1,-1,-1,-1
453,3.5346,3.0173,3.0555,3.0835,3.0969,3.0372,-1,3.2749,3.0477,3.0186,-1,-1,-1,-1,-1,-1,-1,-1,-1,-1
454,3.5361,3.0173,3.0555,3.0835,3.0969,3.0376,-1,3.2749,3.0477,3.0191,-1,-1,-1,-1,-1,-1,-1,-1,-1,-1
455,3.5361,3.0173,3.056,3.0846,3.0969,3.0376,-1,3.2749,3.0482,3.0191,-1,-1,-1,-1,-1,-1,-1,-1,-1,-1
456,3.5436,3.0173,3.056,3.0851,3.0969,3.0376,-1,3.2774,3.0482,3.0191,-1,-1,-1,-1,-1,-1,-1,-1,-1,-1
457,3.5452,3.0173,3.056,3.0851,3.0975,3.0376,-1,3.2782,3.0482,3.0191,-1,-1,-1,-1,-1,-1,-1,-1,-1,-1
458,3.5452,3.0173,3.0565,3.0851,3.098,3.0376,-1,3.2798,3.0482,3.0191,-1,-1,-1,-1,-1,-1,-1,-1,-1,-1
459,3.5482,3.0173,3.0565,3.0851,3.098,3.0376,-1,3.2815,3.0482,3.02,-1,-1,-1,-1,-1,-1,-1,-1,-1,-1
460,3.5544,3.0182,3.0565,3.0857,3.098,3.0376,-1,3.284,3.0482,3.02,-1,-1,-1,-1,-1,-1,-1,-1,-1,-1
461,3.5607,3.0182,3.0565,3.0857,3.098,3.0376,-1,3.2857,3.0491,3.02,-1,-1,-1,-1,-1,-1,-1,-1,-1,-1
462,3.5638,3.0182,3.0565,3.0857,3.098,3.0376,-1,3.2865,3.0491,3.02,-1,-1,-1,-1,-1,-1,-1,-1,-1,-1
463,3.5638,3.0186,3.0565,3.0857,3.098,3.0376,-1,3.289,3.0496,3.02,-1,-1,-1,-1,-1,-1,-1,-1,-1,-1
464,3.5654,3.0186,3.0565,3.0857,3.098,3.0376,-1,3.289,3.0496,3.02,-1,-1,-1,-1,-1,-1,-1,-1,-1,-1
465,3.567,3.0191,3.0565,3.0857,3.0985,3.0381,-1,3.2916,3.0496,3.02,-1,-1,-1,-1,-1,-1,-1,-1,-1,-1
466,3.5784,3.0191,3.0565,3.0857,3.0991,3.0386,-1,3.2916,3.0501,3.02,-1,-1,-1,-1,-1,-1,-1,-1,-1,-1
467,3.5784,3.0191,3.0575,3.0857,3.0996,3.0386,-1,3.2916,3.0501,3.02,-1,-1,-1,-1,-1,-1,-1,-1,-1,-1
468,3.5784,3.0191,3.058,3.0857,3.0996,3.0386,-1,3.2924,3.0501,3.02,-1,-1,-1,-1,-1,-1,-1,-1,-1,-1
469,3.58,3.0191,3.058,3.0857,3.1002,3.0386,-1,3.295,3.0506,3.02,-1,-1,-1,-1,-1,-1,-1,-1,-1,-1
470,3.58,3.02,3.0585,3.0857,3.1002,3.0395,-1,3.2984,3.0506,3.02,-1,-1,-1,-1,-1,-1,-1,-1,-1,-1
471,3.58,3.02,3.0585,3.0857,3.1002,3.04,-1,3.301,3.0506,3.02,-1,-1,-1,-1,-1,-1,-1,-1,-1,-1
472,3.5834,3.02,3.0585,3.0857,3.1018,3.04,-1,3.3036,3.0506,3.02,-1,-1,-1,-1,-1,-1,-1,-1,-1,-1
473,3.585,3.02,3.0585,3.0857,3.1018,3.04,-1,3.3045,3.0511,3.02,-1,-1,-1,-1,-1,-1,-1,-1,-1,-1
474,3.5884,3.02,3.0585,3.0862,3.1018,3.04,-1,3.3045,3.0511,3.02,-1,-1,-1,-1,-1,-1,-1,-1,-1,-1
475,3.5884,3.02,3.059,3.0862,3.1024,3.04,-1,3.3063,3.0511,3.02,-1,-1,-1,-1,-1,-1,-1,-1,-1,-1
476,3.5901,3.02,3.059,3.0862,3.1024,3.0405,-1,3.3072,3.0511,3.02,-1,-1,-1,-1,-1,-1,-1,-1,-1,-1
477,3.5935,3.02,3.059,3.0867,3.1029,3.0405,-1,3.3107,3.0511,3.02,-1,-1,-1,-1,-1,-1,-1,-1,-1,-1
478,3.5952,3.02,3.059,3.0867,3.1035,3.0405,-1,3.3107,3.0511,3.02,-1,-1,-1,-1,-1,-1,-1,-1,-1,-1
479,3.5952,3.02,3.0595,3.0872,3.1035,3.0405,-1,3.3107,3.0521,3.02,-1,-1,-1,-1,-1,-1,-1,-1,-1,-1
480,3.6003,3.02,3.0595,3.0883,3.104,3.0405,-1,3.3107,3.0521,3.02,-1,-1,-1,-1,-1,-1,-1,-1,-1,-1
481,3.6021,3.02,3.0595,3.0883,3.104,3.041,-1,3.3125,3.0521,3.02,-1,-1,-1,-1,-1,-1,-1,-1,-1,-1
482,3.6021,3.02,3.0605,3.0883,3.1046,3.041,-1,3.3125,3.0521,3.02,-1,-1,-1,-1,-1,-1,-1,-1,-1,-1
483,3.6021,3.02,3.0605,3.0883,3.1046,3.041,-1,3.3125,3.0521,3.02,-1,-1,-1,-1,-1,-1,-1,-1,-1,-1
484,3.6021,3.02,3.0605,3.0883,3.1051,3.041,-1,3.3125,3.0521,3.02,-1,-1,-1,-1,-1,-1,-1,-1,-1,-1
485,3.6021,3.02,3.0605,3.0883,3.1051,3.041,-1,3.3125,3.0521,3.0205,-1,-1,-1,-1,-1,-1,-1,-1,-1,-1
486,3.6216,3.02,3.0605,3.0888,3.1051,3.041,-1,3.3143,3.0521,3.0205,-1,-1,-1,-1,-1,-1,-1,-1,-1,-1
487,3.6216,3.02,3.0605,3.0888,3.1051,3.041,-1,3.3152,3.0521,3.0205,-1,-1,-1,-1,-1,-1,-1,-1,-1,-1
488,3.6289,3.02,3.0605,3.0894,3.1051,3.041,-1,3.3161,3.0521,3.0205,-1,-1,-1,-1,-1,-1,-1,-1,-1,-1
489,3.6308,3.0205,3.0605,3.0899,3.1051,3.041,-1,3.3161,3.0526,3.0205,-1,-1,-1,-1,-1,-1,-1,-1,-1,-1
490,3.6345,3.0205,3.0605,3.0899,3.1051,3.0419,-1,3.317,3.0526,3.0205,-1,-1,-1,-1,-1,-1,-1,-1,-1,-1
491,3.6364,3.0209,3.0605,3.0899,3.1051,3.0419,-1,3.3179,3.0526,3.0205,-1,-1,-1,-1,-1,-1,-1,-1,-1,-1
492,3.6364,3.0209,3.0605,3.0904,3.1051,3.0419,-1,3.3179,3.0526,3.0205,-1,-1,-1,-1,-1,-1,-1,-1,-1,-1
493,3.6364,3.0214,3.0605,3.0904,3.1051,3.0419,-1,3.3179,3.0531,3.0205,-1,-1,-1,-1,-1,-1,-1,-1,-1,-1
494,3.6459,3.0214,3.061,3.0915,3.1051,3.0429,-1,3.3179,3.0535,3.0205,-1,-1,-1,-1,-1,-1,-1,-1,-1,-1
495,3.6556,3.0214,3.061,3.0915,3.1057,3.0429,-1,3.3188,3.0535,3.0209,-1,-1,-1,-1,-1,-1,-1,-1,-1,-1
496,3.6556,3.0214,3.0615,3.0926,3.1085,3.0429,-1,3.3188,3.0545,3.0209,-1,-1,-1,-1,-1,-1,-1,-1,-1,-1
497,3.6635,3.0214,3.0615,3.0926,3.1085,3.0429,-1,3.3206,3.0545,3.0214,-1,-1,-1,-1,-1,-1,-1,-1,-1,-1
498,3.6635,3.0214,3.0625,3.0926,3.1085,3.0434,-1,3.3242,3.0545,3.0214,-1,-1,-1,-1,-1,-1,-1,-1,-1,-1
499,3.6676,3.0214,3.0635,3.0937,3.1085,3.0434,-1,3.3242,3.0545,3.0214,-1,-1,-1,-1,-1,-1,-1,-1,-1,-1
500,3.6676,3.0214,3.0635,3.0937,3.1085,3.0434,-1,3.3242,3.0545,3.0214,-1,-1,-1,-1,-1,-1,-1,-1,-1,-1
501,3.6696,3.0223,3.0635,3.0937,3.1085,3.0434,-1,3.3242,3.0545,3.0214,-1,-1,-1,-1,-1,-1,-1,-1,-1,-1
502,3.6696,3.0223,3.0635,3.0937,3.1085,3.0434,-1,3.3251,3.0545,3.0223,-1,-1,-1,-1,-1,-1,-1,-1,-1,-1
503,3.6778,3.0223,3.0635,3.0947,3.1085,3.0434,-1,3.3251,3.0545,3.0223,-1,-1,-1,-1,-1,-1,-1,-1,-1,-1
504,3.684,3.0223,3.0635,3.0947,3.1085,3.0434,-1,3.3251,3.0545,3.0223,-1,-1,-1,-1,-1,-1,-1,-1,-1,-1
505,3.684,3.0227,3.064,3.0947,3.1085,3.0434,-1,3.3261,3.0545,3.0223,-1,-1,-1,-1,-1,-1,-1,-1,-1,-1
506,3.6882,3.0227,3.064,3.0947,3.1085,3.0434,-1,3.3279,3.0545,3.0223,-1,-1,-1,-1,-1,-1,-1,-1,-1,-1
507,3.6882,3.0227,3.0645,3.0947,3.1085,3.0443,-1,3.3288,3.0545,3.0227,-1,-1,-1,-1,-1,-1,-1,-1,-1,-1
508,3.6882,3.0227,3.0645,3.0953,3.1085,3.0443,-1,3.3288,3.055,3.0232,-1,-1,-1,-1,-1,-1,-1,-1,-1,-1
509,3.6882,3.0227,3.0645,3.0958,3.1085,3.0448,-1,3.3325,3.055,3.0232,-1,-1,-1,-1,-1,-1,-1,-1,-1,-1
510,3.6925,3.0227,3.0645,3.0958,3.1085,3.0448,-1,3.3325,3.055,3.0232,-1,-1,-1,-1,-1,-1,-1,-1,-1,-1
511,3.6946,3.0232,3.0645,3.0958,3.1096,3.0448,-1,3.3363,3.055,3.0232,-1,-1,-1,-1,-1,-1,-1,-1,-1,-1
512,3.699,3.0232,3.065,3.0958,3.1096,3.0448,-1,3.3372,3.0555,3.0232,-1,-1,-1,-1,-1,-1,-1,-1,-1,-1
513,3.699,3.0232,3.065,3.0958,3.1096,3.0448,-1,3.3391,3.0555,3.0241,-1,-1,-1,-1,-1,-1,-1,-1,-1,-1
514,3.699,3.0232,3.065,3.0958,3.1096,3.0448,-1,3.3391,3.0555,3.0241,-1,-1,-1,-1,-1,-1,-1,-1,-1,-1
515,3.699,3.0241,3.065,3.0958,3.1107,3.0453,-1,3.3391,3.0555,3.0241,-1,-1,-1,-1,-1,-1,-1,-1,-1,-1
516,3.7122,3.0241,3.065,3.0958,3.1107,3.0453,-1,3.341,3.0555,3.0241,-1,-1,-1,-1,-1,-1,-1,-1,-1,-1
517,3.7122,3.0241,3.0655,3.0969,3.1107,3.0453,-1,3.341,3.056,3.0241,-1,-1,-1,-1,-1,-1,-1,-1,-1,-1
518,3.7167,3.0246,3.0655,3.0969,3.1107,3.0453,-1,3.341,3.056,3.0241,-1,-1,-1,-1,-1,-1,-1,-1,-1,-1
519,3.719,3.0246,3.0655,3.0969,3.1118,3.0453,-1,3.341,3.056,3.0241,-1,-1,-1,-1,-1,-1,-1,-1,-1,-1
520,3.719,3.0246,3.0655,3.0969,3.1124,3.0458,-1,3.342,3.056,3.0246,-1,-1,-1,-1,-1,-1,-1,-1,-1,-1
521,3.7212,3.0246,3.0655,3.0975,3.1141,3.0458,-1,3.3429,3.056,3.0246,-1,-1,-1,-1,-1,-1,-1,-1,-1,-1
522,3.7235,3.0246,3.0665,3.0975,3.1146,3.0458,-1,3.3439,3.056,3.0246,-1,-1,-1,-1,-1,-1,-1,-1,-1,-1
523,3.7305,3.025,3.0665,3.0975,3.1146,3.0458,-1,3.3497,3.0565,3.025,-1,-1,-1,-1,-1,-1,-1,-1,-1,-1
524,3.7328,3.025,3.0665,3.0975,3.1146,3.0467,-1,3.3507,3.0565,3.025,-1,-1,-1,-1,-1,-1,-1,-1,-1,-1
525,3.7352,3.025,3.0665,3.0975,3.1146,3.0467,-1,3.3516,3.0575,3.025,-1,-1,-1,-1,-1,-1,-1,-1,-1,-1
526,3.7375,3.025,3.0665,3.0975,3.1146,3.0467,-1,3.3516,3.0575,3.025,-1,-1,-1,-1,-1,-1,-1,-1,-1,-1
527,3.7375,3.025,3.067,3.0975,3.1152,3.0467,-1,3.3516,3.0575,3.025,-1,-1,-1,-1,-1,-1,-1,-1,-1,-1
528,3.7399,3.025,3.0675,3.0975,3.1152,3.0467,-1,3.3526,3.0575,3.0255,-1,-1,-1,-1,-1,-1,-1,-1,-1,-1
529,3.752,3.0255,3.0675,3.0975,3.1152,3.0467,-1,3.3536,3.0575,3.0255,-1,-1,-1,-1,-1,-1,-1,-1,-1,-1
530,3.762,3.0255,3.0675,3.0975,3.1158,3.0467,-1,3.3546,3.0575,3.0255,-1,-1,-1,-1,-1,-1,-1,-1,-1,-1
531,3.762,3.0255,3.0675,3.0975,3.1163,3.0467,-1,3.3575,3.0575,3.0255,-1,-1,-1,-1,-1,-1,-1,-1,-1,-1
532,3.7747,3.0255,3.0675,3.0975,3.1169,3.0472,-1,3.3575,3.0575,3.0255,-1,-1,-1,-1,-1,-1,-1,-1,-1,-1
533,3.7852,3.0255,3.0675,3.098,3.1169,3.0472,-1,3.3595,3.058,3.0269,-1,-1,-1,-1,-1,-1,-1,-1,-1,-1
534,3.7878,3.0255,3.068,3.098,3.1175,3.0472,-1,3.3595,3.058,3.0269,-1,-1,-1,-1,-1,-1,-1,-1,-1,-1
535,3.7878,3.0255,3.068,3.098,3.1175,3.0472,-1,3.3595,3.058,3.0269,-1,-1,-1,-1,-1,-1,-1,-1,-1,-1
536,3.7878,3.0255,3.068,3.0991,3.1175,3.0477,-1,3.3625,3.058,3.0269,-1,-1,-1,-1,-1,-1,-1,-1,-1,-1
537,3.7878,3.0255,3.0685,3.0996,3.118,3.0477,-1,3.3635,3.058,3.0269,-1,-1,-1,-1,-1,-1,-1,-1,-1,-1
538,3.7905,3.0264,3.0685,3.1002,3.118,3.0477,-1,3.3675,3.058,3.0269,-1,-1,-1,-1,-1,-1,-1,-1,-1,-1
539,3.7932,3.0264,3.0691,3.1002,3.118,3.0477,-1,3.3686,3.058,3.0273,-1,-1,-1,-1,-1,-1,-1,-1,-1,-1
540,3.7932,3.0264,3.0691,3.1007,3.118,3.0477,-1,3.3706,3.058,3.0273,-1,-1,-1,-1,-1,-1,-1,-1,-1,-1
541,3.8013,3.0264,3.0691,3.1018,3.1186,3.0477,-1,3.3706,3.058,3.0273,-1,-1,-1,-1,-1,-1,-1,-1,-1,-1
542,3.8041,3.0264,3.0701,3.1018,3.1203,3.0477,-1,3.3726,3.058,3.0273,-1,-1,-1,-1,-1,-1,-1,-1,-1,-1
543,3.821,3.0269,3.0701,3.1018,3.1203,3.0482,-1,3.3726,3.058,3.0273,-1,-1,-1,-1,-1,-1,-1,-1,-1,-1
544,3.8239,3.0269,3.0701,3.1018,3.1209,3.0482,-1,3.3726,3.058,3.0273,-1,-1,-1,-1,-1,-1,-1,-1,-1,-1
545,3.8297,3.0269,3.0706,3.1024,3.1209,3.0482,-1,3.3757,3.058,3.0273,-1,-1,-1,-1,-1,-1,-1,-1,-1,-1
546,3.8327,3.0269,3.0711,3.1029,3.1209,3.0482,-1,3.3757,3.0585,3.0273,-1,-1,-1,-1,-1,-1,-1,-1,-1,-1
547,3.8327,3.0269,3.0711,3.1029,3.1215,3.0482,-1,3.3768,3.0585,3.0273,-1,-1,-1,-1,-1,-1,-1,-1,-1,-1
548,3.8356,3.0269,3.0711,3.1035,3.1215,3.0482,-1,3.3768,3.0585,3.0273,-1,-1,-1,-1,-1,-1,-1,-1,-1,-1
549,3.8386,3.0273,3.0716,3.1035,3.1215,3.0482,-1,3.3768,3.0585,3.0273,-1,-1,-1,-1,-1,-1,-1,-1,-1,-1
550,3.8447,3.0273,3.0716,3.1035,3.1215,3.0491,-1,3.3768,3.059,3.0273,-1,-1,-1,-1,-1,-1,-1,-1,-1,-1
551,3.8477,3.0273,3.0716,3.104,3.1215,3.0491,-1,3.3778,3.059,3.0273,-1,-1,-1,-1,-1,-1,-1,-1,-1,-1
552,3.8601,3.0273,3.0716,3.1046,3.1215,3.0491,-1,3.3788,3.059,3.0287,-1,-1,-1,-1,-1,-1,-1,-1,-1,-1
553,3.8729,3.0273,3.0716,3.1046,3.1215,3.0491,-1,3.3799,3.059,3.0287,-1,-1,-1,-1,-1,-1,-1,-1,-1,-1
554,3.8729,3.0273,3.0716,3.1051,3.1221,3.0491,-1,3.3809,3.059,3.0287,-1,-1,-1,-1,-1,-1,-1,-1,-1,-1
555,3.8794,3.0283,3.0721,3.1051,3.1221,3.0491,-1,3.3809,3.059,3.0292,-1,-1,-1,-1,-1,-1,-1,-1,-1,-1
556,3.8827,3.0283,3.0731,3.1057,3.1221,3.0491,-1,3.3809,3.059,3.0292,-1,-1,-1,-1,-1,-1,-1,-1,-1,-1
557,3.8894,3.0283,3.0731,3.1057,3.1221,3.0496,-1,3.384,3.059,3.0292,-1,-1,-1,-1,-1,-1,-1,-1,-1,-1
558,3.9172,3.0283,3.0731,3.1057,3.1221,3.0496,-1,3.3851,3.0595,3.0292,-1,-1,-1,-1,-1,-1,-1,-1,-1,-1
559,3.9245,3.0283,3.0731,3.1073,3.1221,3.0501,-1,3.3862,3.0595,3.0292,-1,-1,-1,-1,-1,-1,-1,-1,-1,-1
560,3.9245,3.0287,3.0731,3.1073,3.1221,3.0501,-1,3.3862,3.0595,3.0292,-1,-1,-1,-1,-1,-1,-1,-1,-1,-1
561,3.9245,3.0287,3.0731,3.1073,3.1221,3.0501,-1,3.3872,3.0605,3.0292,-1,-1,-1,-1,-1,-1,-1,-1,-1,-1
562,3.9281,3.0287,3.0731,3.1079,3.1232,3.0501,-1,3.3872,3.0605,3.0292,-1,-1,-1,-1,-1,-1,-1,-1,-1,-1
563,3.9318,3.0292,3.0737,3.1079,3.1232,3.0506,-1,3.3883,3.0605,3.0292,-1,-1,-1,-1,-1,-1,-1,-1,-1,-1
564,3.9393,3.0292,3.0737,3.1079,3.1232,3.0506,-1,3.3883,3.0605,3.0292,-1,-1,-1,-1,-1,-1,-1,-1,-1,-1
565,3.9586,3.0292,3.0737,3.1079,3.1232,3.0506,-1,3.3883,3.0605,3.0292,-1,-1,-1,-1,-1,-1,-1,-1,-1,-1
566,3.9747,3.0292,3.0737,3.1085,3.1238,3.0506,-1,3.3883,3.0605,3.0292,-1,-1,-1,-1,-1,-1,-1,-1,-1,-1
567,3.9747,3.0292,3.0737,3.1085,3.1238,3.0506,-1,3.3893,3.061,3.0292,-1,-1,-1,-1,-1,-1,-1,-1,-1,-1
568,3.9747,3.0292,3.0742,3.1085,3.1244,3.0506,-1,3.3893,3.061,3.0292,-1,-1,-1,-1,-1,-1,-1,-1,-1,-1
569,3.9747,3.0292,3.0742,3.1085,3.1249,3.0506,-1,3.3893,3.061,3.0297,-1,-1,-1,-1,-1,-1,-1,-1,-1,-1
570,4.0013,3.0292,3.0742,3.1085,3.1255,3.0511,-1,3.3893,3.0615,3.0297,-1,-1,-1,-1,-1,-1,-1,-1,-1,-1
571,4.0044,3.0292,3.0742,3.1096,3.1255,3.0511,-1,3.3958,3.0615,3.0297,-1,-1,-1,-1,-1,-1,-1,-1,-1,-1
572,4.0044,3.0292,3.0742,3.1096,3.1255,3.0511,-1,3.3969,3.0615,3.0297,-1,-1,-1,-1,-1,-1,-1,-1,-1,-1
573,4.0088,3.0292,3.0742,3.1096,3.1267,3.0511,-1,3.3969,3.0615,3.0297,-1,-1,-1,-1,-1,-1,-1,-1,-1,-1
574,4.0088,3.0292,3.0742,3.1096,3.1267,3.0511,-1,3.399,3.0615,3.0297,-1,-1,-1,-1,-1,-1,-1,-1,-1,-1
575,4.0088,3.0292,3.0747,3.1096,3.1273,3.0511,-1,3.399,3.062,3.0297,-1,-1,-1,-1,-1,-1,-1,-1,-1,-1
576,4.0088,3.0292,3.0747,3.1096,3.1273,3.0511,-1,3.399,3.062,3.0297,-1,-1,-1,-1,-1,-1,-1,-1,-1,-1
577,4.0123,3.0292,3.0747,3.1101,3.1273,3.0511,-1,3.399,3.062,3.0297,-1,-1,-1,-1,-1,-1,-1,-1,-1,-1
578,4.0191,3.0297,3.0747,3.1101,3.1284,3.0511,-1,3.399,3.0625,3.0297,-1,-1,-1,-1,-1,-1,-1,-1,-1,-1
579,4.02,3.0297,3.0747,3.1101,3.1284,3.0511,-1,3.4012,3.0635,3.0297,-1,-1,-1,-1,-1,-1,-1,-1,-1,-1
580,4.0448,3.0297,3.0752,3.1107,3.1296,3.0511,-1,3.4012,3.0635,3.0297,-1,-1,-1,-1,-1,-1,-1,-1,-1,-1
581,4.0635,3.0297,3.0752,3.1107,3.1296,3.0511,-1,3.4023,3.0635,3.0297,-1,-1,-1,-1,-1,-1,-1,-1,-1,-1
582,4.0757,3.0297,3.0752,3.1107,3.1296,3.0511,-1,3.4045,3.0635,3.0297,-1,-1,-1,-1,-1,-1,-1,-1,-1,-1
583,4.0835,3.0306,3.0757,3.1113,3.1296,3.0521,-1,3.4089,3.0635,3.0297,-1,-1,-1,-1,-1,-1,-1,-1,-1,-1
584,4.0926,3.0306,3.0757,3.1113,3.1296,3.0521,-1,3.4089,3.0635,3.0297,-1,-1,-1,-1,-1,-1,-1,-1,-1,-1
585,4.1079,3.0306,3.0757,3.1118,3.1296,3.0521,-1,3.4112,3.0635,3.0297,-1,-1,-1,-1,-1,-1,-1,-1,-1,-1
586,4.109,3.0306,3.0757,3.1118,3.1296,3.0521,-1,3.4123,3.0635,3.0297,-1,-1,-1,-1,-1,-1,-1,-1,-1,-1
587,4.129,3.0306,3.0757,3.1118,3.1296,3.0521,-1,3.4145,3.064,3.0306,-1,-1,-1,-1,-1,-1,-1,-1,-1,-1
588,4.1379,3.0306,3.0778,3.1124,3.1296,3.0521,-1,3.4157,3.064,3.0306,-1,-1,-1,-1,-1,-1,-1,-1,-1,-1
589,4.1518,3.0311,3.0778,3.1135,3.1296,3.0521,-1,3.4179,3.0645,3.0306,-1,-1,-1,-1,-1,-1,-1,-1,-1,-1
590,4.1518,3.0311,3.0778,3.1141,3.1296,3.0526,-1,3.4191,3.0645,3.0311,-1,-1,-1,-1,-1,-1,-1,-1,-1,-1
591,4.153,3.0315,3.0778,3.1146,3.1296,3.0526,-1,3.4191,3.065,3.0311,-1,-1,-1,-1,-1,-1,-1,-1,-1,-1
592,4.1707,3.0325,3.0778,3.1146,3.1296,3.0526,-1,3.4202,3.065,3.0311,-1,-1,-1,-1,-1,-1,-1,-1,-1,-1
593,4.172,3.0325,3.0783,3.1146,3.1296,3.0526,-1,3.4202,3.065,3.0311,-1,-1,-1,-1,-1,-1,-1,-1,-1,-1
594,4.1733,3.0325,3.0783,3.1146,3.1296,3.0526,-1,3.4237,3.065,3.0311,-1,-1,-1,-1,-1,-1,-1,-1,-1,-1
595,4.1818,3.0325,3.0783,3.1146,3.1296,3.0526,-1,3.4248,3.065,3.0315,-1,-1,-1,-1,-1,-1,-1,-1,-1,-1
596,4.1838,3.0325,3.0783,3.1146,3.1296,3.0531,-1,3.4318,3.065,3.0315,-1,-1,-1,-1,-1,-1,-1,-1,-1,-1
597,4.1838,3.0325,3.0783,3.1146,3.1296,3.0531,-1,3.433,3.065,3.0315,-1,-1,-1,-1,-1,-1,-1,-1,-1,-1
598,4.1864,3.0325,3.0788,3.1146,3.1296,3.0531,-1,3.433,3.065,3.0315,-1,-1,-1,-1,-1,-1,-1,-1,-1,-1
599,4.1898,3.0325,3.0788,3.1146,3.1296,3.0531,-1,3.433,3.065,3.0325,-1,-1,-1,-1,-1,-1,-1,-1,-1,-1
600,4.1898,3.0325,3.0794,3.1146,3.1296,3.0531,-1,3.433,3.0655,3.0325,-1,-1,-1,-1,-1,-1,-1,-1,-1,-1
601,4.2013,3.0325,3.0804,3.1146,3.1296,3.0531,-1,3.4377,3.0655,3.0325,-1,-1,-1,-1,-1,-1,-1,-1,-1,-1
602,4.2013,3.0329,3.0804,3.1152,3.1296,3.0531,-1,3.4401,3.0665,3.0325,-1,-1,-1,-1,-1,-1,-1,-1,-1,-1
603,4.2027,3.0329,3.0804,3.1152,3.1296,3.0531,-1,3.4413,3.0665,3.0325,-1,-1,-1,-1,-1,-1,-1,-1,-1,-1
604,4.2644,3.0329,3.0809,3.1158,3.1296,3.0531,-1,3.4413,3.0665,3.0325,-1,-1,-1,-1,-1,-1,-1,-1,-1,-1
605,4.2857,3.0329,3.0809,3.1158,3.1296,3.0531,-1,3.4425,3.0665,3.0325,-1,-1,-1,-1,-1,-1,-1,-1,-1,-1
606,4.289,3.0329,3.0809,3.1163,3.1296,3.0531,-1,3.4425,3.067,3.0325,-1,-1,-1,-1,-1,-1,-1,-1,-1,-1
607,4.295,3.0329,3.0809,3.1163,3.1302,3.0531,-1,3.4437,3.0675,3.0325,-1,-1,-1,-1,-1,-1,-1,-1,-1,-1
608,4.301,3.0334,3.0809,3.1163,3.1308,3.0531,-1,3.4461,3.0675,3.0325,-1,-1,-1,-1,-1,-1,-1,-1,-1,-1
609,4.342,3.0334,3.0809,3.1163,3.1308,3.0531,-1,3.4461,3.0675,3.0329,-1,-1,-1,-1,-1,-1,-1,-1,-1,-1
610,4.3726,3.0339,3.0809,3.1169,3.1314,3.0535,-1,3.4461,3.0675,3.0329,-1,-1,-1,-1,-1,-1,-1,-1,-1,-1
611,4.3726,3.0339,3.0814,3.1169,3.1319,3.0535,-1,3.4461,3.0675,3.0329,-1,-1,-1,-1,-1,-1,-1,-1,-1,-1
612,4.3726,3.0348,3.0814,3.1169,3.1319,3.0545,-1,3.4473,3.0675,3.0334,-1,-1,-1,-1,-1,-1,-1,-1,-1,-1
613,4.3778,3.0348,3.0814,3.1175,3.1319,3.0545,-1,3.451,3.0675,3.0334,-1,-1,-1,-1,-1,-1,-1,-1,-1,-1
614,4.3979,3.0348,3.0814,3.118,3.1337,3.0545,-1,3.4535,3.0675,3.0334,-1,-1,-1,-1,-1,-1,-1,-1,-1,-1
615,4.4342,3.0348,3.0814,3.118,3.1337,3.055,-1,3.4535,3.0675,3.0339,-1,-1,-1,-1,-1,-1,-1,-1,-1,-1
616,4.4609,3.0353,3.0814,3.118,3.1337,3.055,-1,3.4559,3.068,3.0339,-1,-1,-1,-1,-1,-1,-1,-1,-1,-1
617,4.4634,3.0353,3.082,3.118,3.1337,3.055,-1,3.4559,3.068,3.0339,-1,-1,-1,-1,-1,-1,-1,-1,-1,-1
618,4.5031,3.0353,3.082,3.118,3.1337,3.055,-1,3.4559,3.0685,3.0339,-1,-1,-1,-1,-1,-1,-1,-1,-1,-1
619,4.5031,3.0353,3.082,3.1198,3.1337,3.055,-1,3.4572,3.0685,3.0339,-1,-1,-1,-1,-1,-1,-1,-1,-1,-1
620,4.5157,3.0353,3.082,3.1203,3.1337,3.0555,-1,3.4584,3.0685,3.0339,-1,-1,-1,-1,-1,-1,-1,-1,-1,-1
621,4.5214,3.0353,3.082,3.1203,3.1343,3.0555,-1,3.4597,3.0685,3.0339,-1,-1,-1,-1,-1,-1,-1,-1,-1,-1
622,4.5214,3.0357,3.082,3.1203,3.1343,3.056,-1,3.4597,3.0691,3.0339,-1,-1,-1,-1,-1,-1,-1,-1,-1,-1
623,4.5376,3.0357,3.0825,3.1203,3.1349,3.056,-1,3.4634,3.0691,3.0339,-1,-1,-1,-1,-1,-1,-1,-1,-1,-1
624,4.5391,3.0357,3.0825,3.1209,3.1355,3.0565,-1,3.4672,3.0691,3.0339,-1,-1,-1,-1,-1,-1,-1,-1,-1,-1
625,4.5406,3.0357,3.0825,3.1209,3.1355,3.0565,-1,3.4672,3.0701,3.0339,-1,-1,-1,-1,-1,-1,-1,-1,-1,-1
626,4.5421,3.0357,3.0825,3.1209,3.1355,3.0565,-1,3.4685,3.0701,3.0339,-1,-1,-1,-1,-1,-1,-1,-1,-1,-1
627,4.5622,3.0357,3.0825,3.1209,3.1361,3.0565,-1,3.4685,3.0701,3.0339,-1,-1,-1,-1,-1,-1,-1,-1,-1,-1
628,4.5686,3.0357,3.0825,3.1209,3.1361,3.0565,-1,3.4685,3.0701,3.0339,-1,-1,-1,-1,-1,-1,-1,-1,-1,-1
629,4.6038,3.0362,3.083,3.1209,3.1367,3.0575,-1,3.475,3.0701,3.0339,-1,-1,-1,-1,-1,-1,-1,-1,-1,-1
630,4.6108,3.0362,3.083,3.1215,3.1367,3.0575,-1,3.475,3.0701,3.0339,-1,-1,-1,-1,-1,-1,-1,-1,-1,-1
631,4.6108,3.0362,3.083,3.1215,3.1373,3.0575,-1,3.4763,3.0701,3.0339,-1,-1,-1,-1,-1,-1,-1,-1,-1,-1
632,4.6162,3.0362,3.0835,3.1221,3.1373,3.058,-1,3.4789,3.0701,3.0348,-1,-1,-1,-1,-1,-1,-1,-1,-1,-1
633,4.6364,3.0362,3.0835,3.1221,3.1373,3.0585,-1,3.4789,3.0701,3.0348,-1,-1,-1,-1,-1,-1,-1,-1,-1,-1
634,4.6364,3.0362,3.0835,3.1226,3.1373,3.0585,-1,3.4789,3.0701,3.0348,-1,-1,-1,-1,-1,-1,-1,-1,-1,-1
635,4.6364,3.0362,3.0835,3.1226,3.1373,3.0585,-1,3.4789,3.0701,3.0348,-1,-1,-1,-1,-1,-1,-1,-1,-1,-1
636,4.6364,3.0362,3.0835,3.1226,3.1391,3.059,-1,3.4789,3.0701,3.0348,-1,-1,-1,-1,-1,-1,-1,-1,-1,-1
637,4.6676,3.0362,3.0835,3.1226,3.1391,3.059,-1,3.4789,3.0701,3.0348,-1,-1,-1,-1,-1,-1,-1,-1,-1,-1
638,4.7747,3.0362,3.0835,3.1226,3.1391,3.059,-1,3.4802,3.0701,3.0353,-1,-1,-1,-1,-1,-1,-1,-1,-1,-1
639,4.7799,3.0362,3.0851,3.1226,3.1397,3.0595,-1,3.4828,3.0701,3.0353,-1,-1,-1,-1,-1,-1,-1,-1,-1,-1
640,4.8665,3.0372,3.0857,3.1226,3.1397,3.0595,-1,3.4828,3.0706,3.0353,-1,-1,-1,-1,-1,-1,-1,-1,-1,-1
641,4.8827,3.0372,3.0857,3.1226,3.1397,3.0595,-1,3.4828,3.0706,3.0353,-1,-1,-1,-1,-1,-1,-1,-1,-1,-1
642,4.9208,3.0372,3.0857,3.1226,3.1397,3.0595,-1,3.4855,3.0706,3.0357,-1,-1,-1,-1,-1,-1,-1,-1,-1,-1
643,4.9431,3.0372,3.0862,3.1226,3.1397,3.0595,-1,3.4855,3.0711,3.0357,-1,-1,-1,-1,-1,-1,-1,-1,-1,-1
644,4.9626,3.0372,3.0862,3.1226,3.1397,3.0605,-1,3.4868,3.0711,3.0357,-1,-1,-1,-1,-1,-1,-1,-1,-1,-1
645,4.9706,3.0376,3.0867,3.1226,3.1397,3.0605,-1,3.4868,3.0711,3.0357,-1,-1,-1,-1,-1,-1,-1,-1,-1,-1
646,4.9788,3.0376,3.0867,3.1226,3.1397,3.0605,-1,3.4868,3.0711,3.0357,-1,-1,-1,-1,-1,-1,-1,-1,-1,-1
647,4.9957,3.0376,3.0867,3.1232,3.1397,3.0605,-1,3.4868,3.0711,3.0357,-1,-1,-1,-1,-1,-1,-1,-1,-1,-1
648,4.9957,3.0376,3.0867,3.1244,3.1397,3.061,-1,3.4868,3.0711,3.0357,-1,-1,-1,-1,-1,-1,-1,-1,-1,-1
649,5.0227,3.0376,3.0867,3.1244,3.1397,3.061,-1,3.4895,3.0711,3.0357,-1,-1,-1,-1,-1,-1,-1,-1,-1,-1
650,5.0467,3.0376,3.0867,3.1249,3.1397,3.061,-1,3.4908,3.0711,3.0357,-1,-1,-1,-1,-1,-1,-1,-1,-1,-1
651,5.0788,3.0376,3.0867,3.1249,3.1397,3.0615,-1,3.4949,3.0716,3.0362,-1,-1,-1,-1,-1,-1,-1,-1,-1,-1
652,5.1135,3.0376,3.0867,3.1249,3.1397,3.0615,-1,3.4949,3.0716,3.0362,-1,-1,-1,-1,-1,-1,-1,-1,-1,-1
653,5.1361,3.0381,3.0867,3.1249,3.1397,3.062,-1,3.4962,3.0716,3.0362,-1,-1,-1,-1,-1,-1,-1,-1,-1,-1
654,5.2062,3.0381,3.0867,3.1255,3.1403,3.062,-1,3.4962,3.0721,3.0362,-1,-1,-1,-1,-1,-1,-1,-1,-1,-1
655,5.209,3.0386,3.0867,3.1261,3.1403,3.062,-1,3.4976,3.0721,3.0362,-1,-1,-1,-1,-1,-1,-1,-1,-1,-1
656,5.2168,3.0386,3.0872,3.1261,3.1403,3.062,-1,3.4989,3.0721,3.0362,-1,-1,-1,-1,-1,-1,-1,-1,-1,-1
657,5.4078,3.0386,3.0872,3.1261,3.1403,3.0625,-1,3.5003,3.0721,3.0372,-1,-1,-1,-1,-1,-1,-1,-1,-1,-1
658,5.4828,3.0386,3.0872,3.1261,3.1403,3.0625,-1,3.5003,3.0721,3.0372,-1,-1,-1,-1,-1,-1,-1,-1,-1,-1
659,5.5918,3.0386,3.0872,3.1267,3.1409,3.0625,-1,3.5045,3.0731,3.0372,-1,-1,-1,-1,-1,-1,-1,-1,-1,-1
660,5.6778,3.0386,3.0888,3.1273,3.1409,3.0625,-1,3.5045,3.0731,3.0372,-1,-1,-1,-1,-1,-1,-1,-1,-1,-1
661,5.7235,3.0386,3.0888,3.129,3.1415,3.0635,-1,3.5045,3.0731,3.0372,-1,-1,-1,-1,-1,-1,-1,-1,-1,-1
662,5.7932,3.0395,3.0894,3.129,3.1421,3.0635,-1,3.5045,3.0731,3.0372,-1,-1,-1,-1,-1,-1,-1,-1,-1,-1
663,5.7932,3.0395,3.0894,3.1296,3.1433,3.0635,-1,3.5045,3.0731,3.0372,-1,-1,-1,-1,-1,-1,-1,-1,-1,-1
664,-1,3.0395,3.0904,3.1308,3.1439,3.0635,-1,3.5072,3.0731,3.0372,-1,-1,-1,-1,-1,-1,-1,-1,-1,-1
665,-1,3.0395,3.0904,3.1308,3.1439,3.0635,-1,3.5114,3.0731,3.0376,-1,-1,-1,-1,-1,-1,-1,-1,-1,-1
666,-1,3.04,3.091,3.1308,3.1439,3.0635,-1,3.5129,3.0731,3.0376,-1,-1,-1,-1,-1,-1,-1,-1,-1,-1
667,-1,3.04,3.091,3.1308,3.1451,3.0635,-1,3.5143,3.0731,3.0376,-1,-1,-1,-1,-1,-1,-1,-1,-1,-1
668,-1,3.04,3.091,3.1308,3.1451,3.064,-1,3.5186,3.0737,3.0376,-1,-1,-1,-1,-1,-1,-1,-1,-1,-1
669,-1,3.04,3.091,3.1308,3.1457,3.0645,-1,3.5214,3.0737,3.0376,-1,-1,-1,-1,-1,-1,-1,-1,-1,-1
670,-1,3.04,3.091,3.1308,3.1457,3.0645,-1,3.5214,3.0737,3.0376,-1,-1,-1,-1,-1,-1,-1,-1,-1,-1
671,-1,3.04,3.0915,3.1308,3.1463,3.065,-1,3.5214,3.0742,3.0381,-1,-1,-1,-1,-1,-1,-1,-1,-1,-1
672,-1,3.04,3.0915,3.1308,3.1469,3.065,-1,3.5214,3.0742,3.0381,-1,-1,-1,-1,-1,-1,-1,-1,-1,-1
673,-1,3.04,3.0915,3.1308,3.1469,3.065,-1,3.5229,3.0742,3.0381,-1,-1,-1,-1,-1,-1,-1,-1,-1,-1
674,-1,3.04,3.0915,3.1308,3.1469,3.065,-1,3.5258,3.0742,3.0386,-1,-1,-1,-1,-1,-1,-1,-1,-1,-1
675,-1,3.0405,3.0926,3.1308,3.1469,3.065,-1,3.5258,3.0742,3.0386,-1,-1,-1,-1,-1,-1,-1,-1,-1,-1
676,-1,3.0405,3.0926,3.1308,3.1475,3.065,-1,3.5258,3.0742,3.0386,-1,-1,-1,-1,-1,-1,-1,-1,-1,-1
677,-1,3.0405,3.0926,3.1314,3.1475,3.0655,-1,3.5258,3.0747,3.0386,-1,-1,-1,-1,-1,-1,-1,-1,-1,-1
678,-1,3.0405,3.0926,3.1314,3.1481,3.0655,-1,3.5302,3.0747,3.0386,-1,-1,-1,-1,-1,-1,-1,-1,-1,-1
679,-1,3.0405,3.0931,3.1319,3.1481,3.0655,-1,3.5346,3.0747,3.0395,-1,-1,-1,-1,-1,-1,-1,-1,-1,-1
680,-1,3.0405,3.0931,3.1319,3.1487,3.0655,-1,3.5361,3.0747,3.0395,-1,-1,-1,-1,-1,-1,-1,-1,-1,-1
681,-1,3.041,3.0937,3.1319,3.1494,3.0655,-1,3.5361,3.0747,3.04,-1,-1,-1,-1,-1,-1,-1,-1,-1,-1
682,-1,3.041,3.0937,3.1325,3.1494,3.0665,-1,3.5361,3.0747,3.04,-1,-1,-1,-1,-1,-1,-1,-1,-1,-1
683,-1,3.041,3.0937,3.1325,3.15,3.067,-1,3.5391,3.0747,3.0405,-1,-1,-1,-1,-1,-1,-1,-1,-1,-1
684,-1,3.0419,3.0947,3.1337,3.15,3.067,-1,3.5436,3.0747,3.0405,-1,-1,-1,-1,-1,-1,-1,-1,-1,-1
685,-1,3.0419,3.0947,3.1337,3.15,3.067,-1,3.5436,3.0752,3.0405,-1,-1,-1,-1,-1,-1,-1,-1,-1,-1
686,-1,3.0419,3.0947,3.1337,3.15,3.067,-1,3.5452,3.0752,3.0405,-1,-1,-1,-1,-1,-1,-1,-1,-1,-1
687,-1,3.0419,3.0953,3.1337,3.1506,3.0675,-1,3.5482,3.0752,3.041,-1,-1,-1,-1,-1,-1,-1,-1,-1,-1
688,-1,3.0419,3.0953,3.1349,3.1506,3.0675,-1,3.5544,3.0752,3.041,-1,-1,-1,-1,-1,-1,-1,-1,-1,-1
689,-1,3.0419,3.0953,3.1349,3.1512,3.0675,-1,3.556,3.0757,3.041,-1,-1,-1,-1,-1,-1,-1,-1,-1,-1
690,-1,3.0419,3.0953,3.1349,3.1518,3.0675,-1,3.556,3.0757,3.041,-1,-1,-1,-1,-1,-1,-1,-1,-1,-1
691,-1,3.0424,3.0953,3.1349,3.1518,3.0675,-1,3.5591,3.0757,3.041,-1,-1,-1,-1,-1,-1,-1,-1,-1,-1
692,-1,3.0424,3.0953,3.1349,3.1518,3.0675,-1,3.5607,3.0757,3.041,-1,-1,-1,-1,-1,-1,-1,-1,-1,-1
693,-1,3.0424,3.0969,3.1349,3.1518,3.0675,-1,3.5638,3.0768,3.041,-1,-1,-1,-1,-1,-1,-1,-1,-1,-1
694,-1,3.0424,3.0969,3.1355,3.1518,3.068,-1,3.5638,3.0768,3.041,-1,-1,-1,-1,-1,-1,-1,-1,-1,-1
695,-1,3.0424,3.0969,3.1361,3.1518,3.068,-1,3.5638,3.0768,3.041,-1,-1,-1,-1,-1,-1,-1,-1,-1,-1
696,-1,3.0429,3.0975,3.1361,3.1518,3.068,-1,3.5654,3.0768,3.041,-1,-1,-1,-1,-1,-1,-1,-1,-1,-1
697,-1,3.0429,3.0975,3.1367,3.153,3.0685,-1,3.567,3.0768,3.0419,-1,-1,-1,-1,-1,-1,-1,-1,-1,-1
698,-1,3.0429,3.0975,3.1367,3.1537,3.0691,-1,3.5686,3.0768,3.0419,-1,-1,-1,-1,-1,-1,-1,-1,-1,-1
699,-1,3.0434,3.098,3.1367,3.1537,3.0691,-1,3.5702,3.0773,3.0424,-1,-1,-1,-1,-1,-1,-1,-1,-1,-1
700,-1,3.0434,3.098,3.1367,3.1537,3.0691,-1,3.5702,3.0773,3.0424,-1,-1,-1,-1,-1,-1,-1,-1,-1,-1
701,-1,3.0443,3.0985,3.1367,3.1537,3.0701,-1,3.5719,3.0773,3.0424,-1,-1,-1,-1,-1,-1,-1,-1,-1,-1
702,-1,3.0443,3.0985,3.1373,3.1543,3.0701,-1,3.5719,3.0773,3.0429,-1,-1,-1,-1,-1,-1,-1,-1,-1,-1
703,-1,3.0443,3.0985,3.1373,3.1543,3.0701,-1,3.5719,3.0778,3.0429,-1,-1,-1,-1,-1,-1,-1,-1,-1,-1
704,-1,3.0443,3.0985,3.1379,3.1543,3.0701,-1,3.5735,3.0778,3.0429,-1,-1,-1,-1,-1,-1,-1,-1,-1,-1
705,-1,3.0443,3.0985,3.1379,3.1549,3.0701,-1,3.5751,3.0778,3.0434,-1,-1,-1,-1,-1,-1,-1,-1,-1,-1
706,-1,3.0443,3.0985,3.1379,3.1549,3.0706,-1,3.5768,3.0778,3.0434,-1,-1,-1,-1,-1,-1,-1,-1,-1,-1
707,-1,3.0443,3.0985,3.1379,3.1549,3.0706,-1,3.5784,3.0783,3.0434,-1,-1,-1,-1,-1,-1,-1,-1,-1,-1
708,-1,3.0448,3.0991,3.1391,3.1561,3.0706,-1,3.5784,3.0783,3.0434,-1,-1,-1,-1,-1,-1,-1,-1,-1,-1
709,-1,3.0448,3.0991,3.1391,3.1561,3.0706,-1,3.58,3.0783,3.0434,-1,-1,-1,-1,-1,-1,-1,-1,-1,-1
710,-1,3.0448,3.0991,3.1391,3.1568,3.0711,-1,3.5834,3.0783,3.0434,-1,-1,-1,-1,-1,-1,-1,-1,-1,-1
711,-1,3.0448,3.0991,3.1391,3.158,3.0711,-1,3.5867,3.0783,3.0434,-1,-1,-1,-1,-1,-1,-1,-1,-1,-1
712,-1,3.0448,3.0991,3.1391,3.158,3.0711,-1,3.5901,3.0783,3.0434,-1,-1,-1,-1,-1,-1,-1,-1,-1,-1
713,-1,3.0448,3.0991,3.1391,3.158,3.0711,-1,3.5901,3.0783,3.0434,-1,-1,-1,-1,-1,-1,-1,-1,-1,-1
714,-1,3.0448,3.0991,3.1391,3.1586,3.0711,-1,3.5918,3.0788,3.0434,-1,-1,-1,-1,-1,-1,-1,-1,-1,-1
715,-1,3.0453,3.0996,3.1391,3.1586,3.0716,-1,3.5935,3.0788,3.0434,-1,-1,-1,-1,-1,-1,-1,-1,-1,-1
716,-1,3.0453,3.0996,3.1391,3.1593,3.0716,-1,3.5952,3.0788,3.0434,-1,-1,-1,-1,-1,-1,-1,-1,-1,-1
717,-1,3.0453,3.0996,3.1391,3.1593,3.0716,-1,3.5952,3.0788,3.0434,-1,-1,-1,-1,-1,-1,-1,-1,-1,-1
718,-1,3.0453,3.0996,3.1391,3.1593,3.0721,-1,3.5952,3.0788,3.0443,-1,-1,-1,-1,-1,-1,-1,-1,-1,-1
719,-1,3.0453,3.0996,3.1397,3.1593,3.0721,-1,3.6003,3.0788,3.0443,-1,-1,-1,-1,-1,-1,-1,-1,-1,-1
720,-1,3.0458,3.1002,3.1397,3.1593,3.0721,-1,3.6003,3.0788,3.0443,-1,-1,-1,-1,-1,-1,-1,-1,-1,-1
721,-1,3.0458,3.1002,3.1403,3.1599,3.0721,-1,3.6091,3.0794,3.0443,-1,-1,-1,-1,-1,-1,-1,-1,-1,-1
722,-1,3.0458,3.1002,3.1403,3.1605,3.0731,-1,3.6108,3.0794,3.0448,-1,-1,-1,-1,-1,-1,-1,-1,-1,-1
723,-1,3.0458,3.1007,3.1403,3.1605,3.0731,-1,3.6108,3.0794,3.0448,-1,-1,-1,-1,-1,-1,-1,-1,-1,-1
724,-1,3.0467,3.1007,3.1415,3.1605,3.0731,-1,3.6126,3.0794,3.0448,-1,-1,-1,-1,-1,-1,-1,-1,-1,-1
725,-1,3.0467,3.1007,3.1433,3.1612,3.0731,-1,3.6126,3.0794,3.0453,-1,-1,-1,-1,-1,-1,-1,-1,-1,-1
726,-1,3.0467,3.1007,3.1433,3.1612,3.0731,-1,3.6126,3.0794,3.0453,-1,-1,-1,-1,-1,-1,-1,-1,-1,-1
727,-1,3.0467,3.1018,3.1433,3.1612,3.0731,-1,3.6144,3.0804,3.0453,-1,-1,-1,-1,-1,-1,-1,-1,-1,-1
728,-1,3.0467,3.1018,3.1439,3.1618,3.0731,-1,3.618,3.0804,3.0453,-1,-1,-1,-1,-1,-1,-1,-1,-1,-1
729,-1,3.0467,3.1018,3.1439,3.1618,3.0731,-1,3.6216,3.0804,3.0453,-1,-1,-1,-1,-1,-1,-1,-1,-1,-1
730,-1,3.0467,3.1024,3.1439,3.1618,3.0731,-1,3.6216,3.0804,3.0458,-1,-1,-1,-1,-1,-1,-1,-1,-1,-1
731,-1,3.0472,3.1024,3.1439,3.1624,3.0731,-1,3.6253,3.0804,3.0458,-1,-1,-1,-1,-1,-1,-1,-1,-1,-1
732,-1,3.0472,3.1029,3.1439,3.1624,3.0731,-1,3.6253,3.0804,3.0458,-1,-1,-1,-1,-1,-1,-1,-1,-1,-1
733,-1,3.0472,3.1029,3.1439,3.1624,3.0731,-1,3.6289,3.0804,3.0458,-1,-1,-1,-1,-1,-1,-1,-1,-1,-1
734,-1,3.0477,3.1035,3.1445,3.163,3.0737,-1,3.6289,3.0809,3.0467,-1,-1,-1,-1,-1,-1,-1,-1,-1,-1
735,-1,3.0477,3.1035,3.1451,3.1637,3.0737,-1,3.6289,3.0809,3.0467,-1,-1,-1,-1,-1,-1,-1,-1,-1,-1
736,-1,3.0477,3.1035,3.1457,3.1637,3.0737,-1,3.6289,3.0809,3.0467,-1,-1,-1,-1,-1,-1,-1,-1,-1,-1
737,-1,3.0477,3.104,3.1457,3.1637,3.0737,-1,3.6308,3.0814,3.0467,-1,-1,-1,-1,-1,-1,-1,-1,-1,-1
738,-1,3.0477,3.104,3.1463,3.1637,3.0737,-1,3.6326,3.0814,3.0472,-1,-1,-1,-1,-1,-1,-1,-1,-1,-1
739,-1,3.0477,3.1046,3.1463,3.1643,3.0737,-1,3.6383,3.0814,3.0472,-1,-1,-1,-1,-1,-1,-1,-1,-1,-1
740,-1,3.0477,3.1046,3.1463,3.1649,3.0737,-1,3.6421,3.0814,3.0472,-1,-1,-1,-1,-1,-1,-1,-1,-1,-1
741,-1,3.0477,3.1046,3.1469,3.1656,3.0737,-1,3.644,3.0814,3.0472,-1,-1,-1,-1,-1,-1,-1,-1,-1,-1
742,-1,3.0477,3.1046,3.1475,3.1656,3.0737,-1,3.6459,3.0814,3.0477,-1,-1,-1,-1,-1,-1,-1,-1,-1,-1
743,-1,3.0477,3.1046,3.1475,3.1656,3.0742,-1,3.6459,3.0814,3.0477,-1,-1,-1,-1,-1,-1,-1,-1,-1,-1
744,-1,3.0477,3.1046,3.1475,3.1656,3.0742,-1,3.6459,3.0814,3.0477,-1,-1,-1,-1,-1,-1,-1,-1,-1,-1
745,-1,3.0477,3.1046,3.1475,3.1656,3.0742,-1,3.6478,3.082,3.0477,-1,-1,-1,-1,-1,-1,-1,-1,-1,-1
746,-1,3.0477,3.1046,3.1487,3.1656,3.0742,-1,3.6498,3.082,3.0477,-1,-1,-1,-1,-1,-1,-1,-1,-1,-1
747,-1,3.0482,3.1046,3.1487,3.1656,3.0747,-1,3.6517,3.082,3.0482,-1,-1,-1,-1,-1,-1,-1,-1,-1,-1
748,-1,3.0482,3.1046,3.1494,3.1656,3.0747,-1,3.6517,3.082,3.0482,-1,-1,-1,-1,-1,-1,-1,-1,-1,-1
749,-1,3.0482,3.1046,3.1494,3.1656,3.0747,-1,3.6556,3.082,3.0482,-1,-1,-1,-1,-1,-1,-1,-1,-1,-1
750,-1,3.0491,3.1046,3.1494,3.1656,3.0747,-1,3.6556,3.082,3.0482,-1,-1,-1,-1,-1,-1,-1,-1,-1,-1
751,-1,3.0491,3.1051,3.15,3.1662,3.0747,-1,3.6576,3.0825,3.0482,-1,-1,-1,-1,-1,-1,-1,-1,-1,-1
752,-1,3.0491,3.1051,3.15,3.1662,3.0747,-1,3.6615,3.0825,3.0482,-1,-1,-1,-1,-1,-1,-1,-1,-1,-1
753,-1,3.0491,3.1051,3.15,3.1669,3.0747,-1,3.6635,3.0825,3.0482,-1,-1,-1,-1,-1,-1,-1,-1,-1,-1
754,-1,3.0491,3.1051,3.1506,3.1675,3.0752,-1,3.6635,3.0825,3.0482,-1,-1,-1,-1,-1,-1,-1,-1,-1,-1
755,-1,3.0491,3.1057,3.1506,3.1675,3.0752,-1,3.6676,3.0825,3.0491,-1,-1,-1,-1,-1,-1,-1,-1,-1,-1
756,-1,3.0491,3.1057,3.1506,3.1675,3.0752,-1,3.6716,3.083,3.0496,-1,-1,-1,-1,-1,-1,-1,-1,-1,-1
757,-1,3.0491,3.1057,3.1506,3.1675,3.0752,-1,3.6757,3.0835,3.0496,-1,-1,-1,-1,-1,-1,-1,-1,-1,-1
758,-1,3.0491,3.1057,3.1512,3.1681,3.0757,-1,3.6819,3.0835,3.0496,-1,-1,-1,-1,-1,-1,-1,-1,-1,-1
759,-1,3.0491,3.1062,3.1512,3.1681,3.0757,-1,3.6819,3.0846,3.0501,-1,-1,-1,-1,-1,-1,-1,-1,-1,-1
760,-1,3.0496,3.1062,3.1518,3.1681,3.0757,-1,3.6819,3.0851,3.0501,-1,-1,-1,-1,-1,-1,-1,-1,-1,-1
761,-1,3.0496,3.1062,3.1518,3.1688,3.0757,-1,3.684,3.0851,3.0501,-1,-1,-1,-1,-1,-1,-1,-1,-1,-1
762,-1,3.0496,3.1073,3.1524,3.1688,3.0757,-1,3.6861,3.0851,3.0501,-1,-1,-1,-1,-1,-1,-1,-1,-1,-1
763,-1,3.0501,3.1073,3.1524,3.1688,3.0757,-1,3.6882,3.0857,3.0501,-1,-1,-1,-1,-1,-1,-1,-1,-1,-1
764,-1,3.0501,3.1073,3.1524,3.1694,3.0757,-1,3.6904,3.0857,3.0501,-1,-1,-1,-1,-1,-1,-1,-1,-1,-1
765,-1,3.0501,3.1073,3.1524,3.1694,3.0757,-1,3.6904,3.0857,3.0501,-1,-1,-1,-1,-1,-1,-1,-1,-1,-1
766,-1,3.0501,3.1073,3.1524,3.1694,3.0768,-1,3.6925,3.0857,3.0501,-1,-1,-1,-1,-1,-1,-1,-1,-1,-1
767,-1,3.0501,3.1079,3.1524,3.1701,3.0768,-1,3.6968,3.0857,3.0501,-1,-1,-1,-1,-1,-1,-1,-1,-1,-1
768,-1,3.0501,3.1079,3.1524,3.1701,3.0768,-1,3.699,3.0857,3.0506,-1,-1,-1,-1,-1,-1,-1,-1,-1,-1
769,-1,3.0501,3.1079,3.1537,3.1707,3.0768,-1,3.699,3.0862,3.0506,-1,-1,-1,-1,-1,-1,-1,-1,-1,-1
770,-1,3.0506,3.1079,3.1537,3.1707,3.0768,-1,3.699,3.0862,3.0506,-1,-1,-1,-1,-1,-1,-1,-1,-1,-1
771,-1,3.0506,3.1079,3.1537,3.1707,3.0768,-1,3.699,3.0867,3.0506,-1,-1,-1,-1,-1,-1,-1,-1,-1,-1
772,-1,3.0511,3.1079,3.1537,3.1713,3.0768,-1,3.7011,3.0867,3.0506,-1,-1,-1,-1,-1,-1,-1,-1,-1,-1
773,-1,3.0511,3.1079,3.1537,3.1713,3.0768,-1,3.7011,3.0867,3.0506,-1,-1,-1,-1,-1,-1,-1,-1,-1,-1
774,-1,3.0521,3.1079,3.1537,3.1726,3.0768,-1,3.71,3.0867,3.0506,-1,-1,-1,-1,-1,-1,-1,-1,-1,-1
775,-1,3.0521,3.1085,3.1543,3.1733,3.0773,-1,3.71,3.0867,3.0511,-1,-1,-1,-1,-1,-1,-1,-1,-1,-1
776,-1,3.0521,3.1085,3.1549,3.1746,3.0778,-1,3.71,3.0867,3.0511,-1,-1,-1,-1,-1,-1,-1,-1,-1,-1
777,-1,3.0521,3.1085,3.1549,3.1752,3.0778,-1,3.71,3.0883,3.0511,-1,-1,-1,-1,-1,-1,-1,-1,-1,-1
778,-1,3.0521,3.1085,3.1555,3.1752,3.0778,-1,3.71,3.0883,3.0521,-1,-1,-1,-1,-1,-1,-1,-1,-1,-1
779,-1,3.0526,3.1085,3.1555,3.1752,3.0778,-1,3.71,3.0883,3.0521,-1,-1,-1,-1,-1,-1,-1,-1,-1,-1
780,-1,3.0526,3.1085,3.1555,3.1752,3.0778,-1,3.7144,3.0883,3.0521,-1,-1,-1,-1,-1,-1,-1,-1,-1,-1
781,-1,3.0531,3.1085,3.1555,3.1752,3.0778,-1,3.7144,3.0888,3.0521,-1,-1,-1,-1,-1,-1,-1,-1,-1,-1
782,-1,3.0531,3.1085,3.1555,3.1752,3.0783,-1,3.7167,3.0888,3.0521,-1,-1,-1,-1,-1,-1,-1,-1,-1,-1
783,-1,3.0531,3.1085,3.1561,3.1752,3.0783,-1,3.719,3.0888,3.0521,-1,-1,-1,-1,-1,-1,-1,-1,-1,-1
784,-1,3.0531,3.1085,3.1568,3.1759,3.0783,-1,3.719,3.0894,3.0521,-1,-1,-1,-1,-1,-1,-1,-1,-1,-1
785,-1,3.0531,3.1085,3.1568,3.1759,3.0783,-1,3.7258,3.0894,3.0521,-1,-1,-1,-1,-1,-1,-1,-1,-1,-1
786,-1,3.0531,3.1085,3.1568,3.1759,3.0783,-1,3.7305,3.0894,3.0521,-1,-1,-1,-1,-1,-1,-1,-1,-1,-1
787,-1,3.0531,3.1085,3.1574,3.1765,3.0788,-1,3.7352,3.0894,3.0526,-1,-1,-1,-1,-1,-1,-1,-1,-1,-1
788,-1,3.0531,3.1085,3.1574,3.1765,3.0788,-1,3.7399,3.0894,3.0526,-1,-1,-1,-1,-1,-1,-1,-1,-1,-1
789,-1,3.0531,3.1085,3.1586,3.1765,3.0788,-1,3.7423,3.0899,3.0526,-1,-1,-1,-1,-1,-1,-1,-1,-1,-1
790,-1,3.0531,3.1085,3.1586,3.1772,3.0788,-1,3.7447,3.0899,3.0526,-1,-1,-1,-1,-1,-1,-1,-1,-1,-1
791,-1,3.0531,3.1085,3.1586,3.1772,3.0788,-1,3.7545,3.0899,3.0531,-1,-1,-1,-1,-1,-1,-1,-1,-1,-1
792,-1,3.0531,3.1085,3.1593,3.1778,3.0788,-1,3.762,3.0899,3.0531,-1,-1,-1,-1,-1,-1,-1,-1,-1,-1
793,-1,3.0531,3.1085,3.1593,3.1778,3.0788,-1,3.767,3.0899,3.0531,-1,-1,-1,-1,-1,-1,-1,-1,-1,-1
794,-1,3.0531,3.1085,3.1593,3.1778,3.0788,-1,3.7696,3.0899,3.0531,-1,-1,-1,-1,-1,-1,-1,-1,-1,-1
795,-1,3.0531,3.1085,3.1593,3.1778,3.0788,-1,3.7747,3.0904,3.0531,-1,-1,-1,-1,-1,-1,-1,-1,-1,-1
796,-1,3.0531,3.1085,3.1599,3.1778,3.0794,-1,3.7747,3.0904,3.0531,-1,-1,-1,-1,-1,-1,-1,-1,-1,-1
797,-1,3.0531,3.1085,3.1612,3.1785,3.0794,-1,3.7747,3.0904,3.0531,-1,-1,-1,-1,-1,-1,-1,-1,-1,-1
798,-1,3.0531,3.1085,3.1612,3.1785,3.0794,-1,3.7878,3.091,3.0531,-1,-1,-1,-1,-1,-1,-1,-1,-1,-1
799,-1,3.0531,3.1085,3.1618,3.1785,3.0794,-1,3.7878,3.091,3.0531,-1,-1,-1,-1,-1,-1,-1,-1,-1,-1
800,-1,3.0531,3.109,3.1618,3.1791,3.0804,-1,3.7959,3.091,3.0531,-1,-1,-1,-1,-1,-1,-1,-1,-1,-1
801,-1,3.0531,3.109,3.1618,3.1791,3.0804,-1,3.7959,3.091,3.0531,-1,-1,-1,-1,-1,-1,-1,-1,-1,-1
802,-1,3.0531,3.1096,3.1624,3.1791,3.0804,-1,3.7986,3.091,3.0531,-1,-1,-1,-1,-1,-1,-1,-1,-1,-1
803,-1,3.0531,3.1096,3.163,3.1791,3.0804,-1,3.8041,3.0915,3.0531,-1,-1,-1,-1,-1,-1,-1,-1,-1,-1
804,-1,3.0531,3.1101,3.1637,3.1791,3.0804,-1,3.8097,3.0915,3.0531,-1,-1,-1,-1,-1,-1,-1,-1,-1,-1
805,-1,3.0531,3.1101,3.1637,3.1791,3.0804,-1,3.8097,3.0915,3.0531,-1,-1,-1,-1,-1,-1,-1,-1,-1,-1
806,-1,3.0531,3.1101,3.1637,3.1791,3.0809,-1,3.8097,3.0915,3.0531,-1,-1,-1,-1,-1,-1,-1,-1,-1,-1
807,-1,3.0531,3.1107,3.1643,3.1791,3.0809,-1,3.8153,3.0915,3.0531,-1,-1,-1,-1,-1,-1,-1,-1,-1,-1
808,-1,3.0531,3.1107,3.1649,3.1791,3.0814,-1,3.8153,3.0926,3.0531,-1,-1,-1,-1,-1,-1,-1,-1,-1,-1
809,-1,3.0531,3.1107,3.1656,3.1791,3.0814,-1,3.8182,3.0926,3.0531,-1,-1,-1,-1,-1,-1,-1,-1,-1,-1
810,-1,3.0531,3.1107,3.1656,3.1798,3.0814,-1,3.8239,3.0926,3.0531,-1,-1,-1,-1,-1,-1,-1,-1,-1,-1
811,-1,3.0531,3.1107,3.1662,3.1798,3.0814,-1,3.8239,3.0926,3.0531,-1,-1,-1,-1,-1,-1,-1,-1,-1,-1
812,-1,3.0531,3.1107,3.1662,3.1811,3.0814,-1,3.8268,3.0931,3.0531,-1,-1,-1,-1,-1,-1,-1,-1,-1,-1
813,-1,3.0531,3.1107,3.1662,3.1811,3.082,-1,3.8268,3.0931,3.0531,-1,-1,-1,-1,-1,-1,-1,-1,-1,-1
814,-1,3.0531,3.1107,3.1662,3.1818,3.082,-1,3.8268,3.0931,3.0531,-1,-1,-1,-1,-1,-1,-1,-1,-1,-1
815,-1,3.0531,3.1113,3.1662,3.1818,3.082,-1,3.8356,3.0931,3.0531,-1,-1,-1,-1,-1,-1,-1,-1,-1,-1
816,-1,3.0531,3.1118,3.1662,3.1818,3.082,-1,3.8356,3.0931,3.0531,-1,-1,-1,-1,-1,-1,-1,-1,-1,-1
817,-1,3.0531,3.1118,3.1662,3.1818,3.082,-1,3.8416,3.0937,3.0531,-1,-1,-1,-1,-1,-1,-1,-1,-1,-1
818,-1,3.0531,3.1118,3.1662,3.1824,3.0825,-1,3.8416,3.0937,3.0531,-1,-1,-1,-1,-1,-1,-1,-1,-1,-1
819,-1,3.0531,3.1118,3.1662,3.1824,3.0825,-1,3.8416,3.0937,3.0531,-1,-1,-1,-1,-1,-1,-1,-1,-1,-1
820,-1,3.0531,3.1118,3.1669,3.1824,3.0825,-1,3.8447,3.0937,3.0531,-1,-1,-1,-1,-1,-1,-1,-1,-1,-1
821,-1,3.0531,3.1118,3.1669,3.1824,3.0825,-1,3.8477,3.0937,3.0531,-1,-1,-1,-1,-1,-1,-1,-1,-1,-1
822,-1,3.0531,3.1118,3.1669,3.1824,3.083,-1,3.8508,3.0937,3.0531,-1,-1,-1,-1,-1,-1,-1,-1,-1,-1
823,-1,3.0531,3.1118,3.1669,3.1831,3.083,-1,3.8539,3.0942,3.0531,-1,-1,-1,-1,-1,-1,-1,-1,-1,-1
824,-1,3.0535,3.1124,3.1675,3.1831,3.0835,-1,3.8539,3.0942,3.0531,-1,-1,-1,-1,-1,-1,-1,-1,-1,-1
825,-1,3.0535,3.1124,3.1675,3.1831,3.0835,-1,3.8633,3.0942,3.0535,-1,-1,-1,-1,-1,-1,-1,-1,-1,-1
826,-1,3.0535,3.1124,3.1675,3.1838,3.0835,-1,3.8633,3.0942,3.0535,-1,-1,-1,-1,-1,-1,-1,-1,-1,-1
827,-1,3.0535,3.1135,3.1675,3.1844,3.0835,-1,3.8633,3.0947,3.0535,-1,-1,-1,-1,-1,-1,-1,-1,-1,-1
828,-1,3.0535,3.1135,3.1675,3.1871,3.0835,-1,3.8633,3.0947,3.0535,-1,-1,-1,-1,-1,-1,-1,-1,-1,-1
829,-1,3.0545,3.1135,3.1675,3.1871,3.0835,-1,3.8633,3.0947,3.0535,-1,-1,-1,-1,-1,-1,-1,-1,-1,-1
830,-1,3.0545,3.1141,3.1675,3.1871,3.0846,-1,3.8827,3.0947,3.0545,-1,-1,-1,-1,-1,-1,-1,-1,-1,-1
831,-1,3.0545,3.1141,3.1675,3.1871,3.0846,-1,3.8894,3.0947,3.0545,-1,-1,-1,-1,-1,-1,-1,-1,-1,-1
832,-1,3.0545,3.1146,3.1675,3.1871,3.0846,-1,3.8894,3.0947,3.0545,-1,-1,-1,-1,-1,-1,-1,-1,-1,-1
833,-1,3.0545,3.1146,3.1675,3.1871,3.0846,-1,3.8928,3.0953,3.0545,-1,-1,-1,-1,-1,-1,-1,-1,-1,-1
834,-1,3.0545,3.1146,3.1675,3.1871,3.0851,-1,3.8928,3.0953,3.0545,-1,-1,-1,-1,-1,-1,-1,-1,-1,-1
835,-1,3.0545,3.1152,3.1675,3.1904,3.0851,-1,3.8962,3.0953,3.0545,-1,-1,-1,-1,-1,-1,-1,-1,-1,-1
836,-1,3.0545,3.1158,3.1675,3.1904,3.0851,-1,3.9031,3.0958,3.0545,-1,-1,-1,-1,-1,-1,-1,-1,-1,-1
837,-1,3.0545,3.1163,3.1675,3.1911,3.0851,-1,3.9066,3.0958,3.0545,-1,-1,-1,-1,-1,-1,-1,-1,-1,-1
838,-1,3.0545,3.1163,3.1675,3.1911,3.0857,-1,3.9101,3.0958,3.0545,-1,-1,-1,-1,-1,-1,-1,-1,-1,-1
839,-1,3.0545,3.1163,3.1675,3.1918,3.0857,-1,3.9101,3.0958,3.0545,-1,-1,-1,-1,-1,-1,-1,-1,-1,-1
840,-1,3.0545,3.1169,3.1675,3.1918,3.0857,-1,3.9101,3.0958,3.0545,-1,-1,-1,-1,-1,-1,-1,-1,-1,-1
841,-1,3.0545,3.1169,3.1675,3.1925,3.0862,-1,3.9136,3.0958,3.0545,-1,-1,-1,-1,-1,-1,-1,-1,-1,-1
842,-1,3.0545,3.1169,3.1675,3.1925,3.0862,-1,3.9136,3.0958,3.0545,-1,-1,-1,-1,-1,-1,-1,-1,-1,-1
843,-1,3.0545,3.1169,3.1675,3.1925,3.0862,-1,3.9281,3.0969,3.0545,-1,-1,-1,-1,-1,-1,-1,-1,-1,-1
844,-1,3.0545,3.1175,3.1675,3.1925,3.0862,-1,3.9281,3.0969,3.0545,-1,-1,-1,-1,-1,-1,-1,-1,-1,-1
845,-1,3.0545,3.1175,3.1675,3.1931,3.0862,-1,3.9318,3.0975,3.0545,-1,-1,-1,-1,-1,-1,-1,-1,-1,-1
846,-1,3.0545,3.1175,3.1675,3.1931,3.0862,-1,3.9355,3.0975,3.0545,-1,-1,-1,-1,-1,-1,-1,-1,-1,-1
847,-1,3.0545,3.1175,3.1675,3.1931,3.0862,-1,3.9431,3.0975,3.0545,-1,-1,-1,-1,-1,-1,-1,-1,-1,-1
848,-1,3.0545,3.1175,3.1675,3.1931,3.0862,-1,3.9431,3.098,3.0545,-1,-1,-1,-1,-1,-1,-1,-1,-1,-1
849,-1,3.0545,3.1175,3.1688,3.1938,3.0862,-1,3.9469,3.098,3.0545,-1,-1,-1,-1,-1,-1,-1,-1,-1,-1
850,-1,3.0545,3.1175,3.1688,3.1938,3.0862,-1,3.9469,3.098,3.0545,-1,-1,-1,-1,-1,-1,-1,-1,-1,-1
851,-1,3.0545,3.1175,3.1688,3.1938,3.0862,-1,3.9469,3.098,3.0545,-1,-1,-1,-1,-1,-1,-1,-1,-1,-1
852,-1,3.0545,3.1175,3.1688,3.1945,3.0867,-1,3.9547,3.0985,3.0545,-1,-1,-1,-1,-1,-1,-1,-1,-1,-1
853,-1,3.055,3.1175,3.1688,3.1945,3.0867,-1,3.9586,3.0985,3.0545,-1,-1,-1,-1,-1,-1,-1,-1,-1,-1
854,-1,3.055,3.1175,3.1688,3.1952,3.0867,-1,3.9626,3.0985,3.0545,-1,-1,-1,-1,-1,-1,-1,-1,-1,-1
855,-1,3.055,3.118,3.1694,3.1952,3.0872,-1,3.9626,3.0985,3.0545,-1,-1,-1,-1,-1,-1,-1,-1,-1,-1
856,-1,3.055,3.118,3.1694,3.1959,3.0872,-1,3.9747,3.0985,3.0545,-1,-1,-1,-1,-1,-1,-1,-1,-1,-1
857,-1,3.0555,3.118,3.1694,3.1959,3.0872,-1,3.9788,3.0985,3.0545,-1,-1,-1,-1,-1,-1,-1,-1,-1,-1
858,-1,3.0555,3.118,3.1694,3.1965,3.0883,-1,3.983,3.0991,3.055,-1,-1,-1,-1,-1,-1,-1,-1,-1,-1
859,-1,3.0555,3.1186,3.1694,3.1965,3.0883,-1,3.9872,3.0991,3.055,-1,-1,-1,-1,-1,-1,-1,-1,-1,-1
860,-1,3.0555,3.1198,3.1701,3.1965,3.0883,-1,3.9914,3.0991,3.055,-1,-1,-1,-1,-1,-1,-1,-1,-1,-1
861,-1,3.0555,3.1198,3.1701,3.1965,3.0883,-1,4.0052,3.0991,3.055,-1,-1,-1,-1,-1,-1,-1,-1,-1,-1
862,-1,3.056,3.1198,3.1713,3.1972,3.0883,-1,4.0052,3.0991,3.055,-1,-1,-1,-1,-1,-1,-1,-1,-1,-1
863,-1,3.056,3.1198,3.1726,3.1979,3.0888,-1,4.0052,3.0991,3.055,-1,-1,-1,-1,-1,-1,-1,-1,-1,-1
864,-1,3.056,3.1203,3.1733,3.1979,3.0894,-1,4.0052,3.0991,3.0555,-1,-1,-1,-1,-1,-1,-1,-1,-1,-1
865,-1,3.056,3.1215,3.1733,3.1986,3.0894,-1,4.0052,3.0991,3.056,-1,-1,-1,-1,-1,-1,-1,-1,-1,-1
866,-1,3.056,3.1215,3.1733,3.1986,3.0894,-1,4.007,3.0991,3.056,-1,-1,-1,-1,-1,-1,-1,-1,-1,-1
867,-1,3.0565,3.1215,3.1739,3.1986,3.0899,-1,4.0123,3.0991,3.056,-1,-1,-1,-1,-1,-1,-1,-1,-1,-1
868,-1,3.0565,3.1215,3.1739,3.1986,3.0899,-1,4.0123,3.0996,3.0565,-1,-1,-1,-1,-1,-1,-1,-1,-1,-1
869,-1,3.0565,3.1215,3.1739,3.1986,3.0899,-1,4.0123,3.0996,3.0565,-1,-1,-1,-1,-1,-1,-1,-1,-1,-1
870,-1,3.0565,3.1215,3.1739,3.1986,3.0904,-1,4.0182,3.0996,3.0565,-1,-1,-1,-1,-1,-1,-1,-1,-1,-1
871,-1,3.0565,3.1215,3.1739,3.2,3.0904,-1,4.0182,3.0996,3.0565,-1,-1,-1,-1,-1,-1,-1,-1,-1,-1
872,-1,3.0565,3.1215,3.1739,3.2007,3.0904,-1,4.0182,3.0996,3.0575,-1,-1,-1,-1,-1,-1,-1,-1,-1,-1
873,-1,3.0565,3.1215,3.1746,3.2007,3.0904,-1,4.0315,3.0996,3.0575,-1,-1,-1,-1,-1,-1,-1,-1,-1,-1
874,-1,3.0565,3.1215,3.1746,3.2007,3.0904,-1,4.0343,3.0996,3.0575,-1,-1,-1,-1,-1,-1,-1,-1,-1,-1
875,-1,3.0575,3.1221,3.1752,3.2013,3.091,-1,4.041,3.0996,3.0575,-1,-1,-1,-1,-1,-1,-1,-1,-1,-1
876,-1,3.0575,3.1221,3.1752,3.202,3.091,-1,4.0429,3.0996,3.0575,-1,-1,-1,-1,-1,-1,-1,-1,-1,-1
877,-1,3.0575,3.1221,3.1752,3.202,3.091,-1,4.0453,3.1002,3.0575,-1,-1,-1,-1,-1,-1,-1,-1,-1,-1
878,-1,3.0575,3.1221,3.1752,3.202,3.091,-1,4.0453,3.1002,3.0575,-1,-1,-1,-1,-1,-1,-1,-1,-1,-1
879,-1,3.0575,3.1226,3.1759,3.202,3.091,-1,4.0506,3.1002,3.0575,-1,-1,-1,-1,-1,-1,-1,-1,-1,-1
880,-1,3.0575,3.1226,3.1759,3.202,3.091,-1,4.0799,3.1002,3.0575,-1,-1,-1,-1,-1,-1,-1,-1,-1,-1
881,-1,3.0575,3.1226,3.1759,3.202,3.091,-1,4.0825,3.1007,3.0575,-1,-1,-1,-1,-1,-1,-1,-1,-1,-1
882,-1,3.0575,3.1226,3.1759,3.202,3.0915,-1,4.0825,3.1007,3.0575,-1,-1,-1,-1,-1,-1,-1,-1,-1,-1
883,-1,3.058,3.1226,3.1765,3.202,3.0915,-1,4.0846,3.1007,3.0575,-1,-1,-1,-1,-1,-1,-1,-1,-1,-1
884,-1,3.058,3.1226,3.1785,3.202,3.0915,-1,4.0851,3.1007,3.0575,-1,-1,-1,-1,-1,-1,-1,-1,-1,-1
885,-1,3.058,3.1226,3.1791,3.202,3.0915,-1,4.0926,3.1007,3.0575,-1,-1,-1,-1,-1,-1,-1,-1,-1,-1
886,-1,3.0585,3.1226,3.1791,3.202,3.0915,-1,4.0958,3.1007,3.0575,-1,-1,-1,-1,-1,-1,-1,-1,-1,-1
887,-1,3.0585,3.1226,3.1791,3.202,3.0915,-1,4.0975,3.1007,3.0575,-1,-1,-1,-1,-1,-1,-1,-1,-1,-1
888,-1,3.0585,3.1226,3.1798,3.202,3.0915,-1,4.0975,3.1018,3.058,-1,-1,-1,-1,-1,-1,-1,-1,-1,-1
889,-1,3.0585,3.1232,3.1798,3.202,3.0915,-1,4.1018,3.1018,3.058,-1,-1,-1,-1,-1,-1,-1,-1,-1,-1
890,-1,3.0585,3.1232,3.1798,3.202,3.0926,-1,4.104,3.1018,3.058,-1,-1,-1,-1,-1,-1,-1,-1,-1,-1
891,-1,3.0585,3.1232,3.1798,3.202,3.0931,-1,4.1057,3.1018,3.058,-1,-1,-1,-1,-1,-1,-1,-1,-1,-1
892,-1,3.0585,3.1238,3.1805,3.2027,3.0937,-1,4.1079,3.1018,3.058,-1,-1,-1,-1,-1,-1,-1,-1,-1,-1
893,-1,3.059,3.1244,3.1805,3.2027,3.0937,-1,4.109,3.1018,3.0585,-1,-1,-1,-1,-1,-1,-1,-1,-1,-1
894,-1,3.059,3.1244,3.1811,3.2027,3.0937,-1,4.1232,3.1029,3.0585,-1,-1,-1,-1,-1,-1,-1,-1,-1,-1
895,-1,3.059,3.1249,3.1818,3.2027,3.0937,-1,4.1232,3.1029,3.0585,-1,-1,-1,-1,-1,-1,-1,-1,-1,-1
896,-1,3.059,3.1249,3.1818,3.2027,3.0937,-1,4.1238,3.1029,3.0585,-1,-1,-1,-1,-1,-1,-1,-1,-1,-1
897,-1,3.059,3.1249,3.1818,3.2027,3.0937,-1,4.1373,3.1035,3.0585,-1,-1,-1,-1,-1,-1,-1,-1,-1,-1
898,-1,3.059,3.1255,3.1818,3.2027,3.0937,-1,4.1421,3.1035,3.0585,-1,-1,-1,-1,-1,-1,-1,-1,-1,-1
899,-1,3.059,3.1255,3.1824,3.2034,3.0942,-1,4.1561,3.1035,3.059,-1,-1,-1,-1,-1,-1,-1,-1,-1,-1
900,-1,3.059,3.1255,3.1824,3.2034,3.0942,-1,4.1785,3.1035,3.059,-1,-1,-1,-1,-1,-1,-1,-1,-1,-1
901,-1,3.0595,3.1255,3.1824,3.2034,3.0942,-1,4.1805,3.104,3.059,-1,-1,-1,-1,-1,-1,-1,-1,-1,-1
902,-1,3.0595,3.1255,3.1838,3.2041,3.0942,-1,4.1838,3.104,3.059,-1,-1,-1,-1,-1,-1,-1,-1,-1,-1
903,-1,3.0595,3.1261,3.1838,3.2041,3.0942,-1,4.1838,3.104,3.059,-1,-1,-1,-1,-1,-1,-1,-1,-1,-1
904,-1,3.0595,3.1261,3.1844,3.2041,3.0947,-1,4.1898,3.104,3.059,-1,-1,-1,-1,-1,-1,-1,-1,-1,-1
905,-1,3.0595,3.1267,3.1844,3.2055,3.0953,-1,4.1938,3.104,3.059,-1,-1,-1,-1,-1,-1,-1,-1,-1,-1
906,-1,3.0605,3.1273,3.1851,3.2055,3.0953,-1,4.2118,3.104,3.059,-1,-1,-1,-1,-1,-1,-1,-1,-1,-1
907,-1,3.0605,3.1273,3.1851,3.2062,3.0953,-1,4.2182,3.104,3.0595,-1,-1,-1,-1,-1,-1,-1,-1,-1,-1
908,-1,3.0605,3.1273,3.1858,3.2062,3.0969,-1,4.2269,3.1046,3.0595,-1,-1,-1,-1,-1,-1,-1,-1,-1,-1
909,-1,3.0605,3.1273,3.1858,3.2062,3.0969,-1,4.2269,3.1046,3.0595,-1,-1,-1,-1,-1,-1,-1,-1,-1,-1
910,-1,3.0605,3.1273,3.1864,3.2062,3.0969,-1,4.2269,3.1046,3.0595,-1,-1,-1,-1,-1,-1,-1,-1,-1,-1
911,-1,3.0605,3.1284,3.1871,3.2069,3.0969,-1,4.2269,3.1046,3.0605,-1,-1,-1,-1,-1,-1,-1,-1,-1,-1
912,-1,3.0605,3.1284,3.1871,3.2069,3.0969,-1,4.2277,3.1046,3.0605,-1,-1,-1,-1,-1,-1,-1,-1,-1,-1
913,-1,3.061,3.1284,3.1871,3.2069,3.0969,-1,4.2291,3.1046,3.061,-1,-1,-1,-1,-1,-1,-1,-1,-1,-1
914,-1,3.061,3.1284,3.1878,3.2069,3.0969,-1,4.2418,3.1046,3.061,-1,-1,-1,-1,-1,-1,-1,-1,-1,-1
915,-1,3.061,3.1284,3.1878,3.2076,3.0969,-1,4.262,3.1051,3.061,-1,-1,-1,-1,-1,-1,-1,-1,-1,-1
916,-1,3.061,3.1284,3.1878,3.2076,3.0969,-1,4.2815,3.1051,3.061,-1,-1,-1,-1,-1,-1,-1,-1,-1,-1
917,-1,3.0615,3.129,3.1878,3.2076,3.0969,-1,4.2865,3.1057,3.061,-1,-1,-1,-1,-1,-1,-1,-1,-1,-1
918,-1,3.0615,3.129,3.1884,3.2083,3.0969,-1,4.2882,3.1057,3.061,-1,-1,-1,-1,-1,-1,-1,-1,-1,-1
919,-1,3.0615,3.129,3.1884,3.2083,3.0975,-1,4.2967,3.1057,3.0615,-1,-1,-1,-1,-1,-1,-1,-1,-1,-1
920,-1,3.0615,3.1296,3.1891,3.2083,3.0975,-1,4.3116,3.1057,3.0615,-1,-1,-1,-1,-1,-1,-1,-1,-1,-1
921,-1,3.0615,3.1296,3.1898,3.2083,3.0975,-1,4.3143,3.1057,3.0615,-1,-1,-1,-1,-1,-1,-1,-1,-1,-1
922,-1,3.062,3.1296,3.1904,3.209,3.0975,-1,4.3478,3.1057,3.0615,-1,-1,-1,-1,-1,-1,-1,-1,-1,-1
923,-1,3.062,3.1296,3.1904,3.2097,3.0975,-1,4.3497,3.1062,3.062,-1,-1,-1,-1,-1,-1,-1,-1,-1,-1
924,-1,3.062,3.1296,3.1904,3.2097,3.0975,-1,4.3655,3.1062,3.062,-1,-1,-1,-1,-1,-1,-1,-1,-1,-1
925,-1,3.062,3.1296,3.1911,3.2104,3.098,-1,4.3696,3.1062,3.062,-1,-1,-1,-1,-1,-1,-1,-1,-1,-1
926,-1,3.0625,3.1296,3.1918,3.2104,3.098,-1,4.3716,3.1062,3.062,-1,-1,-1,-1,-1,-1,-1,-1,-1,-1
927,-1,3.0625,3.1296,3.1918,3.2104,3.098,-1,4.3726,3.1062,3.062,-1,-1,-1,-1,-1,-1,-1,-1,-1,-1
928,-1,3.0625,3.1302,3.1918,3.2104,3.098,-1,4.3809,3.1073,3.062,-1,-1,-1,-1,-1,-1,-1,-1,-1,-1
929,-1,3.0625,3.1302,3.1918,3.2111,3.098,-1,4.3809,3.1073,3.0625,-1,-1,-1,-1,-1,-1,-1,-1,-1,-1
930,-1,3.0625,3.1308,3.1925,3.2118,3.098,-1,4.3883,3.1073,3.0625,-1,-1,-1,-1,-1,-1,-1,-1,-1,-1
931,-1,3.0635,3.1308,3.1931,3.2118,3.098,-1,4.4271,3.1073,3.0625,-1,-1,-1,-1,-1,-1,-1,-1,-1,-1
932,-1,3.0635,3.1308,3.1931,3.2118,3.0985,-1,4.4283,3.1073,3.0635,-1,-1,-1,-1,-1,-1,-1,-1,-1,-1
933,-1,3.0635,3.1314,3.1938,3.2125,3.0985,-1,4.4413,3.1073,3.0635,-1,-1,-1,-1,-1,-1,-1,-1,-1,-1
934,-1,3.0635,3.1314,3.1938,3.2132,3.0985,-1,4.4449,3.1073,3.0635,-1,-1,-1,-1,-1,-1,-1,-1,-1,-1
935,-1,3.0635,3.1314,3.1945,3.214,3.0985,-1,4.4486,3.1073,3.064,-1,-1,-1,-1,-1,-1,-1,-1,-1,-1
936,-1,3.064,3.1314,3.1945,3.214,3.0991,-1,4.4498,3.1073,3.064,-1,-1,-1,-1,-1,-1,-1,-1,-1,-1
937,-1,3.0645,3.1319,3.1959,3.214,3.0991,-1,4.4634,3.1079,3.064,-1,-1,-1,-1,-1,-1,-1,-1,-1,-1
938,-1,3.0645,3.1319,3.1959,3.214,3.0991,-1,4.4634,3.1079,3.064,-1,-1,-1,-1,-1,-1,-1,-1,-1,-1
939,-1,3.065,3.1325,3.1959,3.2154,3.0991,-1,4.4724,3.1079,3.064,-1,-1,-1,-1,-1,-1,-1,-1,-1,-1
940,-1,3.065,3.1325,3.1959,3.2154,3.0991,-1,4.4802,3.1079,3.0645,-1,-1,-1,-1,-1,-1,-1,-1,-1,-1
941,-1,3.065,3.1325,3.1959,3.2161,3.0991,-1,4.4802,3.1079,3.0645,-1,-1,-1,-1,-1,-1,-1,-1,-1,-1
942,-1,3.0655,3.1331,3.1959,3.2161,3.0991,-1,4.4962,3.1079,3.0645,-1,-1,-1,-1,-1,-1,-1,-1,-1,-1
943,-1,3.0655,3.1331,3.1959,3.2168,3.0991,-1,4.5157,3.1085,3.0645,-1,-1,-1,-1,-1,-1,-1,-1,-1,-1
944,-1,3.0655,3.1331,3.1959,3.2168,3.0991,-1,4.5157,3.1085,3.0645,-1,-1,-1,-1,-1,-1,-1,-1,-1,-1
945,-1,3.0655,3.1331,3.1965,3.2168,3.0991,-1,4.5498,3.1085,3.065,-1,-1,-1,-1,-1,-1,-1,-1,-1,-1
946,-1,3.0655,3.1343,3.1965,3.2168,3.0991,-1,4.5622,3.1085,3.065,-1,-1,-1,-1,-1,-1,-1,-1,-1,-1
947,-1,3.0665,3.1343,3.1972,3.2168,3.0991,-1,4.6108,3.1085,3.0655,-1,-1,-1,-1,-1,-1,-1,-1,-1,-1
948,-1,3.0665,3.1343,3.1972,3.2168,3.0996,-1,4.6108,3.1085,3.0655,-1,-1,-1,-1,-1,-1,-1,-1,-1,-1
949,-1,3.067,3.1343,3.1972,3.2168,3.0996,-1,4.6108,3.1085,3.0655,-1,-1,-1,-1,-1,-1,-1,-1,-1,-1
950,-1,3.067,3.1349,3.1986,3.2168,3.0996,-1,4.6126,3.1085,3.0655,-1,-1,-1,-1,-1,-1,-1,-1,-1,-1
951,-1,3.067,3.1349,3.1986,3.2175,3.0996,-1,4.6308,3.1085,3.0655,-1,-1,-1,-1,-1,-1,-1,-1,-1,-1
952,-1,3.067,3.1349,3.1993,3.2175,3.0996,-1,4.6517,3.1085,3.0655,-1,-1,-1,-1,-1,-1,-1,-1,-1,-1
953,-1,3.067,3.1349,3.2007,3.2175,3.0996,-1,4.6904,3.1085,3.0665,-1,-1,-1,-1,-1,-1,-1,-1,-1,-1
954,-1,3.0675,3.1349,3.2007,3.2175,3.0996,-1,4.7375,3.1085,3.0665,-1,-1,-1,-1,-1,-1,-1,-1,-1,-1
955,-1,3.0675,3.1355,3.2007,3.2175,3.0996,-1,4.7375,3.1085,3.0665,-1,-1,-1,-1,-1,-1,-1,-1,-1,-1
956,-1,3.0675,3.1355,3.2007,3.2182,3.0996,-1,4.7399,3.1085,3.0665,-1,-1,-1,-1,-1,-1,-1,-1,-1,-1
957,-1,3.0675,3.1355,3.2013,3.219,3.0996,-1,4.7471,3.1085,3.0665,-1,-1,-1,-1,-1,-1,-1,-1,-1,-1
958,-1,3.0675,3.1355,3.2013,3.219,3.0996,-1,4.7471,3.1085,3.067,-1,-1,-1,-1,-1,-1,-1,-1,-1,-1
959,-1,3.0675,3.1361,3.2013,3.2197,3.0996,-1,4.7959,3.1085,3.067,-1,-1,-1,-1,-1,-1,-1,-1,-1,-1
960,-1,3.0675,3.1361,3.2013,3.2204,3.0996,-1,4.8013,3.1085,3.0675,-1,-1,-1,-1,-1,-1,-1,-1,-1,-1
961,-1,3.0675,3.1361,3.2013,3.2204,3.0996,-1,4.8013,3.1085,3.0675,-1,-1,-1,-1,-1,-1,-1,-1,-1,-1
962,-1,3.068,3.1361,3.2013,3.2211,3.0996,-1,4.8069,3.1085,3.0675,-1,-1,-1,-1,-1,-1,-1,-1,-1,-1
963,-1,3.068,3.1361,3.2013,3.224,3.0996,-1,4.8069,3.109,3.0675,-1,-1,-1,-1,-1,-1,-1,-1,-1,-1
964,-1,3.068,3.1361,3.2013,3.224,3.0996,-1,4.8153,3.109,3.0675,-1,-1,-1,-1,-1,-1,-1,-1,-1,-1
965,-1,3.068,3.1367,3.2013,3.224,3.0996,-1,4.8153,3.109,3.0675,-1,-1,-1,-1,-1,-1,-1,-1,-1,-1
966,-1,3.0685,3.1367,3.202,3.224,3.0996,-1,4.8386,3.109,3.0675,-1,-1,-1,-1,-1,-1,-1,-1,-1,-1
967,-1,3.0685,3.1367,3.202,3.224,3.0996,-1,4.8477,3.109,3.0675,-1,-1,-1,-1,-1,-1,-1,-1,-1,-1
968,-1,3.0685,3.1367,3.202,3.224,3.0996,-1,4.857,3.109,3.0675,-1,-1,-1,-1,-1,-1,-1,-1,-1,-1
969,-1,3.0685,3.1367,3.202,3.224,3.0996,-1,4.8928,3.109,3.0675,-1,-1,-1,-1,-1,-1,-1,-1,-1,-1
970,-1,3.0685,3.1373,3.202,3.2248,3.1002,-1,4.8928,3.109,3.0675,-1,-1,-1,-1,-1,-1,-1,-1,-1,-1
971,-1,3.0685,3.1373,3.2027,3.2248,3.1002,-1,4.9245,3.109,3.0675,-1,-1,-1,-1,-1,-1,-1,-1,-1,-1
972,-1,3.0685,3.1379,3.2034,3.2248,3.1002,-1,4.9586,3.109,3.0675,-1,-1,-1,-1,-1,-1,-1,-1,-1,-1
973,-1,3.0685,3.1379,3.2034,3.2248,3.1002,-1,4.9626,3.109,3.0675,-1,-1,-1,-1,-1,-1,-1,-1,-1,-1
974,-1,3.0691,3.1379,3.2041,3.2248,3.1007,-1,4.9788,3.109,3.0675,-1,-1,-1,-1,-1,-1,-1,-1,-1,-1
975,-1,3.0691,3.1391,3.2048,3.2248,3.1018,-1,5.0292,3.1096,3.0675,-1,-1,-1,-1,-1,-1,-1,-1,-1,-1
976,-1,3.0691,3.1391,3.2048,3.2248,3.1018,-1,5.0315,3.1101,3.0675,-1,-1,-1,-1,-1,-1,-1,-1,-1,-1
977,-1,3.0701,3.1391,3.2048,3.2248,3.1018,-1,5.0353,3.1101,3.0675,-1,-1,-1,-1,-1,-1,-1,-1,-1,-1
978,-1,3.0701,3.1391,3.2048,3.2277,3.1024,-1,5.1079,3.1101,3.0675,-1,-1,-1,-1,-1,-1,-1,-1,-1,-1
979,-1,3.0701,3.1391,3.2048,3.2277,3.1024,-1,5.1249,3.1101,3.0675,-1,-1,-1,-1,-1,-1,-1,-1,-1,-1
980,-1,3.0701,3.1391,3.2048,3.2284,3.1024,-1,5.2284,3.1101,3.0675,-1,-1,-1,-1,-1,-1,-1,-1,-1,-1
981,-1,3.0706,3.1391,3.2048,3.2291,3.1024,-1,5.2741,3.1101,3.0675,-1,-1,-1,-1,-1,-1,-1,-1,-1,-1
982,-1,3.0706,3.1391,3.2048,3.2299,3.1024,-1,5.2741,3.1101,3.0675,-1,-1,-1,-1,-1,-1,-1,-1,-1,-1
983,-1,3.0706,3.1391,3.2048,3.2306,3.1024,-1,5.2741,3.1101,3.0675,-1,-1,-1,-1,-1,-1,-1,-1,-1,-1
984,-1,3.0706,3.1397,3.2048,3.2336,3.1029,-1,5.3497,3.1101,3.068,-1,-1,-1,-1,-1,-1,-1,-1,-1,-1
985,-1,3.0706,3.1397,3.2048,3.2336,3.1029,-1,5.4976,3.1101,3.068,-1,-1,-1,-1,-1,-1,-1,-1,-1,-1
986,-1,3.0706,3.1397,3.2048,3.2343,3.1029,-1,5.5969,3.1101,3.068,-1,-1,-1,-1,-1,-1,-1,-1,-1,-1
987,-1,3.0706,3.1397,3.2048,3.2343,3.1029,-1,5.762,3.1101,3.068,-1,-1,-1,-1,-1,-1,-1,-1,-1,-1
988,-1,3.0706,3.1397,3.2048,3.2343,3.1029,-1,5.8153,3.1107,3.068,-1,-1,-1,-1,-1,-1,-1,-1,-1,-1
989,-1,3.0706,3.1397,3.2048,3.2343,3.1029,-1,7.2388,3.1107,3.068,-1,-1,-1,-1,-1,-1,-1,-1,-1,-1
990,-1,3.0711,3.1397,3.2055,3.2373,3.1029,-1,-1,3.1107,3.0685,-1,-1,-1,-1,-1,-1,-1,-1,-1,-1
991,-1,3.0711,3.1403,3.2055,3.2373,3.1029,-1,-1,3.1107,3.0685,-1,-1,-1,-1,-1,-1,-1,-1,-1,-1
992,-1,3.0711,3.1403,3.2055,3.2388,3.1029,-1,-1,3.1107,3.0685,-1,-1,-1,-1,-1,-1,-1,-1,-1,-1
993,-1,3.0711,3.1403,3.2062,3.2388,3.1035,-1,-1,3.1113,3.0685,-1,-1,-1,-1,-1,-1,-1,-1,-1,-1
994,-1,3.0716,3.1403,3.2069,3.2388,3.1035,-1,-1,3.1113,3.0685,-1,-1,-1,-1,-1,-1,-1,-1,-1,-1
995,-1,3.0716,3.1403,3.2069,3.2396,3.1035,-1,-1,3.1113,3.0691,-1,-1,-1,-1,-1,-1,-1,-1,-1,-1
996,-1,3.0721,3.1403,3.2076,3.2396,3.1035,-1,-1,3.1113,3.0691,-1,-1,-1,-1,-1,-1,-1,-1,-1,-1
997,-1,3.0721,3.1409,3.2083,3.2403,3.1035,-1,-1,3.1113,3.0691,-1,-1,-1,-1,-1,-1,-1,-1,-1,-1
998,-1,3.0721,3.1409,3.209,3.2411,3.104,-1,-1,3.1118,3.0691,-1,-1,-1,-1,-1,-1,-1,-1,-1,-1
999,-1,3.0721,3.1415,3.209,3.2411,3.104,-1,-1,3.1118,3.0691,-1,-1,-1,-1,-1,-1,-1,-1,-1,-1
1000,-1,3.0721,3.1415,3.209,3.2411,3.104,-1,-1,3.1118,3.0701,-1,-1,-1,-1,-1,-1,-1,-1,-1,-1
1001,-1,3.0721,3.1415,3.209,3.2411,3.104,-1,-1,3.1124,3.0701,-1,-1,-1,-1,-1,-1,-1,-1,-1,-1
1002,-1,3.0731,3.1421,3.2097,3.2411,3.104,-1,-1,3.1124,3.0701,-1,-1,-1,-1,-1,-1,-1,-1,-1,-1
1003,-1,3.0731,3.1421,3.2097,3.2418,3.104,-1,-1,3.1135,3.0701,-1,-1,-1,-1,-1,-1,-1,-1,-1,-1
1004,-1,3.0737,3.1421,3.2097,3.2418,3.1046,-1,-1,3.1135,3.0701,-1,-1,-1,-1,-1,-1,-1,-1,-1,-1
1005,-1,3.0737,3.1421,3.2104,3.2418,3.1046,-1,-1,3.1135,3.0706,-1,-1,-1,-1,-1,-1,-1,-1,-1,-1
1006,-1,3.0737,3.1421,3.2104,3.2418,3.1046,-1,-1,3.1141,3.0706,-1,-1,-1,-1,-1,-1,-1,-1,-1,-1
1007,-1,3.0737,3.1421,3.2104,3.2418,3.1046,-1,-1,3.1141,3.0706,-1,-1,-1,-1,-1,-1,-1,-1,-1,-1
1008,-1,3.0737,3.1421,3.2104,3.2418,3.1046,-1,-1,3.1141,3.0706,-1,-1,-1,-1,-1,-1,-1,-1,-1,-1
1009,-1,3.0737,3.1427,3.2104,3.2418,3.1046,-1,-1,3.1141,3.0706,-1,-1,-1,-1,-1,-1,-1,-1,-1,-1
1010,-1,3.0737,3.1433,3.2104,3.2418,3.1046,-1,-1,3.1141,3.0711,-1,-1,-1,-1,-1,-1,-1,-1,-1,-1
1011,-1,3.0737,3.1433,3.2104,3.2426,3.1046,-1,-1,3.1141,3.0711,-1,-1,-1,-1,-1,-1,-1,-1,-1,-1
1012,-1,3.0737,3.1433,3.2104,3.2426,3.1046,-1,-1,3.1146,3.0711,-1,-1,-1,-1,-1,-1,-1,-1,-1,-1
